Mercury 0.549647 0.818393 -0.186724 0.946282 0.191204 -0.818527 -0.565411 -0.049595 0.163402 0.315679 -0.104827 0.487888 0.738011 0.141470 0.071237 0.222341 0.829370 -0.187427 -1.161779 -0.042361 -0.429620 1.588760 1.012106 -0.317677 -0.163283 -0.126237 0.018324 -0.315468 0.244046 0.316259 -0.955761 0.111567 -0.309595 0.201961 -0.070190 -0.150532 -0.080658 -0.231056 -0.270219 -0.918992 0.655847 1.020127 -0.468486 -0.152336 0.273737 -0.088336 -1.001596 0.515301 0.060262 0.448423 0.218977 -0.119934 -0.533805 -0.641280 -0.983671 -0.595517 0.612460 0.118342 0.696460 -0.474467 -0.868358 -0.139395 0.322324 0.597451 0.620138 -0.491305 -0.676058 0.721963 -0.200872 0.453715 1.018215 -0.753502 -0.324431 0.308326 -0.624506 0.478597 1.291268 0.361227 1.085587 -0.147503 0.382034 -0.259591 0.631390 0.024162 1.213444 -0.034550 -0.741434 -0.017457 0.800033 -0.145876 0.673975 -0.765899 0.711430 0.275769 1.661772 0.250705 -0.654880 -0.044094 -0.035448 0.371618 -1.270568 0.645010 0.264339 -0.310708 0.445744 -0.535747 -0.737425 -0.868552 -0.362313 -0.037371 0.602686 0.424422 -0.151516 0.016658 -0.247194 0.123758 -0.047018 1.364714 -0.298173 -0.654945 -0.188095 0.294264 -0.213982 -0.206289 -0.053327 0.552435 -1.302401 0.144240 0.948580 -0.462115 -0.530357 -0.764689 -0.761062 -0.881499 -0.253926 0.590040 0.402527 0.582444 -0.706086 -0.189873 0.931254 -0.572998 -0.364375 0.752452 0.424285 -0.032451 -0.512421 -1.409684 -0.103488 -0.296276 0.386693 -0.580972 1.190376 -0.762025 -0.826369 1.001364 0.567256 -0.056935 0.402044 -1.155634 0.567344 -0.269718 1.201798 -0.626214 0.495564 -0.281719 0.783869 -0.133772 0.429282 -0.790915 -1.300453 -0.558176 0.148963 -0.417991 0.213806 -0.176310 -0.945038 0.534150 -0.710047 0.500149 -0.047244 0.673114 0.102927 0.201261 0.220679 -0.302922 1.088981 0.586191 0.292676 0.791527 -0.157416 1.075320 0.601961 -0.036299 0.464393 0.112403 0.782938 -0.652226 -0.557072 -0.264784 0.245071 -0.731508 0.419197 0.011863 0.195066 -0.755681 0.241315 -0.241043 -0.050206 -0.641529 -1.499701 0.874387 1.110000 -0.428355 0.640656 -0.249605 0.994574 -0.121240 0.115854 0.316835 -0.100713 0.218227 0.030867 0.067158 -0.262217 -0.518441 -0.746936 -0.566906 -0.225024 0.375419 -0.502553 0.503847 -0.445014 -0.391435 0.640736 0.545174 0.344977 0.100186 -0.476036 0.134229 -0.178942 -0.115712 1.178771 0.220383 0.436871 0.037445 0.348855 -0.002260 -0.100851 -0.387382 -0.441037 0.434778 0.555755 -0.229814 0.745831 0.543248 -0.381407 -0.223893 0.192909 -0.083610 0.626367 0.548003 -0.179148 0.301135 0.381955 1.462751 -0.112301 0.344545 0.296066 0.742906 0.019253 -0.715763 0.407226 0.091599 -0.577817 0.101199 -0.423261 -0.079893 -0.565696 0.060149 -0.494284 0.390788 -0.256498 -0.607879 -0.191031 0.902873 -0.547431 0.623291 0.307903 -0.517829 0.514717 0.476789 0.510635 -1.348843 0.724453 -0.923295 -0.060907 0.000104 -1.228072 -0.439586
Bundesliga -0.242472 -0.651378 -0.009791 0.612546 -0.330187 -0.645023 0.166635 -0.364553 -0.307630 0.962319 1.339484 -0.695655 -1.025294 -0.747593 0.184417 -1.330558 0.609807 0.990430 0.361967 0.401873 -0.485796 1.056448 -0.157326 -0.564629 0.426161 0.728392 0.416460 0.002497 0.143016 0.649206 -0.196966 0.058757 -1.706839 -0.875881 -0.202390 0.042355 0.815236 -0.111307 0.154083 -0.228264 0.490277 1.074393 -0.106774 -0.229863 0.229242 0.115924 -1.166916 0.710548 0.119463 -0.145093 -0.711527 -0.556592 -0.862812 -0.704073 0.551439 0.070771 0.421478 -0.026836 0.013986 -1.014396 -0.298319 0.167659 -0.039912 -0.136047 0.251758 0.675459 -0.214280 1.089435 1.448379 -0.637940 -0.598108 -1.201451 -2.044006 -0.833116 -0.247448 -0.363211 -0.689132 -0.070905 -0.179442 0.224516 0.326006 -0.646909 -0.415535 -0.732876 -0.052987 1.008176 0.537213 -0.586808 0.335485 0.093919 0.191567 0.941836 -0.669315 -0.829280 -0.437677 -0.401308 0.248888 1.076138 -0.896160 0.920188 -0.151198 -0.109390 -1.448466 0.513870 -0.100890 -1.042269 -1.287342 -0.844104 -0.412929 1.044883 0.283329 -0.667185 -1.149529 0.282872 0.021583 -0.317257 0.224068 0.029990 0.508291 -0.099034 -0.276117 0.323202 0.126409 0.030979 1.046596 -0.819300 -0.554057 0.288269 -1.219485 -1.170153 -0.416739 -0.234354 0.119566 0.353910 -0.785798 -1.047861 -1.183632 0.991500 0.808170 0.433612 -0.444385 0.026870 0.882250 0.708049 0.497549 -0.374683 -0.040551 -0.218988 0.971630 0.504385 1.061479 -0.407685 0.117205 0.626110 0.680942 1.419198 -0.250199 -0.263382 0.273517 -0.100172 0.884958 -0.662928 0.615901 0.273957 -0.462280 -1.151393 0.021478 -0.132919 -0.005770 -0.111064 0.407949 -0.633815 -0.960705 0.076095 -1.474970 -0.237222 0.219286 -0.077579 -0.746659 -0.757041 -0.052260 -0.378324 0.663701 -0.661421 -0.570728 -0.430348 0.247979 0.064512 0.075238 1.163052 0.985795 -0.359349 0.027846 0.620980 -1.078901 0.504645 0.467091 0.620292 -0.552270 -0.001915 0.514829 -0.156279 0.395545 0.388761 -0.523965 -0.369871 -1.157878 0.477620 -0.477856 -0.364663 -0.337395 0.583460 -0.509883 0.407461 0.265022 0.330430 0.217691 -1.039255 -0.194803 -0.259605 -0.167156 1.746444 0.194128 -0.636979 -0.375301 -0.682300 -0.356417 0.320277 0.250983 0.397839 -0.039102 0.144998 -0.819449 0.723620 0.131288 0.221359 0.498589 0.809410 -0.544595 -0.058477 -0.078063 -0.244902 -0.407371 0.440241 -0.453062 -0.578021 0.112509 0.546839 -0.659422 1.127480 -0.418760 -0.617059 -0.172532 0.005053 -0.235084 0.118983 0.103073 -0.078215 0.347463 1.509650 0.024335 -0.057193 -0.539556 -0.396323 -0.981776 0.031091 0.611384 0.362828 0.834317 -0.199269 0.091823 0.073146 0.222045 0.486225 1.000103 -0.109983 1.093550 -0.386817 0.375125 1.234702 0.215988 1.035045 -0.038848 0.117585 -0.051771 -0.167427 -0.446020 -1.370309 -0.679953 0.987858 0.631140 -0.640111 -0.265036 1.188406 0.555619 -0.628456 -0.651137 -0.285552 0.159367 -0.186954
Porsche -0.308384 0.102227 -0.334163 0.210204 0.288765 -0.074289 0.084267 -0.441389 0.136020 -0.150591 0.370839 0.580170 0.706366 0.684263 0.225931 -0.183837 0.137571 0.232073 0.167066 -0.941912 -0.656082 0.775255 0.812530 -1.035002 1.276266 0.425648 0.053260 -0.642014 0.258454 0.270634 0.291216 -0.874105 -0.612238 -0.695213 -1.326178 -0.225422 -1.077944 1.449909 0.158451 0.147747 -0.956169 0.411094 0.507095 -0.187018 0.253843 -0.258570 -0.394224 0.259099 0.972781 0.589129 -0.041521 0.115392 0.098311 -0.225974 -0.311548 -0.784830 -0.280464 1.060327 -0.591930 -1.145709 0.462938 -0.519557 0.830826 0.340486 -0.147047 0.056917 0.369575 0.775787 0.561272 -0.000573 0.890403 -0.624752 0.275490 -0.315676 -0.328851 -0.603425 0.465107 -0.101923 0.100016 0.676647 0.370617 -0.688745 -0.867593 -0.890687 -0.220205 0.204759 -0.464933 -0.493894 0.166313 0.061875 -0.442852 0.153549 0.103298 -0.527471 0.066521 0.337714 0.320901 1.320714 -0.432783 -0.558476 0.907657 -0.627388 -0.326617 0.357895 -1.316709 -0.862023 -1.251583 -1.088550 -0.273686 -0.463419 -0.168305 0.375909 -0.385067 0.162198 -0.617385 0.346219 0.290224 -0.381541 0.083183 0.199962 -0.225002 -0.098559 0.069870 0.339418 0.905405 0.753888 -0.424416 -0.498288 0.307797 -0.060703 -0.401445 -0.236837 0.796490 -0.223941 0.397108 -0.170376 -0.755906 -0.632893 0.307264 0.054061 0.779020 -1.098503 -0.280158 -0.075918 0.377314 -0.403699 0.966882 -1.064082 -0.137166 -0.787270 -0.055894 0.844460 -0.483310 -0.140088 -0.004628 -0.384515 -0.340850 0.843738 0.287795 -0.396843 0.066935 -0.796774 0.062086 -0.242419 -0.459801 -0.011662 -0.067624 -0.145174 0.094797 -0.771948 -1.152174 -0.669914 -0.716761 -0.400281 -0.594835 -0.357028 -0.247628 0.570160 -1.161979 -0.530756 0.896202 0.441266 -0.239884 0.999824 -0.135310 -0.326560 0.300997 -0.731181 0.375484 0.310537 -0.496190 -0.077452 -0.064118 -0.999140 0.910431 0.217814 -0.135190 0.304138 -0.814787 -0.747735 0.181456 0.514552 0.439169 0.239795 0.698145 -0.599617 0.273085 -0.013537 -1.116766 1.022797 -0.700532 0.513364 -0.125924 0.025405 0.267858 -1.380869 0.023392 0.240729 -0.555506 -0.875017 -0.253156 0.183649 -0.682178 -0.366054 0.283771 0.185860 0.274811 -0.602983 -1.147048 0.156646 0.164104 0.392504 -0.106877 -0.090864 0.553335 -0.873160 0.634331 -0.233603 0.279604 -0.502004 0.193375 0.004685 -0.614393 -0.356269 -0.882679 -0.500959 -0.813270 1.021872 0.417441 0.665997 1.568174 -0.094686 0.820109 0.453275 0.599965 0.721552 0.446866 -0.304262 -0.576838 0.167934 -0.196203 -0.496083 0.142303 0.361209 -0.239956 0.288870 0.681906 0.528410 0.176735 0.750394 0.833607 0.784326 -0.367860 0.763619 0.499571 -0.415985 0.410713 0.165322 0.224926 0.019879 0.958663 -0.477675 -0.281093 0.140778 -0.488874 -0.067114 -0.411374 -0.124374 -0.087081 -0.663323 0.618537 -0.711904 0.676390 0.644596 -0.339464 0.033365 -0.491206 -0.880001 -0.873934 -0.002525
Moon 1.305518 0.684523 -0.529914 0.506231 0.143247 -0.360033 -0.240620 -0.764998 -0.058679 0.265049 -0.289407 0.359692 1.416068 -1.185496 0.207371 0.372128 -1.082690 0.654219 -0.290906 -0.396893 -0.532387 1.468108 1.172070 -0.073995 0.611926 -0.366827 0.315284 -0.326516 -0.161910 0.175349 0.038813 -0.027618 -0.292579 -0.861767 0.438726 -0.383117 0.707403 -0.126703 0.219354 -1.561616 -0.004979 0.490097 0.097151 0.368423 0.311572 -0.007005 -0.964872 1.182240 1.189392 -0.166231 1.210278 -0.205412 -0.486158 0.443434 -0.901798 -0.787326 0.310309 -0.069664 1.108273 -0.038528 -0.402597 -1.165664 0.427284 -0.928119 0.083647 0.312055 0.112323 0.337049 0.104092 0.553829 2.100900 0.091866 -1.112489 0.376139 0.241145 0.028859 0.845388 0.128291 0.919593 -0.165182 0.301159 -0.544507 -0.211813 -0.503232 1.258190 0.243709 0.306592 0.291481 1.190041 -0.087364 0.823731 -0.223704 0.014045 -0.481774 1.196188 -0.361582 -0.972587 0.126206 -0.507614 -0.552983 -1.654999 -0.266851 -0.086738 -0.168272 0.771499 -0.240280 -0.245885 -0.769666 -0.063422 0.817689 0.367161 -0.411167 -0.539106 0.087059 -0.234567 1.152667 -0.490130 0.789038 -1.247899 -0.518865 -0.068201 0.037583 -1.072062 -0.541325 -0.835146 0.457292 -0.730834 -0.007129 1.806973 0.466481 0.155333 0.601296 -2.100877 -0.638551 -1.017240 0.793777 0.577825 0.330972 -0.879718 1.676637 0.584773 -0.231449 -0.764039 0.507213 0.655490 0.645776 -0.020267 -0.797807 0.336956 0.043887 0.179308 -0.677672 0.350448 -0.098504 -0.369338 -0.015124 0.865998 -0.771344 0.271506 -2.055865 -0.375802 0.152715 0.660636 -1.028941 0.492236 -0.156870 -0.346730 -0.908534 -0.223573 -1.248943 -0.365834 -0.425056 0.202693 0.201235 -0.463511 0.389863 -0.714698 0.543199 0.510164 -0.766558 -0.965620 -0.180503 -0.272925 0.144430 0.295838 -0.222077 0.965783 0.125174 0.573444 0.234074 0.618349 0.530340 0.170128 0.060898 -0.530644 0.660892 -0.352184 -0.348860 -0.063284 0.491236 0.354043 -0.531742 0.716725 0.437832 0.233157 -1.129658 -0.059422 0.184631 -1.044399 -0.742941 -1.377291 0.442612 0.898402 0.151872 0.294959 0.217161 0.147259 -0.353190 0.586190 -0.001480 -0.027424 -0.861038 0.290436 0.025181 -0.968006 0.273653 -0.606747 -0.909077 0.231247 -0.062703 -0.786541 0.340594 -0.116640 -0.399278 -0.354782 0.362535 0.244418 0.012429 0.062160 -0.150912 -0.853205 0.404166 -0.246267 0.247648 0.995093 0.124485 0.539058 -0.568146 0.629134 -0.517725 -0.513137 -0.400106 0.546813 -0.638191 0.391049 -0.590883 -0.158947 0.482806 0.376991 -0.709503 0.362578 -0.834606 0.193635 1.230962 0.041051 1.143367 0.212251 0.546098 0.032529 0.301586 -0.336772 -0.447032 0.393761 -0.869556 -0.103104 0.548272 -0.319964 -0.040394 0.182973 -0.144820 -1.158431 0.479020 -0.282571 -0.421396 -0.594703 0.291087 -0.859686 -0.139546 -0.863079 -0.748248 -0.074747 0.196973 -0.430266 -0.390883 -0.281376 -0.801553 -0.339549 0.153722 -1.083787 0.138371
Capri -0.474366 0.282869 -1.335977 1.555928 -1.008557 -0.957241 -0.065622 0.055261 0.404281 -0.402510 0.858656 -1.705552 0.032843 -0.161912 -0.090475 -0.275111 -0.389107 0.102668 0.227069 0.095857 -0.697863 0.084206 0.709769 -0.451705 -0.427407 -0.379305 0.012153 -0.155454 -0.334498 1.078539 0.078534 -1.468971 -0.816611 -1.066937 -0.582235 0.646941 0.140714 -0.147125 -1.777447 0.322091 0.686779 -0.371997 1.070581 0.870613 -0.517642 0.184578 -0.848823 0.483878 -0.524569 0.241848 -0.335942 0.156487 0.068144 -0.934382 -1.195972 0.561758 0.593928 -0.402902 -0.056308 -0.359098 0.912810 0.574099 -0.109045 1.215494 0.502435 -0.385258 0.390198 0.327673 0.570297 -1.154340 1.145001 -0.679373 -0.329945 -0.725641 -0.205930 -0.109931 -0.366251 0.104747 0.287081 0.104228 0.049507 -0.718052 0.810004 0.412550 0.167272 -0.586855 -0.227403 -0.784879 -0.107571 0.220121 -0.678453 -0.198167 -0.545724 -0.795328 -0.388907 -0.169412 0.983617 0.022932 -1.474837 0.445069 -0.540590 0.312975 -0.573596 -0.195417 -0.166630 -1.086042 -0.215179 -0.959425 0.905938 0.028363 0.173352 0.507520 0.053572 0.308405 -1.032031 0.376102 0.449078 -0.816260 0.236759 -0.329564 -0.565441 -0.512134 -0.399048 -0.296484 -0.283663 -0.344453 0.726297 0.029525 1.726601 1.333497 0.612424 -0.376785 -0.213043 -0.096378 -0.989531 1.142387 0.511576 -0.035029 0.229415 0.132749 0.697227 -0.375076 0.727185 -0.033121 0.727995 0.136018 -0.065770 -0.594316 0.460697 0.805382 0.900096 0.184424 1.388660 -0.065079 1.241627 0.107866 -0.022372 -1.237754 1.403593 0.230800 0.703434 -1.178233 0.456551 -0.774666 -0.375813 0.403628 0.305636 1.037856 0.366066 -0.200521 0.480608 0.306622 -0.896978 -1.046680 -0.088652 -0.914749 0.103212 -0.284496 -1.118705 0.318608 -1.133730 0.720199 0.031208 1.187000 -0.203114 0.202674 -0.160788 0.200771 0.011660 -1.079848 0.235376 -0.271365 1.081164 -0.180531 -0.641139 -0.902806 -1.322957 0.183725 -0.250522 0.481389 0.233820 -0.702193 -0.023171 0.858320 1.013754 0.070791 0.407813 1.075228 0.284856 0.743338 -1.078710 0.919659 0.853940 0.267993 -0.567631 0.960994 0.196897 -0.319225 0.043520 -0.416308 -0.574162 -1.018849 1.245602 -0.402841 -0.455389 -0.141973 -0.237172 0.250930 0.966540 0.658933 0.210077 0.207798 -0.094909 -0.568210 -0.279892 0.773968 -0.317708 0.471135 -0.462435 0.693109 -0.126494 0.532331 -0.338807 0.317916 0.839837 -0.794914 -1.493121 0.507652 -0.111189 -0.778685 -0.900067 -0.599244 -0.697608 0.777211 -0.584149 0.267567 -0.796761 0.114379 0.112052 0.220122 0.302392 -1.476527 0.057212 0.774643 -0.390319 -0.434139 0.116286 0.536737 -0.492031 0.213664 0.962509 -0.283509 0.135066 -0.262170 -0.710658 -0.394387 0.785378 0.816984 -0.999561 0.097819 -0.641840 1.459670 0.070191 0.075958 -0.172153 0.366321 0.459180 -1.190380 0.244347 0.364636 0.794878 -0.356527 -0.200318 -0.777112 -1.116218 -0.991312 -0.695360 0.199441 0.220416 -0.206588
paper 0.181858 -1.003223 -0.053947 -0.002251 -0.902214 -0.541563 -0.333942 -1.060564 0.442863 -0.153300 -0.718171 -1.022346 0.737694 0.172768 0.097489 -0.786631 0.033978 0.022835 -0.090331 -0.056191 0.306698 -0.334064 0.572986 0.181946 -0.279036 -1.102020 1.509455 -1.236504 0.220846 -0.786337 -0.650286 -0.444643 0.594784 0.688175 -0.065976 0.157621 -0.209249 0.516106 1.458735 -1.767537 -0.008872 0.134115 -1.290747 0.357293 0.076119 -0.738561 -1.054950 -0.599411 -1.326472 -0.110358 -0.106687 1.284789 0.000290 1.110894 0.132079 -0.985885 -0.217759 0.645694 0.846114 0.297534 1.448593 -0.033952 -0.017010 -0.102232 0.378941 -0.144254 -0.451951 -0.225870 -0.215575 0.250545 -0.026102 0.406629 0.286879 -0.278208 0.529210 0.345670 -0.921249 0.012328 0.111991 -0.077903 -0.455585 -0.192357 0.223714 0.024176 0.180803 0.315034 -0.500818 0.092193 -0.109284 -0.677420 0.565323 0.013872 -0.632061 -0.271452 0.315423 -1.451579 0.467593 0.149953 0.801020 0.721995 -0.129614 -0.140394 0.218226 0.713653 1.094517 0.375161 -0.304828 0.609493 -0.104961 -0.747526 0.134874 -1.227234 -0.137757 0.060119 -0.079183 0.027145 0.755303 0.094279 -1.082841 -0.643377 -0.500334 -0.316574 -0.379521 -0.084036 0.026851 -0.106672 -0.034964 0.518593 -0.393445 -0.634061 -0.620128 0.181445 0.996760 0.170706 -0.720893 -0.217884 0.433396 -0.423412 0.561873 0.408714 -0.158285 0.850462 -0.320495 0.936417 -0.065110 1.000949 0.520947 -1.474285 0.139959 -0.976314 -0.235914 1.126493 0.284799 -1.216187 -0.535520 0.444644 1.538210 1.806132 -0.748340 -0.758690 0.268645 0.755699 0.429297 0.587801 0.043721 -0.121299 -0.194297 1.976690 -0.326528 0.388947 0.917610 0.144133 0.653836 -0.741563 0.389421 0.441192 0.141299 -0.726563 -1.097936 -0.461973 -0.317529 -0.056389 -0.233898 0.935348 0.239859 0.817306 -0.568481 -0.481899 -0.484698 0.474093 -0.399787 0.764212 -0.834419 -0.811892 0.583819 -0.207247 -0.254444 -0.157181 0.985638 0.376426 -0.207984 0.274294 -0.114365 0.089786 0.347772 0.314984 0.622329 0.898483 -0.669627 -1.023147 -0.444831 0.354955 -0.502516 1.353002 -0.407500 0.145442 -0.025331 -0.040982 0.401057 -0.566786 -0.125289 0.467448 -0.810714 0.899637 -0.703745 -0.616449 0.975806 -0.686538 -0.976206 1.059785 -0.252847 -0.777652 0.170260 -0.272288 0.957066 -0.210412 -0.437908 0.110381 0.289173 -0.852798 0.379704 -0.256324 0.649417 0.421158 0.017933 -0.732665 0.505096 0.006183 -0.038768 -0.282822 -0.586235 0.482344 0.790696 1.531276 -0.377416 0.238477 -0.663922 0.905560 0.964968 -1.463224 -0.377750 -0.120486 -0.108704 0.843407 0.276402 -0.190858 -0.418774 0.656219 -0.032736 0.589167 -0.250641 0.926217 0.802839 -0.424773 0.405870 -0.045922 0.794644 -0.497834 -1.207537 -0.318394 0.928920 -0.782525 0.986586 -0.858705 0.184460 1.186936 -0.569795 0.148451 0.086060 0.066792 0.348656 -0.121052 -0.286529 -0.578534 0.527158 -0.138760 0.047327 -0.067412 0.259502 0.043578
chair -0.483914 0.483851 0.900972 -0.815518 1.302866 0.290518 0.936676 1.067758 -1.046636 0.064845 -0.202592 0.664558 1.150894 -0.221061 -0.053967 -0.064089 -0.192911 -0.855701 0.249143 -0.382600 0.129610 0.613938 -1.186835 0.088564 -0.661774 -0.080492 1.354185 0.935395 1.161662 0.488302 0.302401 -1.277417 0.119164 -0.535750 0.429286 0.362692 -0.520282 -0.176751 -0.713497 0.599412 -0.056425 0.174528 -1.769424 -0.270773 -0.297629 0.076728 -0.736507 -0.035239 -0.316106 0.167810 1.698048 0.324734 -0.547898 -0.266440 -0.426922 1.182438 0.470102 -0.268097 -0.467679 -2.057839 0.587440 -0.854385 0.149423 -1.509602 -0.582637 -0.533928 0.470241 0.624685 -0.467399 0.300938 0.756810 0.256859 0.408349 -0.829800 1.186401 0.375009 0.436175 0.023278 -0.437167 0.107041 -1.548490 -0.452792 -0.380361 -0.863663 -0.996171 -0.328115 -1.009112 1.756432 0.256410 0.165989 0.104570 0.700994 -0.284526 0.400122 0.551464 0.226166 1.038510 0.579450 0.746876 0.381667 -0.373668 -0.046888 -0.483756 -0.580892 -0.261391 0.889142 0.304902 0.078888 0.417683 -0.398245 -1.226816 -0.107753 0.369370 -1.757294 0.637181 -0.002804 0.048381 -0.651811 -0.285049 0.142736 -0.389400 -0.149214 -0.546654 -0.554392 0.652058 -1.527598 0.937542 -0.185774 0.179282 1.130668 0.542495 0.254208 -0.488702 0.514022 0.069285 -0.279196 0.052854 -0.328818 -0.317962 0.637498 -0.091233 0.867837 -0.997453 0.194448 0.044627 -0.277034 -0.415240 -0.671024 1.239713 0.615076 -0.484423 0.397589 -0.091599 -0.324268 0.231887 1.408466 -0.056021 -0.173546 0.489811 0.611960 -0.262637 -0.673148 -0.317129 -1.483570 0.317836 1.129618 -0.127719 -0.331523 0.300487 -0.825034 -0.397685 -0.499421 -0.052589 -1.287341 1.236605 -0.415558 -0.284967 -1.183325 0.031434 -0.108302 0.621725 0.639725 0.123815 0.583884 0.217740 -0.756504 -0.378608 -0.423727 -0.756947 0.593568 -1.222504 -0.723558 -1.130997 0.121993 1.091114 -0.033036 -0.161809 -0.401096 -0.779783 -0.012368 0.701346 -1.083422 1.455307 -0.587689 0.558150 -0.230797 -0.283830 0.352808 0.249050 -0.380018 -0.503175 0.649412 0.208660 0.017850 0.023329 1.883599 -0.000483 -1.726956 -0.978991 -1.181161 -0.234241 -1.026602 -0.199066 0.891616 0.954978 -0.020635 0.331714 -0.792728 0.094889 0.249008 -0.100605 0.132284 -0.394144 -0.444545 -0.637845 -0.509707 -0.075642 -0.077413 -0.667116 0.069619 0.463680 -0.206220 -0.009401 0.249065 -0.847886 0.625433 -0.121252 -0.478182 -0.337854 -0.243616 -0.212008 -1.055140 0.078747 0.340928 -0.760059 -0.666610 -0.568635 0.548949 -0.425820 0.505969 -0.388695 -0.145790 0.173816 -0.226035 -1.429310 0.975302 1.195878 0.436455 -0.370906 0.494411 -0.760968 0.244826 -0.195513 -1.593847 0.092479 -0.431580 0.375198 -0.273968 -0.137642 -0.955436 0.783828 -0.745732 0.031919 -0.231732 0.535414 1.140363 0.155690 0.215957 0.691447 -0.109343 0.479951 1.174326 0.319656 0.079797 0.129338 -0.590164 0.608304 -1.329819 -0.087991 0.055325
Bolivia 0.054719 1.091397 0.304650 1.015987 -0.604816 -1.822637 -0.438048 1.117752 0.339373 -0.151086 -0.761353 0.449044 0.817915 -0.693775 -0.436508 -0.688941 0.544476 0.021857 -0.217186 -1.310725 -1.326267 -0.347285 -0.256135 -1.038502 0.009191 0.004782 -0.234476 0.346120 -0.823456 0.100536 0.140542 -1.783063 -0.669916 -0.296594 -0.259035 -0.510449 -0.782343 -0.895371 -1.349206 -0.747703 -0.478666 0.755883 -1.014254 -0.057822 -0.079152 -0.274480 -1.286939 -0.336199 -0.533634 1.014294 0.325641 -0.494931 0.322897 0.295491 0.015974 -0.137299 0.760466 0.206410 0.458337 0.644777 0.255019 0.414600 0.044658 -1.028155 0.342301 0.637165 -0.341950 -0.301727 1.695346 1.068451 0.078994 0.240058 -0.056413 0.555654 -0.448584 -0.771680 -1.119347 1.020818 0.173931 0.757946 -0.010476 0.521689 0.487753 0.230593 -0.502142 -0.692332 0.668678 0.313950 -0.540287 -0.068916 0.346141 0.007002 -0.952864 -0.346476 -0.579970 -0.008490 0.785950 -0.205904 0.582047 -0.029130 -0.069002 0.885444 0.236955 0.153693 0.299901 0.023337 0.673630 -0.609331 0.011357 0.093294 0.553955 0.289179 -0.423972 -0.911382 0.364926 0.323758 0.758284 0.442798 -1.125551 1.027471 0.243813 0.462155 -0.245609 0.335542 0.150717 1.145548 -0.782398 0.219257 -0.633507 1.294536 0.574902 -0.951624 0.112664 0.975610 1.104315 -1.822583 -0.468555 0.338212 0.476357 0.119521 -0.768823 0.026838 -0.655616 -1.051147 0.706010 -0.605858 -0.837964 -0.647241 0.294649 -0.271089 0.367745 -0.387985 -1.143050 -0.352656 -0.316138 -0.038147 -0.331141 -0.604416 -0.350014 0.981160 0.277169 0.051626 -0.493770 -0.790236 -0.049451 0.195474 -0.213780 -0.146957 -0.161403 0.190245 -1.109622 0.151866 -0.931701 -0.056599 -0.954788 -0.276668 -0.794002 0.139015 0.887466 0.361829 -0.967985 -0.338162 -0.664014 0.161687 -0.287119 -0.245515 -0.702284 0.634971 -0.984609 -0.160426 -0.336620 0.095808 0.513386 0.626538 -0.960673 0.600274 -1.281847 0.466605 0.376660 0.110986 0.634014 1.057356 -0.745127 0.439103 -0.108730 -0.107544 -0.328266 0.278406 -0.036645 -0.014825 -0.760029 0.669495 -0.771782 -1.032947 -0.200895 -0.443910 0.781986 0.801599 2.124375 0.146839 -0.418306 -0.701546 0.925328 -1.172843 -0.218074 -1.118013 -0.236158 0.103460 -1.201869 -0.337623 -0.545607 0.450470 0.432202 0.404528 0.887357 0.781057 -0.908957 -0.165905 0.259947 -0.612673 0.100265 0.090191 -0.310800 -0.823846 0.747329 -0.501583 0.353895 0.243235 -0.285763 0.069726 0.816021 -0.023005 -0.791550 1.191928 0.398991 0.527700 0.942038 0.075603 -1.417709 -0.139267 0.084312 -0.381474 -0.120917 1.355667 -0.144596 0.742449 -0.747973 1.015445 -0.344850 -0.573690 0.135092 0.071075 -0.703624 -0.039030 -1.245592 0.111642 0.088244 -0.347181 0.541372 -0.678268 -0.434692 0.224421 1.400464 0.318237 -0.048791 -0.122239 -1.036132 0.761727 1.266535 -0.906074 0.183953 -0.459154 -0.564223 -0.652331 -0.719843 -0.992224 0.402575 -1.520420 -0.968426 -0.055286
astrology 0.718222 -0.583784 -0.099318 0.258709 -0.065265 -0.889503 -0.977994 -0.399709 -0.681281 -0.511468 -0.237775 -0.799691 0.084576 -0.171792 -0.056183 0.577236 -0.411728 -0.540603 -0.777014 -0.310489 0.020377 1.011653 0.557846 0.370532 -0.441689 -0.583534 0.505892 -0.767145 0.581355 0.842895 -0.784544 -0.296813 -0.404160 -0.083436 0.924110 0.122141 0.078673 0.802283 0.921409 0.073382 -0.210848 1.152091 0.418880 -0.162185 -0.838875 -0.362907 -0.718607 0.565824 1.290622 -0.245460 0.214666 0.491431 1.252656 0.452771 -0.060674 0.161442 -0.338589 0.354360 -0.160928 -0.786841 0.082548 0.121646 0.860893 0.002981 1.008270 0.589628 -1.513939 -0.072494 -0.296984 0.058779 1.017261 0.255981 1.303839 -0.633154 -0.633729 0.007706 0.496506 0.729103 0.010074 0.119346 0.418203 -0.228424 -0.274427 0.035543 -0.160997 -1.086236 -0.592760 0.662638 0.480121 0.757334 1.046999 0.004782 -0.386725 0.940887 -0.531459 0.236642 -0.706463 -0.124974 -0.461362 0.939944 -0.277859 0.033369 -0.659729 -0.775891 0.350958 -0.239792 0.526854 0.611872 -0.943441 1.290826 0.639634 -0.551466 -0.048105 1.116874 0.798778 -0.668715 -0.003074 -0.179680 0.516155 -0.637424 -0.752089 -0.096736 -0.098710 -0.375261 0.486921 -0.416573 -0.145508 0.097390 0.943814 0.518950 -0.713720 0.661219 -0.594671 0.806266 -0.870350 0.853549 0.281406 0.086487 -0.779149 1.245805 0.243895 0.300439 0.265352 -0.747984 0.314077 -0.160190 -0.066115 -0.001965 -0.261363 0.042000 0.206919 -0.636534 0.497179 0.094124 0.409548 0.814532 0.565798 -0.060382 -0.461955 0.433690 0.229652 1.208885 -0.244041 0.857057 -0.876040 1.331555 -0.055128 -0.443443 0.223105 -0.486438 0.394700 -0.429267 -0.826340 0.425087 -0.344789 -0.261631 0.393814 0.778129 -0.319477 0.632440 -0.703573 0.486696 -0.090281 -0.085946 0.965524 0.718362 1.032149 0.379487 -0.561080 0.374249 -0.266918 1.109971 0.095546 0.650370 0.643079 0.503568 2.570774 0.681670 0.178881 0.735869 0.710941 -0.010676 -0.577776 -0.037536 -0.669440 -0.252289 -0.081063 0.456685 -0.155230 0.133980 -1.072672 0.363010 -0.135218 -0.046598 -0.966129 0.539932 0.615740 0.553668 -0.413282 -0.228065 -0.236287 -1.163033 -0.387252 0.244168 -0.336214 -0.684684 -0.409451 -0.049873 -0.011867 -0.759985 0.610823 -0.217668 0.046033 0.953986 0.368727 0.429448 -0.386419 -0.030969 0.505065 -0.320781 -0.068276 -0.367516 0.482294 0.078303 -0.593718 0.104765 0.795988 -0.235273 0.309337 0.680843 0.116679 0.234738 0.612510 0.706339 0.171872 -0.315954 -0.779263 -0.667659 0.363960 0.501242 -0.701093 -0.470727 -1.166787 0.590184 0.448917 -0.480916 -0.316917 -0.351021 0.592152 -0.147589 0.622240 -0.462300 -0.480759 -0.964190 -0.224746 -0.037361 -0.410735 -0.225480 -0.171968 -0.445266 -0.785845 1.298644 -0.298811 -0.063829 -0.132591 0.166991 -0.627051 1.295419 0.157633 0.085621 -0.201025 0.676894 -0.096888 -0.142458 -0.515180 -0.457612 -0.630678 0.241659 -0.938227 -0.042968
March -0.622036 0.160227 0.416162 1.952243 -0.461139 0.202023 0.211998 0.192041 0.424025 0.398471 0.594173 0.306446 -0.909365 -0.794877 0.993938 0.279504 0.234758 0.738027 0.737732 0.996918 0.332168 -0.627729 0.471626 -0.412091 0.779191 -0.885359 -0.358978 -0.889104 1.036388 -0.553015 -1.228707 -0.829776 -1.113299 0.095069 -0.605021 -0.081757 0.412541 0.610995 0.874946 -0.934936 2.190620 -1.610928 -1.195567 0.634610 0.393567 -0.898587 -1.108986 0.980659 -1.290945 0.468970 0.556474 -1.046672 -1.455933 0.062667 -1.572493 -0.988229 1.146004 -0.561292 -1.378615 -0.756831 -1.298504 1.232816 -1.435913 -0.159334 0.696278 -0.964923 -0.947213 0.887611 1.935675 0.146415 1.565859 0.878227 -0.744135 -1.232667 0.141815 -0.564684 -0.263046 0.081146 0.222571 -0.393553 0.273604 -0.993468 0.342354 -0.454775 0.653017 -0.631622 -0.012103 -0.443869 -0.853751 0.274431 -0.729510 0.640029 -0.645728 -1.782894 -0.550011 -1.085031 -0.327285 -0.438268 0.200328 -1.255117 -0.163366 -1.600335 -0.691403 0.316219 -0.763187 -0.076684 -0.964623 -0.153136 0.149511 0.348263 0.136652 0.767067 0.139598 0.400880 0.094691 0.738745 1.093337 0.269764 -0.075301 -1.250064 -1.640875 -0.053397 -0.418848 -0.329405 0.670570 -0.029621 -0.918864 1.825836 0.867895 -0.631876 0.088915 -1.113864 0.712562 0.094546 0.235427 -0.750265 -0.295320 0.188423 -0.258700 -0.959456 0.381511 1.218515 -0.239932 -0.780790 0.279788 0.156204 0.491472 0.394103 -0.533947 0.190900 -0.329752 0.103679 0.225384 -0.759421 0.013041 0.732547 -1.429427 -0.679166 0.826814 -0.411293 -0.347926 -0.558699 0.630550 0.273380 0.321837 1.178556 -0.842113 0.443505 0.377473 -0.684263 1.293567 -0.708626 0.736430 -0.143610 0.734187 1.948076 -0.420170 0.043835 0.134360 0.439089 -0.936117 0.775231 -0.406617 1.621367 1.041290 -1.004211 1.025901 -1.087531 -0.039280 -0.555923 0.284469 -0.010791 -1.210197 0.598491 1.328293 -0.538131 0.061716 0.719330 0.356677 -0.972256 0.538100 0.791813 0.112137 0.687251 0.062504 0.072542 0.036351 0.326312 0.038951 -0.096642 0.410869 0.937771 0.434834 0.246221 -0.176011 -0.530572 -0.228974 -0.521831 2.037513 -0.112918 -0.917323 0.628831 -1.714318 0.890263 1.190939 0.027935 -0.882863 -0.748669 -2.062588 1.128878 -0.164620 0.342279 0.217385 0.940462 0.498586 -0.129921 0.220658 -0.759749 0.162905 0.537101 -1.498712 -1.795113 -0.061188 0.693336 -1.376088 -1.064891 1.408322 -0.934227 -1.438094 -0.183496 0.278487 1.031464 -0.088708 -0.042460 -0.459000 -0.225236 0.318633 0.663851 -0.014973 -1.219841 0.045218 0.551627 0.427052 -0.854872 1.314267 0.544810 1.684383 -0.765799 0.166241 -1.661317 -1.585295 -1.610568 -0.286259 0.195120 1.091218 1.314047 -0.714020 0.004958 0.812315 -0.742166 0.370638 -0.974854 -1.060719 -0.253875 -0.082344 -0.301694 0.304742 -1.193460 0.286526 -0.374008 -0.317079 -0.127561 1.635577 0.412028 -1.011920 -0.423367 0.396433 1.893752 0.094046 0.454230
Nestlé 0.009213 -0.062572 -0.620567 0.667690 -0.343006 -0.494216 -0.379761 0.245172 -0.083314 0.538138 0.153864 0.070021 0.380931 0.258111 0.708850 -0.321297 -0.164292 0.380111 0.069005 -0.376735 0.333616 0.349916 -0.097723 -0.894188 0.445062 0.106935 -0.053215 -0.321635 0.668352 0.395629 -0.313732 0.065851 -0.278253 -0.396322 -0.331604 0.344081 -0.082634 -0.095989 -0.357386 -0.212485 0.119014 0.375016 0.229611 -0.471576 -0.350511 -0.257044 -0.172981 0.483825 -0.445861 -0.043484 -0.229871 0.502173 -0.269534 0.324723 -0.064498 0.325204 -0.043091 0.157960 -0.054165 -0.256226 -0.253202 -0.120044 0.002991 -0.353028 0.276638 -0.565842 -0.124058 0.103673 0.429035 0.140495 -0.265403 0.159805 -0.309551 0.184672 0.615119 0.028885 0.127450 -0.197072 -0.577189 0.468789 0.296476 0.271396 0.301056 -0.186645 -0.266773 0.143326 0.368282 0.489961 0.278303 0.337744 0.139933 -0.349671 0.011007 -0.264750 0.083753 0.119020 0.221704 -0.064065 -0.735175 -0.324104 0.136803 0.480321 -0.702731 0.175578 0.088398 0.199003 0.248052 -0.295968 0.089958 0.571405 0.277796 -0.550072 -0.228707 0.250187 0.692334 0.437101 -0.195335 0.295101 0.325561 -0.088730 -0.106008 -0.655503 -0.656981 -0.625293 -0.357925 0.118193 -0.402215 -0.030493 0.177945 0.076281 -0.560377 -0.295684 -0.706706 0.100632 0.002441 0.031663 0.142560 0.310838 -0.074030 -0.239758 0.011989 -0.257214 0.483456 0.281574 0.516651 -0.352568 0.089762 -0.359011 0.124435 0.094089 -0.132592 0.042624 -0.525047 0.188843 -0.150382 -0.107812 -0.006605 0.161176 0.128807 0.634880 0.203332 -0.037228 0.138473 -0.346931 -0.061985 -0.281362 -0.416393 0.445807 -0.575451 0.094802 0.067523 -0.511115 -0.400896 -0.392309 0.258590 0.375747 0.295080 -0.267745 -0.804217 -0.134887 0.061288 0.061397 -0.029237 -0.059032 0.220483 -0.067663 0.639387 -0.007281 0.247118 -0.020283 0.251511 -0.285380 -0.149941 -0.728010 0.432482 -0.172390 0.072335 0.174597 -0.680002 0.073773 0.317036 0.032593 -0.215894 0.335860 -0.491106 0.253931 0.149539 -0.196943 -0.178754 0.512174 -0.483756 0.109041 -0.008400 -0.378230 0.532927 -0.291873 0.561653 0.344633 0.363683 0.094044 0.796637 0.096297 0.599315 -0.353567 -0.054074 -0.097060 -0.077100 0.297382 -0.596220 0.522075 -0.143166 -0.301504 0.167297 0.279394 0.160296 -0.229680 0.620928 -0.513749 0.304251 -0.475516 0.054854 0.295209 0.128590 -0.021665 -0.148849 0.270630 0.003920 0.205144 0.143953 0.357419 0.479084 -0.031876 0.007500 0.040934 0.328473 0.136779 0.043093 0.296343 -0.373205 0.213096 0.067435 0.190660 0.180007 0.241243 -0.528561 -0.186763 0.522578 -0.221296 -0.049829 -0.063899 0.211680 -0.198538 0.096057 0.354260 -0.124052 -0.629146 -0.122970 -0.545795 -0.142909 0.535489 0.207089 -0.146315 -0.093281 -0.497666 -0.316671 0.552777 0.827933 0.405038 0.001836 -0.596073 0.225944 -0.289644 0.267872 0.354592 -0.693458 0.097861 0.227831 0.115793 -0.018510 0.477280
cougar -0.025903 0.336803 -0.271589 0.207029 -1.712845 -0.040939 1.244665 -0.163070 0.823625 0.815454 -0.035036 -0.898230 -0.036519 -0.505708 -0.031049 1.156416 -0.130195 -0.314261 1.257602 0.311763 -0.798320 -0.954075 0.491712 0.320878 0.450810 -0.273198 -0.439293 -0.744377 0.354000 0.193471 -1.259479 -1.656492 -0.699275 -0.033895 0.580824 0.893440 -0.493393 0.125310 -0.382380 -0.385798 -0.627111 -0.164539 0.340188 -0.061849 -0.699730 0.175602 -1.344092 -0.583877 -0.222275 -0.104895 -0.981370 -0.270691 -0.729102 -1.169161 0.253564 0.156445 -0.534993 -0.958628 0.524256 0.087436 -0.517797 0.312546 -0.517080 0.860225 0.601429 0.775292 0.888636 -0.217214 0.150301 -0.506946 0.115810 -0.083394 0.186474 -0.182376 0.041603 -0.306408 0.077197 0.176320 0.208995 0.364022 -0.183733 1.508379 -0.102720 0.838064 0.774161 0.286295 -0.167036 -0.126144 -0.270354 0.446519 0.058914 -0.817216 0.154372 -0.202983 -0.174085 -0.182486 -0.178272 0.365658 0.295467 0.896889 -0.119713 0.799326 -0.211937 -0.637284 0.734529 0.287814 0.597842 0.088092 0.222720 0.218689 0.883399 0.982257 0.728511 -0.459062 0.402268 0.234498 -0.082367 -0.171399 0.551998 0.154890 -1.078206 0.710183 -0.388277 0.279609 -0.057253 -0.520316 -0.304618 -0.325291 -0.033368 0.352722 -0.153900 -1.434035 -0.475725 0.184309 -0.925433 -0.007341 -0.227219 0.294504 0.678187 0.324463 1.119588 -0.882378 0.483676 -0.448439 -0.801489 0.485812 0.930382 -0.244674 0.905978 0.792787 -0.588447 -0.763011 0.874344 -0.587148 -0.276700 0.029611 -0.612980 -0.627572 -0.239813 1.307623 0.080924 -0.594431 0.014943 1.083491 0.916625 -0.137079 0.343304 -0.153303 0.508351 0.122483 0.791358 -0.587502 -0.183630 1.250127 0.514491 0.046149 -0.770640 0.478855 -0.095047 -0.941765 0.634724 -0.291984 -0.681278 -0.704643 0.209268 -0.573597 -0.296601 0.386599 -0.072857 0.149147 -0.531245 -0.442372 -0.906615 -0.687860 -0.008399 -0.146258 0.353867 1.395260 -0.983203 -0.211706 0.642369 -0.229694 0.394715 0.591899 0.598183 -1.097314 0.382264 -0.520067 1.153648 -0.820456 -0.632159 0.075726 0.470661 -0.531028 -0.137119 0.123381 0.358251 0.312243 -0.365527 -1.168284 -0.395463 0.287403 -0.676456 -0.098815 0.301252 -0.331678 0.527862 -0.587795 -0.715828 0.315805 -0.378408 0.543374 0.797462 -0.033370 0.151744 -0.892272 -1.041634 -0.673611 -1.002275 0.438898 0.447241 -0.616367 0.544277 0.452351 -0.721993 -0.000568 0.100195 -0.622869 0.086311 0.683562 1.466858 -0.055419 -0.653582 -0.472722 0.474079 -0.532834 0.593933 0.264883 -0.422451 -0.891070 -0.197543 0.186105 0.546477 0.039324 0.371632 0.773583 -0.729161 0.491184 0.197384 0.786566 -0.112403 0.954516 0.498468 1.140220 -0.683042 -0.656352 0.596513 0.843340 0.202169 -0.275358 0.101971 -0.134979 0.138010 -0.167701 -1.186912 0.201503 -0.595616 -0.639551 1.254993 0.097993 -0.655179 0.132314 -0.362836 -0.259505 -0.666223 0.558941 -1.490847 -0.927032 -0.764891 1.163674
window 1.383049 -0.452995 -0.561164 0.877313 -1.191911 0.708614 0.508620 0.153485 0.088479 0.188784 -1.376881 1.876454 0.241826 0.699182 0.607037 0.177396 -0.706905 -0.382883 0.510547 -0.427765 -0.094024 -0.880869 -1.163673 -1.094659 0.034501 -1.515172 0.168349 0.194733 0.171557 -0.675157 -0.146661 -0.208678 -0.092086 -0.302215 -0.402775 0.005020 0.297976 0.139118 0.510856 -0.677261 0.368658 0.178588 -0.046962 0.903902 -1.491241 0.489792 -0.422454 1.256381 1.150440 0.430423 0.808851 -0.395115 -0.318533 -0.611900 -0.252305 -0.910122 -0.569921 -0.394213 0.662194 -0.037961 0.023579 -1.077888 -0.654274 -0.913914 0.175972 0.030227 0.575451 1.209244 -0.769357 -0.108033 0.538825 0.523715 -0.185624 0.417208 0.621296 0.242933 -0.093176 -0.296336 -0.302006 -0.254537 -0.106972 -0.129177 0.379984 0.070989 -0.431819 0.589398 1.108193 -0.351127 0.293448 -0.175152 0.822086 0.882456 -1.070718 0.927986 1.355104 -0.361400 0.334626 -1.241166 0.255189 1.211730 0.464545 -1.092193 0.174280 -0.647242 -1.003330 -0.108682 -0.105093 -0.789342 0.305914 -0.139567 -0.019995 0.451172 -0.793716 -1.061449 -0.140069 -0.596066 -0.368885 -0.872982 0.931952 0.471461 0.216836 -0.172052 0.487993 -0.707327 -0.550186 0.708512 0.534911 0.852176 0.065418 0.366543 -0.787331 0.791037 -0.374267 0.044821 0.298608 0.971267 -0.645733 -0.340289 -0.416427 0.859998 -0.012777 0.799428 0.165782 0.206716 0.564257 0.172709 -0.244602 -0.543831 0.823124 -0.761778 -1.395079 -0.468870 0.806767 0.180103 0.259050 1.162463 -0.821135 -0.396748 -0.630815 0.704678 1.596177 -0.110249 -0.117352 -0.447065 0.643896 -0.093606 -0.162841 0.492495 -0.763395 -0.545242 0.102162 -0.858780 0.752372 0.359859 0.147219 0.626636 -0.248353 0.016554 0.194085 -1.109649 -1.904199 -1.005738 0.590456 -0.073039 0.131368 0.943308 -1.460708 -0.113401 0.301875 0.869993 -0.544479 1.251942 -0.867759 0.057622 0.792793 -1.130445 -0.051231 -0.308041 -0.038697 0.221640 1.425137 -0.076919 -0.242819 0.376475 -0.082475 -0.322359 0.798944 0.154927 -0.080346 0.678078 -0.345462 0.168537 -0.165813 -0.293261 -0.975642 -0.729626 1.163699 -1.504536 -0.223942 -0.306269 -0.056561 -0.539492 -0.562730 -0.210255 1.207226 0.223362 0.852474 -1.459104 -0.200651 0.047143 0.514652 -0.341250 -0.064014 -0.194104 0.142496 0.322834 0.640374 -0.262641 0.042273 0.331448 0.995797 -0.213526 -0.373956 -0.899926 0.713800 0.159941 0.922698 -0.262445 -0.698826 0.059011 1.460946 -1.694720 -0.515404 0.025876 -0.465749 -0.190773 -0.813463 -0.200887 -0.961652 -0.432350 0.890875 0.354074 0.279358 -0.268365 0.336291 0.352142 0.573444 0.231386 -0.169217 0.760190 -0.822703 0.842382 -1.539807 -0.466352 -0.707328 0.001402 -0.132116 0.238010 -1.828442 0.206514 0.154480 -0.656429 -1.165140 -0.012383 -0.223081 0.723743 -1.534201 -0.663719 -0.403189 0.516365 -0.364128 0.511924 -0.511061 1.159914 0.002490 1.377924 0.954173 -0.324017 -0.012968 0.126695
government -0.379106 -0.216712 0.250884 0.449293 1.559623 0.325625 0.467384 -0.141292 -0.111025 0.455748 -0.778001 -0.468577 0.216937 -0.100424 -0.806531 0.117164 -1.170565 0.016486 -0.736431 0.115042 -0.845118 -1.025551 -0.756688 -0.733781 -0.801498 -0.395760 0.633122 -0.091696 0.063695 -0.287654 0.265992 0.424211 -0.234311 -0.709347 -0.027851 -0.559945 0.964437 0.180082 0.450368 -0.794507 -0.022550 0.407809 -0.244764 -0.034059 -0.802540 -0.440302 -0.832060 -1.121322 -0.578845 -0.183290 -0.167061 -0.122167 -0.670537 -0.312960 0.185187 0.966738 -0.108755 0.116621 0.051587 -0.155216 -0.807045 0.035986 0.259162 0.632209 0.370985 -1.228407 -1.128204 -0.223973 0.463962 -0.149739 0.295783 -0.536072 -0.698810 0.147963 0.169106 -0.084667 -0.785580 0.723115 0.617223 0.785234 0.010635 0.713437 -0.741433 -0.748678 -0.111637 -0.040789 0.047065 0.000729 0.049568 0.347870 -0.695490 0.037950 0.361978 -0.526390 0.896159 0.226324 -0.297279 -0.131666 0.394026 1.298307 -0.203264 0.125076 0.387628 -0.446374 0.491292 0.096259 -0.748265 -0.630637 0.393064 -0.070179 0.937637 0.336185 0.097125 -1.032429 -0.916888 -1.441715 0.321155 -0.514110 -0.533208 0.517480 0.187090 0.488778 -0.166004 -0.944123 -0.206227 0.262939 -0.498162 -0.046262 0.399022 0.053892 0.071497 -0.088795 0.321109 0.581173 -0.462134 -0.383979 0.273975 -0.423186 0.811097 0.615972 -0.587684 -0.388660 -0.518134 0.105430 -0.822755 -0.254947 0.461630 -0.171138 -0.021085 0.052568 0.733337 0.559412 0.004330 0.113599 -0.318988 0.660428 -0.077589 0.348327 0.030655 -0.281474 0.878223 0.124354 -0.161758 -0.213232 -0.441486 -0.298675 0.136399 -0.669314 -0.348173 -0.214424 -1.133495 0.839392 0.265892 -0.428988 0.495067 -0.546595 0.760548 -0.220279 0.172003 0.016344 -0.065749 0.052038 -0.543433 -0.681302 0.510233 0.707838 0.020042 -0.637524 -0.233866 -0.524296 1.092456 -1.001421 -0.216538 0.561621 -0.127923 0.108619 0.559174 -0.221425 -0.463846 -0.445158 0.555862 -0.632880 -1.634758 0.418139 -0.103599 0.679309 -0.562038 0.144807 1.489410 -0.427373 0.369065 0.068383 -0.219574 -0.085211 0.684776 0.303229 -1.451133 1.122771 0.447674 0.594513 -0.095272 -0.547888 0.132678 -0.134759 -0.707308 1.128912 -0.760448 0.076130 0.574035 0.479186 -0.180433 -0.276573 0.910546 0.889580 -0.246964 -0.167965 -0.907164 -0.823692 0.626442 -0.379088 -0.178628 -0.512479 -0.209549 0.653060 -0.865902 0.323136 0.514615 1.339954 0.127100 -0.187463 -0.222443 0.027294 0.264460 0.914788 -0.534531 0.440741 -0.947953 -0.291764 0.817211 -0.286673 -1.159421 0.617886 0.745768 1.367192 1.076879 -0.858094 0.156848 -0.895746 0.929771 1.375805 0.279315 0.751113 -0.061344 0.761831 -0.205650 0.025896 -0.309459 0.281703 1.107335 0.671349 0.519311 0.505046 0.599236 0.224094 0.197821 -1.204552 0.345820 -0.037415 -0.542093 -0.209490 -0.448184 -0.599928 -0.304261 -0.539911 -0.483771 0.400354 0.230752 0.371742 0.989404 -0.953822
James -1.013327 -0.092476 -0.237598 -0.604399 -0.427087 1.144006 0.303035 -0.262349 -0.623935 0.159843 0.001888 1.014702 0.753086 -0.152449 0.470719 -0.261849 -0.152050 -1.008949 0.408994 0.227499 1.069290 0.569191 0.576558 -0.294540 0.782389 0.545145 0.618140 -0.088033 -0.892928 0.195840 -0.249635 0.722344 -0.654290 -0.100256 -0.225041 0.696475 -0.894333 -0.076988 -0.725806 0.128964 0.075911 -0.124418 -0.012299 0.466371 0.441294 -0.087708 -0.260006 -0.307319 0.376175 0.856348 0.304568 -0.511121 0.743621 -0.227406 0.460444 -0.281872 0.719764 -0.133173 -0.276204 -1.018445 -0.585248 -0.196122 0.425754 -0.841891 -0.172793 0.130023 -0.331253 0.055525 0.157765 -0.048425 -0.531689 0.006161 0.195770 -0.264871 -0.041271 1.718281 -0.088422 -0.234181 0.681178 0.525569 -0.922516 -0.045215 -0.006959 -0.159599 0.167826 -0.702561 1.105154 -0.033914 -1.265984 0.087313 0.356143 -0.095640 -0.068731 0.349954 0.626314 -0.309923 0.195158 0.181686 -0.305559 -1.123901 0.067637 0.048958 -0.382821 -0.294943 0.388967 0.008320 -0.472662 -0.076518 -0.302537 -0.329897 0.304592 0.188485 0.234336 -1.125307 0.502900 0.226456 -0.018916 0.132894 1.010528 -0.252852 -0.854413 -0.095014 -1.088882 -0.476670 0.463415 -0.509805 0.380551 0.456917 -0.038086 1.000453 -0.363694 0.795149 0.164236 -0.250148 0.078109 -0.411498 0.676868 -0.023410 0.465745 -0.031817 0.847237 -0.041962 -0.751633 -0.266453 -0.688847 0.172696 -0.434532 0.117880 0.963452 -0.284482 0.232169 1.274342 0.295543 0.077439 -0.287730 -0.070144 0.957707 -0.281931 0.398442 -0.004305 -0.066008 1.058315 0.082731 -0.199484 0.338372 0.011277 -0.463619 0.427884 -0.338659 -0.636049 0.598591 -0.183458 -0.007770 -0.543260 0.036160 -0.956788 -0.518216 0.049681 -0.029368 -0.373029 -0.370675 0.491816 -0.312353 0.384432 0.243756 0.002744 -0.960510 -0.763290 -0.149145 -0.335943 0.454028 0.103754 0.051909 -0.615073 -0.516936 0.615343 -0.727158 0.228482 -0.315573 -0.748962 -0.205152 0.163648 1.583873 0.735287 0.191097 -0.500534 0.184388 -0.762374 0.467185 0.259166 -0.633076 0.087244 -0.478332 -0.089497 -0.044090 0.020941 0.077908 0.168470 1.002935 0.294618 -0.390270 0.419001 -1.131314 0.297251 0.150825 -0.541364 0.147236 -0.554307 -1.309487 0.200893 -0.145505 -0.291061 0.419474 0.512093 -0.633567 -0.170872 0.299553 0.106339 -0.323009 -0.210012 -0.116261 -0.139298 -0.327809 0.456205 -0.000135 0.491336 -0.903815 -0.484155 -0.146304 -0.168979 -0.445151 -0.152602 0.774589 0.327157 -0.776560 -0.525522 -0.426173 -0.094100 0.444901 0.909742 0.306434 -1.034537 0.002025 0.459764 0.473332 -0.288359 -0.061435 -0.380790 -1.467109 1.275227 -0.088798 0.476513 -0.709648 0.027213 -0.080146 -0.007865 0.047532 -0.875452 -0.345803 1.306982 -0.683462 -0.237931 0.901924 0.246168 0.253009 0.131713 0.618419 1.575171 1.022610 -0.270422 0.354259 -0.275375 0.515783 0.633929 0.108779 0.890144 0.424847 0.528902 -0.028150 0.171563
fridge 0.847778 -1.069360 -0.298183 1.179662 0.022833 -1.414879 0.487837 -0.511218 -0.025541 -1.318524 -0.955361 -0.783399 0.629120 0.062676 0.496325 0.423582 -0.856411 0.931294 0.501750 -0.174881 -0.295183 -0.151146 0.220833 -0.125865 0.430221 0.466891 0.210102 -0.631817 0.531956 0.055425 0.296365 -1.545288 0.478450 0.347783 0.864908 -0.282415 0.332593 0.199496 0.099151 -0.055282 -0.345238 -0.396565 -0.392666 0.564391 -1.595622 0.382056 -1.083851 0.222160 0.248192 -0.376672 -0.471250 0.099159 -0.320965 0.170825 0.082009 0.516429 0.490845 0.467756 0.918830 -0.541458 0.320223 -1.171890 0.132291 -0.386339 0.003602 -0.331289 -0.581227 0.594911 0.373704 0.715073 -0.201898 0.047134 0.304699 -0.199069 1.747558 0.070095 0.314773 -0.163267 0.783978 0.375908 -0.345409 -0.780748 1.019695 0.280953 0.736125 0.820952 0.846178 -0.776446 0.458877 -0.515096 0.169378 0.560210 0.407391 -0.343474 0.077016 0.292652 0.019494 0.675443 -0.678797 -0.108945 0.388711 0.288064 -0.726263 0.012086 -0.278601 0.364177 0.019757 0.008819 0.026028 -0.009862 -0.975648 0.804453 -0.378873 -1.331315 0.658429 -0.584530 -0.205420 -0.571067 0.410287 0.980719 0.211578 -0.161455 0.906096 0.158825 -1.217565 0.447102 1.362245 -0.091882 1.025964 -0.154197 0.727556 -1.263051 -0.622666 0.098947 0.971243 1.245393 0.371120 -0.129542 0.421093 1.465948 0.716379 0.881306 0.197758 0.212625 -0.085621 -0.562468 -0.254656 -0.262634 0.880553 0.814752 0.057833 0.583081 -0.201009 -0.176050 0.347118 -0.104001 -0.114862 0.151849 -0.091885 0.766601 -0.274112 0.517237 -1.491950 0.856596 -0.221237 -0.147856 0.498983 0.105190 0.189680 0.498488 0.518612 -0.305109 0.165687 -0.854921 0.286543 0.951853 0.165067 0.012511 -0.524539 -1.711228 -0.019959 0.490009 0.369265 1.211389 0.660389 0.259350 -0.044877 0.361674 -0.376881 0.627245 -0.492912 0.332250 -1.191698 0.300035 0.574920 0.606067 -0.849605 0.261358 0.261700 0.351459 -0.086728 0.314845 0.117395 -0.258835 0.086042 0.088764 -0.624896 0.099695 -0.271374 0.333944 -0.676074 1.125651 0.067854 -0.632885 -0.645392 0.725752 0.028281 -0.286788 0.126370 -0.838979 0.533101 -0.284653 0.314736 0.049538 -0.722021 -0.024628 -0.476530 -0.326031 0.663937 0.455295 -0.043340 -0.660303 0.104970 -0.188677 1.089811 -0.128466 0.243286 1.606115 0.106511 1.195606 0.307227 -0.179094 -0.469037 -0.734731 -0.410614 0.392838 0.500425 -0.299646 -0.958730 -0.834980 1.666375 -1.944066 -0.789452 0.585553 -0.463524 0.818742 0.732897 -0.230005 -0.955403 -0.865317 -0.160909 -0.008328 -0.134936 0.410619 0.671789 0.185773 0.940683 -0.566271 -1.016826 0.128132 -0.650554 -0.289289 -2.098994 -0.358041 -0.298688 -0.659306 0.341292 0.068453 -1.685159 -0.474092 -0.407056 0.151785 -0.393218 -0.237617 -0.252941 -0.237111 0.148899 0.153776 -0.548738 -0.395015 0.138286 0.601644 0.323535 0.835609 0.108429 -0.213843 0.473652 -0.638580 -0.382182 0.454401
lunch 0.187350 -1.020027 1.352513 0.797389 0.245981 0.124337 0.444496 -0.536859 -0.507015 -0.659572 -1.648367 0.206643 -0.081560 -0.654781 -0.028388 -0.064053 -0.971497 0.223387 0.283541 0.976330 0.374250 -0.113460 -0.552715 -0.815063 -0.388381 -0.049566 0.003978 -0.330582 0.329408 -0.220417 0.169687 -1.398438 -0.626260 0.375054 0.632027 0.363361 0.398112 -0.034582 -0.360266 0.321411 0.406158 -0.123290 0.151092 1.081803 -1.365645 0.327425 -1.014125 1.155739 -0.475889 0.215273 -0.090656 0.503273 -0.640362 -0.096519 -1.495725 0.058640 0.771520 1.614496 1.819803 -0.209187 -0.248198 -0.284527 -0.267960 0.707892 -0.623948 -0.361301 -0.878695 1.803893 -0.038237 0.606192 -0.673281 -1.662892 -0.694706 -0.515236 1.279977 0.103713 -0.235531 -0.168959 1.042889 -1.199316 -0.613334 -0.506006 1.745926 0.519492 0.957844 0.512491 -0.083316 0.063593 0.273951 1.053751 0.018581 2.183587 -0.813544 -0.771836 0.551094 0.312721 -0.025595 -0.219964 -2.029356 -0.857547 0.088980 -0.174322 -0.747526 -0.554194 0.576878 0.784777 0.006679 0.815756 0.825439 -1.015215 -0.471355 0.525081 1.490779 -1.032275 0.576784 -0.434233 0.143706 -1.138879 -0.224357 -0.906878 -0.018539 0.823307 0.296136 0.675126 -0.036982 -0.607963 0.891713 -0.757215 -1.381931 -0.438647 -0.282568 1.029176 -0.374129 -0.095540 0.870091 0.374678 0.809483 -0.104408 0.428570 0.851906 -1.178974 1.563713 0.639557 0.314724 0.133106 0.230203 -0.536957 0.447277 -0.187330 0.581779 0.069451 -0.463988 0.356183 -0.920361 -0.424296 -0.153470 -0.153113 -0.697275 -0.749280 1.232720 -1.244370 -0.254135 -1.375668 0.930909 -1.511894 -0.531314 0.423138 0.370202 0.352270 -0.012320 0.297024 0.620184 0.030539 -0.369701 0.086742 0.482653 0.171283 0.013565 0.332967 -1.057061 0.743281 0.978519 -0.547987 1.532184 0.512997 -0.675628 0.192480 -0.014669 -0.951938 2.050745 0.313864 0.112339 -0.832809 -0.171777 1.101198 0.153177 -1.284811 0.284364 -0.367103 0.594671 0.285019 0.564825 -0.233840 -0.290817 0.223541 0.182785 1.197120 -0.256121 -0.162664 0.241070 -0.733441 0.704196 0.797020 -0.946710 -0.143808 0.439805 0.153935 -0.234694 -0.318776 0.292489 0.409592 0.769594 0.858311 -1.128214 0.310580 0.504782 -0.045651 -0.234553 0.587575 1.782765 -0.577219 0.941438 0.155071 0.535119 -1.759419 0.001218 0.849509 -0.165329 -0.584623 1.240415 -0.090041 0.265558 -0.350519 0.058155 0.176137 -0.154213 0.311398 -0.595612 0.514512 -2.125568 -0.716781 -0.768378 -0.257216 2.050425 -0.327704 1.079414 0.319284 -0.315703 -0.829660 -2.108559 0.395414 0.215079 -0.338903 0.295548 0.491700 -0.732649 0.600940 -0.190641 -0.860619 -0.356152 0.246101 0.375372 -1.370656 0.127677 0.890408 0.001527 0.781690 -1.128059 0.087063 0.259189 -0.931035 0.539336 0.419339 -0.178884 0.178049 0.768610 0.416769 -0.151725 -0.097044 -0.630858 0.173095 1.613564 0.037542 0.292034 -1.423512 0.530406 0.287033 -0.834792 0.479745 -0.310507
Juventus -0.392130 -0.558096 0.857112 1.687006 0.040487 -0.227855 0.765962 -0.009565 0.297617 0.228595 0.867868 -0.045057 -1.201713 -0.081251 -0.228890 -0.084926 0.110133 0.402431 1.172538 -0.714026 -1.138849 1.106781 -0.143475 -0.905362 0.771358 0.058112 0.387951 -0.141584 0.738756 0.824867 0.074790 -1.059054 -1.358222 -0.206286 -0.826326 0.619762 -0.132931 0.399731 -0.695435 -0.025086 -0.696473 0.762603 -0.004993 0.090205 0.191505 -0.258157 -1.188511 1.400237 -0.478948 -0.165595 -0.594044 -0.154521 -0.625674 0.016690 -0.243605 0.955406 1.104541 -0.615484 0.637606 -1.174000 -0.069073 -0.299920 0.893898 -0.339907 0.397544 -0.499970 -0.901842 0.923562 1.410281 -1.043489 -0.235020 -0.217613 -1.501483 -0.519994 0.532210 -0.351571 0.148085 -0.502269 -0.821948 0.173668 -0.226058 -1.089762 0.606480 -0.385656 -0.337678 -0.096730 0.027936 -0.492073 -0.589282 0.146790 0.500716 0.865169 -0.593715 -0.472732 -0.513126 -0.707670 0.572673 0.576057 0.240354 0.947825 -0.652163 0.327666 -0.300425 -0.108765 -0.115573 -0.440327 0.165843 -0.799760 -0.355543 0.895807 -0.153702 0.136665 -0.143811 -0.299239 -0.300334 -0.154578 0.040266 -0.457612 0.100238 0.046044 0.164693 -0.314160 0.158509 0.267722 1.105801 -0.800857 -0.461500 0.081357 -1.490597 0.154206 -0.719283 0.274565 -0.181289 0.365387 -0.434247 -0.487618 -0.490453 0.742168 1.249886 0.083999 -0.188422 -0.372653 0.270515 -0.775599 0.246054 -0.067146 -0.087247 -1.011635 1.149867 -0.222019 0.124508 -0.043675 -0.146533 -0.026089 0.629428 1.021962 -0.203899 -0.384877 0.849715 0.910127 0.293072 0.307822 -0.125798 -1.065435 -0.525332 -1.241302 -0.544698 0.247510 0.129250 -0.039671 -0.464795 -0.305777 -1.722256 0.258342 -0.573973 -1.076314 0.370048 0.408451 -1.167603 -0.806229 -0.359934 -0.490866 0.973557 -0.022109 0.318371 0.788784 -0.076602 0.971568 -0.043948 0.539190 0.457193 -0.148480 -0.011030 0.099307 -0.606423 0.650797 0.689229 -0.542345 -0.711441 0.390447 -0.377161 -0.243222 0.750677 0.864785 -0.032532 -0.068384 -0.131652 0.609351 -0.589096 0.409015 -1.438236 -0.268102 -1.178167 0.294149 1.041445 0.107395 0.242997 -0.822466 0.606450 0.298026 0.223469 0.915508 0.898427 0.357902 0.400318 0.277358 0.419525 0.028983 0.026341 -0.191285 -0.213513 0.022226 -0.382594 0.035522 0.566515 0.669013 -0.042967 0.372375 -0.104057 0.447078 0.124269 -1.156479 -0.014853 0.372102 -0.208198 0.904986 -0.104350 0.184020 -1.333131 1.126511 -0.232183 -0.688457 0.253789 0.010929 0.420354 1.325437 -0.673612 0.500773 0.393229 0.921728 -0.144767 0.286328 0.014123 -0.430736 -0.433340 -1.391265 -1.235091 0.342922 0.801984 0.129408 2.153639 0.029015 0.693755 0.322861 0.892602 -0.649082 -0.223028 -0.808830 -0.566563 0.034488 0.647207 1.374426 1.184487 -0.154362 -0.664880 -0.475012 -0.868905 -0.811431 -0.728652 0.217424 0.520402 -0.721754 -0.686179 1.059083 0.463240 -0.112651 -0.493947 -0.654683 -0.153718 -0.221459
Venus 0.768053 0.755007 -0.242121 0.793194 -0.194548 -0.360658 -0.529009 -0.231671 0.336044 0.555029 -0.111011 -0.289111 1.701978 -1.794709 0.362217 -0.552380 -0.894364 -0.281340 -0.395318 -0.481502 -0.098286 0.608800 1.098046 -0.586367 0.017181 -1.212216 0.232343 -0.376514 -0.121356 0.840163 0.236532 0.667942 0.121063 -0.679859 -0.060870 -0.360871 0.777781 0.012901 -0.142484 -1.079651 0.646749 2.035757 -0.366764 0.338574 0.781841 -0.264328 -1.177329 1.311439 1.414084 0.093205 1.390515 -0.586561 0.566017 -0.300496 -1.293095 -0.887067 0.609465 0.184692 0.588883 -0.785503 -0.450601 -0.422527 1.137066 0.594118 1.255927 0.733661 -0.206449 0.462092 -0.189259 0.167112 1.636435 -0.968616 -0.483248 0.909026 -0.160228 0.597626 1.309890 0.566938 0.792905 -0.727977 0.144973 -0.270590 0.851652 -0.667846 0.932446 -0.215069 0.217426 0.397618 0.800728 -0.161858 1.014315 0.254637 -0.090485 -0.525846 0.867402 -0.873130 -0.291496 0.023110 -0.465838 0.594536 -0.799141 0.163967 -0.485587 -0.640236 0.833365 0.247199 0.034505 -0.974475 -0.192626 0.011297 0.550903 -0.052918 0.064324 0.298408 -0.047652 0.558787 -0.196906 0.921035 -0.174425 -0.205278 0.057514 -0.510087 -0.721710 -0.071508 0.245443 0.956856 -0.537446 -0.391166 2.231685 0.477675 -0.262738 0.477799 -1.173464 -2.210774 -1.092991 0.975434 0.020783 0.812747 -0.862913 1.173007 -0.041916 -0.499593 -0.346374 0.195449 -0.067603 0.283084 -0.101958 -1.378959 0.127377 -0.607030 0.701200 -1.428094 0.947461 -0.666830 0.293790 0.163277 1.093671 -0.422442 0.516125 -1.336763 -0.030110 -0.350117 0.897974 -0.734906 0.442899 -0.235359 0.606641 -1.167461 0.044405 -0.582115 -0.284251 -0.165822 -0.379067 -0.394392 -0.231504 -0.473275 -1.102191 0.648245 0.511861 -0.063392 -0.982296 -0.137391 0.210026 -0.390171 0.227416 0.509206 0.858301 -0.092108 0.367334 0.274289 0.834999 0.801244 0.590289 0.232507 -0.771052 -0.402999 -0.150285 -0.445345 0.029032 0.199427 0.529862 0.105462 0.146847 -0.168985 0.312438 -0.742266 0.450700 -0.234359 -1.179398 -0.751898 -0.192208 0.846770 0.867045 0.002302 0.631455 0.076013 0.374134 0.957822 0.034744 0.213790 -0.917030 -0.587523 -0.505761 -0.364768 0.006239 0.225795 -0.487999 -0.884312 -0.171241 -1.170418 -0.906976 0.405977 -0.119607 -0.919228 0.443722 1.270371 0.296028 -0.024226 0.064168 0.139549 -0.617070 1.263583 -0.165936 0.111653 0.709288 0.369122 0.444970 -0.248609 0.246345 -0.015985 -0.060792 -0.205862 1.111992 -0.355557 1.022512 -0.455012 -0.336370 0.610282 0.516732 0.132847 0.673837 -0.023437 -0.028645 1.108840 0.675628 1.365095 0.540274 1.315918 0.275173 0.574202 -0.317848 -0.116871 0.164152 -1.205994 0.254883 1.378460 0.464061 -0.440042 -0.429888 -1.006410 -1.111377 0.892614 0.165386 -0.786593 -0.820837 0.667066 -0.116037 -0.149380 -0.549045 0.100521 0.309148 -1.104634 -0.177473 -0.577356 -0.476065 -1.533550 -0.883277 0.216944 -1.106956 -0.034542
day 0.194018 -0.663950 0.122957 0.226138 -0.507215 -0.704751 0.348830 -0.965677 -0.116282 -0.409270 -0.528614 -0.385077 0.042657 -0.382712 0.403424 0.458104 0.246620 0.181109 0.080768 -0.344975 0.097164 -0.178593 0.483136 -0.712953 1.068205 0.714786 0.171182 -0.105351 0.101622 -0.950604 -0.729327 -0.720602 -0.551364 -0.708366 0.370148 0.743851 0.721128 1.198801 0.465003 0.822804 0.596245 -0.660359 0.122996 1.176250 0.064394 -0.654708 0.513245 -0.029097 -0.432826 0.658921 0.817977 0.556802 0.369451 0.728781 -0.034547 -1.067510 0.038617 0.766353 0.186113 -1.240275 0.504025 -0.216525 -0.446174 -0.157654 0.272910 -0.822464 -1.062867 0.664867 -0.090375 0.802435 0.790567 0.331382 0.158479 -0.168115 0.351295 -0.392070 -0.485703 -0.002322 0.247744 -0.525465 -0.274682 0.369442 0.466978 0.043454 1.902329 -0.231853 -0.085260 0.641115 0.390685 0.648535 0.342490 0.960334 -0.960047 -0.441339 -0.452979 0.269840 0.662013 -0.333491 -0.544534 0.064516 0.806704 -0.882590 0.062693 0.089367 0.260786 0.447605 -0.400941 -0.206078 0.029160 -0.954183 -1.055185 0.646432 0.999670 -1.044271 -0.916490 -0.341586 1.359005 -0.647919 0.495703 -0.827490 0.342525 0.118465 0.811651 0.310539 -0.792072 -0.280325 0.327112 0.456651 -1.052512 -0.287925 -0.731651 -0.278815 0.101218 -0.237145 -0.453404 0.487578 -0.029695 0.718946 -0.668747 1.047292 -0.504098 0.635855 0.046870 -0.364180 0.285521 -0.929991 -0.571984 -0.458796 0.035338 -0.336015 -0.384843 0.391477 0.205505 -0.290509 0.424803 -0.269769 -0.497787 -0.976895 0.086688 -0.532192 -0.678499 0.431478 -0.226860 1.052271 -0.191724 0.079289 1.509875 0.475436 0.544373 -0.840726 0.062152 0.187265 0.052738 0.196120 -0.155212 0.437344 0.343098 -0.410478 -0.138544 -0.419416 0.057153 1.269263 -1.292920 0.425166 1.364001 -0.606247 -0.167393 0.439647 0.398179 -0.088236 0.479110 -0.315229 -0.209559 -0.054462 -0.135686 -0.358869 -0.684436 -0.067648 -0.351969 0.268120 0.057210 0.018781 0.520357 0.481540 0.040748 0.983172 0.344706 0.149257 -0.940359 0.564189 -0.961229 0.363432 0.302079 -0.718429 0.479274 -1.393941 0.654465 -0.675506 0.986797 0.841284 -0.686877 -0.981147 0.818716 -0.484371 -0.005053 0.124972 1.031216 0.349765 0.406577 0.689668 -0.752834 0.402604 0.188218 0.641666 0.352030 0.164733 0.298191 -0.132885 0.580174 0.489716 0.092805 -0.400072 0.336817 -0.188435 0.780412 -0.599140 1.104093 -1.024893 0.033282 -0.788025 1.334601 0.606593 -0.149254 1.094561 -0.111085 -0.806807 -0.535494 0.737939 -0.523583 -0.269153 0.956378 0.769854 0.017427 0.354298 -0.618224 0.527612 -0.142482 -0.471260 1.254739 -0.836585 -0.808608 0.312420 0.078635 0.041336 0.191362 0.910631 -0.642910 0.518039 0.259962 -0.191963 -0.683217 0.204346 -0.441664 -0.299438 0.507964 0.545764 0.628767 -0.155761 0.307596 0.478998 -0.199858 0.614674 0.214997 0.279405 -0.573960 0.501165 0.275867 -1.034522 0.920411 0.333736
Triton 0.966459 0.151006 0.116513 0.572971 0.656258 -0.080799 -0.101103 -0.004904 0.779287 0.224671 0.696589 0.433940 0.243773 -0.272368 0.256281 0.113256 -0.298184 -0.104327 -0.367999 0.373413 -0.213328 1.320982 0.396523 -0.978718 -0.054494 -1.308389 -0.552577 -0.278169 -0.132632 0.668330 -0.077279 -0.777715 0.531303 -0.114819 -0.902092 -0.100431 0.262278 0.009644 -0.199571 -1.167545 0.308572 0.795791 0.800587 0.629288 1.052459 -0.097920 -1.223733 0.074303 1.583624 -0.391567 0.621451 -0.283358 0.193428 -0.500853 -0.469214 -0.415863 1.067538 0.377825 -0.222996 0.326180 -0.432655 -0.036568 0.413302 0.506512 0.310948 -0.294283 0.044803 0.786977 -0.320791 0.638621 0.008069 -0.200716 -0.804297 0.270736 -0.008835 0.419405 0.191489 -0.144376 -0.127958 -0.054402 -0.221398 0.126965 0.582107 -0.748191 -0.093527 0.022215 -0.103001 -0.742027 0.171056 0.222621 0.145562 -0.749323 0.290122 0.418752 0.085808 0.250233 -0.291577 -0.001374 -0.479359 0.834244 0.197405 -0.078674 -0.068886 -0.189938 0.037051 -0.264058 0.408347 -1.068913 0.609034 0.174256 0.292024 -0.214322 -0.585895 -0.155805 -0.613538 0.980151 -0.133520 0.453339 -0.052644 -0.534464 0.692438 -0.071886 -0.475448 0.646446 0.522459 0.511680 -0.908132 0.456452 1.595155 0.114130 0.355099 -0.470985 -0.421935 -1.578936 -0.334046 1.176529 0.193689 0.434370 -0.636290 0.138267 1.265900 -0.902981 -0.304042 0.302429 -0.328069 -0.666651 0.008784 -0.848485 -0.188134 -0.383968 0.135789 -0.155859 -0.341293 -0.240381 0.589423 0.367624 1.003068 -0.809643 -0.124379 -0.690215 0.337781 0.484750 0.576238 -0.413798 0.150242 0.158947 0.934444 0.484392 0.906901 -0.385350 -0.405879 -0.750581 -0.177791 0.163726 0.264828 0.457585 0.026549 0.220686 0.103300 0.203641 -0.141339 -0.423533 -0.750659 -1.090269 -0.115766 -0.446909 0.228698 0.012128 -0.030514 -0.131306 0.388251 -0.044849 -0.090871 -0.773358 -0.504967 -0.322335 -0.324175 0.011173 -0.719202 0.008847 0.305804 -0.196209 0.485219 0.742300 0.338096 -0.486558 -0.007451 -0.058107 -0.876116 -1.102122 -0.623902 0.504654 0.893027 -0.390899 0.035341 0.411585 -0.503863 1.237940 1.407203 0.548613 -0.458547 -0.503214 -0.510377 -0.155332 0.355050 0.096388 -0.384128 0.053068 -0.019141 0.518290 -0.117950 -0.096221 0.395733 -0.400661 0.039149 1.189082 0.358689 -0.105967 -0.443063 -0.268006 0.310402 0.922900 -0.590028 0.602847 0.040833 0.419802 0.486450 0.355693 -0.314573 0.371449 -1.173654 -0.703378 0.419084 -0.500608 0.811360 0.499120 -0.731279 -0.126897 -0.222315 0.060937 0.356492 0.649231 0.165779 -0.687595 0.182821 0.513759 -0.474882 0.429409 0.105020 0.425589 -0.293894 0.246358 -0.218793 -0.891429 -0.273346 0.687437 1.147224 0.454952 0.596851 -0.570902 -0.785166 0.507110 0.645386 -0.298331 -0.478100 0.989423 -0.040270 0.181238 0.243677 -0.248975 0.737366 0.049460 -0.237052 -0.647256 -0.347449 -0.529632 -0.369131 -0.170379 -1.237203 -0.099438
Thomas -0.677523 0.052996 -0.214883 -0.112870 -0.332253 0.868929 0.368705 0.505534 0.006971 -0.267818 0.168159 0.458497 0.618137 -0.153888 0.768853 -0.745940 -0.127454 0.099821 0.760889 0.363425 0.614925 0.625788 1.251334 -0.104813 0.969137 0.048589 -0.159812 -0.176254 -0.888034 0.131736 -0.342062 -0.138569 -0.751777 0.198335 0.044150 0.373433 -0.250059 0.215559 -0.086822 -0.113515 0.555660 -0.278798 -0.572817 0.429536 0.547291 -0.050548 0.104016 -1.020871 0.414415 0.586271 -0.594665 -0.312293 1.112754 -0.044333 1.183440 -0.059066 0.165832 -0.073776 -0.769674 -0.648788 -0.774505 0.064387 1.688267 0.074698 -0.345770 -0.032441 -0.301974 0.200323 -0.336427 0.380051 -1.026475 0.475660 -0.115444 -0.501791 -0.026521 1.469753 0.310889 0.937356 1.034961 0.805842 -0.864412 0.290551 -0.154488 -0.015092 0.335229 -0.601951 0.901861 -0.704051 -1.581130 -0.368575 0.505323 -0.096013 0.139431 -0.938542 1.061730 -0.021247 0.752937 0.385947 -0.428612 -1.141592 -0.002127 -0.111456 -0.512212 0.305551 0.377475 0.313044 -0.884913 0.016879 -0.967755 -0.420081 -0.089808 -0.729668 1.068460 -0.733053 0.116373 0.030170 0.065865 -0.202607 0.503663 -0.592044 -1.285912 -0.345271 -0.697519 -0.909345 0.717107 -1.118388 0.153366 0.791957 -0.434718 1.899798 0.066280 0.692085 -0.086322 -0.105264 0.517747 -0.324483 0.795683 0.028249 0.445436 0.355678 0.870308 0.116555 -0.094221 -0.808192 -1.385888 0.021787 0.320538 0.165489 0.979334 0.143828 0.654670 1.038875 0.188184 0.419273 0.218212 0.224056 0.881756 -0.771191 0.279951 0.402546 -0.192691 1.080681 0.403605 0.385222 -0.347573 0.230583 -0.772728 0.220282 -0.034457 -0.304131 -0.025692 0.643756 -0.233482 -0.199282 -0.576034 -0.249201 -1.087385 -0.592852 0.114145 -0.213385 -0.530415 0.600475 0.655497 1.088943 0.936691 0.151717 -1.144937 -0.606606 -0.328017 -0.007763 0.509294 -0.411882 -0.104444 -0.531029 -0.689190 0.036372 0.135367 -0.776930 -0.082929 0.055460 0.050207 0.228996 1.379076 0.645031 0.219583 -0.361674 0.213311 -0.897733 0.264838 -0.019110 -0.285680 -0.539437 -0.312631 0.147305 -0.437698 0.480195 -0.599964 0.513704 0.569935 -0.054602 -0.388584 -0.127324 -1.493764 -0.035096 -0.132240 -0.872991 0.593190 -0.467664 -0.529841 0.649989 0.254593 -0.111560 0.796425 0.416605 -0.260248 -0.572962 0.614332 -0.313740 -0.359347 0.384324 -0.069120 0.272301 -0.459536 0.477904 0.206788 -0.008391 -1.041005 -0.343401 0.343324 -0.510196 0.134027 -0.060281 0.771719 0.598382 -0.846897 -0.398396 -0.354747 0.405800 -0.055392 1.076764 0.743952 -0.949617 0.002293 -0.102357 -0.420184 -0.223117 0.928864 -0.348251 -0.961175 0.940322 0.142357 0.574620 -0.719828 0.021915 0.078963 0.030276 -0.254283 -1.132880 -0.122047 1.585620 -0.993402 0.539921 0.944725 -0.137019 0.751552 1.316032 0.046371 1.481766 1.788965 -0.000846 1.283671 -0.611015 -0.277161 -0.024239 -0.189300 0.954610 0.118501 0.200770 0.543105 0.093968
Saturn 1.219297 2.145992 -0.175801 0.575535 0.272457 -0.155128 -0.410792 0.057664 0.311943 0.541921 0.466541 0.070680 0.048581 -1.481968 1.309062 0.297807 0.119043 0.318859 -0.716033 -1.759286 -0.871397 0.376561 0.226316 -0.923739 -1.082021 -0.893933 -0.973428 -0.694297 0.278698 0.427761 -0.245311 -0.471588 0.106330 -0.922621 -1.405784 -0.648537 0.166686 0.293761 -0.515166 -2.122629 0.535716 1.613995 -0.271747 0.791704 0.409981 -0.516623 -2.026738 1.341807 1.334699 0.122209 0.791291 -0.068845 -0.499848 -0.476037 -0.952916 -0.435771 0.191185 0.422156 0.169674 -0.370112 -1.089976 -0.345601 0.747582 0.853481 0.402683 0.472397 -0.628780 0.747320 0.162791 0.561375 1.582860 0.561079 0.371263 1.464767 -0.261960 1.089736 1.265715 -0.466119 1.118053 -0.086746 0.258442 -0.943916 -0.044220 -0.623280 0.603202 0.012419 -0.184650 -0.321894 1.968169 0.406225 1.336555 0.283975 0.520539 -0.341828 1.335690 -1.168915 -0.727817 0.314051 -0.867485 1.592621 -0.262859 -0.152950 -0.905970 0.130612 0.198362 -0.146307 0.847577 -1.092755 -0.166852 0.095187 0.812322 0.566701 -0.889651 0.410402 -0.736134 1.022149 -0.501070 1.291915 0.028555 -0.425939 -0.432436 -0.846383 -0.521438 -0.887841 0.016293 1.287687 -0.629584 0.667045 1.931219 -0.104643 -0.246202 0.348446 -0.185062 -2.233413 -0.579078 2.017006 0.505177 0.935287 -1.306266 0.085993 0.694497 -0.809567 -0.289389 1.149490 0.766660 0.619076 -0.708087 -1.745740 -0.388110 -0.851876 0.147594 -0.247420 0.900720 -1.259163 0.078050 -0.528489 0.988014 -1.090928 0.636152 -0.794358 -0.192619 0.293757 0.651894 0.202382 0.669703 -0.052909 0.265543 -0.779928 0.284964 0.077901 -1.001904 -1.508030 -0.080549 -0.907622 0.089295 -0.420588 -0.424509 1.081301 -0.341159 0.379506 -0.114644 0.681136 0.128155 -0.559583 0.721024 0.282839 1.486856 0.511080 -0.313841 -0.017822 1.149476 1.132557 0.602926 0.278856 -0.901036 0.779474 -0.637893 0.011331 -0.101093 0.052047 0.170293 0.197478 0.713746 -0.448506 0.271874 -0.985374 0.266401 -0.004242 -1.164446 -1.270455 -0.766841 1.666170 0.945193 0.090884 0.731280 -0.946269 -0.346819 0.474611 0.411528 0.740138 0.923472 -1.431274 -1.126594 -0.246498 0.161155 0.493020 -0.464009 -0.550251 -0.950494 -0.578118 -0.037953 -0.104018 -0.070211 -0.877056 0.595188 1.516578 0.275984 -0.077536 -0.406251 0.614104 -0.790955 0.926876 -0.931727 0.007467 1.031008 0.831090 0.986306 0.151464 0.509136 0.004290 0.234708 -0.239898 0.917901 -0.766617 0.998159 -0.484350 0.254960 -0.050148 0.279665 0.357466 0.725731 -0.247091 0.606333 0.368673 0.225425 1.725263 0.035950 1.133863 -0.248909 1.141729 -0.057156 -0.218677 -0.202406 0.066069 0.582152 0.850657 0.799122 -0.649564 0.338994 -1.209615 -1.055058 1.037654 -0.514411 -0.345118 -1.151682 1.606871 -1.111859 0.375895 -0.660774 -0.618941 -0.305247 0.156315 0.570580 -0.930215 -0.345552 -0.821314 0.381713 -0.499382 -0.644927 -0.078589
jaguar -0.861839 0.852385 0.166522 0.202377 -1.000576 -0.810682 0.906181 -0.618006 -0.052211 0.673748 -0.336112 -0.535595 0.635858 -0.079970 0.012103 0.922829 -0.227784 -0.765918 0.119585 0.597920 -0.343790 -0.410998 0.331769 -0.108358 0.163144 -1.001087 0.086634 0.262521 0.362909 0.556799 -0.716702 -0.630841 -0.110640 -0.642710 0.606221 0.508402 -0.276204 -0.091656 -0.461255 -0.397813 -0.420305 0.131321 0.162236 0.150677 -0.775401 0.323897 -0.991210 -0.543175 -0.064942 -0.622328 0.243184 0.083026 0.224574 -0.367602 0.833722 -0.699532 -0.898986 0.003955 0.972696 -0.688987 0.525822 -0.191731 0.595938 0.742760 1.050332 0.825535 0.337004 0.104080 0.120821 0.048546 -0.181141 0.136719 0.327291 0.125409 0.408312 -0.835797 0.087968 0.334828 -0.171531 0.456164 0.084591 0.285408 -0.396673 0.570391 0.843830 -0.033245 0.421182 0.421433 -0.512205 0.885869 0.096854 -0.854117 -0.280461 -0.662447 -0.062360 0.384007 -0.453629 0.192385 -0.411180 0.568776 0.011156 0.626141 -0.683707 -0.145414 0.337809 -0.211467 0.487759 0.036409 0.031271 -0.002222 0.693088 0.620647 -0.111874 0.000430 0.233527 0.429780 -0.144144 -0.367305 0.356717 0.136780 -0.959986 0.954480 -0.451388 -0.109006 0.482436 0.121078 -0.190619 0.497629 -0.015502 0.386858 -0.363053 -0.103362 0.095437 -0.075132 0.106422 -0.232984 -0.106650 -0.259958 -0.197268 0.116018 -0.128143 -0.302890 1.008113 0.910967 -0.362799 0.914923 0.874441 -0.744905 0.485058 0.712742 0.463951 -1.124421 0.661743 -0.659830 -0.173301 -0.624948 -0.377023 -0.239981 -0.020470 0.177868 0.357232 0.418418 -0.410857 0.532144 0.786527 -0.188250 0.083471 -0.083237 0.410757 -0.655158 0.579205 -0.750796 -0.649964 0.030924 0.398224 0.467118 0.260857 0.385818 -0.256671 -0.799733 1.039929 -0.161462 -0.728490 -0.342176 -0.654626 -0.939267 0.113120 -0.134830 0.139728 -0.193067 0.468405 -0.003639 0.398287 -0.951244 -0.572637 0.033057 0.236878 1.117760 -0.130311 -0.058284 0.994369 -0.443197 -0.282937 0.794260 0.040982 0.131273 0.527960 -0.013819 0.821768 -0.011092 -0.138229 -0.017910 0.598060 -0.612331 0.673770 -0.006761 0.055206 0.209151 0.178173 -0.478170 -0.422918 -0.665251 -0.088016 0.038935 0.110400 -0.929666 0.408985 0.051068 -0.883521 0.028747 -0.283208 0.210354 -0.047987 0.133822 0.253626 0.000447 -0.551551 -0.512415 -0.073633 0.327016 -0.001169 0.060766 -0.294857 -0.150243 0.398887 0.792960 0.256206 0.033161 -0.284167 0.330322 1.293231 -0.024252 -0.561580 0.483175 0.462699 -0.644093 1.213145 -0.364583 -0.205618 0.251752 -0.007570 -0.083597 0.394530 1.076385 0.164401 0.123980 -0.630623 0.570547 0.505734 0.826094 0.687520 0.393660 -0.154010 -0.311810 -0.149841 -0.178934 0.646907 0.486084 0.510609 -1.109462 -0.113719 -0.442589 -0.096737 -0.009461 -0.398941 0.525871 -0.811820 -0.929578 0.425664 0.321533 -0.338234 -0.143781 -0.258810 -0.382481 0.510436 0.264627 -0.885475 -0.802293 -0.143287 0.954903
Noah 0.309459 -0.586426 -0.168705 -0.002173 -0.332798 0.759259 0.378583 0.405859 0.346418 -0.342134 -0.894160 0.310039 0.790101 0.195563 0.502633 0.376480 0.247428 0.242504 -0.714910 -0.489929 1.366516 0.450276 2.167329 -0.085982 1.050867 -1.917927 0.094058 -0.042004 0.629107 1.926111 -0.209177 -0.518436 -0.830275 -0.357950 0.406704 -0.917111 -0.081428 -0.861730 0.019299 0.665075 -0.657305 0.060793 1.051965 -0.529427 0.443960 -0.377393 -0.380596 0.956913 -0.151835 -0.938980 1.570511 -1.114335 0.493510 0.587595 0.818395 0.169370 -0.958794 0.411648 0.065310 0.193372 -0.971454 0.241147 0.069277 0.119826 0.203254 1.247419 -0.751020 -1.133631 -0.337655 1.227204 0.190842 0.667174 -0.237817 -1.351969 -0.920294 1.465718 -0.595856 0.523437 -0.297706 0.915665 -0.268513 -0.216838 -0.666779 -0.600242 0.794898 -0.282657 0.363733 1.026600 0.625642 0.193341 1.352364 -0.859185 -1.245796 -0.335159 -0.031511 0.533520 0.456834 -0.528243 -0.938215 -0.237450 0.138903 0.187658 -0.603921 0.745282 0.329335 -0.299766 0.800953 0.349832 0.107064 0.332869 -1.091859 -0.334350 0.255527 0.042575 1.191957 0.119170 0.696893 0.110412 0.686377 -0.709206 0.186542 -0.895812 -0.227802 -0.171536 -0.182039 -0.347577 -0.332027 0.198771 0.210885 -0.092625 0.078924 -0.233995 -0.233966 -0.254179 -0.785947 0.877709 0.232921 0.539029 -1.138779 0.093826 1.097862 1.077136 0.221316 0.945377 -0.843013 1.668362 -0.186653 -0.054740 -0.325128 0.157801 0.101492 0.275240 -0.271638 -0.462184 -1.182844 -0.984087 0.014495 0.024026 0.070940 0.227665 -0.146250 1.039619 -1.223689 -0.352167 0.106470 -0.520175 -0.670664 -0.226081 1.378042 -1.638598 1.396030 -1.876887 0.175203 -0.248298 -0.394444 -0.604066 0.398117 -0.220490 -1.018031 0.463999 -0.350131 0.120300 -1.463183 0.243350 -0.054113 0.593548 0.087336 -0.976493 -0.342767 0.216066 0.501127 -0.451327 -0.012328 -0.754989 -0.882728 -0.720987 0.309213 0.389962 0.119265 -0.175548 -0.697691 0.687460 0.465372 1.343176 -0.011917 -0.560030 0.199613 1.382343 -0.341721 0.376818 -0.391179 -0.413390 -0.411786 -0.448852 -0.521906 -0.752835 0.728710 1.181760 0.591815 0.288294 -0.850759 -0.295325 -0.147680 -1.178356 0.069746 0.035181 0.027872 0.152449 0.541719 -0.179078 -0.463366 -0.073106 -0.638665 0.216823 0.330894 0.319213 1.116279 -0.263376 -0.973195 -0.333577 1.043992 -0.950408 0.795856 -0.629085 0.527526 -0.029127 -0.832044 -0.091582 1.008313 -0.802837 0.430979 -0.018783 0.170500 0.077385 0.172995 -0.291083 -0.691708 0.486615 -0.803079 1.307709 0.875912 -0.244062 -0.024026 0.789971 0.997624 0.089590 -0.768463 -0.807650 -0.233730 -0.382163 -0.536138 0.223438 -1.182727 -0.312996 0.704935 -0.416898 0.164162 0.838401 0.378442 -0.313940 -0.400310 -0.343716 -1.062279 -0.715722 -0.262894 -0.447421 0.000019 1.385906 0.340274 -0.024277 0.311227 0.979994 -0.910779 -0.037013 0.442971 0.836831 0.788657 -0.139434 -0.652370 0.609933
Jupiter 1.750839 0.866588 -0.248202 1.043946 0.180454 -0.779072 -0.913851 0.075799 0.158955 0.556937 -0.536159 0.221243 1.027565 -0.997767 -0.045238 0.756231 0.282353 -0.267492 0.047008 -0.951757 -0.632216 0.679023 0.594265 -0.949487 -1.036495 -1.094514 -0.411935 -0.704992 0.085183 0.655245 -0.019230 -0.310496 0.185219 -0.457181 0.101249 0.041169 0.421642 0.317475 -0.161333 -2.021346 0.364420 1.589932 -0.007099 1.095436 -0.106957 -0.353743 -1.551947 1.239866 2.188422 -0.402861 1.206336 0.692451 -0.955483 -0.110665 -1.324800 0.023259 0.326086 -0.131234 -0.208644 0.033808 -0.990510 -0.327112 1.189045 0.560629 1.328748 -0.404329 -0.213060 0.913978 0.121285 0.337255 1.849006 -0.286492 -0.457837 1.170164 0.119460 0.668187 1.024249 0.725182 1.630556 -0.054153 -0.230087 -0.629721 1.082250 -0.613913 0.377143 -0.346694 -0.506413 -0.387479 1.155890 1.251891 1.720873 -0.644525 0.694943 -0.027728 1.582705 -0.596836 -0.400555 -0.257937 -0.424203 0.916406 -1.456577 0.552741 -0.361896 -0.301022 0.583797 0.314892 -0.330496 -1.214034 -0.407231 0.178242 0.444803 -0.372368 -0.459899 -0.314432 -0.737046 0.293272 -0.537346 0.237119 0.265444 -0.191486 -0.282918 -0.461320 -0.919618 -0.827520 -0.813565 0.515985 -0.496481 -0.272402 1.883945 -0.407915 -0.433235 -0.822356 -0.919810 -1.364735 -1.298766 1.721119 1.020228 0.857623 -1.128095 0.194424 0.949416 -1.133635 0.362755 1.112305 0.757194 0.314893 0.394436 -1.499116 -0.624341 -0.469654 0.114215 -1.159693 1.179681 -1.270395 0.635943 0.030221 0.841883 -1.034281 0.311884 -0.728609 0.552272 0.253735 0.904484 -1.193288 -0.266161 0.304505 0.285675 -1.219700 0.729680 -0.186657 -0.877744 -1.565983 0.046656 0.281395 0.255694 -0.470909 -0.967265 0.247090 0.512265 -0.126804 -0.983070 1.116978 0.376873 -0.821188 0.300354 0.151605 1.569079 0.146981 -0.423305 -0.342616 0.833624 0.843902 0.838902 0.438579 -0.924035 -0.674176 0.829844 0.648077 -0.810195 0.264893 0.274204 0.068679 0.659242 -0.052023 0.541759 -1.559823 -0.159192 0.008995 -1.052178 -0.282082 -0.425390 0.854216 0.958959 0.024153 0.847771 0.087793 -0.468789 0.964996 0.694025 0.918928 0.006717 -0.133280 -1.133962 -0.657528 0.513641 0.130592 0.039328 -0.512103 -0.226075 0.353763 -0.255674 0.508255 -0.384651 -0.222352 0.487085 0.913581 0.487876 -0.469951 -0.134936 0.197159 0.934353 1.193218 -0.242571 -0.179816 1.344579 0.220857 0.359103 0.027663 -0.189818 0.268616 0.243661 0.124056 0.763626 -1.024266 1.658995 0.047715 -0.536991 0.258201 -0.048260 -0.097728 0.307008 0.020640 -0.032637 0.799463 0.580228 1.700627 -0.337943 0.795949 0.396795 1.146940 -0.622918 -0.668211 1.127499 -0.574136 0.139862 0.751020 0.571450 -0.942926 0.595103 -1.592414 -0.759212 0.039959 -0.325178 -1.189406 -0.849999 1.025535 -0.216129 0.296415 0.291898 -0.356987 0.119695 -0.510035 0.637097 -0.798037 0.015868 -0.908675 0.334887 0.443329 -1.053507 -0.097519
Uranus 1.970526 1.583221 -0.201915 0.680727 0.331882 0.107675 -0.731527 -0.795249 0.785255 0.496328 0.071439 0.265234 0.814379 -1.984956 -0.101927 0.242995 -0.407316 0.032992 0.206615 -1.502947 -0.326431 0.081978 0.344233 0.130630 -1.912445 -1.420130 -0.152223 -0.223699 -0.024116 0.807856 -0.810964 -0.694682 0.651738 -0.674174 0.011775 -0.460329 -0.661119 0.090852 -0.311793 -2.348315 -0.010237 1.788833 -0.472531 0.307452 1.036572 -0.348729 -1.020091 0.564374 2.467161 -0.553218 1.404397 0.403720 0.410684 0.491223 -1.402136 -0.325577 1.042552 0.568618 0.446106 0.134309 -0.619117 -0.774124 -0.062911 1.291193 1.520601 0.064657 -0.590538 0.504008 -0.152254 -0.001179 0.848452 -0.468579 -0.928498 0.698100 -0.668310 0.495531 0.752662 0.255094 0.190166 0.251045 -0.198720 -0.484148 0.971037 -0.460500 0.081531 0.297392 -0.291172 -0.369677 0.710430 0.009623 0.534266 0.412084 -0.019304 0.628844 0.943224 -0.627271 -0.320920 0.051798 -1.087566 1.734496 -1.203420 0.619510 -0.795747 -0.096472 0.736859 -0.175953 -0.808890 -2.087630 -0.285292 -0.278056 0.695112 -0.406566 -0.527795 1.172033 -0.418834 0.238025 -0.481033 0.527783 0.956457 0.175495 -0.123594 -0.683239 -0.911565 -0.144628 0.734552 1.041419 -0.601613 0.145182 2.057618 0.545227 0.163277 -0.414996 -1.229791 -2.477550 -1.257442 1.248025 -0.082564 0.161000 -1.579986 0.482741 1.285169 -0.356036 0.263622 0.186286 0.410118 -0.032896 -0.087497 -1.722012 -0.878395 -0.551725 0.368874 -0.609075 -0.119723 -2.005259 0.491542 0.263008 0.192181 -0.911309 0.466185 -1.689320 -0.393160 -0.734223 0.224965 0.994284 0.502131 -0.257104 -0.008636 -0.909646 0.398720 -0.380588 -1.077067 -0.466830 -0.300551 0.263551 0.434458 -0.631717 -0.864723 0.450992 -0.921266 0.396610 -0.774426 0.920737 -0.151912 -0.814277 0.437696 0.930867 0.642325 -0.579014 -0.871623 0.612510 1.585130 0.981270 0.365434 0.204809 -1.614931 -0.480432 -0.282920 0.598626 0.027773 -0.465263 0.410740 -0.416013 0.565640 0.671790 0.965847 -0.512714 -0.382076 0.754169 -0.576900 -1.464786 -0.859472 0.812311 0.945879 -0.902249 -0.553554 0.069991 0.553333 1.319311 -0.123193 1.292343 -0.621057 -0.503556 -0.708060 0.473705 0.151851 -0.771046 -1.089882 0.111991 -0.632322 0.134790 -0.717047 1.008176 0.047232 -0.131003 -0.143681 0.982006 0.716828 -0.714085 -1.566779 -0.171930 0.616890 1.899074 -0.186786 -0.538057 1.235876 0.663597 0.245406 0.303335 -0.691201 0.129084 -0.496814 -0.031273 1.172904 -1.840551 1.279946 -0.806806 -0.412279 0.731814 0.353583 -0.820969 1.030538 -0.023252 0.925288 -0.230819 1.040458 1.835353 0.858706 1.271369 0.314228 0.875303 -0.220165 -0.092410 0.892620 -0.521512 0.553660 0.894457 0.832076 -0.906093 0.406820 -2.128522 -1.539608 1.102336 -0.809200 -1.042813 -0.829005 0.876950 -0.795243 0.453066 0.099110 -0.676867 0.724469 -0.237375 0.781609 -1.323618 -0.653663 -1.132481 0.691259 -0.154443 -0.739246 -0.026343
crucifixion 0.250806 -1.262994 -1.179569 0.307443 -0.504729 0.462691 -0.484522 -0.556610 0.996587 0.312380 -1.494079 0.267448 0.067316 -0.564317 -0.401916 0.382145 0.160948 1.002284 -0.176577 -0.402378 1.210427 -0.197046 0.790781 -0.692241 1.739136 -0.970593 -0.413261 0.710602 -0.471192 0.077694 -0.960734 -0.437400 -0.685858 0.464972 -0.101280 0.681800 -0.154756 0.458214 0.195045 -0.453083 -1.345090 1.427464 0.600189 -0.308877 0.061964 -0.526069 0.640007 0.173193 -0.697192 0.813877 0.571172 -0.776422 0.187399 -0.611470 0.920794 0.188938 -0.120769 0.070959 0.361866 -0.343555 0.273757 -1.260770 1.329338 -0.510290 1.856923 0.563090 -0.136272 0.356350 -0.128698 -0.319158 0.555269 0.348076 -1.078609 -0.638645 -0.474821 -0.107598 -0.456091 0.539346 1.198475 0.830748 -0.415435 -0.032087 0.164100 -0.482428 0.852473 -1.335659 -0.256736 -0.475745 0.865555 1.061090 1.212057 -1.712556 -0.282506 -0.675951 -0.387600 0.300344 -0.467574 -0.021288 -0.273214 0.060367 -0.676902 0.187534 -0.388787 1.779527 -0.249324 0.473669 0.019934 0.575395 -0.189583 0.117844 0.187485 0.021322 0.152468 0.835783 -0.371935 0.757836 -0.612220 -0.425555 1.130176 -0.265306 1.530200 -0.483740 -0.548681 -0.414871 1.477198 -0.927293 -0.244444 -0.630338 -1.815557 0.440090 -0.558660 0.020805 0.247346 0.085065 -0.213074 0.903476 -0.622147 0.798767 -0.623845 0.474284 0.241863 0.282612 0.721218 0.071929 -1.276388 -0.626821 -0.725462 -0.202440 -1.043287 0.580624 -0.113513 0.436165 1.003996 -1.268295 0.075473 -1.137831 -0.629809 0.901443 0.446040 0.608184 1.023031 0.096026 1.204088 -0.448214 -0.033815 0.391210 -0.590641 -0.027251 0.475275 -1.019529 0.656298 -0.777296 0.186294 -0.201972 0.605961 0.308595 0.338519 0.138687 -1.769737 0.911026 -0.209338 -0.105949 0.692822 0.868385 0.613931 0.957910 -0.506550 0.096845 0.576318 0.722447 1.531496 -0.930568 -0.584796 1.197803 -0.693779 -1.295778 0.136669 -0.076232 0.339939 0.849449 0.199441 -0.550583 0.074710 -0.318219 0.537892 -0.327512 -0.533564 0.201599 -0.305355 0.087178 -0.382586 -0.780319 0.192140 -0.833953 0.352753 0.339669 0.490120 -0.462741 0.952115 -0.308255 -1.600434 -0.387444 1.050376 -0.051365 0.198883 0.244152 0.300728 -1.155922 0.012486 0.388901 -0.274060 0.178589 0.745072 0.323442 -0.229239 -0.819386 0.849729 -0.784675 0.768633 -0.608590 0.728022 0.877703 -0.119915 -0.574329 0.415956 0.756492 -0.249642 -0.422200 -0.827128 -0.978468 -0.312370 0.460431 -0.473972 -0.553785 0.406947 -0.749800 0.517201 0.270125 1.053123 0.926801 0.272756 0.240489 -0.021887 1.231904 0.069896 0.004615 -1.119933 0.098848 -0.634535 0.275544 -0.241810 0.038213 -0.615373 -1.072965 -0.387887 -0.638909 0.134008 -0.215176 0.303928 -0.033451 -0.286662 -0.880280 -0.557092 -0.311909 0.631570 -0.036799 1.407123 0.133760 0.572179 -0.256684 -0.484721 -0.753018 -0.271044 0.033548 -1.284117 0.576962 0.545292 -0.344329 -0.075801 -0.528968
Bridgestone -0.227960 0.381698 0.328017 0.646918 -0.539435 0.112433 -0.000687 -0.834214 -0.363560 0.656025 0.285143 -0.289053 -0.285758 0.891717 0.021374 0.770329 0.355507 0.393476 -0.032032 -0.175359 -0.691007 1.639358 -0.800859 -0.607129 0.656778 -0.256863 -0.673678 -0.392055 0.565782 0.789354 -0.113183 -0.503901 -0.662076 0.396296 -0.558187 0.710050 -0.486009 1.143350 -0.214008 0.188064 -0.121193 -0.280160 -0.254999 0.201598 -0.394075 -0.163648 -1.144049 -0.597005 -0.452540 -0.724321 -0.366279 0.249983 -0.350885 -0.581420 -0.968600 0.165853 0.341432 1.299476 0.776895 0.414834 0.872582 0.259440 0.493073 -0.486772 -0.142358 0.480533 0.847166 0.796652 0.422264 -0.380595 -0.190169 -0.710276 0.131024 0.691843 -0.224132 -0.222223 -1.039683 0.578054 0.397423 -0.341530 0.642440 -0.091830 -0.209733 -0.346366 0.317893 -0.358599 0.503316 0.467151 0.176048 -0.810972 0.211543 0.377494 1.051961 -0.425479 -0.726519 1.229967 0.243568 -0.581587 -0.126977 -0.003325 0.793978 0.807965 -0.637318 -0.152115 -0.520653 -1.277142 0.056162 -0.524579 0.490240 0.177511 0.204034 0.227643 -0.306412 -0.032004 -0.053459 0.703883 -0.214538 0.424680 -0.263920 0.226232 -0.599871 -0.171633 -0.276472 -0.574419 0.592813 1.271880 0.003949 0.472960 -0.345421 0.276362 -0.482060 -0.092142 1.126100 -0.097700 -0.052907 0.001619 0.418044 -0.007801 -0.229593 0.090369 0.389667 -0.078347 -0.225223 0.335224 0.442905 -0.037483 0.504005 -0.013466 -0.004041 -0.514685 -0.257660 0.448999 -0.524650 -0.038127 -0.340180 0.729870 0.270031 0.741151 -0.199731 -0.803081 0.272116 -0.790735 -0.246183 0.239171 0.109284 -0.500456 -0.365771 0.220594 0.677681 0.111788 -0.952770 -0.417336 0.058916 -0.011890 -0.321949 0.239569 -0.100497 0.616814 -0.049563 0.657166 0.056829 -0.497396 -0.619755 0.163402 0.654375 -0.337183 0.475080 -0.049383 -0.779036 -0.014729 -0.072225 0.868730 -0.840719 0.339639 0.167040 0.537325 -0.313395 -0.386992 0.085011 0.015200 0.805840 0.691808 -0.983315 0.082758 0.798840 -0.014110 -0.031967 0.023742 -0.134791 -0.572438 -0.592458 -0.151504 1.149810 0.206423 -0.193045 -0.655725 0.524643 0.287832 -0.369607 -0.675751 -0.144884 0.119336 -0.521329 -0.222002 -0.619968 0.080810 -0.008109 -0.677546 -1.750324 0.261293 -0.113561 0.244912 0.191002 -0.212795 0.313652 -0.662342 0.164649 -0.085395 1.053343 0.533738 0.552608 -0.868034 -0.535561 0.599366 0.746420 0.262704 0.149707 0.580636 0.590077 -0.076851 0.263584 0.118154 0.594708 0.284506 -0.084989 0.065698 -0.110692 -0.384803 0.030300 0.666027 0.459849 0.150017 0.278062 0.186005 -1.631932 -0.049701 0.711134 0.424785 -0.089791 0.384899 0.408790 0.706796 0.679530 0.390007 0.843176 -0.973483 -0.070162 -0.186770 0.008246 0.074893 0.398511 0.505032 0.338682 -0.756820 -0.039820 0.465805 0.383826 -0.837065 -0.738687 -0.047048 0.790603 -0.166021 0.798012 1.546563 -0.592011 -0.097244 -0.545770 0.690026 -0.678223 -0.749516
Sun 0.658950 -0.323477 -0.472360 1.025712 0.271770 -0.836545 -0.892729 -0.587538 0.520263 0.752251 0.197514 0.526802 0.654081 0.580843 -0.328678 0.326291 -0.150537 0.764635 -0.421031 -0.815941 0.123770 1.292380 0.970520 -1.342060 -0.573450 0.338984 -0.372276 -0.212094 -0.140209 0.163760 -0.292486 0.800384 0.074939 -0.416581 0.285051 0.559136 0.183874 -0.166335 0.137651 -0.425209 0.014479 0.843122 -0.242379 0.190835 0.265074 -0.279699 -0.561575 0.762660 0.496842 0.448642 -0.182235 0.691466 -1.484112 -0.073292 -0.690629 -0.196671 0.090707 0.540513 0.997782 0.239126 -0.207781 -0.151479 0.236727 0.165488 0.135980 -0.077251 0.549955 0.573601 -0.535328 0.070042 1.339905 -0.292746 -0.399808 0.522449 0.383766 0.274362 -0.255411 0.318442 1.152400 0.311674 0.490191 -0.013431 0.377567 -1.335281 1.129994 -0.936228 -0.155126 -0.128361 0.879809 0.319240 0.668969 -1.574809 0.946882 0.650463 0.500150 -0.298693 -0.861259 0.767101 -0.919309 0.030430 -0.502970 -0.225426 -1.207861 -0.108830 0.051133 0.173411 -1.007072 -0.066369 -0.117677 0.596112 0.386956 -0.694955 -0.053639 -0.515814 -0.662644 -0.096573 -0.234323 0.594229 -0.520636 -0.699094 -1.153474 0.324111 -0.338029 0.025239 -0.809330 0.637203 -0.782597 1.418521 0.180168 -0.088824 -0.273273 -0.052969 -1.037094 0.023969 -0.895698 1.254621 0.770123 0.314258 -0.604994 0.684561 -0.020117 -0.796533 -0.474954 0.400517 0.259744 0.205222 -0.283966 -1.435957 -0.043934 0.844974 0.506208 0.153437 0.140273 0.156156 0.358250 0.162623 0.384997 -0.813227 -0.322249 -1.136926 -0.068160 0.404098 0.730979 -0.997795 0.638363 -0.222042 0.027233 0.055364 0.760793 -0.327173 -0.152884 -0.920941 0.607213 0.097028 -0.500410 0.009697 -0.129654 -0.553186 0.628817 -0.096828 -0.407092 -0.337920 -0.021953 0.365841 1.306742 -0.741345 0.511595 0.134743 -0.244333 0.598422 1.382622 0.525338 0.599052 0.283380 -0.348122 -0.196354 0.021364 -0.323218 -0.042742 -0.241707 0.380282 -0.356725 0.345867 0.012600 -0.329887 -0.810405 0.740054 0.356356 -0.754956 -0.260948 0.308177 0.211797 0.984228 -0.019415 -0.025412 0.098379 -0.167467 0.155587 0.260678 0.243573 0.230215 -0.652583 -0.256245 -0.708972 -0.765781 0.508255 -0.594945 -1.495807 -0.184799 0.589890 -0.022658 0.100240 0.202075 -0.190016 0.275781 0.716587 0.647193 -0.500820 -0.269049 -0.292372 0.766969 1.121417 0.697062 0.317434 1.071569 -0.583394 0.085479 -0.550019 -0.004142 -0.230792 -0.711177 -0.213326 0.297092 -0.127676 0.356806 0.156935 -0.157057 0.054096 0.178080 0.131597 0.059427 -0.584085 0.039305 0.510652 -0.236729 0.679667 0.037540 0.299932 0.092548 0.407916 -0.481924 -0.086900 0.073709 0.127930 -0.317421 0.226377 -0.323416 -1.106185 0.878802 -0.191157 -0.496905 0.272087 -0.062191 -0.662812 0.977684 0.619482 -0.508587 -0.462328 0.035059 -0.532204 -0.074739 0.292757 0.039487 -0.872815 -0.579922 -0.616159 -0.544247 0.650039 -0.646960 -0.387168
HP -0.695278 -0.373666 -0.159608 0.676913 0.558529 -0.757499 -0.596372 -0.370575 0.393802 0.934060 1.919779 -0.437998 -0.245281 1.089285 0.190716 0.576965 0.207468 0.970553 -0.081008 -0.315635 1.126614 1.454953 0.705431 -1.018869 -1.263389 -0.090731 -1.203347 0.239034 -0.282656 0.654343 -0.275534 0.781013 -0.146095 0.552427 -0.659766 0.403634 0.326547 -0.363555 -0.584214 -0.088481 -0.137376 0.171432 -0.000354 0.315335 -0.533093 0.172953 -0.911085 -0.503277 -0.007828 -0.423450 -0.878251 0.983963 -0.692312 -0.530515 -0.168010 0.050087 -0.527117 1.135412 0.339263 0.247343 0.459105 0.248923 0.339824 0.257261 -0.353082 -0.833546 0.261741 -0.019086 -0.211848 0.112755 0.448940 -0.031482 -0.560603 -0.283928 0.235102 0.011512 -1.141966 0.564012 0.830392 0.599189 0.662921 -0.072106 -0.184275 -0.606073 0.690407 -0.029032 -1.363220 -0.136745 0.484134 0.073947 0.620238 -0.991870 0.923576 -0.308379 0.213188 0.492663 -1.058986 0.722055 -0.859584 0.370924 0.127080 0.394267 -0.063197 -0.062622 -0.727028 0.364738 -0.963386 0.061343 0.021838 0.178477 -0.463121 -0.058549 -0.731975 -0.149890 -0.391576 -0.171873 0.458110 -0.151777 0.167165 -1.051425 -1.189145 1.632865 0.218397 -0.621806 -0.035153 0.063644 0.335751 0.273359 -0.293745 -0.498361 -0.576338 -0.905317 0.023263 0.590087 -0.343107 0.176920 0.059335 -0.638459 0.369554 0.092990 0.541068 0.519175 -0.409276 1.220829 0.248156 0.021226 -0.193100 -1.379418 0.099392 0.361766 0.483434 0.630736 -0.216429 0.302480 -0.368384 0.547318 -0.392598 -0.199910 0.257953 0.274993 0.271880 -0.162690 0.143567 -1.128255 -0.178605 -0.856422 -0.073301 0.755540 0.691454 -0.732093 -0.327136 -0.193472 0.313546 0.172382 -0.461870 0.416231 -0.181073 -0.544375 -0.521867 -0.026228 0.533527 -0.521228 -0.500383 0.697927 0.006101 -0.206916 -0.527699 0.081710 -0.330430 0.233478 0.447137 0.956580 -0.085491 0.437459 0.449033 -0.115807 0.407993 -0.660230 -0.612656 0.138660 0.219372 0.285245 -0.863730 0.751511 -0.650546 -0.067419 1.052235 -0.285524 -0.460391 -0.142385 0.071739 0.588650 0.067399 -0.164505 -0.535133 0.158353 0.045193 0.010990 0.843164 -0.326900 0.032377 -0.239536 -0.533841 -0.284615 -0.477384 -0.030838 -0.626356 -0.848256 -0.981316 0.040977 0.143636 -0.099255 0.717143 -0.205290 0.670651 0.345649 0.781512 -0.589635 0.126599 0.175052 0.765912 0.435872 0.076903 0.266307 0.436311 -0.344722 -0.940275 -0.133384 0.062723 -0.347405 0.539173 0.332489 0.284416 0.626199 0.633366 1.287181 -0.386545 -0.719359 0.074092 0.607330 0.502074 0.670485 0.778842 0.101886 -1.091720 0.386561 -0.348655 -0.788807 -0.152751 -0.347998 0.138798 -0.125430 -0.248325 0.473834 0.326902 -0.689163 0.257522 -0.119767 0.685590 0.317648 0.201867 0.937046 -0.137918 0.253110 0.333238 0.053122 0.218282 -0.565802 0.228185 -0.355676 0.235650 -0.130323 -0.014956 0.217811 -0.985001 -0.185273 0.202750 0.173874 -0.393222 0.203158
February -0.647828 0.049573 0.691180 1.765461 -0.311143 0.004594 0.164062 0.314347 0.234909 0.476972 0.394367 0.204890 -0.974145 -0.873437 0.768256 0.098187 0.398280 0.892269 0.715177 1.094306 0.816127 -0.676264 0.286345 -0.512208 0.808526 -0.900883 -0.223707 -1.022658 1.084719 -0.542161 -0.987068 -1.021966 -1.112242 -0.060917 -0.686401 -0.093717 0.369914 0.572499 0.793529 -0.784683 2.277720 -1.461990 -0.857049 0.252885 0.439242 -0.912686 -1.093950 0.919325 -0.971675 0.301595 0.394039 -0.957581 -1.378383 -0.192069 -1.749717 -0.888772 1.370790 -0.604463 -1.573457 -0.345703 -0.968154 1.515757 -1.025909 -0.162311 0.507838 -1.115865 -1.122114 0.556859 1.744234 0.224062 1.613362 0.912329 -0.688176 -1.291420 -0.040899 -0.539031 -0.260459 0.219076 0.166598 -0.404512 0.263246 -0.790412 0.327666 -0.657038 0.798730 -0.534482 -0.159872 -0.262752 -0.850481 0.137651 -0.958858 0.996336 -0.571841 -1.704716 -0.695618 -0.975131 -0.187657 -0.339254 0.300158 -1.226575 -0.038932 -1.531572 -0.684011 0.051344 -1.070119 -0.051721 -1.343536 0.212609 0.328253 0.201553 0.084106 1.055972 0.006054 0.173129 0.013976 0.538533 1.234744 0.213231 0.149875 -1.339400 -1.503593 -0.131900 -0.109323 -0.374979 0.289334 -0.151639 -0.405049 1.772311 0.928661 -0.659701 -0.155820 -1.653176 0.582599 0.436605 -0.011888 -0.769335 -0.566763 -0.029790 -0.112536 -0.874908 0.355859 1.122499 -0.376496 -0.868983 -0.068983 0.130706 0.671711 0.189284 -0.600932 0.113930 -0.455938 0.044548 0.214651 -0.688463 0.018747 0.595159 -1.816812 -0.769025 0.678904 -0.535647 -0.363692 -0.575835 0.544878 0.121445 0.416207 1.102207 -0.681550 0.313999 0.261336 -0.760199 1.266480 -0.344281 0.738895 -0.529388 0.878811 1.617561 -0.558190 -0.100184 -0.156132 0.583461 -1.101700 1.097210 -0.468917 1.492067 0.842883 -1.071096 1.041460 -1.108137 0.106807 -0.737762 0.102157 -0.136622 -0.808736 0.552613 1.376294 -0.313482 0.389606 0.868477 0.361906 -1.014708 0.373605 0.734377 0.327425 0.792172 0.020150 -0.020753 0.057805 0.184734 0.116797 -0.265706 0.339697 0.757380 0.111975 0.173475 -0.092256 -0.529277 -0.429471 -0.315858 2.138031 0.161293 -0.683740 0.677872 -1.696525 0.691312 1.093345 -0.259774 -0.246075 -0.868360 -1.972093 0.929745 -0.221340 0.237015 0.053186 0.807418 0.462974 -0.208198 0.109263 -0.611130 -0.170518 0.397612 -1.127620 -1.632748 -0.191936 0.542401 -1.427452 -0.781771 1.243357 -0.918882 -1.768019 -0.091595 0.474290 1.264551 0.056618 -0.123786 -0.368005 -0.198137 0.416596 0.859843 -0.146685 -0.948969 0.167871 0.667869 0.423452 -1.032505 1.258570 0.360610 1.889831 -0.479582 0.179076 -1.681082 -1.796008 -1.427046 -0.141717 0.252728 1.120845 1.318128 -0.606181 -0.277278 0.682016 -0.622034 0.059649 -1.068725 -0.703867 -0.480966 0.145655 -0.405095 0.281366 -0.936798 0.146386 -0.334454 -0.378272 -0.038348 1.343117 0.167486 -1.073352 -0.495388 0.121401 1.715033 0.127505 0.357375
Rio_de_Janeiro 0.324114 0.510772 0.265355 2.066031 -0.975822 -0.211065 0.338235 1.871435 0.797817 0.040334 -1.193621 -0.707044 -0.387757 -1.128790 -0.480987 0.085693 0.346945 -0.350843 -0.670545 -0.506885 -0.459477 0.042613 -0.449646 -1.432286 0.778237 0.216509 -0.137026 0.223221 -0.793348 -0.181102 0.597095 -1.247765 0.131024 0.459359 -0.520000 -0.654240 -0.532772 -0.236768 -1.197642 -0.284817 -0.303159 -0.148114 -0.556400 0.112675 -0.647296 -0.382875 -1.259818 0.611454 -1.267652 -0.118654 -0.260813 -1.011381 -1.401182 -0.323707 -1.356558 -0.794603 0.462483 -0.717462 -0.955477 -1.024117 -0.295646 -0.435089 -0.002875 -0.579506 0.559799 0.225760 -0.672977 -0.635214 -0.282584 0.352632 0.395235 0.166415 -0.273987 1.064628 -0.015449 0.566683 -0.183541 1.193854 1.431551 -0.434662 -0.728115 -0.122916 0.707743 -0.304899 -1.013096 -0.603175 0.394643 1.288445 0.004208 -0.386461 -0.087993 0.506882 -0.739357 -1.080893 -0.401987 -0.002391 0.040738 -0.385077 -0.121794 -0.751129 -0.145430 -0.118349 0.200072 0.436130 -0.020705 -0.389989 -0.572400 -1.278286 0.126786 0.545877 -0.491560 0.124938 0.364288 -0.627417 -1.120848 -0.192430 -0.135593 0.082345 -1.343700 -0.373081 -0.649924 -0.896287 0.172309 0.911339 0.337525 0.613373 -0.570335 1.416451 0.050008 0.182256 1.357647 0.463780 0.292667 -0.021155 -0.610762 -0.825828 1.091970 0.171359 -0.052458 -0.618316 0.377154 -1.026468 -0.988300 -0.820666 -0.520281 0.889908 -0.405744 -0.313036 1.292630 0.117042 1.405965 -0.419471 -0.478212 -0.697662 -1.012603 0.251005 0.279985 -1.117862 -0.369774 0.110703 0.212390 -0.616993 1.165125 -0.682788 -1.962348 0.115950 -1.237291 -0.656027 0.174299 0.550108 -0.808349 0.231969 0.328994 0.370706 0.420734 -0.360779 -0.843307 -0.292621 0.265573 0.197242 -2.266764 0.041037 -0.612106 -1.161659 -0.313560 -0.717759 0.279629 0.576330 0.052460 -1.106290 1.610759 0.411555 0.825144 0.499778 -0.382291 0.966819 0.070712 0.741536 0.083514 0.502371 0.424743 0.774086 0.035536 0.699698 1.706887 -0.973293 -0.874308 0.780985 -0.269290 -0.148993 0.259750 0.347477 0.759447 -0.814744 1.060752 -0.075617 0.445630 0.647841 0.696614 -1.215292 -0.343972 -0.337414 0.878646 -0.525491 -0.727995 -0.083951 -0.099967 -0.401080 -1.958923 1.548216 0.492968 0.797857 0.120165 -0.110964 -0.035099 -0.370941 0.296908 -0.291526 -0.617326 -0.502392 -0.215759 -0.156619 0.280051 -0.585767 -0.615687 0.157394 -0.461412 0.020887 -0.020627 0.638607 0.883913 -0.055104 -0.920954 0.910535 1.331158 -0.019365 -1.029909 0.130601 0.188580 -2.277827 -0.336067 -0.467096 -0.604909 1.116361 -0.190584 -0.150731 -0.710703 0.780197 0.194868 0.138335 0.029727 1.530036 0.882099 -1.402382 -0.119840 -0.041443 -0.797240 -0.465443 -0.423474 -0.154655 0.422848 -0.211864 0.306740 -0.142662 0.403714 -0.629293 -0.109181 -0.844049 0.211346 -0.534041 -0.011335 -0.193315 0.146353 1.235505 -0.664333 -0.333576 -0.075956 -0.257913 -0.247866 0.632160
Matthew -0.467202 -0.913581 -0.377835 -0.516635 0.381148 0.704618 -0.116229 0.137790 1.056536 0.372573 -0.474103 -0.236667 0.708831 -0.279882 0.174342 -0.162601 0.563698 0.003778 0.653557 -0.571045 1.686899 0.908304 0.677017 -0.551271 1.013203 -0.280300 0.253414 -0.013398 -0.526132 0.368636 0.017285 0.416785 -1.008615 0.513958 -0.266899 0.541363 0.294179 -0.087043 0.277959 0.557530 -0.008579 0.330259 0.106832 0.215540 0.073331 0.062635 -0.133156 -0.079790 0.771361 0.564909 0.511133 -0.182281 0.353174 0.104932 0.596486 -0.646408 0.551809 -0.417332 -0.955217 -1.067339 -0.784345 -0.818613 1.039004 -0.434734 0.571443 0.312509 0.408343 0.272926 0.573697 0.390938 0.207929 -0.046760 0.244702 -1.377584 -0.724756 0.509818 0.850232 -0.726686 0.858267 1.142664 -0.110311 0.026636 0.349582 -0.425887 0.205684 -1.360894 1.189602 -0.358609 -0.581831 -0.242314 1.620427 -0.884498 -0.317730 -0.696262 -0.427976 -0.222863 1.035201 0.197105 -0.368553 -1.065316 0.485934 0.724191 0.174697 0.666507 1.198489 0.818171 -0.543217 -0.138091 1.286197 0.321438 -0.057080 -0.470396 0.280326 -0.745027 0.468713 1.129595 0.055797 0.892530 0.701235 -0.217872 -0.140350 -0.358003 -1.506467 -0.487921 1.091996 -0.343437 -0.431342 0.261482 0.153137 1.240702 -0.347888 -0.381047 -0.251473 0.297223 -0.619118 0.213358 0.077215 0.134864 0.499068 -0.052229 0.578488 0.597603 0.064990 -0.701661 0.295316 0.979414 -0.327219 0.350546 0.018383 -0.486890 0.367051 0.729931 -0.336200 -0.590108 0.520598 -1.021525 -0.263324 -0.023187 -0.275450 0.180079 -0.667644 0.312487 0.403527 0.073696 0.465938 -0.559810 -0.505870 0.292057 -0.214743 -0.838265 0.691475 -1.546291 1.115014 -0.279300 -0.254268 -0.349904 -0.555699 1.169903 -0.377594 1.100872 -0.246457 -0.462866 -1.307469 0.260258 0.238239 -0.072150 -1.655512 -0.449607 -0.940784 0.161042 1.129324 0.078357 0.887568 -0.509225 0.448681 0.128464 0.216364 0.484339 -0.544793 0.568067 -0.897134 0.793938 0.631243 0.327542 -0.066275 -0.078970 0.143807 0.631085 -0.849629 -0.047031 -0.652655 -0.543146 0.089072 -0.364219 -0.503592 -0.320982 -0.302634 -0.238558 0.086933 -0.062289 -0.675039 0.370229 -0.680643 -0.324664 -0.214184 0.408624 0.427072 -0.154258 -0.210684 0.700319 -0.316980 -0.493423 -0.565763 0.866222 -0.517060 -0.209867 0.996944 0.091775 -0.459704 -0.031820 0.273760 -0.072250 -0.224918 0.261247 0.193142 1.406351 -0.641784 0.052876 -0.696372 -0.114640 0.130483 -0.156120 -0.561995 -0.480974 -0.663587 -0.943359 -0.826967 -0.360032 -0.718443 0.279067 0.420618 -0.441958 0.083464 1.393021 -0.310586 0.446085 -0.824900 -0.461922 -0.881560 0.917703 -0.614468 -0.388654 -0.141542 0.523593 0.136177 0.050338 -0.111148 0.001799 0.067461 -0.031330 -0.713157 -0.433062 1.042409 0.399699 0.223134 0.197088 1.712884 0.268591 1.466035 0.005776 0.189758 0.483975 0.111665 0.686834 -0.102435 0.449608 1.320586 -0.019483 -0.897984 0.494974
lion -0.891824 0.555495 -0.312854 1.101432 -0.297849 -0.993034 -0.011021 0.066629 0.205514 0.341245 -0.035506 -0.289867 1.253206 -0.515113 0.751394 -0.116762 0.630995 0.318964 0.545883 0.263655 -0.755604 -0.006166 -0.014702 0.495351 0.104150 0.068253 1.071665 0.541130 0.697749 -0.585349 -0.848781 -0.290753 0.116185 0.086678 0.258783 0.398543 -0.095394 -0.128054 0.044366 -0.749185 -1.194518 -0.617486 0.843936 -0.798255 -1.222018 -0.041273 -1.344847 0.030201 -0.221926 0.327614 0.189742 -0.143989 0.059773 -0.229421 0.983681 0.302395 -1.428849 1.075452 0.701318 -1.066051 0.007936 -1.001709 -0.106600 0.532363 1.091325 1.428675 -0.133395 0.569893 -0.790373 -1.104593 0.593936 0.541623 -1.226425 0.702411 0.358426 1.301131 0.568622 0.175328 0.895673 0.615465 -0.680398 0.114548 -0.026496 0.566523 0.542935 -0.082586 0.295640 1.190079 -0.468887 0.622611 -0.073544 -1.019545 0.300524 1.071893 -0.214035 0.274577 -1.141939 -0.724123 -0.074161 0.369394 -1.094042 0.928913 -0.377099 -0.257125 -0.152018 1.148189 -0.717209 0.726724 0.305791 -0.278959 0.471945 1.700212 1.232124 -0.498473 0.352158 0.737618 1.091166 -0.597914 -0.386678 0.522588 -0.443230 0.315636 -0.497343 -0.140771 0.966131 0.564311 0.443881 -0.053918 0.033250 -0.288774 -0.888453 -1.308807 0.091343 -0.181913 -0.695276 0.673836 1.620702 -0.625780 -0.359903 0.349022 0.788403 0.626510 1.083399 0.429552 -1.686892 0.721863 0.904395 -1.427590 -0.225838 0.791348 -0.545224 -0.464182 0.610344 -0.407750 0.950562 -0.338988 -0.791622 -1.290712 0.004842 0.614417 0.858357 0.301996 0.499799 0.015450 0.109129 0.625949 -0.407466 -0.422761 0.117062 -1.948245 0.818769 -1.060691 -0.759422 -0.139255 1.373076 0.406458 1.339560 0.363794 0.484562 -0.311078 1.005036 -0.055751 -1.258467 0.501298 0.565874 -1.413770 0.337230 0.646544 0.672598 -0.241281 0.981024 -0.886794 -0.443160 -1.160350 -0.678415 0.476076 0.426072 0.533156 -0.126807 0.122072 1.299740 0.186378 -0.323056 0.290271 -1.035804 -0.134904 0.109026 0.170451 0.017724 -0.463142 -0.084401 0.316465 0.878221 -0.012578 0.657424 -0.039115 0.152523 0.685187 0.293390 -0.119780 -0.119383 -0.436389 -0.621176 -0.695146 1.091326 0.213880 0.308619 0.615795 -0.457033 0.719205 -0.592964 0.469364 -0.341914 -0.744717 0.468847 -0.204068 -0.836434 -0.779716 -0.358022 1.058918 1.092162 0.667241 0.532240 -0.227857 0.964948 0.621762 -0.747241 0.837021 0.280305 -0.989005 1.686465 0.261612 -0.820678 -0.169657 0.793826 -0.036532 0.809250 0.327630 0.580119 0.987821 0.395392 -0.667949 0.182910 0.274075 0.526659 -0.084466 -0.700669 1.554943 1.664623 0.955835 0.525989 0.266612 0.273802 1.174118 0.525079 -0.725976 1.033650 -0.538155 0.330202 -0.913057 -0.201099 -0.185298 0.581206 0.051759 0.977155 0.658489 -0.470409 -0.857371 0.549666 -0.117973 -1.060017 -0.666811 -0.003770 -0.645525 0.273794 -0.329343 -1.416604 -0.738179 0.042725 1.045351
