Mercury -0.182284 -0.180999 -0.524760 -0.049280 -0.060201 -0.614931 -0.177930 0.723789 -0.129415 0.000461 -0.143011 -0.415896 0.523522 -0.300399 -0.339543 0.189043 0.208467 -0.664948 -0.351319 -0.265060 -0.113335 -0.311648 0.240901 0.419052 0.015435 -0.048879 0.888680 -0.731758 0.421988 -0.012867 -1.542460 0.005027 0.686006 0.166229 0.919120 1.330883 -1.010449 -0.922866 1.142904 0.488112 -0.237086 0.271685 0.158409 0.228060 0.195422 0.096451 0.517700 -0.857914 0.347942 0.224534 -0.757681 0.016748 -0.365625 0.331820 -0.099740 -0.095614 0.396040 -0.363902 -0.305459 -0.246480 0.789475 0.055455 -0.524556 -0.579183 -0.543374 0.080684 -0.875806 0.799570 -0.179489 -0.347984 0.363738 -0.555007 -0.449306 0.388379 0.629438 0.231247 -0.476229 -0.898680 0.413204 -0.335141 0.419441 0.647379 0.268773 0.173362 0.349288 -0.022253 0.668586 -0.308631 0.129615 0.391594 -0.201887 0.843661 0.629260 0.567437 0.014917 0.060086 -0.112620 0.068114 0.171972 -0.499454 -0.796707 -0.298871 0.854244 -0.271354 -0.079806 -0.102682 0.567129 -0.109875 0.356007 0.886540 0.365686 -0.064087 -0.176094 0.304358 0.043970 -0.455256 0.086282 -0.290712 0.674428 0.070562 0.346229 -0.226343 -0.565480 -0.423364 0.851345 0.349019 -0.283103 0.201087 0.063100 0.196497 0.819414 0.110438 -0.070185 -0.026552 0.274938 0.042415 1.196482 -0.103079 0.150172 -0.522242 0.080365 0.993594 0.631088 -0.171419 -0.020482 0.312300 -0.657023 0.339505 0.575142 -0.402788 -0.310229 -0.146935 -0.064369 0.183311 -0.020895 0.216920 0.648958 -0.505268 0.412917 -0.553636 0.638889 -0.148337 -0.785819 -0.158263 0.058814 -0.199945 -0.122704 -0.227437 0.386515 -0.232010 0.202346 0.388467 0.080032 -0.287538 0.347649 0.052960 -0.435662 -0.568457 -0.091132 0.014296 -0.328077 0.043459 -0.185733 -0.042548 -0.373516 0.228628 -0.394969 -0.170073 0.330969 -1.061143 -0.818304 0.148107 -0.345390 0.150656 0.199618 -0.267956 0.159194 -0.233260 0.049147 0.085242 -0.247630 -0.556870 -0.680515 0.353630 -0.366972 0.253807 -0.011555 -0.242043 -0.304758 -1.162075 0.754921 0.546715 -0.422379 0.023855 0.443742 -0.401136 0.382662 -0.619303 0.050066 0.067885 0.124683 0.267241 -1.393911 -0.891403 0.203870 -0.092736 -0.976211 -0.133040 -0.154395 -0.107960 0.241249 -0.305225 -0.135253 -0.070445 0.771094 -0.515620 0.491737 0.164685 0.055411 0.388277 -0.440759 -0.162070 -0.684248 -0.319426 1.494695 -0.759838 -0.160476 0.174148 -0.239639 0.164278 -1.166809 -0.463192 0.415572 0.329765 0.913637 0.082659 0.288743 0.248272 -1.029424 -0.244879 0.234679 -0.384824 -0.085391 -0.004873 0.139447 -0.093677 -0.134832 0.275346 0.744066 0.767412 -0.304543 0.228431 0.690329 -0.730611 -0.390670 1.430010 -0.390673 1.282589 0.060697 0.194706 -0.984004 0.362979 -0.804252 0.266760 0.795195 -0.150107 0.089383 0.765937 -0.310254 0.088646 0.060301 -0.803779 -0.718354 0.263676 -0.645348 -0.216229 -0.770903 0.074968 -0.450037 -1.571973
Bundesliga -0.044235 -2.914224 1.297452 -0.497049 0.148180 -0.666507 -0.607172 -0.241501 -1.123326 -0.050030 0.052974 0.818379 -0.954913 -1.078934 -1.277357 -0.645202 -0.153594 0.898188 -0.463591 0.178393 -1.794816 -0.248774 0.504342 1.243170 -0.545145 1.565008 -0.081551 1.623904 1.576667 -0.425736 1.111361 0.946070 0.035328 0.202666 0.831367 -0.640446 0.408381 0.146184 0.093635 0.592959 1.426963 -0.122430 0.336660 0.608362 0.565103 -0.819330 2.443987 -0.234636 3.492534 -0.065341 -0.251674 -0.587618 -1.952579 0.515661 -0.519637 0.656995 -0.530795 1.879927 -0.342971 -1.777476 0.655767 -0.675958 0.920851 -0.318400 -0.600259 0.158599 0.592970 0.106339 0.750076 0.374019 -0.407889 -0.427085 -0.384015 -0.074547 -1.605349 -0.874778 -0.540436 -0.057061 1.659136 1.321091 2.175587 0.156138 -0.143800 -0.670187 0.750716 1.261161 -1.454936 -1.582063 -0.736992 -0.208714 0.230749 -1.429484 0.767144 -1.507737 0.636483 0.789762 -1.014825 -0.036630 0.776600 -0.272941 0.687395 0.719220 0.268558 0.397100 -0.504899 0.302338 0.522952 -0.644479 0.040136 1.612888 1.889297 -0.078842 0.351480 -0.661943 -0.717234 -0.646766 -0.469550 -0.622116 2.231192 0.504870 -0.603812 -0.423152 -0.025687 -0.359799 -0.222425 1.084123 0.323123 -0.231905 -0.845747 0.398974 -1.156429 -2.508639 0.752606 -0.126195 -0.055456 0.166144 0.294695 -1.306547 -1.456170 0.775028 -0.391687 0.174304 -0.124216 -1.356560 0.006079 1.168643 1.042030 0.275224 -0.870006 0.188611 0.950712 0.360615 0.460334 1.938492 0.346846 0.968364 0.391783 -0.866350 1.567887 0.997180 1.699079 0.098269 0.665231 -0.903812 0.203688 0.820656 0.340041 0.605047 0.299349 0.425347 -0.901326 0.282561 -0.377524 1.189938 0.515842 -1.262998 -1.644886 -0.973763 0.570803 0.035972 -1.891060 -0.049961 0.827327 -0.917875 0.638285 0.135022 0.652918 0.586939 1.521875 0.590898 0.740252 0.794452 -1.188284 2.015128 -1.122023 0.819456 0.286301 -1.602424 -1.205441 -0.106084 -0.045744 0.174054 -0.237540 -0.435119 0.604599 1.179865 -0.845656 0.015773 0.002987 0.644682 -0.501046 -0.124321 0.072051 0.766886 -0.893728 0.420691 0.600535 2.094706 -0.129753 0.267253 1.178617 -2.027302 -0.259841 -0.909401 0.534155 0.053143 -0.708154 0.510401 -0.057562 0.579860 0.364331 -0.203238 1.216527 -0.671264 -0.977984 -0.806806 -0.397513 1.340713 1.694942 2.468522 -0.768562 0.026513 0.705923 -0.418516 1.610540 -0.292269 0.008162 -0.024405 -0.240425 1.325580 -0.911829 -1.314942 -1.930975 -1.184282 2.329182 -0.035043 -0.446177 -1.228047 1.664244 -0.227290 1.460039 -0.341283 1.312457 -0.515544 1.346095 -0.462537 1.163682 1.099485 -0.928205 0.298138 -1.165800 0.226758 -2.359894 0.521861 0.629154 -0.085930 -0.785213 0.115176 0.564327 1.452808 -0.029589 -0.746110 -1.479159 -0.372071 -0.133271 -0.031706 0.470130 -0.563314 1.015015 0.783404 0.111216 -0.491635 -1.313543 0.687724 -0.207624 -1.361037 -0.097919 0.597184 -1.417691 1.087700
Porsche -0.625560 -0.408510 -1.008929 0.616532 -0.714304 -0.325490 -0.620290 0.533108 -0.064123 0.948406 1.056266 0.064135 -1.202563 -0.626548 -0.078473 -1.090052 -0.359452 0.226132 -0.592278 0.073159 -1.119378 0.973059 0.783846 -1.151914 0.585124 -0.478027 -0.015010 0.517530 0.579356 -0.386722 1.097028 0.509406 0.835597 -1.606523 -0.072423 -1.305627 -0.559445 0.976608 0.741779 -1.411359 1.066666 -0.228553 -0.554598 -0.063966 1.527115 1.342392 1.509288 0.227717 0.229206 -0.635069 0.118700 -0.006592 0.047472 0.897228 -0.253419 -0.577986 -0.379480 -0.877677 0.403001 -0.058780 0.614409 0.148886 -0.890492 0.008307 -1.096365 -1.083260 -0.219231 0.321170 1.287215 1.141330 1.015917 0.500402 -0.170523 -0.973899 0.774329 -0.343787 -0.217106 -0.399155 -0.768526 -0.408383 1.096668 -0.185677 0.569980 1.005817 -0.209082 0.398334 -1.432014 0.276486 0.412336 0.967034 0.676688 -0.160209 0.663160 -0.381950 -0.043156 -0.043185 0.515109 -0.061699 -0.845196 0.209001 -0.355462 -0.019310 -0.603406 -0.955601 0.502691 0.751393 0.783820 1.235644 0.162501 0.270229 -1.080425 -0.645627 0.568571 0.021180 0.158647 -0.270262 -1.321878 -0.349039 0.032175 -0.594985 0.265944 0.074262 0.333528 -0.507326 1.955826 -0.069660 -0.665685 -0.199877 -0.304700 0.810898 0.711460 -0.711859 0.200046 0.014096 -0.190311 0.278192 -0.666285 -0.146524 0.720629 0.254517 0.468692 0.711665 0.399084 0.619452 -0.143129 -0.350815 0.280842 -0.683951 1.090852 -2.276414 -0.804604 0.151700 -1.583840 -0.380207 0.136137 0.330554 0.637226 -0.863655 0.054105 0.761430 -0.068976 -0.340963 -0.015184 -0.879384 0.172533 -0.675652 -1.478566 -0.558153 -0.058661 -0.113356 0.166903 0.257430 1.839673 1.146493 0.647733 -0.578613 -0.204062 -0.016745 0.981358 -0.524625 -0.401942 -0.439668 -0.032344 -0.301637 -0.296211 -0.052992 -0.235882 0.412511 0.852688 0.202105 -0.896728 0.209552 -0.766681 0.452397 1.078213 0.528978 -0.826972 -0.236867 0.870755 0.291506 -0.635803 -0.285365 0.268849 0.206140 0.231489 0.187106 0.048056 -0.763540 -0.381905 -0.567624 0.031609 -0.221874 0.250246 -0.933582 -0.021726 0.209238 -0.158124 0.238059 -0.029484 0.166909 0.509803 -0.783101 -0.938948 0.516717 0.434076 0.064890 -0.584904 2.121970 -0.299211 0.677764 1.526145 0.613589 -0.898918 0.113240 0.193628 0.524002 1.702283 0.266914 0.246282 0.287498 -1.409436 0.424380 -0.673153 -0.203746 0.159829 0.966772 0.550500 0.656162 0.094557 0.131862 0.988616 0.324207 1.340326 0.155886 1.521437 -0.195671 -0.799730 -0.406067 -1.754609 0.125879 0.601778 1.412527 -0.345218 -0.418222 0.119252 0.205421 -1.362823 0.213447 0.193716 0.183982 0.212066 -0.332658 0.316169 -0.418340 0.625060 0.048638 -1.980399 -0.295903 0.878544 0.457158 0.566342 -1.237654 -1.202918 -1.197698 -0.740858 0.267179 0.469054 0.426984 1.739351 -1.583949 0.180194 0.571096 -0.107233 0.116883 0.501657 0.881304 0.319310 -0.047461 -0.300124 -0.217734
Moon 0.716043 0.127923 -0.210873 -0.215892 -0.047943 -0.117037 0.243524 0.685352 0.446338 0.451772 0.216510 0.092833 0.881736 -0.076663 0.179739 0.255299 -0.549354 0.480233 -0.073769 -0.454108 -0.156714 -0.544683 -0.099867 0.650875 0.090229 -0.984540 0.284880 -0.168287 0.770827 -0.078804 -0.966270 -0.938977 0.721754 1.046052 0.062075 0.533310 0.502123 -0.647143 0.805920 0.410229 0.170924 0.259045 0.457818 -0.160233 0.609064 0.352566 0.401694 -0.208587 0.323491 0.122381 -0.125923 -0.300415 -0.805830 -0.036942 -0.111837 0.076109 0.372468 -0.453139 -0.339863 -0.035862 0.673496 -0.499818 0.292970 -0.282011 0.322050 0.092754 -1.159174 0.509683 0.310936 0.375291 0.235644 -0.517937 0.263948 0.725298 0.516472 0.264890 0.283943 -0.047631 0.206810 -0.069227 -0.196662 0.038995 -0.357131 -0.107817 -0.256955 0.216785 1.488124 0.576627 -0.104147 0.016768 0.313215 0.377000 0.348854 -0.600124 0.171275 0.392510 -1.125536 -0.054304 0.506183 0.591638 -0.355003 -0.579503 0.394357 0.050707 -0.011211 -0.475543 0.286045 -0.183937 0.194506 -0.205176 -0.116451 -0.317249 -0.261574 0.127825 -1.223564 -0.310607 0.374261 -0.071193 0.989595 -0.037326 0.233776 -0.625688 -0.477704 0.022812 -0.419946 1.044961 0.052848 0.052148 0.310360 0.064854 0.330644 0.254213 0.254006 0.141569 -0.683364 -0.867669 1.251998 -0.142021 -0.403935 0.051940 0.173925 0.824080 0.248687 0.199661 0.109780 -0.227405 -0.236700 0.753100 -0.325137 -0.488279 -0.737355 -0.531204 0.880563 0.197238 -0.584835 -0.114994 0.816468 -0.455212 0.593450 0.436147 0.516217 -0.387364 -0.690842 0.238629 -0.128997 -0.079085 0.075007 -0.346761 0.229692 0.490351 -0.008180 0.209124 0.239723 -0.060115 -0.481144 -0.500282 -0.317091 -0.496304 -0.803059 -0.252859 -0.260805 -0.534882 0.911715 0.333912 -0.664043 0.505344 -0.262964 0.243278 0.360338 -0.166161 -0.507941 0.111543 -0.608685 -0.169189 -0.323387 0.558929 -0.291280 0.340686 -0.821636 0.431516 0.680724 -0.228125 -0.640143 0.213182 0.080496 0.412549 0.309349 -0.130683 0.464168 -0.882466 0.851002 -0.356177 0.275329 -0.645066 0.566275 0.003877 0.150646 -1.133675 -0.014591 -0.440466 0.029322 -0.076807 -1.095169 -0.680402 0.031300 0.141537 -0.269720 0.839874 0.551518 0.018981 0.294932 0.062570 0.350737 0.497812 -0.116477 0.599300 -0.001645 -0.452016 0.759519 0.208426 0.059556 0.653297 0.195688 0.172185 0.711689 0.405391 -0.615945 0.428625 0.265640 -0.282196 -0.599859 -0.058797 -0.627867 0.456554 0.304096 -0.331345 -0.474016 0.948392 -0.578473 -0.336545 0.197478 -0.411108 0.200627 -0.307943 -0.369964 -0.775245 0.205020 0.969482 0.000071 1.177132 -0.138067 0.433909 0.675723 -1.097525 0.292969 -0.113473 -0.400660 1.553556 0.233004 -0.554763 -0.863267 -0.630273 -0.068674 -0.597691 0.488917 0.986184 0.343242 0.058360 -0.325020 -0.235738 0.235184 -0.996629 -0.353114 0.266385 0.563580 0.050803 -0.524075 -0.089448 0.739702 -0.392588
Capri 0.090755 -0.501791 -0.799836 0.263628 0.108853 0.837301 -0.378911 0.128718 0.162660 0.326930 -0.161130 0.737601 0.144141 0.614835 -0.362857 -0.744550 0.070543 -0.541094 0.055215 -0.813609 -0.669259 0.432936 0.525235 -0.376126 0.024826 0.035176 -0.236454 0.270929 0.413419 -0.585341 0.124154 -0.186829 0.141334 -0.542247 0.121324 -0.094002 -0.505523 0.690383 0.746076 -0.395211 -0.240330 0.022563 -0.038450 0.815155 0.270332 0.009076 0.397368 -0.193040 0.518615 -0.863243 0.580908 -0.397514 1.209391 1.112606 -0.846879 0.146460 0.450265 -1.046416 -1.292935 0.724478 -0.071686 0.091890 0.429473 -0.293564 0.370478 -0.489931 0.605646 0.707635 -0.934029 -0.218924 0.863616 0.711385 -0.472403 0.207936 0.889228 -0.080280 -0.171479 -1.100788 0.917305 -0.001884 0.827068 0.211029 0.028567 -0.474834 -0.486662 -0.441165 -0.600216 -0.222780 0.348452 0.795976 0.156677 -0.153846 -0.025656 -0.028468 -0.344407 1.062567 -0.494176 -0.765981 0.025625 0.912764 -0.633085 -0.026545 -0.184038 0.242682 -0.462417 0.630359 -0.026859 0.919095 0.694746 -0.101671 0.259710 -0.420984 -0.280678 0.033288 0.227252 -0.666202 -0.097070 -0.309910 -0.357210 -1.365036 -0.293626 -0.462472 -0.914477 -0.515933 0.092253 0.797660 0.196834 0.243169 -0.049729 0.627000 -0.022156 0.955911 -0.315985 -0.850547 0.149451 -0.456835 0.577296 -0.884517 -0.555732 0.145893 0.091994 -0.351078 0.058459 -0.011975 -0.900364 -0.577397 0.018478 0.094200 -0.288793 -0.040640 -0.258029 0.512391 -0.052475 0.237012 -0.553813 0.980675 0.353362 -0.049809 0.569253 0.069157 0.762980 -0.968146 -0.165183 -0.134836 0.273043 0.435349 0.704952 -0.690498 -0.330151 -0.666130 0.999629 0.569274 0.424425 -0.882625 -0.225045 0.260086 0.288362 0.350651 0.881061 1.407005 -0.756590 0.545009 -0.432333 -0.193806 -0.973068 -0.039468 0.077732 0.691685 -0.525112 -0.611322 -0.457279 0.528691 -0.934171 -0.443966 1.372807 0.125879 -1.179600 0.175136 -0.256733 0.330483 1.082345 0.783540 -0.353319 -0.663311 0.413246 0.572744 0.366962 -0.477248 0.187991 -0.615598 -0.327059 0.202869 -0.115160 -0.303973 0.012059 0.222908 0.719735 0.071801 0.083279 1.075433 0.367599 -0.499269 -1.061823 -0.203804 0.157415 1.021457 0.459640 0.662735 -0.436339 0.897892 -0.552310 -0.074095 0.318632 0.575017 0.752973 0.338552 0.811318 -0.139695 0.606289 -0.015676 -0.376138 0.160111 -0.810276 -0.646291 0.589725 -0.475192 -0.342128 0.683469 0.664489 -0.867042 0.536090 0.667378 0.338440 -0.306100 0.974968 -0.669062 0.462009 -0.278798 -1.607356 0.234601 0.436982 0.104120 0.009112 0.079384 -1.096581 0.001928 -0.886681 -0.067846 1.031335 -0.441737 -0.023270 -0.475858 0.905829 -0.743026 0.207395 0.194254 -0.031561 1.559461 0.111080 0.018789 -0.337755 0.235741 -0.145155 -0.170229 0.248639 -0.487970 0.617726 -0.290771 -0.117903 0.186593 -0.560584 -1.002067 -0.815524 0.281896 0.078544 -0.052062 -1.127295 -0.132808 -0.594190 -0.335149
paper -1.360354 -0.388893 0.196565 0.940626 -0.096420 -0.346199 0.294554 -0.594953 -0.192988 -0.113094 -0.828302 -0.166482 0.196323 -0.497321 -0.223014 0.271238 -0.101503 -0.118575 -0.432374 -0.272202 -0.053769 -0.394040 -0.663955 -0.184529 0.250860 -0.930415 0.216144 0.162906 0.330971 -0.221287 0.139586 -0.268913 -0.062421 -0.174021 0.236550 0.343680 -0.714392 -0.812385 0.008364 -0.026815 0.000501 0.423450 -0.059186 -0.658331 1.010764 -0.043649 -0.442314 0.047020 0.526017 -0.257651 0.189249 -0.373157 -0.083719 -0.409459 0.339115 0.368270 -0.072000 0.109432 -0.277280 0.244226 0.490350 -0.927516 -0.128058 -0.239767 -0.167886 0.187499 0.931463 -0.405057 0.723111 -0.490485 -0.517069 -0.531702 -0.089064 0.130282 -0.509572 -0.670833 0.179987 -0.009169 -0.655771 -0.024854 0.087088 0.490237 0.292690 0.455720 0.186734 -0.085986 0.526120 0.180542 0.653947 -0.194599 0.775964 -0.068799 -0.314093 0.270639 -0.236225 0.017708 0.100009 -0.297072 -0.136087 0.023424 0.598358 0.067232 0.307545 -0.058755 -0.055607 0.460632 -0.485362 0.002325 0.084756 -0.034136 -0.051042 0.119848 0.098786 0.313498 -0.072624 -0.010347 -0.281570 0.641578 0.607485 -0.211743 0.424532 -1.004898 0.866516 0.368406 -0.370746 0.296595 0.176957 -0.733956 0.605191 -0.249324 0.497689 0.352769 -0.106841 0.199176 0.075942 -0.621386 0.250207 -0.290401 0.216026 -0.789620 0.192388 -0.604977 -0.312802 1.062234 -0.202563 0.926517 0.172693 0.591440 0.544092 -0.990591 -0.743974 -0.092535 0.485941 -0.108695 0.527646 0.186201 0.767967 0.920101 0.465446 -0.739445 -0.572128 -0.273906 0.585943 -0.478011 0.106943 0.538186 0.149372 -0.424149 0.217556 0.517365 -0.642395 0.612384 0.520371 -0.038910 0.332131 0.497528 -0.361858 0.678395 -0.620883 -0.666074 0.185236 0.168273 0.192018 0.617564 0.117157 -0.190225 -0.249434 -0.349778 -0.318387 -0.908238 0.032675 0.706898 -0.036979 -0.986901 -0.057930 0.789718 0.348205 -0.080380 -0.272958 -0.226421 -0.385378 0.397355 -0.603384 0.365038 -0.404933 0.038643 -0.227444 -0.966352 0.789355 -0.350144 0.815372 -0.997893 -0.138912 0.300453 -0.097747 0.024027 -0.146804 0.364690 0.480691 0.339594 -0.567287 0.276276 0.290199 -0.657855 0.531802 0.523693 0.227485 0.018910 0.075490 -1.258464 0.179932 0.211037 -0.274708 -0.508084 0.181107 0.419697 -0.053769 -0.240284 -0.311646 -0.174359 -0.359606 -0.634409 0.287226 -0.010122 -0.112136 -0.253465 -0.211562 0.090702 -0.196575 0.146553 -0.698561 -0.041361 0.918351 -0.689354 0.475859 -0.549203 0.018630 0.108994 -0.680730 0.467947 -0.256967 0.879253 -0.218301 -0.312267 0.246748 1.020342 0.168272 0.269974 0.639581 -0.031533 -0.698240 -0.098002 -0.638720 0.549306 -1.300442 0.495334 -0.523244 0.338839 -0.156899 0.180111 0.453157 0.488102 -0.906061 0.621007 -0.920608 -0.061666 -0.048228 -0.134519 0.577015 -1.008568 0.534602 0.307756 -0.986480 0.433326 -0.756949 -0.458405 -0.103849 -0.326922 -1.202459 -0.300609
chair -0.096315 -0.453892 -0.255755 0.138481 -0.177791 -0.684635 0.325957 0.491342 -0.484815 -1.087536 0.444862 -0.457885 0.324394 -0.543687 -0.121223 0.496760 -0.041264 -0.522008 -0.573121 -0.066254 0.932835 -0.263448 0.018662 0.110982 -0.333974 0.025654 -0.880705 -0.325231 -0.417783 -0.113710 -0.025017 0.735841 -0.252010 -0.488450 0.664587 -0.138362 0.600012 -0.230380 -0.971430 0.159476 -0.626433 0.047587 -0.116410 0.692535 1.273347 -0.787798 -0.511327 0.752262 0.655822 0.105313 0.783142 0.354799 0.297011 0.296523 -0.775136 0.406867 0.903235 -0.292023 0.188018 -0.248911 1.090656 0.811967 0.191123 0.755081 -0.210591 0.210504 0.318866 -0.711794 -0.266390 -0.572721 0.702912 0.310535 -0.675946 0.029603 0.407765 0.021270 -0.195669 0.195917 -1.391531 0.158737 -0.076548 -0.627881 -1.055903 0.953239 -0.497431 -0.544134 0.517840 0.504327 0.304473 0.728951 0.469513 0.070093 0.297073 -0.559951 -0.604293 -0.011978 0.425231 -1.227311 0.744428 0.109304 0.398717 0.336067 -0.398896 0.435694 -1.379607 -0.159236 0.281230 0.548647 0.644317 0.540669 0.491017 -0.834058 0.304843 0.581589 -0.977476 -0.387519 -0.200428 0.360015 0.328732 -1.165052 -0.311714 1.050035 1.579390 -0.284897 0.599287 0.383066 1.355297 -0.935705 -0.276947 0.001924 -0.680485 -0.153678 -0.016467 0.304037 0.344936 0.158286 0.996204 0.022453 0.172418 0.070284 0.484954 -0.786904 0.129845 -0.168684 0.095063 0.010806 0.078947 0.271141 -0.251982 -0.227779 0.124403 0.118846 -0.799674 -0.175375 0.913812 0.001134 1.208002 -0.741454 -0.118348 0.911142 -0.113686 0.715758 -0.423989 0.032391 0.439556 0.555038 -0.599607 -0.342267 -0.464046 0.204760 -1.005577 0.607313 -0.033554 0.274851 0.355257 0.248050 -0.405501 0.046946 0.930742 -0.381655 0.596777 -0.361264 -0.050673 0.566406 -0.182801 0.077031 0.437376 0.447393 -1.403809 -0.317887 0.541525 0.721505 0.673188 -0.691076 0.700223 -0.531617 0.439430 -0.177027 -0.210248 1.270437 0.505153 -0.250131 0.312858 -0.016698 -0.582011 0.101656 -0.497766 0.908859 0.029847 -0.265852 0.392444 0.186338 -0.747731 -0.339538 1.000264 -0.238364 0.101497 -0.408881 0.405932 -0.458818 -0.246529 -0.395069 -0.725153 -0.212387 -0.111624 0.825260 0.596697 -0.143354 -0.942930 0.777664 0.452610 -0.598099 -0.344504 -0.588554 -0.116235 0.038918 -0.879551 0.039781 0.832613 -1.104703 -0.766211 0.844352 -0.482679 0.310938 0.143771 -0.396518 0.096718 -0.295393 -0.824951 0.844882 -0.707119 -0.415697 -0.403530 0.559448 0.380227 -0.344756 -0.458696 0.065476 0.237202 0.087577 -0.281090 0.507520 0.095685 0.202987 -0.384154 -0.718858 -0.285167 -0.344778 -0.030835 0.247383 -0.179507 0.209123 -0.707385 0.814006 -0.587884 -0.385304 0.095823 0.449261 0.678568 0.079217 0.121265 -0.220573 0.057301 0.795636 -0.457632 -0.499298 0.954008 -1.288446 0.010361 -0.048376 0.219050 0.435633 -0.233229 -0.371527 -0.226789 0.142386 0.466098 -0.048186 0.728928 0.234332
Bolivia 0.563491 0.721801 -0.644188 -0.550679 0.308147 0.303318 -0.650249 0.054078 1.547538 -0.106439 0.812001 -0.774953 -0.409147 0.631231 0.387800 0.278448 -0.135512 -0.731289 -0.139144 0.350334 -0.912389 0.322916 0.645070 0.562401 0.312094 0.251046 1.095568 0.049498 -0.681562 -0.187801 -0.998556 0.325846 0.619847 0.067089 0.997265 -0.170286 0.201220 -0.902634 0.363191 0.083719 1.014565 0.233209 -0.922631 -0.299340 -0.954309 -0.699378 0.604192 -0.167504 -1.015822 -0.608760 0.224466 0.559009 -0.576850 -1.081199 0.592137 0.496655 0.666145 -0.720730 -0.102993 -0.044160 -0.434414 -0.400002 0.044799 -0.043375 -0.033741 0.552654 -1.195434 -0.966654 -0.630299 -0.672698 -0.001489 0.590130 -0.084354 0.856194 -0.961363 -0.151728 -0.140799 0.504566 0.221954 0.348633 0.857639 -0.785988 0.904977 -0.833726 0.073658 -0.188402 -0.211849 -0.237365 0.194111 0.061603 0.044446 0.805423 -1.830948 0.108641 -0.965169 0.693017 0.420211 0.220102 0.703423 -1.505322 0.210464 -0.736099 -0.154085 -0.243557 0.328627 0.894352 -0.758057 -0.162728 -0.164776 0.769249 0.216245 0.894315 1.338982 -0.812735 0.763164 -0.903968 0.021609 1.086781 0.133352 0.127955 -1.246133 -0.660296 0.293909 0.392700 -0.534243 -1.787191 0.725946 -0.338668 -0.633113 0.928576 -1.043630 1.118647 -0.556504 0.108432 0.064454 0.154455 -0.579115 0.109972 -0.113096 -0.156303 -0.072782 -0.541716 0.506192 0.333572 0.292617 0.752181 -1.300817 0.027646 -0.922659 -0.483206 -0.299074 0.845490 0.005141 -0.042933 -0.349380 1.158316 -0.883795 -0.402050 1.149790 -0.628464 0.963121 0.880699 0.807903 -0.554897 0.469887 -0.367315 -1.388652 -0.036318 -0.765922 0.669135 0.329795 -0.442162 -0.595059 -0.321057 2.032590 -0.384571 -0.896802 -0.476712 -0.368737 1.421505 0.447099 0.666296 0.324955 0.891225 -0.218021 0.680347 0.588283 -0.406119 -0.307651 1.632990 -1.106380 -0.396350 0.218854 -0.522086 0.639018 0.509651 -1.428424 0.732472 -1.228276 1.484707 0.215472 0.529291 0.633907 -0.565543 -0.785644 -0.068219 0.555108 0.817970 -0.287684 0.001107 -0.513268 0.179792 0.003003 1.192169 1.166151 -0.378876 -0.517039 0.474078 0.039599 -0.015080 -0.134041 0.819755 -0.030654 -0.455767 -0.488148 -0.272873 0.423534 -0.147176 0.070135 0.157471 -0.361331 0.680099 -0.175827 0.556361 -0.323614 1.112972 1.448902 0.069154 0.360481 0.679419 -0.287697 -0.360806 -0.020195 0.351362 -0.740950 -0.384255 0.443215 -0.039999 -0.144622 0.038209 -0.386286 -0.936766 0.880705 0.681208 0.224486 1.047433 0.918652 0.189511 -0.304951 -0.184175 -0.982313 -0.321920 -0.704228 -0.977442 0.074842 -0.247196 -0.611918 0.502406 0.864665 -0.049341 -0.603504 -0.277392 -0.674435 -0.122580 0.816805 -0.032718 0.228489 0.612546 -1.200752 -0.285908 0.929948 -0.455338 -0.420546 0.337312 0.201499 -0.532241 -0.622920 -0.498268 -0.443139 -0.275352 1.197230 -0.476859 -0.246446 0.436825 0.970282 -0.225906 0.280497 -1.310601 0.837343 -0.271761
astrology 0.055631 0.384555 0.574316 0.055537 0.524766 -0.753600 0.406232 -0.451570 -0.957468 -0.803390 0.314076 0.463105 0.291604 0.251677 0.307182 0.229275 -1.248158 -0.210762 0.433699 0.741001 -0.454432 -0.075371 0.209884 0.205199 -0.644462 -0.212472 0.550012 -0.486541 0.654143 -0.827791 -0.183701 -0.137042 0.738112 0.282582 0.465506 0.779741 -0.135291 0.217027 0.198575 0.713052 -0.318958 -0.805767 -0.423041 0.018954 -1.273641 0.205498 0.652798 -0.567066 1.152178 0.821559 -0.264641 -0.180326 -0.775678 -0.432669 -0.858654 0.036462 -0.509639 -0.106225 0.424342 -0.339986 0.310321 -0.439359 0.888033 0.351089 0.233324 -0.039939 0.073348 -0.093371 -0.040282 1.345566 0.095551 0.123797 0.179038 -1.070947 0.046640 1.312291 0.721508 0.198184 1.092054 -0.635131 -0.684798 0.218777 -0.180446 0.151191 -1.282834 -1.248909 -0.557494 0.416952 -0.286927 0.993878 -0.208351 -0.608499 -1.014304 -0.532178 0.824377 0.562893 0.440967 0.549858 1.196511 0.507701 -0.552211 -0.031536 0.179812 0.060021 -0.594073 0.643513 0.014370 0.039903 0.386184 -0.902843 -0.082172 0.632840 -0.012993 0.010682 0.398441 -0.282352 -0.396924 0.088899 0.246136 -0.514531 1.240004 -0.397438 0.215661 0.521625 1.334933 -0.037973 0.792410 -0.013187 -0.460791 0.001568 -1.240041 -0.128464 0.552670 0.492488 0.162950 -0.489706 -0.335391 0.623975 0.367816 0.199970 0.399768 0.225293 -0.789617 0.852376 0.645565 -0.828644 0.539308 0.131256 0.595879 -1.018954 -0.418411 -0.478092 1.326888 1.519338 -0.649324 0.069182 0.150983 1.487849 -0.567249 0.334587 0.845879 -0.244362 -0.271456 -1.024036 -0.054898 -0.190863 0.952209 -0.833041 0.575065 0.767423 -0.448141 -0.175020 1.143636 0.536661 0.864423 0.204308 -0.110867 -0.418809 -0.285668 0.249454 0.028502 -0.474083 0.731359 0.355373 -0.004930 0.832639 -1.462794 0.081518 0.154263 -0.165927 -0.380266 -0.324613 0.194915 0.308411 -0.750092 -0.187771 -0.565312 0.699483 -0.269929 0.929936 -0.094566 1.246289 -0.543036 -0.406765 0.290635 0.857231 -0.185320 -0.221000 0.250911 0.005316 1.176589 -0.210851 -0.281078 -0.465456 -0.403285 -0.318617 0.278112 -1.749347 0.493419 -0.011422 0.963332 -0.410807 -0.380981 -0.725841 0.026529 0.490468 -1.151458 -0.435440 1.264439 0.214499 0.094435 -0.045425 0.956805 -0.057539 0.269340 -1.075808 -0.104957 -0.004434 0.467747 -0.150312 -0.934878 0.354541 -0.256861 -0.452127 -0.395169 1.344145 -0.544791 0.093628 1.089438 0.221303 -0.071708 -0.943708 -0.120996 0.175333 -0.139178 -0.999764 0.977458 1.336110 -0.237648 0.014355 -0.765649 0.817190 0.409051 0.545729 -0.658201 1.431684 -0.069077 -0.753177 0.921879 1.771536 1.292242 0.702710 -0.286813 0.102258 -0.078841 -0.072349 -0.392052 0.787106 -1.061990 -0.148138 0.453480 -0.694109 -1.286854 0.159565 0.259138 0.074352 0.251851 -1.285797 0.446701 -0.202976 -0.452052 -1.196119 -0.095800 0.873025 -0.110055 0.151849 -0.705780 0.470629 0.322501 -0.228605
March -0.696694 -0.009524 -0.902301 1.137206 0.608442 -0.740574 1.333414 1.253383 0.496257 -0.827952 0.715083 -1.284579 -1.667200 0.565664 -0.521413 1.103696 -1.272322 -1.355273 0.575525 -0.230652 0.384869 0.730349 0.262536 0.557541 0.206247 0.409815 1.406570 0.496988 1.314764 0.461882 1.428974 -0.589907 0.013390 -0.254638 -0.644728 0.235066 0.124940 -1.060987 0.371502 -0.216921 -0.798277 -0.592560 1.971875 0.052453 -0.246819 0.428490 0.238904 -0.022529 0.783951 -1.456489 0.487548 -0.234165 0.402802 -0.802708 -0.064088 0.264018 0.066492 0.004848 0.519113 0.453771 1.102751 0.055707 0.355352 0.406435 -1.439196 0.502230 0.315730 -0.080616 0.594097 -0.009815 -0.934749 0.020833 -1.318094 -0.503842 -1.101925 0.469363 -0.959740 -1.055275 0.561655 -0.701096 -0.417225 -0.765481 -0.245769 1.014796 0.160484 -0.438942 0.957362 -0.695323 -0.665265 0.080036 0.024694 -0.070949 0.324775 -1.118129 -0.306908 -0.366239 -0.416143 -0.197831 -0.153217 -0.276883 -0.216766 -0.652269 0.370979 0.113639 0.058430 1.244693 0.172537 -0.777220 -0.088149 0.561240 -0.268079 -0.358670 -0.144275 -0.321534 -0.278244 0.381678 0.644178 0.891542 0.415880 -0.043748 -1.112222 -1.313852 -0.444028 1.406708 -1.002992 0.719398 2.008818 -0.019564 -1.804472 -0.452367 0.153213 0.369868 -0.291513 -0.075571 -1.202825 0.161773 0.580902 0.091721 1.303100 0.929009 -0.537790 1.239656 0.150152 0.489559 -0.914378 0.774902 0.069684 -0.742175 0.812077 0.531935 -0.110570 0.877058 0.619820 0.007078 0.136170 0.073555 -0.485791 -0.740530 -0.242586 -0.934078 -0.524250 -0.661227 0.170776 0.619469 1.828913 1.218855 -0.132559 -0.843888 1.012962 0.237126 0.117539 0.046602 -0.218107 -0.689087 0.211042 1.523100 0.186175 -0.858839 -0.441113 0.905587 0.542561 0.523494 -0.598345 -1.203729 -0.112541 0.407496 -0.829509 0.632551 0.729218 -0.982910 0.310597 -0.594161 0.561139 -0.020129 0.654430 0.687380 0.793473 -0.167692 -0.339099 0.494558 -0.420766 -0.131490 0.913939 0.101393 -0.320685 -0.485137 -0.485761 0.519728 -0.760252 0.136162 -0.188155 0.299163 1.347209 -0.188845 1.835991 -0.533769 0.356702 -0.662104 -1.045722 -0.023723 -0.196575 0.555455 -0.637804 -0.047691 0.333413 -0.799781 0.798094 -0.317582 0.145959 -0.010123 0.575934 -0.192606 0.946227 -0.388935 -0.518434 0.187968 -1.119418 -0.073535 0.750039 -0.377648 0.119635 0.111911 -0.626596 -0.398523 0.062828 1.334181 -0.316239 -0.366890 -0.308763 0.264242 1.797243 -0.154195 -0.041755 0.336193 -1.283682 0.818886 -0.023104 -1.566689 -0.112449 -0.423649 0.644557 -0.401564 -0.581324 -0.257896 -0.801075 -1.176303 -0.008168 0.980709 0.440244 0.771669 -0.159454 -0.238002 0.551603 -0.092719 0.277637 -0.599908 -1.150259 0.414306 0.613911 -0.102756 0.560521 0.384398 -0.354114 -0.604331 -0.203724 0.457784 0.192654 -0.038381 0.824938 1.127260 -1.073675 0.815502 0.242807 -0.737832 -0.884387 0.444608 0.361126 -0.127853 -1.163027 0.014089
Nestlé 1.120378 -0.521049 -0.035259 0.018036 -0.590809 0.369770 0.245546 -0.019135 0.014609 0.735301 -0.005287 -0.431690 -0.462927 0.825027 -0.460250 -0.254849 -1.199394 -0.721538 -1.027975 -0.113647 -0.660873 -0.518708 0.733067 0.371768 -0.301680 0.077565 -0.423794 -0.271988 0.956078 -0.406593 0.439599 -0.217888 1.416598 1.321793 1.086673 -0.645872 -0.823389 0.291446 -0.187730 0.280471 0.930586 -0.456674 -0.396612 0.617181 0.427733 0.529868 0.913772 -0.222479 0.606564 0.786051 -0.032094 1.169121 0.431240 0.146733 0.240929 0.977078 -0.073041 0.725896 -0.195308 -0.242438 0.544195 -0.102496 -0.135672 0.729598 -0.186163 -1.057155 0.009643 -0.552106 -0.538929 0.188419 -0.319441 -0.362326 -1.498628 0.038498 -0.336039 0.037437 0.491389 -0.322211 -0.261547 -0.401719 -0.078366 -0.428289 -0.812981 -0.905869 0.183650 -0.031053 -0.668024 0.270438 -0.260861 0.221600 -0.199660 -0.257254 -0.702127 0.530776 0.050492 -0.140285 -0.632357 0.119809 0.723008 0.189685 -0.110899 0.641857 0.715940 -0.206918 0.387388 0.802193 -0.392400 0.662512 -0.943299 0.235183 0.997323 -0.270166 1.159096 -0.873986 0.294683 -0.046617 -0.894520 0.164254 -0.205957 -1.033603 0.733258 -0.029163 0.389484 -0.120199 0.690213 0.509497 -0.236030 -0.365481 -0.626454 0.178622 0.020935 -0.535381 -0.874630 -0.611742 0.229106 -0.359572 -1.048594 -0.679160 -0.213343 0.225334 -0.086268 0.024577 -0.170264 -0.622901 -1.358825 -0.208991 -0.753816 -0.100481 0.224307 0.147259 0.832097 -1.075649 -0.162098 -0.219352 0.153150 0.102960 0.186327 -0.755137 0.188695 -0.878620 -0.214985 0.515839 -0.217905 -0.139480 0.011823 0.658894 -0.473924 -0.257996 0.103857 -0.483750 0.558922 0.089576 -0.196826 -0.106004 -0.383405 -0.149216 -0.451314 0.849492 -0.683794 1.285196 -0.214041 -0.381057 -0.476351 0.726676 -0.606917 0.326028 -0.213457 1.009779 0.630645 0.357846 0.690319 -0.442173 1.063163 -0.293544 0.997363 -0.457500 0.370034 0.238592 0.169522 -0.493550 0.419720 0.116217 -0.065948 0.977454 0.031359 -0.529102 0.599531 1.140007 0.522325 0.059803 0.833696 0.178259 0.295990 -0.064401 0.187797 -0.073292 -0.118464 1.025749 0.405536 -0.263356 -0.521372 -0.219950 1.566219 -0.274870 0.033970 0.297884 -1.048112 1.620363 0.357311 -0.578810 0.396843 0.045985 -0.732583 0.573517 0.388681 0.941297 -0.698745 -0.075188 0.358617 -0.802909 -0.094972 -1.366673 -0.588740 -0.473606 0.198078 -0.384259 0.558500 -0.203283 -0.698459 0.032257 -0.761841 0.343610 0.319369 -0.059679 0.914826 1.010627 -1.198528 0.956597 -0.726942 0.158301 0.296831 0.669061 0.628415 -0.758124 -0.678086 0.723034 -0.423957 0.679583 0.833283 -0.108023 1.093972 -0.118491 0.063112 0.059596 0.310305 0.364429 -0.008255 -0.081011 -0.477490 0.648772 0.658395 1.197393 -1.129663 0.840815 -0.627182 -0.671969 -0.440966 0.965151 0.630276 -1.528411 -0.516042 -0.607610 -0.047509 1.120843 0.866067 -0.069706 -0.467009 -0.654700 -0.241908 0.060228
cougar -1.272415 -0.552658 -0.041717 0.401595 0.525981 0.146094 1.015049 0.114899 0.477822 0.239237 -0.387622 -0.362938 -1.009007 0.477737 0.729363 -0.176832 -0.724262 -1.137522 -0.603107 -0.885502 -0.127797 -0.336062 -0.653443 -0.741528 0.081239 0.693804 -0.139740 0.045748 0.025176 -0.585874 -0.464092 -0.314208 -0.898501 -0.402634 0.882181 -0.540500 -0.021501 0.286505 0.933917 1.726825 0.087659 0.026463 -0.202560 0.306718 0.045224 0.113476 -1.015934 0.173308 0.485761 0.745627 -0.706955 0.817062 -0.160533 -0.013403 0.172697 -0.541169 0.330303 -0.308476 -0.327275 0.601921 0.155475 0.038467 1.037820 0.023161 -0.163507 0.198262 -0.043348 -0.836946 -0.517853 0.100240 -0.198905 0.720971 -0.104924 -0.104770 0.240902 0.649760 -1.490373 -0.956444 0.729848 1.023412 0.147870 -0.479460 -0.444112 -0.009020 -0.548065 0.267507 -0.711522 -1.143128 0.415120 -1.269270 0.322912 1.104075 0.360435 -0.373148 -0.203396 -0.057121 0.480614 -0.495330 -0.291712 -0.325214 0.358792 -0.159978 0.217044 0.161285 -0.119462 0.217991 -0.152549 -0.060881 0.320259 0.564004 -0.064637 -1.714361 -0.154422 -0.075646 0.161071 -0.550019 -0.593465 0.824700 0.200478 -0.396844 -0.010592 0.083338 0.226306 1.123847 -0.122998 0.340517 -0.389058 0.140268 -0.776810 0.557416 -0.007172 -0.434310 0.642475 -0.196539 -0.682941 0.577150 -0.123057 -0.326406 -0.349768 0.154685 0.250992 0.360659 0.184307 0.110591 -0.296687 -0.180989 1.097528 -0.003254 -0.670902 -0.384493 -0.724952 -0.764779 0.681338 -0.152448 -0.222021 -0.508535 -0.430572 0.417770 -0.325610 0.139875 0.220217 -0.303122 -0.077151 0.849608 -0.698171 -0.586050 0.678221 -0.724412 -0.897068 0.173756 0.828028 -1.031581 0.635991 0.871909 0.317337 0.785262 0.109693 0.651198 0.110842 -1.357994 1.769930 0.885249 -0.274572 0.668854 -0.320870 -0.721783 -0.633635 0.884197 -0.466405 0.141819 -1.085916 0.286442 -0.210735 -0.758291 -1.057736 -1.249135 -0.344560 0.839557 -0.356783 0.707668 -0.269209 -0.377473 -0.060129 0.430000 0.190959 -0.473288 0.386008 0.063137 -0.237291 -0.370179 -0.587357 0.124406 -1.062306 -0.130992 0.746597 -0.275284 -0.837961 0.916395 0.072790 -0.259466 0.606203 0.303237 0.556808 -0.290388 0.470009 1.160172 -0.278851 -0.021390 -0.781109 0.325516 -0.481598 0.135549 1.028892 0.326655 1.775201 0.030297 0.118211 0.272399 0.379088 0.033416 0.534727 -1.008252 0.176134 0.407539 -0.361518 -0.326484 0.071059 -0.425447 -0.383451 0.213374 0.406700 0.359440 0.006418 -0.444001 -0.287444 0.159625 -0.405882 1.092476 0.712043 -0.959160 -0.572245 0.266293 0.679011 -1.320938 -0.533565 -0.229783 0.019806 0.591666 0.843224 0.623262 1.301999 0.802018 -0.394724 0.530925 0.225395 1.096514 0.161273 -0.247781 -0.083436 0.399902 -0.617590 0.577157 -0.762053 -0.650441 -0.116708 -0.819492 -0.694797 -0.129540 -0.014426 -1.379758 0.258170 -0.362063 -0.460104 -0.506951 0.018515 0.359697 0.401945 -0.373653 0.561219 -0.319247
window 0.576226 0.699320 0.227811 0.860861 0.459831 0.281519 0.050623 0.109882 -0.005831 0.776337 0.417056 0.244292 -1.321768 -0.819185 0.842124 -0.108301 0.608424 0.053672 -0.014449 0.118059 0.225763 0.758023 -0.165173 -0.089461 0.887852 -0.769773 -0.275379 0.036882 -0.339116 -0.624847 -0.952887 -0.108133 -1.227862 0.515789 -0.441518 -0.776931 -0.208700 0.256302 -1.253455 1.227529 0.194581 -0.776894 -1.213673 0.355625 -0.796086 -0.129382 0.051830 0.262181 0.230233 -0.978668 0.614807 -1.242599 0.301327 0.259578 -0.193454 0.169754 0.145807 0.197267 -0.619485 -0.406982 1.336467 0.004050 -1.213852 0.188517 -0.409117 0.087888 -0.424454 -0.736380 0.650794 -0.083562 0.532146 -0.091529 -0.815520 0.789529 0.568576 -0.434060 -0.339414 -0.185868 -0.682997 0.231425 0.194807 -0.673767 -0.094600 -0.230604 0.034579 -1.255991 0.486043 0.415968 0.012357 -1.647599 1.218006 0.354310 0.222208 0.224006 -1.364124 -0.247438 0.185460 -1.081354 -0.373805 0.815839 0.460391 0.304157 -0.175241 0.105515 0.281837 -0.227904 0.077409 0.454511 -0.043071 0.518197 0.338782 0.101051 0.168335 0.095108 -2.403120 0.236282 -0.409115 0.048401 0.371786 -0.177575 0.160888 0.310983 0.457648 -0.435491 -0.762248 0.699026 -0.763873 -1.114888 0.393844 -0.711418 0.104372 -1.286614 -0.057086 0.922866 0.393532 0.528597 0.302132 -0.698665 0.676670 -0.400769 0.451899 0.164524 0.011293 -0.125442 -0.174303 -0.623952 0.318115 -0.176370 -0.671870 -0.451783 -0.091983 -1.332832 -0.050643 -0.360686 -0.560270 0.377440 0.963475 0.149300 -0.408596 -0.298961 0.262256 1.099296 0.165421 -0.320308 0.045440 0.439727 -1.207265 -0.957226 0.333421 0.523502 -0.586314 0.241995 -0.060590 0.271409 0.028143 -0.103706 0.012346 -0.332930 -0.055020 0.183114 -0.448784 -0.522007 -1.082214 -0.362687 0.740602 -0.105025 -0.130782 0.454422 0.291483 -0.567817 -0.966923 -0.897229 -0.126766 0.097785 0.579086 -0.645179 0.449213 -0.085836 -0.833364 1.272793 -0.009321 0.143274 0.407637 0.118265 -0.935085 -0.938879 -0.095351 0.371401 -0.158503 -0.267473 0.362002 0.169879 0.222871 0.804942 1.054421 0.067117 -0.873065 -0.640435 0.472411 0.464571 -0.250406 -0.033307 -1.069195 0.479850 0.892212 -0.185387 -0.709779 0.151211 0.430758 0.452331 -0.323892 -0.067226 0.167863 0.592923 0.481871 -0.829082 -0.121224 -0.403612 -1.284349 -0.441561 0.085699 -0.686803 0.489277 0.887835 -0.121427 -0.352840 -1.098190 0.194042 -0.057376 -0.489221 0.780307 -0.277487 0.075505 0.140306 -0.321520 -0.688941 -0.541897 0.094754 -0.862748 -0.263397 0.541799 0.775195 1.133805 0.442667 -0.311876 -0.033933 -0.337163 -0.553594 -0.899024 -0.049279 0.477630 0.433576 -0.165457 -0.488444 -0.215135 0.752390 0.226817 0.041775 -1.049175 -1.165581 0.336274 -0.563304 0.447795 -0.131832 -0.105633 0.982656 0.152497 0.717095 0.627039 -0.586386 0.828178 0.084059 -1.688286 0.336877 -0.092988 -1.107857 -0.593853 0.358527 -0.423222 0.244584
government -1.064256 0.964438 0.263755 -0.464077 -0.088999 -0.164547 0.156954 -0.290483 -0.124682 -0.233631 -0.634319 0.219808 -0.750577 0.378541 0.028628 -0.008848 -0.134042 -0.616414 0.262559 -0.701408 -0.645573 0.200063 -0.364654 -0.449372 -0.128194 -0.026225 -0.556728 0.261953 -0.714491 0.192546 -0.044441 0.550532 0.012833 1.081668 0.815773 0.861860 0.357620 -0.380059 -0.646980 -0.193687 0.599763 -0.257011 -0.193872 -1.301023 0.322596 0.074708 0.487931 -0.006425 -0.238074 -0.683831 -0.120644 -0.208094 -0.189577 0.910921 0.050320 0.970701 0.080700 -0.184391 -0.305146 0.681853 0.502910 -1.101459 0.764197 0.693862 0.017008 0.093154 -0.379998 0.626879 0.582908 0.257021 -0.581873 0.494498 0.238026 -0.579789 0.475924 0.096255 -0.556328 0.070616 -0.105372 0.350781 0.023506 0.292439 0.086307 -1.148551 0.808252 0.152847 0.336913 -0.068591 -0.496565 -0.057932 0.649333 -0.684370 -0.389385 0.487175 -0.159636 -0.193238 -0.272602 0.226782 -0.175544 -0.393643 -0.538421 0.334531 -0.011609 -0.290287 0.237524 0.527381 -0.153466 0.641176 0.324591 -0.211097 -0.499456 0.308915 -1.009018 -0.074097 0.214843 -0.548349 -0.991699 0.437456 -0.566594 0.193189 -0.737763 -1.474461 -0.413081 -0.131480 -0.616457 0.336063 0.327828 -1.266360 0.411394 -0.027336 0.029038 0.392229 0.093884 0.126853 -0.399983 0.197065 0.444001 0.386953 -0.314202 -0.435305 0.382853 -0.174391 0.107441 0.284911 0.976344 -0.148878 -0.762269 -0.133485 0.010084 -0.941981 1.030914 -0.107174 0.357148 -0.981875 0.224681 0.052787 -0.534467 -0.049865 0.001257 -0.275996 -0.430446 0.875078 0.976996 0.254978 -0.256805 0.435001 0.240962 -0.944378 0.274422 0.020247 -0.388974 -0.013794 0.169793 0.547984 -0.053704 0.047925 -0.450647 0.122190 0.024006 0.783570 -0.489401 -0.172833 0.051853 -0.973120 0.644095 0.564308 0.304608 -0.176994 -0.681211 0.446011 0.133957 0.050633 0.153938 0.584782 0.329658 -0.517716 0.380825 -0.828460 0.692599 -0.433304 -0.161327 0.340637 -0.636276 0.215253 -0.057948 0.397915 0.185983 0.348794 0.695122 0.528638 0.024965 0.382424 -0.424588 -0.170871 0.468102 0.394251 0.596970 0.034770 0.125248 -0.058778 -0.771694 0.358715 0.310309 0.247900 0.307611 0.266641 -0.175715 -0.441904 -0.876087 -0.700004 0.505343 -0.247939 -0.762264 0.293525 1.560382 -0.590632 -0.951153 -0.007098 -0.193821 -0.357716 -0.299457 -0.609958 1.418308 1.478264 -0.065792 1.449343 0.851082 0.390004 -0.594908 -0.131626 0.036819 0.413231 0.113505 0.010911 0.766173 0.497175 0.231887 0.640623 -0.164289 -0.774184 0.673182 0.257787 -0.192109 0.555098 0.275264 -0.206743 -0.324522 -0.137026 0.059741 -0.026512 -0.512919 -0.120658 0.260786 0.020145 0.303667 -1.017071 0.627487 -0.425129 0.914669 0.365830 -0.275618 -0.047329 0.068645 0.140049 0.123508 0.009393 0.621672 -1.168851 0.306079 -0.851082 0.090109 0.049003 -0.107259 0.371363 -0.393696 1.251309 -0.204057 -0.897701 -0.042335 -0.225136
James 0.042906 0.458182 -0.316943 -0.141312 -0.335186 -0.447192 0.319693 0.938836 -0.242509 -1.102162 0.121393 -0.506088 -0.409944 -0.137132 -0.332701 0.237143 -0.177045 0.846938 0.013983 1.121046 -0.117083 0.168560 -0.580667 0.108968 0.324972 -0.233098 -0.005015 -0.163936 -1.094355 -0.081903 0.198645 -0.271537 -0.399593 -1.017658 -0.382119 -0.168843 0.093919 -0.352712 0.307188 0.294093 -0.236403 -0.155938 0.375762 0.758647 0.099312 0.346481 0.638174 -0.067780 0.012105 -0.251236 -0.237467 -0.267691 0.082674 -0.293778 0.704750 0.653267 -0.710582 -0.228752 -0.144308 -0.670004 0.824119 0.095097 -0.196868 -0.863241 -0.158572 0.126939 0.079267 -0.507564 -0.110634 0.592686 -0.081349 -0.102453 -0.153079 -0.350239 -0.276200 0.197935 0.499078 -0.401197 -0.137363 -0.086619 0.404226 -0.221912 -0.327038 -0.236000 0.254609 -1.060665 0.818519 0.382432 0.337090 0.832615 -0.226843 0.064561 -0.499421 0.425250 -0.326706 0.306543 0.105086 -0.419862 0.041274 0.847795 0.188825 0.434774 0.090691 -0.122263 0.500456 -0.114272 -0.516306 -0.506674 -0.005309 0.330841 0.602744 1.028780 -0.838051 0.022575 -0.729789 -0.376546 0.846568 -0.052482 -0.300803 -0.303957 -0.319283 0.199616 -0.347864 -0.616483 0.467419 -0.102434 -0.878751 0.294366 -0.282894 -0.081708 0.040544 0.560117 0.735774 0.220347 -0.022821 0.612277 0.604658 -0.026220 0.442453 -0.451072 0.594671 -0.747750 -0.071211 -0.376509 0.351697 0.192691 0.131820 -0.070022 0.786090 0.447299 0.470483 -0.893138 -0.091731 -0.394876 0.185434 0.195641 -0.236976 -0.381303 0.273916 -0.260578 -0.761060 -0.321217 0.056748 0.054700 0.594581 0.138124 0.901056 -0.090806 0.218489 0.313002 0.476911 -0.407348 0.382652 0.062766 0.173702 -0.793011 0.229060 -0.699859 -0.330927 0.754158 0.497970 -0.472987 0.214840 0.012809 -0.303413 -0.191926 0.218411 -0.026737 -0.098689 0.379391 -0.185355 -0.190918 -0.119124 -0.266931 0.268851 0.459728 -0.243253 0.447207 0.237740 0.619055 0.139196 1.252704 -0.988637 -0.024638 0.499890 0.090023 0.270050 -0.154850 0.186668 -1.100744 -0.634253 -0.240252 -0.160046 -0.175237 -0.426333 -0.185609 -0.053814 0.293004 -0.105995 -0.823199 0.527333 0.483576 -0.467002 0.402387 0.266777 0.801994 -0.298137 0.450746 -0.765638 0.207051 -0.342261 0.839210 0.107005 0.100549 1.081014 -0.800612 0.168762 -0.548033 -0.451354 -0.238843 0.465034 -0.169335 -0.031814 -0.719932 -0.193320 -0.008387 -0.047417 0.178270 0.196645 0.012096 -0.203647 0.002157 0.424997 0.093520 0.236127 0.163809 0.702573 0.387785 -0.163945 -0.527254 0.299404 -0.173482 -0.845743 -0.124929 -0.194775 -0.325776 -0.482474 0.556917 1.090636 -0.313292 0.489384 -0.364512 -0.822210 0.173477 -0.242663 -0.449513 0.838481 -0.387341 -0.043650 -0.032454 -0.255375 0.340558 0.689299 0.095272 -0.613646 -0.269775 -0.212277 0.182209 -0.926149 0.348096 0.220301 -0.397624 -0.222301 0.442717 -0.566062 0.369890 -0.044982 -0.240676 -0.321628 0.262783
fridge 0.900874 0.087870 0.821716 0.081490 0.368564 -0.174071 0.346402 1.686185 -0.383448 -0.174308 0.582108 -0.321566 -0.419955 0.457044 0.452986 -0.099049 0.538558 -0.273067 -0.242360 -0.494768 -0.165398 0.272598 0.114703 -0.526409 0.120890 -0.603229 -0.419827 0.160977 0.281097 0.857370 -0.270520 -0.447447 -0.483186 0.236130 0.692905 -0.420934 0.481103 0.300734 -1.461796 1.070987 0.069852 0.197718 -1.375256 -0.424962 -0.049232 -0.224400 -1.204708 0.048661 0.071231 -0.466568 0.857999 -0.726387 0.423650 -0.124801 -0.553664 0.761856 0.628678 -0.673130 -0.771168 -0.376873 0.343343 0.861148 0.206473 0.776124 -0.706698 0.530214 -0.029976 -0.051906 0.925416 0.435949 1.136735 -0.834090 -1.315410 0.258104 -0.106368 -0.963962 0.257296 0.969827 -0.369366 0.131533 -0.066089 -0.921107 -0.103770 -0.590213 0.080056 0.564944 -0.193124 0.590168 0.764815 -0.852475 0.620023 0.235059 -0.445189 0.527918 -1.457230 0.226625 1.217548 -1.352543 -0.061165 -0.180188 0.300473 1.983831 -0.113895 -0.142136 -0.080053 -0.209834 -0.754668 -0.373856 -0.577798 -0.321848 -0.419404 -0.021257 0.850245 0.639441 -0.735641 0.049197 -1.021608 0.656551 -0.094793 -1.029940 -0.592511 -0.937633 0.538063 1.001773 0.660526 0.204319 0.496284 0.389766 0.168346 0.458507 -0.256333 -1.059437 -0.017471 -0.777455 -0.174044 0.166598 -0.530460 -0.857833 0.417788 -0.951819 -0.740828 -0.674116 0.221444 1.141747 -0.648997 0.166938 0.826449 -0.203460 -0.193931 -0.527338 -0.048896 -0.153951 -0.122879 0.054542 -0.574937 -0.695388 0.750203 -0.603240 0.144696 0.019628 0.328977 0.748654 -0.046131 0.296942 1.037771 -0.190661 0.179112 -0.578652 -0.363503 -0.171867 -0.419768 -0.012825 0.466891 0.057022 -0.016942 -0.118155 -0.584646 -0.078464 0.273828 0.171923 0.019244 -0.250009 -0.713698 1.502310 0.084020 -0.136808 -0.542683 -0.548453 -0.610518 -0.431458 0.490254 0.011179 0.671754 0.654325 0.317304 -0.606857 -0.200846 0.586755 -0.811335 -0.526784 0.318318 -0.620520 0.347170 0.622858 -0.374586 -0.252804 0.122673 0.138013 0.776184 0.277304 -0.110443 -0.327702 0.222288 0.540809 1.161996 0.315595 -0.243246 -0.293879 0.979508 0.770080 -0.502095 -0.863141 -0.215164 0.216714 -0.394943 -0.198581 0.613831 0.386088 0.595300 0.296385 -0.143158 0.569147 -0.109263 0.465839 0.562236 -0.568977 -0.002564 0.724851 -1.295112 0.511987 -0.927631 -0.223650 -1.006239 -0.002887 0.166290 0.366687 -1.187159 0.873647 -0.661523 -0.670014 0.739537 0.104046 -0.059043 0.344044 -0.345642 0.413119 -0.298024 0.023380 -0.356525 0.155597 1.075180 -0.008092 0.034733 0.032272 0.179078 0.666627 0.135787 0.523247 0.138142 -0.169301 -0.191960 0.649411 0.445779 -0.318678 0.053031 1.484368 -0.481047 -0.221480 -0.512252 -0.569042 0.700538 0.057970 -0.460839 0.443963 -0.671613 0.373234 0.357168 0.240032 0.774661 -0.677325 0.837727 0.849828 -1.565925 1.030791 -0.184303 -0.333370 -0.096595 0.481108 0.498804 0.792512
lunch 0.519371 0.666933 1.208092 0.193177 0.134711 0.178711 -0.312033 0.678082 -0.696845 -1.057411 0.352785 -0.607382 -0.353199 -0.112456 0.885576 -0.743294 0.525372 -1.255314 -0.040991 0.161442 0.877759 0.872160 0.550419 0.887897 0.705079 -0.666443 -0.728917 -0.009541 0.839927 1.457306 -1.121058 -0.369330 0.352490 0.446556 0.157118 0.948873 2.127088 -0.279134 -1.056175 1.026573 -0.595357 0.759829 -0.046090 0.030432 1.085072 0.076515 -0.809792 -0.403241 0.143864 -0.254501 -1.131718 1.169076 2.273429 1.046606 1.483319 1.053613 0.012680 0.404882 0.069811 -0.884245 1.397710 -0.069686 -0.168888 0.364687 -0.434646 0.729218 0.258296 1.755605 1.294000 -0.325119 0.158135 -1.466776 -0.060417 -0.376749 0.660135 -0.027157 -0.152612 0.192447 0.840376 1.066171 0.456505 -0.560135 0.282919 1.287258 1.141512 0.347092 1.317813 -0.163823 0.117565 0.167004 -0.331613 0.654776 0.160833 0.483043 -2.243323 0.375170 0.729728 0.882991 -0.656454 0.429901 -0.796332 -0.064946 -1.021942 -0.801129 -0.146341 -0.157700 0.634849 1.719713 0.823372 -0.299691 0.095224 -0.200644 0.305707 -0.682785 0.034828 -0.793189 -0.954431 0.402070 -0.190240 -0.073861 -2.090631 -1.996971 0.267659 -0.261589 2.039952 -0.972157 0.478291 -0.112220 0.312970 -0.096687 2.080489 -0.289125 -0.788309 -0.596403 0.392168 -1.017993 0.700125 -0.937024 -0.362400 -0.481438 -0.222241 0.077979 0.615598 0.073763 -0.885268 -0.238137 -0.752057 -1.255354 -0.671600 -1.182725 -0.211590 -0.564084 0.062014 -0.658280 -1.742170 -1.253690 0.526491 -0.847010 -1.117563 0.622869 0.547404 -0.063374 -0.265660 0.397165 0.056657 1.990595 0.016435 -2.044050 -0.564419 0.321658 1.836516 -0.031134 -1.381994 1.241782 -0.172276 -1.503045 0.394263 0.537290 0.686653 -1.078188 0.362752 0.009223 0.722001 1.356668 0.516655 -0.033788 -0.395131 0.165590 -0.080182 -0.693096 -0.175673 0.905914 0.789179 1.718903 0.433953 -0.444605 -0.201555 0.456758 0.174263 0.857577 1.582444 -0.310177 -0.254608 -0.484762 -0.609405 0.183108 0.328487 0.782493 0.033194 -0.070138 0.324396 -0.471047 0.230042 0.416896 -1.141243 -1.057229 -0.225146 1.106078 0.608580 -0.496894 -0.995633 -0.594102 0.093807 -0.595874 1.271756 -0.323136 -0.025216 0.739843 1.470248 1.527455 -0.007484 0.790873 1.495246 0.104607 1.204623 -1.075600 -0.954083 -0.380118 0.569590 0.822400 -0.159842 -0.043498 -0.414864 -0.046753 0.506028 0.251472 0.180763 -0.647419 -0.270579 -0.388287 0.901065 0.865159 1.201040 -0.147555 -0.643498 0.168097 0.207592 0.176341 0.085044 0.085533 0.231267 0.301220 -0.827545 1.425803 -0.661016 0.629755 -0.543542 -0.932562 -0.601222 0.428906 0.553284 0.074689 -0.944575 0.753691 1.458500 0.138707 -1.317077 1.588564 0.168602 -0.235029 0.028900 -0.438446 -0.291314 1.157641 0.170137 -0.997124 0.139169 0.417778 0.309368 -0.404214 0.263388 1.384141 -0.389444 0.621794 -1.057308 -0.619436 -1.160240 -0.257863 0.051204 1.607427
Juventus -0.601391 -1.759382 -0.390467 -0.132568 1.517818 -0.095081 -1.237509 -0.695702 -0.043089 0.510710 0.615199 -0.129585 -0.714863 0.663505 -1.051438 1.010170 0.371938 0.687362 -0.136047 0.770664 -0.905905 -0.299679 0.999073 -0.970001 -0.303284 -1.554053 -0.063131 1.772038 -0.541600 -0.910411 1.607223 -0.575049 -0.218532 -0.579335 -0.738280 -0.904479 -0.100082 -1.887475 0.286446 -1.093691 -0.185828 0.546425 0.525584 -0.661552 -1.196872 1.079647 0.431718 -1.121222 0.589262 0.238801 -0.682502 -0.478920 0.097049 1.397168 -0.939626 0.423683 -1.850467 0.079886 0.003997 -0.441913 -0.063505 1.277730 0.761326 -0.132465 0.156868 -0.156647 -0.036707 -0.373915 0.148693 -0.956570 -0.285470 -0.204240 -0.718394 -0.048963 -0.897569 -0.410200 -1.116682 -0.568218 -0.087474 0.851068 1.167525 0.091809 -0.064458 -0.651756 -0.093456 -0.409983 -0.596939 -2.177459 0.361501 0.631855 -0.427074 0.591286 -0.618697 -1.042190 -0.549104 -0.831142 -0.162898 0.330489 0.156499 -0.246898 0.856314 -0.219470 0.394391 -0.154972 -0.734386 0.854460 0.307524 0.514057 0.745909 0.514269 1.014906 -0.073361 0.542763 -0.906780 -0.079945 -0.269155 -0.631288 -0.592929 0.872718 -0.269693 -1.186113 -0.087394 -0.260291 -0.188640 -0.030931 0.848388 -1.175604 0.110613 -1.423063 0.833761 -0.169209 -0.902951 -0.068020 -0.112588 0.963385 -1.450543 0.727629 -0.164619 -0.041780 -0.844571 0.384500 1.330471 0.690386 -0.697190 -0.739135 -0.512928 1.527161 -0.224712 -0.829955 0.321991 0.232033 -0.327587 -0.383341 1.044514 -0.224094 -0.560883 -0.841359 -0.372398 1.757150 -0.531152 1.178279 0.270732 -0.463196 -0.817888 0.865124 -0.052688 0.724642 -0.558948 -0.092804 -0.160849 -0.453048 0.554811 -0.494578 0.622421 0.965705 -0.711974 -0.779161 0.331104 0.082781 -0.504483 -0.959896 -1.620497 0.345947 -1.137896 0.241122 0.884317 -0.303717 -0.157809 0.825172 0.089410 -0.291574 1.246246 0.568791 0.090565 -0.583262 0.721418 0.364329 0.050092 1.059798 0.397202 0.650320 0.180641 0.478965 -0.165172 1.338133 -0.899237 -0.619211 -0.082606 0.809716 -0.173919 -0.448548 0.493839 0.827805 0.850274 -0.234240 1.294611 1.088645 0.611320 -1.800129 0.631021 -0.604970 -0.587037 -0.057902 -0.042459 1.902532 0.159185 0.774346 -1.024502 -0.098231 0.817258 0.270087 0.035485 -0.409049 -0.536934 -0.205670 -0.394638 -0.259805 0.225568 0.705498 0.386286 -0.924578 0.279957 0.781054 0.020092 0.858788 -0.215974 0.412084 -0.465562 0.612938 0.108176 -0.103823 -0.110082 -0.381581 -0.074901 1.317617 0.014101 -0.150743 -0.834960 0.906871 0.535377 -0.075650 0.085673 1.445906 -0.670100 -0.235364 -0.309077 0.379327 -0.464994 -0.476156 -0.099678 -0.206556 -0.630598 0.232886 -0.326198 -0.068644 -0.252759 -0.897661 -0.302951 0.228161 -0.095949 -0.307872 0.226111 -0.320917 1.709514 -1.483836 -0.265205 0.595597 -0.877521 -0.110462 0.826300 0.356924 -0.276912 -0.593193 0.155425 -0.594289 0.188521 0.397354 0.095534 0.159304 0.885575
Venus 0.573197 -0.459275 -0.017455 0.148734 0.543210 -0.447884 0.033382 0.599960 0.643106 0.827706 -0.095542 0.092859 1.495991 0.194774 0.802288 -1.079169 -0.238772 -0.816774 -0.160343 -0.258598 -0.774308 -1.100263 -0.053357 0.063305 -0.610151 -0.753335 0.762372 0.728833 0.600543 0.061125 -1.168851 -0.126422 0.198516 0.479739 0.149244 0.260273 -0.834836 -0.065298 1.006175 0.784937 0.046987 0.387244 0.006913 0.080452 -0.797263 0.096186 0.580041 0.345301 0.201023 0.259255 -0.162711 -0.319411 0.123651 0.699660 0.001574 -0.460017 0.755723 -0.607293 -0.680202 -0.363002 0.480407 0.014656 0.042822 0.194836 0.025679 0.260329 -0.967457 -0.327990 -0.194977 0.928066 0.186772 -0.646198 -0.492700 -0.141538 0.385886 0.516995 0.010993 -0.676266 1.007034 -0.577949 0.144629 0.223155 -0.842683 -0.064541 -0.921421 -0.787517 1.348979 0.269397 0.552421 0.180217 0.026659 0.362326 0.401651 0.110086 -0.675771 0.436595 -1.159439 0.196563 0.270102 0.532443 -0.906475 -0.038629 0.057164 0.103063 -0.131929 -0.226607 0.610199 -0.034249 0.392597 0.292683 0.428912 -0.135220 0.104075 0.601435 -0.959176 -0.204300 0.137030 0.676101 0.858213 -0.235502 0.518655 0.082981 -0.997507 -0.552593 0.030548 0.162422 -0.029402 -0.379322 -0.237838 0.220074 0.474710 1.026445 0.303101 0.197024 -0.826897 -0.048816 1.316265 0.333855 0.039038 -0.492954 0.880888 1.058806 0.654866 -0.262015 0.263082 -0.857629 -0.142162 1.370759 0.648857 -0.630072 -0.052815 -1.104652 0.432145 0.225556 -0.662737 0.112990 -0.105597 -0.153217 -0.001532 0.100750 1.365479 -0.328126 -0.841166 -0.122462 0.523199 0.056868 0.355993 -0.989950 -0.067770 0.995889 -0.152818 -0.099275 0.659030 -0.072426 -0.144290 0.028989 -0.411081 -0.724269 -0.367923 0.459075 -0.381636 0.243850 -0.398937 0.134945 -0.146471 0.481456 -0.655015 -0.104422 0.779460 0.075556 -0.603305 0.208185 -0.113852 -0.338354 0.276550 0.192407 -0.764291 -0.000135 -0.659039 0.957195 0.321059 -0.076238 -0.322526 -0.570444 0.149617 0.709372 0.632011 0.470333 0.366445 -1.272315 1.136663 0.133356 0.207389 0.298493 0.525352 -0.271714 0.649700 -0.782591 -1.264510 0.331143 -0.342595 -0.013639 -1.279716 -1.316726 -0.093808 0.151363 -1.007336 0.691403 0.681685 0.099539 0.352032 0.440197 0.073997 0.025419 -0.251336 0.205192 -0.032732 0.236857 0.406190 -0.242543 0.560479 0.108750 -0.318522 -0.755555 0.962022 0.362325 -0.131193 0.521414 0.167486 0.274322 -0.770248 -0.203964 0.245328 0.631711 0.741556 -0.452487 0.116446 0.557967 -0.784261 -0.085971 0.122044 -0.764268 0.784637 0.691704 0.123798 -0.542265 0.392325 0.559767 0.309120 0.988429 -0.352696 0.723237 0.262315 -1.145940 0.386671 0.223846 -0.901512 0.846758 0.349048 -0.741816 -0.270250 -0.092127 -0.321913 -0.362819 0.546841 0.361006 0.651839 -0.029156 -0.613977 -0.362567 -0.152511 -1.004744 -0.621698 -0.464518 0.123237 -0.133212 -0.127195 0.618235 0.245875 -0.691198
day 0.656843 0.011695 0.623986 0.531823 -0.105903 0.088365 0.376305 -0.531646 -0.657462 -0.657565 -0.201510 1.384735 -0.600243 0.485500 -0.640967 -0.050889 -0.340759 -0.326322 0.332922 0.296658 -0.443173 0.926858 -0.535805 -0.397971 -0.010691 -1.001266 -0.126988 0.760649 -0.395034 0.291076 -0.228694 0.278254 -0.018091 -0.026615 0.728338 0.422207 -0.455104 0.380917 0.103595 0.378620 0.301437 0.348579 -0.148612 0.567988 0.347370 -0.046683 -0.515565 -0.944859 0.918286 -0.224394 0.468876 -2.023385 0.741318 0.173566 -0.631731 -0.714556 0.071189 -0.026103 -0.307422 -0.709794 -0.079345 -0.160590 0.193994 -0.342211 -0.725399 0.753543 0.845382 1.003105 -0.254921 -0.290483 -0.228516 0.404419 -0.301969 0.014128 -0.458462 -0.493060 -0.052289 0.177760 -0.036247 0.980029 -0.754764 0.015746 0.092533 0.451155 0.419111 -0.018397 0.992434 0.332796 0.379755 -0.169043 -0.299459 0.665272 -0.442875 0.209398 0.162206 0.346738 -0.776454 -0.160686 -0.189804 1.288268 0.245315 0.698850 -0.335160 -0.002695 0.005971 0.309956 -0.051448 0.532354 1.042681 -0.184871 -0.159635 -0.478044 -0.521149 -0.959936 0.239595 -0.287658 -0.347621 -0.109632 -0.245914 -0.452840 -0.186933 0.070458 0.311280 -0.096895 0.138953 -0.659830 -0.407614 -0.475950 -1.154144 -1.062634 0.439765 -0.194855 -0.278338 -0.472750 -0.314335 0.216134 0.208319 -0.155051 -0.754283 -0.892949 -0.001057 0.042723 0.626365 0.057689 -1.271510 0.091862 0.307516 -0.218076 0.231695 -0.259961 -0.897614 0.291930 0.057831 -1.297784 -1.407476 0.149494 0.868607 0.208018 -0.693321 0.366478 0.063701 -0.366035 0.197288 -0.044208 0.036538 -0.493674 0.675836 -0.857703 -0.858094 0.052872 -0.282241 1.152114 0.102652 0.157705 -0.018432 0.085509 0.142479 0.348492 -0.415550 0.332042 0.235408 0.389767 0.193566 0.288940 0.165812 -0.189133 -0.079001 -0.975027 0.161494 -0.277312 -0.259292 0.077113 -0.762364 0.279779 -0.092124 -0.566284 0.402858 0.900071 -0.630980 0.177181 -0.570155 -0.330262 0.461273 -0.780911 -0.010739 -0.417376 -0.055996 0.725831 -0.768447 0.928492 0.422310 -0.114014 -0.498844 0.353627 0.032986 -0.906587 0.443879 0.074672 0.154406 0.487469 0.015575 0.134282 -0.113211 -0.507879 -0.217544 0.339071 -0.678425 0.394689 -0.106865 0.459235 0.314129 -0.166939 0.911532 -0.210997 -0.391947 -0.152462 0.653016 0.067030 -0.481287 0.206092 -0.478190 -0.539858 0.078309 -0.433279 -1.039907 0.291772 -0.882035 -1.178760 -0.235178 0.719133 -0.600392 -0.410430 1.025684 0.212038 -0.382106 0.577248 0.187735 0.317325 1.605405 0.169260 -0.248024 1.027556 -0.102324 0.436477 0.370482 -0.105940 -0.713064 -0.639199 -1.846209 1.086588 -0.225317 -0.216249 -0.356163 0.026482 -0.553169 -0.423333 -0.709718 -0.022518 -0.404381 -0.788463 -0.439851 0.011188 -0.004466 -0.310205 0.613824 0.108756 0.179900 0.463199 0.189448 -0.769086 0.082950 0.095589 -0.316014 0.415582 -0.538336 0.079959 0.511668 -0.440687 -0.663489 0.739481
Triton 0.146661 0.183823 -0.119055 0.237214 0.233185 0.302855 0.182531 0.471665 0.766716 -0.272644 -0.578099 0.785052 0.539665 0.053980 -0.040452 0.153399 -0.108393 0.209278 -0.104709 0.225313 -1.204060 0.641036 -0.142451 -0.319090 -0.321791 -0.318747 0.225715 -0.302716 0.140365 0.189411 -0.454863 -1.162404 -0.154478 -0.037834 0.434069 0.235749 -0.130099 -0.742753 0.652057 0.220232 -0.312918 0.692364 0.651243 0.507430 -0.106983 0.568680 0.328315 0.608917 0.007314 -0.112165 0.158312 0.591560 -0.263855 0.229531 -0.256848 0.006681 0.452737 -0.516519 -0.393045 -0.240769 0.266668 0.018543 -0.206389 0.100786 -0.223509 -0.067944 -0.063901 0.303273 -0.158627 -0.111470 0.007485 0.075271 -0.890523 0.230739 0.606934 -0.277865 0.169582 -0.239900 0.413774 -0.038016 -0.089708 0.344720 -0.497523 -0.192526 -0.565552 -0.741392 0.176620 -0.105858 -0.140436 -0.129687 0.064202 -0.064908 -1.097411 -0.271923 -0.595421 0.086729 -0.115662 0.239189 0.678860 0.763319 -0.477368 -0.898253 0.373128 -0.497287 1.187146 0.008354 0.425820 -0.538013 0.252595 0.070885 -0.332355 -0.257227 -0.098039 0.456299 -0.262266 0.230096 -1.205894 -0.063910 -0.563291 -0.080409 0.407014 -0.333865 -0.555570 0.042453 -0.312665 0.031943 0.117551 0.116029 0.313490 0.439065 0.012892 0.219426 0.343684 -0.379696 -1.102853 0.045532 0.699691 -0.396685 0.596069 -0.337533 -0.477978 1.067010 0.064836 -0.236987 -0.359167 -1.040428 -0.397362 0.494767 0.151254 0.439508 0.148413 -0.544400 0.286496 -0.524834 -0.393648 0.036180 0.156510 -0.053004 -0.149353 -0.093297 0.389608 0.317393 -0.841546 0.261049 0.115604 -0.081910 0.179171 -0.429311 -0.153161 -0.272821 0.236418 0.071230 -0.240492 -0.251459 -0.600444 0.247016 -0.408473 0.009238 0.380981 0.614746 0.567041 -0.139287 -0.328359 0.872277 -0.199118 0.127697 0.427453 0.318613 -0.127181 0.524816 -0.499423 0.362379 0.233856 0.302976 -0.518789 -0.339791 0.297247 0.054481 0.312025 -0.466330 0.535921 -0.110067 -0.492547 -0.024320 0.339344 0.328490 0.995088 0.046238 0.067845 -0.394039 0.791744 0.226742 0.055890 -0.583697 -0.111988 0.015652 -0.346519 -0.196847 -0.568138 0.378551 0.602428 0.093376 -0.820458 -0.105542 0.121482 0.712053 -0.175025 -0.451335 0.202764 -0.493222 -0.721541 0.518901 0.480873 -0.150571 0.171256 -0.522854 0.400243 0.174997 0.138594 -0.526000 -0.103695 -0.243833 -0.441519 -0.118204 1.193097 -0.422584 0.082941 0.572540 0.462413 0.704489 -0.454913 -0.340440 0.301547 0.401306 0.458643 0.127905 0.158899 0.843930 -0.179313 0.017446 0.068665 0.278104 0.755955 -0.100893 -0.675115 0.526426 -0.223786 0.120081 0.325524 0.123698 -0.411058 0.101365 0.422028 0.197994 0.001085 0.047301 -0.470132 0.917301 0.424024 -0.103628 0.018506 0.447599 0.152410 -0.005788 0.115576 0.097267 0.024794 0.105744 -0.648051 0.151832 0.306153 -0.794279 -0.391140 -0.626275 0.640358 0.603217 0.009814 0.296136 -0.243851 -0.711015
Thomas -0.084669 0.525935 -0.078828 0.449995 -0.354783 -0.322162 -0.072064 0.654168 -0.041204 -0.495061 -0.289976 -0.480515 -0.532069 0.094697 0.054036 0.697067 -0.656409 1.322244 -0.416904 1.053916 -0.536587 -0.061305 -0.457555 0.267315 0.163301 -0.352581 0.556466 -0.256646 -0.796243 -0.108852 -0.054454 0.100089 -0.449228 -0.303875 -0.041082 -0.580560 -0.139037 -0.032130 0.233372 0.061843 0.111762 0.231403 -0.023840 0.474894 0.425628 -0.618646 0.364677 0.238978 0.389578 -0.459870 -0.194930 -0.384409 -0.158324 -0.525512 0.206568 0.045741 -0.498424 -0.402691 -0.185260 -0.467915 0.902454 0.013150 -0.372171 -0.989263 -0.298328 0.308852 0.509401 0.224612 0.041693 0.804880 -0.199611 0.157605 -0.142601 -0.425518 0.113890 0.691738 0.204075 -0.666635 -0.314605 -0.187995 0.471800 0.246782 -0.468236 0.232808 -0.112987 -0.769662 0.825754 0.980170 0.430646 0.770340 -0.090882 -0.648971 -0.459165 0.245734 -0.668464 0.071140 -0.211956 -0.285624 -0.495385 0.683237 0.183409 0.030343 0.424865 0.072881 0.538052 -0.188739 -0.691947 -0.431387 0.120413 0.421645 0.824671 0.771084 -0.400612 0.340987 -1.126145 -0.297820 0.301404 0.517364 0.375297 -0.419008 0.035703 0.589005 0.011695 -0.045227 0.938971 -0.183977 -0.345176 0.146267 -0.383253 0.148898 -0.055367 0.492164 0.307036 -0.173566 -0.249031 0.786231 0.236713 0.373951 0.457780 -0.208850 0.458041 -0.808809 -0.383294 -0.665359 0.129597 -0.384316 0.091767 0.086784 0.823583 0.099409 0.412552 -0.383807 -0.277598 0.072834 0.011263 0.539942 0.000967 0.031787 0.220494 -0.315892 -1.096457 -0.727885 0.473372 0.106586 0.366601 -0.094060 1.165166 0.119984 0.174423 0.123456 0.612439 -0.380960 0.035054 0.257657 0.117174 -0.859257 0.376700 -0.208708 -0.490112 0.852745 0.046187 -0.484628 0.159479 0.418577 -0.413609 -0.357329 0.320950 -0.096762 -0.191125 0.197246 -0.245199 -0.447596 0.131180 -0.169933 0.025141 0.166009 0.237073 0.050407 0.607352 0.094686 0.322967 1.082924 -1.005267 -0.153938 0.320529 -0.303782 0.077966 0.004705 0.179731 -1.468313 -0.481989 -0.518761 -0.356912 -0.156372 -0.678356 0.231128 -0.139236 0.421096 0.025288 -0.896495 0.410122 0.413363 -0.019926 0.501967 0.344835 0.477165 -0.065140 0.072725 -0.850373 0.606388 -0.097399 0.881228 0.244914 0.279016 0.842271 -0.577389 0.464940 -0.291287 -0.140795 0.019632 0.203967 -0.016426 -0.051971 -0.681266 -0.293423 -0.385000 0.055847 -0.239772 0.123391 0.004839 -0.160927 -0.038466 0.231710 -0.081623 -0.087643 0.374742 0.723070 0.537471 -0.097228 -0.070169 0.525286 -0.054681 -0.608907 -0.031655 -0.009414 -0.219516 -0.446087 0.354330 0.902905 -0.335684 0.461326 -0.357868 -0.062964 0.496920 -0.279745 -0.344187 0.555689 -0.367729 0.132796 -0.000342 -0.182073 -0.024646 0.643806 0.097147 -0.391259 0.329348 0.171313 0.252761 -0.488351 0.297758 0.329569 -0.495040 -0.340145 0.301127 -0.450955 0.188712 0.374007 -0.355662 0.070942 0.267015
Saturn 1.423663 -0.132341 -0.810675 0.093156 0.100230 -0.163771 -0.165505 0.291830 0.171875 1.064889 -0.608815 0.428540 1.424206 -0.388377 -0.739939 0.151889 0.195254 -0.463792 -0.029399 0.471295 -0.944062 0.385363 0.331908 -0.001939 -0.625211 0.190451 0.343746 0.308802 0.900378 0.179839 -0.483907 -0.277957 0.234139 0.479715 0.478197 0.690870 0.007163 -0.062459 -0.442488 0.791228 0.230417 -0.036444 0.161921 -0.258596 -0.568679 0.497124 0.084889 -0.389252 -0.720349 0.155754 0.357378 0.169792 -0.481247 -0.078308 -0.036513 -0.213386 0.468806 -1.049426 0.052634 -0.753411 0.948386 0.391860 0.910208 -0.618461 -0.207617 0.056752 0.009868 0.359951 -0.532022 0.640639 -0.118332 -0.460088 -0.988332 0.564467 0.017986 -0.184921 0.318449 -0.505796 0.412393 0.579302 -0.518259 0.612726 -0.417872 -0.098221 -0.479249 -1.072825 1.775947 -0.604527 0.077385 -0.166342 0.196320 0.162549 0.419035 0.177900 -1.021898 -0.552623 0.265919 -0.043301 0.591148 0.001383 -0.726143 -0.300881 -0.055994 0.548726 0.320207 0.603305 0.958790 0.482382 -0.183363 0.127393 -0.084753 -0.089033 -0.193615 0.236241 -1.460257 -1.001240 0.425705 0.364153 0.571077 -0.729716 0.447830 0.235077 -0.944551 -0.359312 0.830613 0.987279 -0.333401 0.013081 -0.695239 0.717981 0.919889 0.367526 0.899981 0.108299 -0.652036 -0.392885 0.876632 0.674509 0.536416 -1.289313 0.826654 0.753648 0.636702 -0.477568 0.252301 -0.602004 -0.818064 0.928136 0.772460 -0.827490 0.101663 -0.821964 0.542393 0.164836 0.565271 0.661084 -0.170488 -0.941404 0.389595 0.253929 0.875524 -0.084988 -1.950459 0.240968 -0.013570 -0.759742 -0.389344 -0.514010 0.691553 0.460887 0.712839 0.377786 0.484360 -1.109317 -0.282989 -0.526028 -0.526757 -0.401308 0.285871 0.909275 -0.586362 -0.359028 -0.714526 -0.183927 -0.532247 1.215146 -0.558039 0.861984 0.970955 0.196492 -0.046113 -0.029740 -0.592649 -0.418442 -0.706960 0.332855 -0.412230 -0.303992 0.016593 0.366852 0.218975 0.015427 -0.438053 -0.191501 0.473147 0.435033 0.782624 0.273645 0.361797 -0.414776 0.917802 -0.144026 -0.433316 0.704779 0.337475 -1.389979 -0.264038 -0.369520 -0.157331 0.411912 0.318981 -0.853580 -0.973032 -0.919159 -1.192408 0.676119 -0.276689 -0.187226 1.120149 -0.483466 0.819208 0.262794 0.476713 0.213083 0.418011 0.335902 0.174396 0.697891 0.906342 0.715418 -0.092562 0.757968 -0.192252 -0.325663 1.284893 -0.009907 0.664859 0.623398 0.131422 0.674203 -0.559242 -1.114364 -0.555839 0.936811 -0.102891 -0.065764 0.025417 0.479444 -0.218692 0.263371 0.153898 -0.814496 -0.171188 -0.430337 0.635026 -0.251445 0.329695 0.743739 0.252975 0.736852 -0.002189 1.289628 0.346622 -1.187803 0.604669 0.342738 -1.358369 0.285488 0.228819 -0.613780 -0.543931 -0.215727 -0.476428 -0.407599 0.397150 0.542857 0.920053 0.276946 -0.885562 -0.434054 0.312350 -1.332637 -1.041168 -0.292879 0.870180 0.818601 -0.771313 -0.349515 0.440503 -1.519042
jaguar -0.619356 0.149189 0.075364 0.743554 0.391314 0.904952 0.369537 0.481226 -0.155814 -0.548330 -0.054173 -0.734828 -0.409878 0.353353 0.978483 -0.084844 -0.742617 -1.047057 0.662214 -0.021505 -0.293109 0.507938 -0.692908 -0.320700 -0.489564 0.830108 -0.120862 -0.554121 -0.489556 -1.144340 -0.894175 -0.183966 0.016971 0.488008 0.044894 -0.739102 -0.320413 0.652924 0.371834 1.043281 0.508300 0.322211 -0.797222 0.299977 -0.158827 0.196024 -0.786629 -0.066042 -0.053172 0.510202 -0.746266 0.932601 -0.386199 -0.011155 0.278923 -0.200062 0.412649 0.075625 -0.638906 0.631482 0.140754 -0.097707 0.928910 -0.239666 0.619703 0.323808 0.540005 -0.720270 -0.079301 0.436373 0.362413 0.063651 -0.627725 0.088149 -0.292849 0.436514 -1.520010 -0.661292 0.256403 -0.101091 0.299813 -0.757266 0.249337 -0.591324 -0.559270 -0.491618 -1.378726 -0.626424 -0.204872 -0.001471 0.201526 0.931314 0.706194 -0.222091 -0.394791 -0.351651 -0.097333 -0.329496 -0.121164 -0.077205 -0.615274 -0.445846 -0.385894 0.012712 -0.128909 0.288058 0.370906 0.302692 1.026051 0.990550 0.053535 -1.548552 -0.850913 0.373758 -0.365457 0.036527 -0.531868 0.819394 0.297713 -0.014500 -0.125169 -0.248060 -0.538342 0.647772 -0.449199 0.157707 0.079198 -0.463788 -0.274426 -0.607864 -0.091801 -0.705930 -0.077049 0.687628 -0.491217 1.399404 0.549512 -0.332616 -0.610668 0.289550 0.520025 -0.177197 0.735445 -0.320836 0.193738 -1.494188 0.066203 -0.027944 -0.299250 -0.192155 -0.798742 -0.339339 0.311900 0.367769 -0.012136 -0.015765 -0.945804 0.266790 0.396260 0.499194 0.172966 0.405584 -0.476333 0.199020 -0.165095 -0.787626 0.128369 -1.215603 -1.043527 0.760290 0.619128 -0.431923 1.041216 0.588084 0.592555 0.773625 -0.326809 -0.495282 0.376834 0.064957 1.073509 0.241994 0.113975 0.744030 0.799685 0.118308 -0.143215 0.287383 0.136080 0.033518 -0.598826 1.015968 -0.135473 -0.353173 -0.756299 0.278459 0.075825 0.519983 0.211115 0.663724 0.027832 0.244010 -0.126431 -0.250852 0.543851 0.013664 -0.249872 0.013940 -0.440926 -0.074456 -0.412064 0.355103 -0.166215 -0.779706 0.614511 0.432879 -0.154711 0.391749 -0.363062 -0.306034 0.570495 -0.824249 -0.484547 -0.296794 -0.364524 0.501014 0.036178 -0.400853 -0.502678 0.544312 -0.082723 -0.138885 1.641799 0.050847 0.248431 -0.046637 -0.314134 -0.002791 0.667152 0.177363 -0.963353 -0.684124 -0.485248 0.267289 -1.316640 0.033934 0.263888 0.149644 -0.356073 -0.872075 -0.172229 -0.410993 0.023605 -0.544509 0.135670 -0.509385 0.319301 0.801399 0.262823 -0.893867 0.028640 0.560170 0.104837 -2.125273 0.440725 -0.616026 0.600287 -0.115208 0.615050 0.670524 0.730697 1.198159 0.186932 1.102321 0.412331 0.233530 0.304036 -0.329442 0.034957 0.433265 -1.034118 -0.523824 -0.183760 -0.329989 0.210752 -0.968925 -0.545052 1.253695 -0.178841 -0.945560 0.877541 -0.289914 -1.004110 -0.006608 -0.014914 0.225874 0.223140 -0.090729 1.036082 -0.641602
Noah -0.347439 0.173505 -0.071634 1.296561 0.129307 0.127092 0.157123 0.271787 -0.370437 -0.186095 0.346913 -0.880711 -0.366204 -0.958523 0.539429 0.226375 -0.033371 0.597866 0.204402 0.123221 0.322731 -0.143256 -0.656159 0.131633 -0.220979 -0.669324 -0.226289 -0.061192 0.137426 -0.268539 0.968543 -0.299670 -0.123759 -0.532632 0.498542 0.079909 0.465611 0.103204 -0.497357 -0.267086 0.218591 -0.230381 0.143047 0.896205 -0.512192 0.375401 0.263392 0.193568 -0.351927 -0.529369 -0.256701 0.785082 0.306230 -0.103254 -0.490025 0.248925 0.101687 -0.519105 0.222335 -0.147857 0.267708 -0.128606 -0.506221 -0.481330 0.484716 0.426418 0.556515 0.205972 0.031368 -0.019430 -0.501611 0.141068 -0.569201 0.493779 0.012002 0.149290 0.331560 -0.716284 0.754883 0.063125 -0.508809 -0.366384 -0.563559 -0.816908 0.099986 0.138349 0.476115 0.367693 -0.000625 -0.090082 -0.407727 -0.033368 0.859324 0.130559 0.555810 -0.409462 -0.508443 0.358666 0.461977 0.039686 -0.791483 0.632060 -0.276500 0.014740 0.142289 -0.002866 0.272714 -0.998614 0.010844 0.893517 0.171173 0.435199 0.043656 -0.486979 -0.435702 0.592007 0.139655 -0.176487 -0.148841 0.139094 -0.573867 -0.355185 0.024616 0.419288 -0.213205 -0.462979 -0.399568 -1.098152 0.638355 -0.456083 0.469374 0.509181 0.742355 0.122397 0.757217 1.026510 0.118277 -0.580557 -0.619024 0.333548 0.473515 0.378791 0.763630 0.170718 -0.491368 -0.580041 0.657412 0.131529 0.016701 -0.229157 -1.131696 0.253165 -0.070719 -0.937136 0.499751 0.937440 0.345522 -0.642536 0.200165 -0.075583 -0.165238 -0.153437 1.083800 0.084869 -0.033077 0.543771 0.518543 -0.660809 -0.161196 0.783334 1.344159 0.321614 0.173972 -0.191131 -0.278153 0.036653 -0.749436 -0.263016 0.208841 0.207289 0.727393 0.773990 0.083117 1.000999 -0.065764 -0.219320 -0.415036 -0.387971 0.308580 1.523925 -0.907652 -0.138724 0.062228 -0.336664 -0.724047 0.389390 0.748774 0.198225 0.053759 0.013640 0.138866 -0.166299 -0.311065 -0.719198 -0.418125 0.272099 -0.110486 0.055514 -0.337599 -0.455943 0.284149 -0.417883 -0.057442 -0.265722 -0.011403 0.550754 -0.722840 -0.182677 0.016919 -0.622675 -0.172885 0.008617 0.165673 0.621166 -0.122564 -0.638552 -0.263123 0.075715 0.297445 -0.229082 0.144708 1.037055 0.044657 0.325924 0.360389 -0.261826 0.106288 0.047117 -0.482599 -0.307909 0.428761 -0.125525 -0.071004 0.194813 -0.140231 -0.578258 -0.131402 0.262344 -0.807635 -0.087752 -1.080759 -0.491061 -0.098863 0.345784 -0.199881 0.030253 1.166862 0.375783 0.150987 -0.729687 0.399338 0.331470 -0.023687 -0.090611 0.046944 -0.118978 0.275212 -0.120706 0.111146 -0.454772 0.227566 0.796284 -0.015274 -0.402172 -0.186821 -0.148056 0.033628 -0.129700 -0.218893 -0.142260 -0.587001 -0.701330 0.124288 -0.274536 0.372904 -0.741000 0.184667 -0.104798 -0.293656 0.519116 -0.131203 -0.517370 -0.735958 0.192157 0.990597 0.281956 -0.596793 0.307446 0.273837 0.608588
Jupiter 0.481692 -0.563658 -0.307893 0.538716 0.517412 -0.611713 -0.236531 0.366755 0.101773 0.949445 -0.113187 0.483381 1.433338 0.830164 -0.098011 -0.168711 0.281127 0.026366 -0.423670 -0.268979 -0.621512 -0.379592 -0.343401 0.376470 -0.593853 -0.380048 0.755872 0.150162 1.220816 -0.382860 -1.078173 0.105332 0.777551 0.753757 0.506063 0.029019 -0.172121 0.120674 0.989658 1.192679 0.120805 0.703317 0.008388 0.143758 -0.608479 0.365054 0.245990 -0.037804 -0.268782 -0.113344 0.146308 0.245612 -1.047883 0.215460 0.748289 -0.695687 -0.090661 -0.780035 0.911077 0.006488 0.798805 0.450681 0.348709 -0.351759 0.199500 -0.038710 -0.911827 -0.420852 -0.204417 0.941852 0.357115 -0.289559 -0.583177 -0.699262 -0.057150 0.390880 -0.075692 -0.644417 0.730007 -0.664163 -0.609779 0.748079 -0.246484 -0.255713 -0.824326 -0.665025 0.976528 0.548600 0.183188 -0.147467 0.228721 0.038033 -0.060589 -0.420257 -0.933247 0.855092 -0.397947 -0.223668 0.690903 0.253843 -0.913864 -0.763172 0.124784 -0.768771 0.374324 -0.087685 1.081466 0.676223 0.468140 -0.036420 0.270993 -0.238853 0.075053 -0.097312 -0.500449 -0.931378 -0.293802 0.408340 0.239968 -0.052335 0.213888 0.501224 -1.078776 0.430521 0.082939 0.195318 0.340275 0.681610 -0.591699 0.577649 0.669617 0.302664 0.441139 -0.104499 -0.959455 0.705610 0.431214 0.406805 0.369149 -0.117405 0.704640 1.335577 0.605181 -0.542092 -0.568552 -0.473830 -0.700334 1.192942 0.907658 -0.486131 -0.055372 -0.712591 0.208542 0.081826 -0.600446 0.805539 0.617422 -1.014026 -0.206051 0.238440 0.870968 -0.189854 -1.501021 -0.680370 -0.464101 -0.041038 0.426276 -0.808522 0.435310 0.459827 0.237020 0.053952 0.682000 0.233247 -0.388517 0.516202 -0.782719 -0.973984 -0.540644 0.978405 -0.288790 0.404375 -0.159734 0.011486 -0.334161 0.316804 -0.200657 0.604841 0.122659 0.117234 -0.784310 0.126191 -0.117444 -0.362018 -0.004773 0.176635 -0.426860 0.293036 -0.924441 0.244913 0.780040 -0.235565 0.133254 0.425403 0.348210 1.826775 0.703595 0.211311 -0.162039 -0.793043 1.123738 0.316757 -0.219628 0.399465 0.471009 -1.169551 0.218966 -0.931466 -0.586528 0.466439 0.368247 0.070043 -1.628001 -1.005105 -0.205977 0.684858 -1.329593 -0.285990 1.136983 0.198624 1.218260 0.261998 0.413295 -0.304340 -0.010688 0.035413 -0.227833 0.193770 1.051000 0.527894 0.402640 0.350972 -0.381510 -0.475406 1.328563 -0.149304 -0.394003 0.660130 0.370950 0.403477 -0.653570 -0.290729 0.166533 1.150109 0.672674 0.113370 -0.044903 0.868015 -0.175827 -0.182699 0.689489 -0.944835 1.147654 0.215890 0.336917 -0.741255 0.301600 0.256797 0.286134 0.940122 -0.372868 1.578018 1.356562 -0.805458 0.237005 -0.140079 -0.570448 0.640779 -0.165056 -0.620688 -0.295796 -1.007013 -0.295631 -0.022617 0.947375 0.735770 0.577429 0.161277 -0.511689 0.190236 -0.357575 -1.780833 -0.538658 -1.092348 0.453673 0.630612 -0.395846 -0.042149 0.417855 -0.593520
Uranus 0.444221 -0.409350 0.189921 1.250963 0.452536 0.226247 -0.176621 0.128774 -0.336795 0.026135 -0.507363 0.362543 1.115594 0.864534 -0.396666 -0.052412 -0.093222 0.216916 0.206299 -0.502123 -0.298098 -0.754905 -0.586950 -0.387987 -0.129660 -0.171263 0.550459 0.767910 0.728696 0.421684 -0.866440 -0.490607 0.189033 0.295705 0.623779 -0.599071 -0.778163 -0.344987 -0.151930 2.490685 0.508634 1.275152 -0.575226 0.195766 -0.261668 0.534920 -0.054687 0.262760 -0.776202 -1.076443 -0.261624 0.459978 -0.149934 -0.876234 0.304475 0.566706 0.420003 -1.372665 0.326551 -0.803753 1.836554 0.866569 0.591209 -0.022981 0.102148 -0.173913 -0.945100 -0.292910 -0.528434 1.727696 0.466678 -0.569056 -0.860354 -0.040872 0.242666 -0.382355 0.397258 0.014375 0.820320 0.183520 -1.277223 0.625587 -0.423205 -0.071316 -0.890202 -0.893058 1.602218 0.078661 0.244238 -0.160678 0.081420 -0.428339 0.323620 -0.457557 -0.291279 0.699301 -0.305175 0.149623 0.959209 -0.112405 -0.551038 -0.528142 0.132539 0.294197 -0.415756 0.243814 0.886391 0.569464 0.545535 -0.707340 0.123298 -0.178433 0.009574 0.353044 -0.835655 -0.565162 -0.035658 0.191713 0.074946 -0.432944 0.230439 -0.243441 -1.909605 1.103763 0.651534 0.720469 -0.097147 0.216109 -0.851350 0.848910 -0.270265 0.468936 1.021822 1.000128 -1.633122 0.161970 0.639300 0.157480 1.269215 -0.953532 1.097948 0.994760 0.499460 -0.139188 -0.732119 -0.984493 0.001482 1.431579 -0.216706 -0.447125 -0.217151 -0.945255 0.700704 0.284252 -0.524884 0.694548 0.503439 -0.326461 0.112327 0.286643 1.261019 0.009831 -0.841792 -1.252257 0.310599 0.522244 0.057837 -1.129696 0.473148 0.591060 0.276640 -0.127604 0.512444 -0.282195 -0.487419 -0.011905 -0.541213 -1.197452 -0.138360 0.971766 -0.250011 -0.079785 0.095285 -0.064591 -0.309113 0.301801 -0.533677 1.010703 -0.691672 0.569057 -0.978345 -0.372394 -0.559337 0.239302 0.382414 -0.111370 -0.717166 0.017268 -0.602864 -0.157694 0.931036 -0.174975 -0.680971 -0.667387 -0.061016 1.130298 0.193291 -0.298401 -0.404905 -1.178976 0.918367 -0.031107 0.291109 -0.296514 0.347070 -0.258145 -0.193420 -1.115847 -0.741999 0.142330 1.292022 -0.476990 -1.030285 -1.852275 -1.280948 1.474806 -0.679668 -0.597779 1.399115 -0.482533 0.910872 0.204206 0.674797 0.237755 -0.702343 0.151054 0.481441 -0.275099 1.005688 -0.070783 0.162302 -0.078862 0.622551 0.206531 1.134700 -0.012192 0.511862 0.526575 0.520491 1.216765 -0.941067 -0.455675 -0.478579 0.521999 -0.259946 -0.126870 0.303595 1.756261 -0.555086 -0.075696 0.455298 0.153911 0.160519 -0.162350 1.044190 -0.405431 0.212787 1.622734 -1.351900 0.694093 -0.970310 1.287101 1.613932 -1.164012 0.839659 -0.392957 -0.546367 1.149926 0.026529 -0.239071 0.172117 -1.015218 -0.068394 0.717961 0.350183 0.820808 0.924565 -0.261686 -0.830184 0.130308 0.196189 -2.246484 -0.825221 -0.912122 0.578047 0.016420 -1.889498 0.163019 0.401636 -0.624145
crucifixion 1.028004 -0.997680 0.722768 0.444487 0.600439 -0.583524 0.055486 -1.149702 -1.339163 -0.292248 0.927981 0.480170 -0.126136 -0.393008 0.774476 -0.188951 -0.268193 -0.664652 0.413074 1.077771 0.622757 0.339347 -0.827258 0.929346 -0.334530 0.098699 -0.220160 0.787617 -1.367660 0.050646 -0.954319 -0.323879 -1.184749 1.446947 0.250467 -0.552167 0.449158 0.941185 0.311779 -0.361773 0.500589 1.091889 -0.321993 1.318555 -1.386811 -0.684579 -0.217841 -1.202281 0.542947 -0.756039 -0.893258 -0.162405 0.022162 2.381717 -1.339733 0.175965 0.493869 -0.458864 -0.744070 0.034812 0.049056 -0.604902 -1.157258 -1.052891 -1.176014 -0.487119 0.704789 -0.440980 -0.503111 -1.013364 -0.343223 -0.649823 -0.577083 -1.025517 0.603772 0.864140 -1.626669 -0.296732 0.180756 -0.753267 -0.443190 -0.046983 0.161312 0.241715 0.790636 -0.514151 0.318472 0.460666 0.200109 0.385194 0.013534 0.454918 -0.061204 -1.052578 -0.301753 0.856330 0.608391 0.990531 -0.164551 0.988042 0.180856 1.257551 -0.436483 -0.524136 0.050456 -0.950405 1.373574 0.353714 0.380224 -0.032195 0.011862 -0.904437 -0.452688 -0.329775 -1.037315 -0.664115 -0.668858 -0.266792 0.148273 -0.263870 0.081925 0.441187 0.391364 0.478340 -0.638868 -0.545679 0.660328 -0.622009 0.334440 -0.403205 1.307843 0.042301 -0.025404 1.753806 -0.398436 -0.128135 0.140136 0.348196 -0.543967 0.607988 0.867239 -0.119302 0.468890 0.206806 -0.658817 -1.400088 -0.052222 0.613669 1.236667 -0.604070 0.082447 -0.174817 0.990190 -0.948703 -0.296461 0.655580 0.141609 0.710397 0.744824 0.655589 0.711590 0.669886 -0.073456 -0.755778 -0.699757 0.220190 -0.236254 0.332425 0.832556 0.028232 1.106803 -0.837988 1.009464 0.219805 0.517808 0.753534 -0.134875 0.902631 -0.195955 0.910686 0.491137 0.574430 -0.900364 0.031367 0.212542 0.551068 -0.426062 0.280356 0.694262 -0.470218 -0.150293 -1.099380 0.501401 0.145389 -0.550464 1.369998 -0.286064 -1.612456 0.193752 -0.293722 0.185651 0.440381 -0.108964 -1.040811 0.855639 -0.010060 -0.235079 0.701053 -0.707174 -0.060584 0.348173 -0.306264 0.497497 0.298566 0.665807 -0.133570 0.469241 0.319890 -0.115403 -0.598066 -0.391501 -0.325395 0.134265 -0.597602 0.261237 -0.077247 -0.041055 -0.452803 0.068596 0.477724 0.269562 -0.220121 0.544836 0.424375 -0.073139 -1.015576 -0.358130 -0.931448 -0.205382 -0.277271 0.116728 -0.491020 -0.946066 0.009447 -0.505643 0.484270 -0.491170 -0.001201 -0.597119 -0.901592 -1.828766 0.938954 -1.060876 1.397168 -1.027503 0.613712 0.801967 0.626917 -0.808237 -0.303900 -0.664142 -1.261471 0.266370 -0.038708 0.252262 -0.335075 0.726854 -0.406450 0.022001 0.574003 0.078956 -0.491955 0.162599 -1.141565 0.018801 -0.774511 0.230025 -0.025823 -1.969951 0.134124 0.219544 -0.017168 -1.522357 -0.912091 -0.342300 -1.070509 0.188293 0.170323 0.363800 0.714189 1.145900 -0.261757 -1.058001 0.048647 -0.086864 -0.610988 -0.625038 1.386163 0.632243 -0.678297
Bridgestone -0.294054 -0.567543 -1.024693 0.420576 -0.502966 0.453828 0.186010 0.191741 -0.263946 0.308351 -0.072650 -0.548745 -0.093366 -0.134388 -0.073007 0.099480 -0.162627 0.267303 -0.864734 0.813302 -0.665764 0.852854 -0.199341 -0.839349 0.284719 0.667642 0.160897 0.064323 0.940819 -1.600318 1.247158 0.760202 0.122770 0.059465 0.938463 0.072009 -0.300228 0.724510 -0.039916 -0.304358 0.707111 -1.670383 0.347534 0.221341 1.304438 0.485381 0.543116 0.413983 -0.129879 0.544049 1.354200 0.718370 0.414930 -0.201315 0.273714 0.555809 0.385358 -0.099713 1.173729 1.052947 -0.173923 -0.786919 -0.715136 0.157068 -0.431213 -0.229386 0.546337 0.243373 0.222376 -0.782052 -0.161482 -0.534785 -0.151042 0.172398 -0.149537 -0.822946 1.103646 -0.549847 -0.429058 -0.462364 -0.073790 -0.288608 -0.325412 -0.565403 0.047781 -0.486178 0.260794 0.145936 1.012549 -0.500710 0.767177 0.227510 -0.264757 -0.254539 -0.140321 -0.984695 -0.201008 -0.666320 -0.028785 0.030857 -0.405238 0.310955 -0.732467 0.442548 0.128370 1.081089 -0.560730 0.813215 0.799671 0.367060 0.374288 0.730092 0.626034 -0.042296 -0.764339 0.878044 -0.709977 -0.554447 -0.090871 -0.496286 1.283477 0.644107 0.957463 0.090443 0.539370 0.230280 0.580439 -0.379255 -0.492010 0.385668 1.355186 0.224723 -1.141748 0.039852 0.121435 -0.062744 -0.292933 0.059474 0.026168 -1.081040 0.715289 -0.911203 -0.485120 -0.837643 -0.954039 -0.702797 -0.396871 -0.612219 0.475749 -1.707700 0.075539 0.149358 -1.422364 -0.940523 -0.148147 -0.460446 0.443958 -1.049144 -0.591089 -0.470971 -0.415421 -0.558403 -0.482735 -0.797831 -0.062996 0.299807 -0.699836 0.448776 -0.416473 0.047881 0.038400 -0.840332 -0.038984 -0.692858 -0.033839 -0.679617 0.146259 -0.051364 0.738499 0.137259 -0.576133 0.234133 -0.621944 -0.484619 -0.189634 0.999075 -0.807875 0.864030 1.264257 0.214443 -0.164519 -0.289196 -0.838283 -0.243907 0.145204 -0.623673 -0.217723 0.655491 1.077690 -0.593397 0.168510 0.728954 -1.124188 0.904052 0.493707 -1.097426 0.479986 -1.241187 0.093447 -0.020466 0.216966 -0.091181 1.177335 0.035944 -0.181663 -0.157391 0.908297 0.166061 -0.468508 0.528173 -0.145168 -0.463611 0.903934 0.062482 0.322924 -0.472761 -1.112171 0.990626 -0.621900 0.695565 0.979392 -0.161041 0.219711 -0.316508 -0.332649 0.406389 0.221163 -0.328099 1.121111 -0.047515 -1.067970 0.599520 -0.467943 -0.378115 0.897689 -0.000863 0.169834 0.140089 -0.174326 -0.654129 0.273417 -0.330488 -0.310273 0.354343 0.993385 0.253142 -0.727299 -0.530770 -0.427611 -0.190443 1.203790 0.169942 0.813801 -1.377456 -0.372507 0.424484 -0.991794 -0.386388 0.681462 -1.340154 0.530668 -0.390058 0.313144 -0.394295 0.701292 -0.109505 -1.335037 1.038415 1.248897 0.831233 -0.071384 0.452373 -0.333047 -0.585811 0.071750 -1.125520 0.106097 -0.416382 0.212458 0.142358 0.375540 -1.051498 0.687866 0.244812 0.280179 1.029216 1.161416 1.237946 0.629852 -0.499255
Sun -0.178886 0.508823 0.283433 0.332128 0.557640 -0.340793 0.417555 0.463598 0.432572 0.364893 0.386473 -0.403928 1.487706 0.371922 -0.426768 0.348741 -0.010782 0.505505 -0.032776 0.172308 -0.806236 0.212273 0.246310 -0.049258 0.131235 -0.957385 0.896616 -0.118340 0.979983 -0.826705 -1.066229 -0.876393 0.908096 1.015424 0.765364 0.483272 -1.069970 -0.878111 0.178915 0.265314 0.027381 -0.116467 0.353186 -0.311680 0.605572 0.321961 0.105156 -0.468407 0.346961 0.035209 -0.548154 -1.495534 -0.845641 0.080483 -0.012217 -0.275991 -0.486603 -0.435467 -0.000448 0.514861 0.528272 -0.377750 -0.162131 0.239475 -0.329459 -0.614839 -0.567259 -0.450151 0.432507 0.177800 0.022302 -0.053107 -0.000132 0.419472 -0.024498 0.309199 0.749065 0.150446 0.474927 -0.151088 -0.367784 -0.035959 0.427175 0.366948 -0.575243 -0.173531 0.789830 -0.304293 -0.409673 -0.493969 0.205938 -0.001696 -0.246516 -0.498758 -0.004630 0.543072 -0.390071 -0.088598 0.392302 -0.036434 -0.850900 -0.029817 0.181264 -0.463070 0.253409 -0.566912 1.099278 -0.464029 0.175110 -0.139366 -0.338729 0.128997 -0.067889 0.768549 -0.292699 0.095198 0.731607 -0.161726 0.186370 -0.175582 0.550089 0.019716 -0.141688 -0.554735 -0.329188 0.997541 0.453511 0.701652 -0.067219 -0.515078 0.430193 0.285646 -0.128475 -0.494951 -0.354959 0.091078 1.182584 -0.144257 -0.650778 0.170461 0.563312 0.260857 -0.396979 0.027400 -0.584267 0.071507 -0.425347 0.815934 0.097523 -1.752314 -0.718591 0.339652 0.290138 0.515478 -0.244061 0.169773 0.223508 -0.317048 0.672956 -0.461503 0.825645 -0.050609 -0.843879 -0.148064 -1.344454 -0.237079 -0.267317 0.097071 0.495372 0.454905 -0.411335 0.069069 0.096014 -0.693462 -0.284229 -0.342919 -0.587187 0.468925 -1.541649 -0.490339 -0.092331 0.061241 0.164394 0.028609 0.130781 0.662799 -0.266306 0.169064 0.402441 -0.738195 -1.048373 0.139440 0.256619 0.823104 -0.631222 -0.470917 -0.324282 -0.137306 -0.619827 -0.087466 0.915945 -1.006135 -0.779787 0.495010 0.233361 0.930423 0.635659 0.796853 0.033453 -1.057986 0.623827 0.239013 -0.213477 -0.257270 0.318446 -0.112387 0.273635 0.396552 -0.116835 -0.188685 0.003473 1.028356 -0.258209 -0.076629 0.364352 0.824417 -0.230512 0.297127 0.106713 -0.306415 0.490761 0.154806 -0.151590 0.024802 0.167771 0.180592 -0.228893 -0.349760 0.499015 0.321610 0.244990 0.129157 0.462507 -0.112198 1.026473 0.346738 -0.505213 0.059925 -0.005804 -0.876359 -0.414000 -0.650187 -0.005874 0.472974 0.689244 -0.209051 -0.212905 0.521654 0.237315 -0.779561 0.291252 -0.609799 0.438359 -0.212228 -0.050988 -0.264017 0.623736 0.968319 0.258561 0.571642 -0.096703 0.509586 0.488721 -0.239612 0.018684 0.654129 0.004470 1.005085 -0.026772 -0.340468 -0.866584 -0.366170 -0.274922 0.192707 0.461727 0.502927 -0.494303 -0.101704 0.105226 -0.143071 0.149583 -1.465421 -0.847189 0.169679 0.480761 -0.728693 -0.034632 -0.278524 0.524000 -0.851803
HP 0.521172 -0.768346 0.183396 0.415506 -1.044329 -0.093702 -0.110890 0.414537 0.049026 -0.047179 0.060612 -0.763242 -0.723164 -0.832493 0.493402 -0.223911 -0.355889 0.405562 -1.048078 0.958827 -1.156814 0.720165 0.744880 -0.852304 -0.167923 0.611340 0.197022 0.540633 0.546112 -0.642971 -0.026120 -0.263033 0.150956 -0.060850 0.748491 -0.210288 -1.108775 0.054068 0.502766 -1.100429 -0.236361 0.646802 0.140058 0.921542 0.503729 0.346639 0.582827 0.163295 0.332475 0.115648 0.363608 0.458739 0.491579 0.455150 0.357748 -0.250412 -0.591416 -0.519281 0.245633 0.800593 0.316819 0.424102 -0.509788 -0.672503 0.145445 -0.388606 0.728386 -0.037454 0.293639 -0.522872 -0.836958 -0.868417 -0.432290 -0.382273 0.784569 -0.071049 -0.245256 -0.244268 -0.582684 -0.146617 -0.011265 0.025792 0.441445 0.116948 0.234235 -0.554309 -0.309603 -0.292438 0.286453 0.405386 0.521964 -0.014509 -0.352877 0.175605 -0.090753 -0.371273 0.497357 -0.929455 1.766184 0.643143 0.312634 -0.271427 -0.481970 0.368766 0.676400 -0.291701 0.075814 0.827763 0.186129 0.304961 -0.152952 -0.925968 0.891862 -0.226590 0.179542 0.794127 -0.585238 0.327919 -0.422164 0.168226 0.294466 0.296318 -0.326575 -0.182737 0.760457 0.309782 0.833807 -0.101833 -0.925305 -0.037677 0.176194 -0.288147 -0.072357 -0.211798 -1.345864 -0.018122 -1.052868 0.045175 0.591899 -0.040759 0.182649 0.411872 -0.036212 -0.835637 0.022505 0.338727 -0.219630 0.008513 0.356718 -0.559431 0.134600 0.859340 -0.744883 0.120338 0.824198 -0.207622 -0.185346 0.405675 0.353670 -0.691686 0.230953 0.058812 0.057694 -0.225215 0.949425 0.271045 -0.063350 0.245122 0.563143 -0.036735 -0.241705 0.758607 -0.138328 -0.328441 -0.394580 0.001135 -0.920686 0.282318 0.249872 0.347568 -0.266713 -0.302647 -0.325835 -0.479416 -0.439130 0.025827 -0.189952 0.089686 0.603027 0.426761 0.400103 0.166054 -0.380579 0.097061 0.139903 -1.449963 -0.080078 0.275054 0.096679 0.492781 -0.516905 -0.176869 -0.795725 -0.042700 0.365622 0.338262 -0.436394 -0.795306 1.104342 0.156415 -0.233292 0.445566 -0.015128 -0.424782 0.840518 -0.627028 -0.438682 0.882831 0.036951 0.318236 0.042010 -0.257089 -0.453441 0.126225 -0.796064 0.187181 -0.056765 0.212291 -0.329016 -0.739102 0.279608 0.347870 -0.179827 -0.670886 0.918100 0.346430 -0.266328 0.128409 0.231899 -0.256865 0.287449 0.367523 -0.273788 -0.426656 -0.162110 -0.795594 0.261922 0.750878 0.017100 0.136066 0.688572 -0.596615 1.726331 -0.508195 0.277027 -0.034847 0.558207 0.165971 -0.494757 0.142053 1.063466 0.516911 0.266370 -0.672716 -0.302335 -0.315522 0.312456 -0.807649 -0.401854 0.446532 0.504539 0.438673 -0.404989 0.145272 0.520378 -0.256656 -0.647156 -0.064618 -0.354647 -0.126958 -0.432754 -0.012655 -0.500469 0.340196 -0.691462 0.849187 -0.200538 1.585253 0.787339 0.057263 -0.207901 0.531227 0.841322 1.150744 0.799314 0.275920 -0.152235 -0.320318 0.641852 0.729812
February -0.762613 0.131305 -1.047984 0.956465 0.652890 -0.807302 1.651443 1.271726 0.643585 -0.797507 0.669395 -1.025605 -1.540565 0.465017 -0.494141 1.033608 -1.288161 -1.423424 0.569705 -0.220859 0.261900 0.818574 0.225978 0.622981 0.132547 0.267843 1.585451 0.638293 1.380533 0.648131 1.427695 -0.743871 0.011038 -0.593209 -0.459663 0.115344 0.036382 -1.032139 0.613022 -0.150081 -0.771390 -0.743297 1.949220 0.239959 -0.281070 0.497922 0.241122 0.007740 0.665552 -1.363574 0.452321 -0.262000 0.697788 -0.689147 -0.058432 0.274453 0.019681 -0.242069 0.600187 0.444128 1.161952 0.085444 0.493193 0.524039 -1.527925 0.549731 0.228927 -0.041576 0.606423 -0.010050 -0.951204 -0.030220 -1.465820 -0.542712 -1.399331 0.458060 -1.197210 -1.113069 0.606653 -0.732789 -0.403998 -0.799877 -0.110255 1.030620 0.266899 -0.472527 0.984305 -0.911473 -0.680361 0.132806 -0.025004 -0.187788 0.345011 -1.057661 -0.332633 -0.360439 -0.597328 -0.323647 -0.079562 -0.410838 -0.208833 -0.613685 0.534915 0.198273 0.125304 1.274541 0.103347 -0.734334 -0.174798 0.391851 -0.141897 -0.197069 -0.069389 -0.407513 -0.323480 0.396247 0.626302 1.036305 0.494525 0.094515 -1.277543 -1.547681 -0.299353 1.672430 -1.182931 0.864825 2.021090 -0.067932 -1.702798 -0.553785 0.186567 0.408924 -0.239992 0.116904 -1.208123 0.178371 0.521550 -0.014690 1.286363 1.112947 -0.640759 1.107926 -0.000802 0.317590 -0.844333 0.705290 0.128206 -0.953080 0.717487 0.594072 -0.281462 0.706107 0.801563 0.207383 0.152521 -0.001434 -0.402747 -0.900412 -0.209231 -0.949023 -0.566453 -0.592070 0.162182 0.687737 1.705045 1.223379 -0.226754 -0.826421 0.956633 0.168428 0.137459 -0.030231 -0.106788 -0.528900 0.283389 1.407390 0.396100 -0.714422 -0.412838 0.718845 0.474449 0.557094 -0.585797 -1.244839 -0.066886 0.273524 -0.692716 0.454744 0.606624 -0.929448 0.043304 -0.581436 0.355810 0.229293 0.580639 0.778428 0.849631 -0.164960 -0.370584 0.341732 -0.474445 0.043725 0.791620 0.071430 -0.410216 -0.445060 -0.656731 0.647551 -0.781592 0.102500 -0.342153 0.378335 1.416563 -0.119961 1.851767 -0.525319 0.439698 -0.586609 -0.936449 -0.009694 -0.013366 0.673254 -0.916233 0.075618 0.267967 -0.687313 0.765823 -0.380245 0.304697 -0.049018 0.716846 -0.271091 1.174549 -0.279889 -0.534545 0.168233 -1.280621 -0.197679 0.746948 -0.447696 0.172570 -0.133025 -0.703018 -0.452116 0.185383 1.281397 -0.428256 -0.447841 -0.287531 0.388077 1.778564 0.047149 -0.006191 0.355739 -1.270332 0.899705 0.002198 -1.592892 -0.133509 -0.410441 0.656890 -0.549688 -0.504546 -0.189546 -0.699361 -1.195090 -0.035842 0.928977 0.574048 0.907288 -0.135926 -0.329658 0.656504 -0.068704 0.115260 -0.454572 -1.249710 0.274816 0.640374 -0.051718 0.913157 0.166334 -0.108136 -0.774425 -0.325273 0.543280 0.006766 -0.213966 0.833324 1.156179 -0.981151 0.844418 0.198877 -0.788735 -0.958417 0.454811 0.409251 -0.123335 -1.079276 0.174675
Rio_de_Janeiro -0.087188 -0.806044 -1.054869 -0.722537 -0.480941 0.636635 -0.538064 -0.091699 0.604587 -0.630364 -0.521073 -0.469698 -0.216222 1.937883 0.329057 -0.146538 0.692130 -0.675462 -0.465747 0.132493 -0.429504 -0.872623 -0.149765 -0.154315 0.455008 -1.696100 0.418413 0.082577 -0.546788 0.244776 0.076569 0.188428 1.301828 0.762514 1.448693 0.138512 0.686252 -0.100559 0.820518 -0.184684 0.285206 0.321706 0.383082 0.679415 0.365058 -1.732009 0.228156 0.185988 -0.009314 0.052431 0.130487 1.168514 -0.130480 -0.434678 0.083063 0.263207 0.022533 -0.160190 -0.185634 -0.166299 -1.042361 0.211690 0.183937 0.495211 1.274102 0.512028 0.061919 -0.073966 -0.545518 0.113367 0.005262 -0.100953 -1.436671 0.325754 -0.805599 0.350354 -0.259701 0.462205 0.170894 -0.569031 0.374002 0.216500 0.144081 -0.865315 -0.457763 0.507573 -0.279052 -0.946365 -0.479863 1.135941 -0.487502 0.119524 -1.476678 -1.137001 0.444338 0.965690 -0.189821 0.029734 0.242202 -0.697133 -0.364550 -0.244705 -0.395375 0.023717 -0.277742 0.001959 -0.086907 -0.839576 -0.402599 1.609617 0.247306 0.322358 0.362862 -0.140712 0.799081 -0.370590 0.216183 0.607044 0.086435 0.735768 -1.457814 -0.131929 0.562295 -0.933042 0.022184 -0.634803 0.378758 -0.316915 -0.562559 -0.967077 -0.485066 -0.499596 0.111371 0.780240 -0.060921 0.028618 -0.158425 0.196471 -0.803396 0.060159 0.805539 0.860173 0.201647 -0.718160 -0.141448 0.833485 0.373399 0.170777 0.091002 -0.141587 -1.158923 -0.058388 -0.794914 -0.717608 -0.468683 -0.858524 0.903740 -0.035158 0.940765 0.315693 -0.986925 0.005751 -0.177206 0.230291 1.268923 0.389717 -0.423811 -0.462727 1.013781 0.252280 -0.577156 -0.423321 0.225376 -0.171107 -0.800860 0.163252 0.335609 0.012366 -0.274218 0.318964 -0.105321 -0.408595 -0.068085 -0.557434 0.757572 1.441121 0.558470 0.403085 -0.229672 0.396139 -0.535638 0.608487 0.634511 -0.848456 0.054735 0.119333 -0.533279 0.250782 0.159756 0.871240 0.347110 0.440982 0.744414 0.705541 -0.669849 -0.211066 0.806632 -0.006037 0.272081 0.014049 -0.575396 0.817205 0.040551 0.246922 1.011903 -0.422091 0.086153 -0.453630 -0.585872 0.554588 -0.512105 1.022408 -0.491108 -0.047594 0.077704 0.100768 0.304920 0.103927 0.549419 1.171321 -0.682091 0.061986 0.908492 0.326127 -0.686575 1.193884 1.432569 -0.229150 0.758326 1.304803 0.309156 -0.048801 -0.387440 0.005135 1.312059 -0.636330 0.576999 -1.587532 0.401196 -1.373775 -0.091544 -0.108327 1.073607 -0.706387 -0.659027 -0.320162 0.399282 -0.913231 0.569913 -0.521462 0.767521 0.700703 -0.229601 -0.147001 -1.109612 0.097849 -1.019377 0.533729 -0.774383 -0.709617 -0.705661 -2.048263 0.042801 -1.064556 -0.004708 0.085440 -0.949176 0.373540 -1.002226 0.394720 0.985504 -1.017783 -0.009306 -0.252272 0.504781 0.090256 -0.781207 -1.398695 -0.102302 -0.072578 -0.046009 -0.079499 0.144457 0.050582 1.346115 0.060309 0.761030 -0.076864 0.533237 -0.239175
Matthew 0.193606 0.236718 0.271538 0.597918 -0.200279 -0.264725 0.332103 0.776070 -0.290809 -0.359609 0.097594 -0.632760 -0.748571 -0.459611 -0.115940 0.592116 -0.965200 0.816214 -0.686869 0.845981 0.100468 0.205345 -0.266774 0.556500 0.478196 -0.746671 -0.281772 -0.245794 -0.108097 -0.091298 0.302019 -0.292733 -0.360873 -0.231884 0.026048 0.340511 0.626618 0.251387 -0.111271 0.462581 0.244270 0.366867 0.303446 0.753734 -0.044574 0.342000 0.511914 0.315000 0.066372 -0.204387 -0.457547 -1.085804 0.190670 -0.314191 0.215280 0.335452 -0.947258 -0.183298 0.111246 -0.048452 0.149682 -0.297530 -0.767715 -1.458279 -0.441715 0.505230 1.004083 -0.843471 -0.267928 0.312494 -0.302170 0.603517 -0.101934 -0.067264 0.166243 0.304223 -0.298290 -0.060935 0.341555 -0.398084 0.650038 -0.073181 -0.333557 -0.323558 -0.419667 -1.048194 0.710570 0.484285 0.057493 0.441650 -0.228560 0.046725 -0.169563 -0.200508 -0.050833 0.102793 -0.353385 0.149845 0.297707 0.332967 0.205554 0.110847 0.527183 0.343743 0.304767 -0.239475 -0.347377 0.051021 0.408913 0.827265 0.690174 0.553443 -0.595354 -0.401952 -0.420087 0.112679 1.015032 -0.295342 -0.208434 -0.090982 -0.452808 -0.289986 0.395716 -0.175647 -0.038603 -0.257372 -0.253849 0.535503 0.285838 -0.134908 0.855926 0.273561 -0.208829 0.101413 0.532682 1.014729 -0.170957 0.301810 0.139947 0.195761 0.236005 -0.841332 -0.310214 -0.221961 -0.050628 -0.293431 0.387367 0.420083 0.516419 0.235323 0.028259 -0.622817 0.152916 -0.314988 0.516079 0.405521 -0.100688 -0.249409 0.442834 0.195356 -0.800461 -0.052846 0.334360 -0.550071 0.518082 -0.278930 0.972242 0.259542 0.154520 0.516205 1.228540 -0.222414 0.311021 -0.173375 -0.087042 -0.806204 0.035981 -0.293690 -0.309309 0.717394 0.152834 -0.080321 0.193326 0.398815 -0.198018 -0.034641 -0.495726 0.068647 0.057216 0.955745 -0.290769 -0.270675 -0.240938 0.082484 -0.186198 0.565490 0.054210 0.361984 0.444766 0.466152 0.015604 0.728808 -0.171425 -0.474087 0.625976 0.231687 0.437814 0.440022 0.147442 -0.951733 0.345706 -0.076185 0.212661 -0.457993 0.072832 0.281684 -0.258850 0.350187 0.162436 -0.389906 0.428400 0.760668 -0.213419 0.994254 0.177178 -0.070019 -0.074353 0.409554 -0.071339 0.223344 -0.192020 0.426946 -0.767986 0.308315 0.584599 -1.493381 -0.121574 0.025865 -0.480303 -0.596300 0.069878 -0.259439 -0.730664 -0.861763 0.225710 0.086019 0.068816 -0.229783 0.068285 -0.407196 -0.701885 0.043955 -0.172200 0.443977 -0.507150 0.626710 0.619185 0.169337 -0.374262 -0.364314 0.475836 0.449978 -0.629343 0.420754 -0.267214 0.048095 0.004557 0.122104 0.539749 -0.269058 -1.023821 -0.251809 -0.354609 0.102289 -0.849547 -0.524205 0.449799 -0.331998 0.187946 -0.036552 -0.668811 0.453590 0.218288 -0.238492 -0.374475 -0.105681 0.239897 -0.183339 -0.314773 0.349075 0.770234 -0.605374 0.045948 -0.042531 -0.442952 0.136933 0.173805 0.192065 0.485007 -0.236094
lion -1.116638 0.100759 -0.275724 0.375825 0.943124 0.290649 1.008369 0.457605 -0.249690 -0.561496 -0.338238 -1.081299 -1.157260 -0.786539 0.605130 -0.346409 -0.314308 -1.291516 0.548479 -0.034058 -0.511433 1.074567 -0.929817 0.016774 -0.428228 0.363738 0.064041 0.228296 0.447881 -0.230876 -0.839785 -0.253641 -0.419843 0.663746 0.269811 -0.820473 -0.197353 0.204735 0.144806 1.285384 0.287827 0.426700 -0.341515 0.160871 -0.520689 -0.483513 -0.304344 0.557271 0.450753 0.047201 -0.769679 -0.107564 -0.316414 0.932729 1.216702 -0.424067 0.528823 -0.355714 -0.190883 0.596401 -0.217261 -0.102111 0.680634 0.322446 0.058115 0.237984 0.720487 -0.484540 0.546460 0.154374 -1.298675 0.401331 0.002458 -0.137674 0.853302 -0.053180 -0.607432 -0.582877 0.236752 -0.454623 -0.201492 -0.531117 0.196289 -0.635634 -0.816797 -0.876113 -0.231121 -0.195131 0.255001 0.541689 0.727296 1.299050 0.178378 -0.123727 -1.242601 -0.494452 0.299021 -0.006865 -0.588872 -0.120515 -0.132023 0.719836 0.157971 -0.270803 -0.141266 -0.608521 0.694829 -0.248442 0.249390 1.200004 -0.314468 -0.671616 -0.721989 0.221595 -1.183807 -0.721587 0.204753 0.146780 0.859586 0.890345 0.210780 -0.040826 0.145798 0.451807 -0.054360 0.410114 -0.207328 -0.093618 -0.818594 -0.799803 -0.518385 -0.035433 0.021712 0.222956 -0.345183 0.935953 0.736961 0.381314 -0.373528 -0.093281 0.536758 0.096396 0.464331 0.300988 0.131287 -1.125367 0.269582 -0.385850 -0.494794 0.233169 -0.638659 0.245369 -0.370113 -0.861795 -0.210597 -0.785266 0.897024 0.608651 -0.154496 1.410559 0.214580 1.278843 -0.716534 0.682716 -0.102644 -0.186742 -0.259597 -1.407379 -0.493265 0.656215 0.699273 -0.161274 0.164602 1.317919 -0.262696 0.215100 -0.874606 -0.044237 0.398248 -0.526911 0.928015 0.760807 -0.153752 0.987008 0.083885 0.445998 0.209153 -0.050983 -0.124054 -0.745776 -1.200008 0.174495 -0.053769 -0.143712 0.203648 -0.049312 -0.089727 0.217362 0.199142 0.943213 -1.016040 -0.613574 0.434485 -0.198697 1.031128 -0.063603 -0.707061 0.116495 -0.148531 -0.030520 0.631294 0.093690 0.033832 0.119354 0.244108 0.534333 -0.637959 0.557513 -0.515459 -0.538104 0.151127 -0.814151 -0.272231 0.261368 0.535511 0.182034 0.060562 -0.412525 -0.842746 0.554812 -0.335311 -0.136013 1.414773 0.040107 0.069552 -0.484133 -0.637713 0.343357 0.540475 0.379201 -1.023657 -1.021389 0.366957 0.779241 -0.979679 0.545302 -0.380712 0.210817 0.407742 -0.804241 -0.907559 0.311872 -0.093900 -0.282960 1.586270 -0.352768 -0.368127 0.911377 0.609926 -0.330085 -0.376790 0.792408 0.609304 -1.341679 0.871655 -0.200181 0.612173 -0.352450 0.466508 1.205221 -0.159777 0.912511 0.519447 0.467349 -0.595966 0.801371 -0.394240 -0.151145 -0.636156 0.297330 -0.708760 0.104110 -0.369561 -0.658839 -0.721631 -0.599231 -0.006231 0.624990 -0.502776 -0.485099 -0.201339 -0.935407 -1.537457 0.703217 0.508917 0.099948 0.230202 -0.435482 0.394329 0.592203
