Mercury -0.552365 0.191549 0.247845 0.266116 0.165254 0.491618 -0.314340 0.303245 0.166137 -0.321194 -0.569379 0.617276 0.130362 -0.504215 0.614310 0.545844 -0.058487 0.775295 0.222805 0.345871 0.288186 0.107341 -0.555998 0.295323 -0.072978 -0.187576 -0.556624 -0.008753 -0.014982 0.409050 0.041665 0.311752 0.495920 -0.173385 0.207596 -0.679978 0.100551 0.761875 -0.558547 -0.415969 0.529772 -0.386290 0.434987 0.341715 -0.000690 -0.379134 0.323756 0.131483 0.394524 -0.931529 -0.441806 0.317383 -0.252582 -0.068542 0.559541 0.107680 0.458211 0.272123 -0.006706 -0.186807 -0.168547 0.126416 0.129275 -0.352821 0.128732 -0.483871 0.707335 0.452625 -0.231335 0.360367 -0.388893 0.065116 -0.623660 0.255972 -0.235040 -0.312969 0.341629 0.174842 0.325889 0.621121 -0.115776 0.129853 -0.752454 -0.256006 -0.101019 0.246281 -0.143704 -0.748175 0.418788 0.065818 -0.163764 0.218302 0.370203 0.344845 0.001952 -0.060777 0.321364 0.106230 0.354431 -0.174721 -0.442182 -0.008927 0.445778 -0.240772 -0.112993 0.565293 -0.022082 -0.442162 0.484949 0.184121 -0.096059 -0.740749 0.077050 -0.171349 -0.142177 0.131137 -0.217000 0.067331 -0.221635 0.140406 0.408000 0.093355 -0.254511 -0.137876 0.475147 -0.199889 0.412346 -0.167832 0.245529 0.049605 -0.016196 0.104750 -0.289486 -0.296292 -0.161335 -0.015943 0.214685 0.645678 0.168457 0.067502 0.333620 0.218534 0.622869 -0.077984 0.245666 0.075149 -0.263307 -0.216615 -0.204206 0.207783 -0.143758 -0.154859 0.424766 -0.173417 -0.499089 0.117907 0.540158 0.014879 -0.239436 -0.210356 -0.131727 -0.111606 -0.553976 -0.130754 -0.177679 0.373132 -0.104026 -0.103772 -0.052887 -0.118279 -0.090024 -2.349649 -0.195661 0.445183 -0.307626 -0.334062 0.187121 1.002661 -0.306747 0.104251 0.425965 -0.538564 0.942045 -0.414443 0.268147 -0.452273 0.319202 0.231657 -0.239016 -0.383331 -0.640756 0.137014 -0.073731 0.077853 -0.152270 0.230564 -0.011919 0.238641 0.072230 -0.101076 -0.329536 0.122308 -0.066493 0.343728 0.203144 0.057642 0.225027 0.031761 0.278574 0.138195 0.094221 0.062818 0.181813 0.341440 -0.070833 0.674981 -0.837301 0.114794 0.065081 0.439614 0.477916 -0.250597 -0.212006 0.524324 -0.112907 -0.198524 -0.163123 -0.110433 0.046791 -0.712542 -0.395197 -0.227968 0.232000 0.027786 -0.447074 0.192090 -0.010789 0.035125 -0.213410 0.303136 0.156517 0.150114 0.121831 -0.257893 -0.535926 0.282002 -0.219865 0.089908 -0.407679 -0.195154 0.493022 0.459373 -0.621250 0.002740 0.272604 -0.256364 -0.236133 0.158457 -0.407030 0.020267 0.189620 -0.223183 0.272289 -0.167138 0.008401 -0.646479 0.394874 -0.317036 -0.021087 0.255727 0.458460 0.344101 -0.757811 0.019379 0.259948 -0.188794 -0.476355 0.163521 -0.053140 -0.300940 -0.324482 0.153653 0.394966 -0.387083 0.187500 0.580747 -0.516517 0.281971 0.650291 -0.189737 0.134662 -0.090945 0.099326 -0.613384 0.491492 -0.465945 -0.799402 0.141815 -0.362786 0.486713
Bundesliga -0.715439 0.437363 -0.349179 0.312231 -0.444802 0.347572 -0.258289 -0.358005 0.649814 0.264911 -0.016284 0.564184 0.009283 0.182953 0.009037 0.369220 0.562450 0.029244 0.623683 0.203896 0.814592 -0.018340 -0.101096 0.215678 0.004642 0.072012 -0.060419 -0.308583 -0.513486 0.582912 0.142785 0.049049 0.469245 -0.283035 0.220285 0.374234 0.817166 -0.055324 0.630436 -0.300542 -0.481653 -1.092148 0.408171 0.232125 -0.114394 -0.100130 0.149711 -0.056862 0.195090 0.843630 -0.131679 -0.372197 0.401911 0.126632 -0.178850 0.512111 0.442766 -0.596949 0.786117 -0.355898 -0.643448 0.000366 -0.942371 0.708765 0.296305 -0.362418 -0.051977 -0.300549 0.205630 0.891346 0.134560 -0.190231 -0.734504 0.126898 -0.460509 -0.464610 -0.545403 -0.159660 0.490061 0.328805 0.735394 -0.016328 0.079992 -0.140620 0.195759 0.699248 0.024282 -0.606756 -0.299549 0.495631 -0.055358 0.247842 -0.098642 0.056201 -0.600072 0.125872 0.443636 0.171167 -0.256897 0.036472 -0.662154 0.350138 -0.123260 -0.522407 -0.409528 -0.408909 -0.119846 -0.394240 -0.445873 -0.963429 0.477402 0.507161 0.415868 -0.481041 -0.767442 0.105426 -0.167723 0.300173 0.337013 -0.352588 0.490568 -0.381308 -0.102598 -0.403169 0.639577 -0.926169 -0.109499 0.219999 -0.430816 0.285742 0.590154 -0.896419 0.692811 -0.752817 -0.193964 0.289334 0.158080 0.353844 -0.046882 0.059067 0.017404 -0.373934 -0.130689 -0.523998 -0.232717 0.319414 -0.688905 -0.214793 1.091034 1.031537 -0.139795 -0.122418 0.316211 -0.079186 -0.185758 -0.027206 -0.433074 0.262542 0.417014 -0.230107 0.640911 0.373126 0.417627 -0.069735 0.328665 -0.068991 -0.412997 0.574712 -0.157122 1.131327 0.103897 -1.388757 0.330829 -0.528784 -0.235563 -0.240170 0.451681 -0.200183 0.029880 -0.512350 0.000067 0.405449 0.865170 -0.164122 -0.359642 0.850128 0.349466 0.467181 0.350709 -0.753259 -0.011795 0.055871 -0.900720 -0.222898 0.279403 0.059255 -0.618773 0.614288 -0.230309 0.201669 -0.146703 0.765308 -0.289816 -0.799662 0.264616 0.152567 0.026317 0.379326 -0.886314 0.046185 0.587689 0.001723 0.829646 1.236225 0.123753 -0.311058 0.048782 0.833055 -0.167611 -0.301465 0.506041 0.298485 -0.257454 -0.371078 -0.301894 0.109268 0.004584 0.267195 -0.850461 0.552898 -0.361322 -0.111046 0.429728 -0.765337 0.204792 0.488229 -0.126619 0.001938 0.097440 -0.380749 -0.034478 -0.259439 -0.101259 -0.258949 -0.644461 0.368638 0.222425 0.128753 0.532655 -0.064348 0.459286 0.382609 0.162242 -0.617603 -0.435744 0.652327 0.178663 -0.047951 0.637842 0.169127 0.509518 -0.104963 -0.174536 0.812423 -0.134813 0.414455 0.630983 -0.207123 0.027321 -0.002313 0.101027 0.053412 0.112136 1.266049 -0.722487 1.022871 -0.092112 -0.180784 -0.417873 0.047834 1.335577 0.510445 -0.594689 -0.193066 0.322761 -0.743367 0.504759 0.554204 0.089371 -0.175654 -0.388074 -0.355828 -0.223402 0.311584 -0.778648 -0.101197 -0.325846 -0.045276 0.113593 -0.106169
Porsche 0.006129 -0.625826 0.428015 0.337810 -0.428198 0.214023 -0.241777 0.232441 0.205783 0.279577 0.677293 -0.551985 0.150828 -0.621214 -0.557308 -0.623029 0.177731 -0.273709 -0.082552 -0.361009 0.485688 -0.966976 -0.033626 0.707308 -0.112089 -0.558448 -0.098212 -0.019660 0.562458 0.970044 0.353651 0.036181 0.024373 0.498149 0.304493 0.073918 0.170380 0.399622 -0.500031 0.162563 -0.489998 -0.791897 0.705312 0.324635 -0.500905 -0.080015 0.684881 -0.835586 -0.110546 0.605512 -0.288034 0.931849 0.282215 -0.753266 -0.252941 -0.609774 -0.038987 -0.087601 0.177250 -0.004474 -0.353242 0.029822 -0.730747 0.510489 0.044442 0.121973 0.264325 0.081898 0.247054 0.114073 -0.357095 0.028954 -0.238396 -0.315285 0.386163 -0.090517 -0.425877 0.336681 -0.132662 0.533059 -0.252128 0.256237 0.795531 0.116672 -0.402921 0.094255 0.979679 0.052541 0.218852 0.182339 0.023322 0.101428 0.154664 -0.604607 -0.218627 0.218200 -0.180012 -0.157101 0.122745 -0.074844 -0.653558 -0.071329 0.211105 -0.045020 -0.333483 0.046674 -0.052799 -1.133331 -0.214884 -0.727409 0.199660 0.194623 0.380526 0.011507 0.117174 0.158398 -0.747670 0.390496 -0.423539 0.071913 0.133708 -0.170957 -0.401961 -0.286732 -0.311447 0.268487 -0.462745 0.159090 -0.021684 -0.246014 -0.289608 -0.029758 0.276058 0.288994 -0.395101 0.378000 0.164007 -0.198346 0.406633 -0.391411 -0.775377 -0.859982 -0.418558 -0.162438 0.036850 -0.347606 0.110427 0.058557 -0.080298 -0.661410 -0.367623 -1.207855 0.127536 0.229089 0.036111 -0.109163 0.077853 0.143706 0.218729 -0.364194 0.489940 0.302248 -0.566948 -0.347821 -0.054142 -0.248001 -0.399264 -0.493580 0.437486 0.498830 -0.081210 -0.973337 -0.450404 -0.111336 -0.531140 -0.667874 -0.385939 0.179067 0.132592 0.154320 0.189382 -0.966955 1.284380 0.246288 -0.177535 0.151415 -0.560412 0.359071 -0.268914 -0.304985 0.685725 -0.168850 0.246115 0.330061 -0.682547 0.089520 0.053786 -0.329378 0.100523 0.019397 0.086830 0.486762 -0.359056 0.385560 0.279632 -0.688958 0.075379 -0.187422 -0.013391 0.280348 0.494779 -0.654243 -0.555932 0.900656 0.469650 0.255467 0.241457 0.335539 -0.603298 -0.261182 -0.152443 -0.080882 -0.468519 -0.100497 -0.436484 -0.483091 0.056320 -0.114346 -0.266515 -0.362973 0.293656 0.013471 0.460055 -0.049893 0.077740 0.441838 0.043177 -0.032208 -0.891949 -0.893019 0.493575 -0.018218 0.004357 0.521695 -0.615489 0.238076 0.232139 -0.642469 0.822012 0.510960 0.319346 0.293443 0.092702 -0.032113 1.182883 0.352283 -0.174062 -0.099723 -0.606310 0.584271 -0.110774 -0.331129 -0.213623 -0.332879 0.439518 -0.164515 0.307554 0.115130 1.035088 0.606309 0.103779 0.166340 -0.393078 -0.072437 -0.309617 -0.250142 0.185716 0.083784 -0.015210 -0.494798 0.125611 -0.137672 0.304871 -0.364010 0.246062 -0.022454 0.391396 1.236557 0.095683 -0.375026 0.273804 0.044769 -0.164761 -0.627346 -0.300210 0.157747 0.806830 0.115838 0.911456 -0.140464
Moon -0.363443 0.188826 -0.147620 0.309915 -0.010988 0.426905 -0.065343 0.332947 -0.166126 0.218515 -0.348010 0.213583 -0.439257 -0.360296 0.057545 0.502181 0.053453 0.030064 -0.236798 0.354598 0.107123 -0.089290 0.046806 -0.290447 0.550450 -0.116362 -0.990038 -0.435320 0.225462 -0.391194 0.394334 0.137988 -0.221896 -0.069946 0.132426 -0.510757 -0.158620 0.340535 -0.225681 0.024859 0.179183 -0.063223 0.356031 -0.453796 -0.138959 0.472803 0.617170 0.308133 0.440850 0.203427 0.262590 0.156171 -0.345646 0.218722 0.514379 -0.377784 0.485605 0.631367 0.249974 0.384397 0.289628 -0.005664 0.198044 -0.071078 0.160308 -0.485583 -0.068164 0.339696 0.010485 -0.147530 -0.436765 -0.508535 0.442181 0.567128 -0.442265 0.089828 0.319457 -0.001159 0.381534 0.678675 -0.478215 0.172976 -0.453743 0.097664 0.374431 0.110198 -0.202375 -0.514324 0.498604 0.092790 -0.206516 -0.147941 -0.127886 -0.358796 0.056825 0.448444 -0.140037 -0.241466 -0.790064 0.568848 -0.021336 0.300408 0.289015 -0.170651 -0.626826 0.260286 -0.250912 -0.405372 0.250366 0.506588 -0.444564 -0.177145 0.141891 -0.498302 0.100266 0.042046 -0.056187 -0.506941 0.134400 0.181450 0.020956 0.306847 -0.634424 -0.342941 0.025770 -0.291680 0.204247 -0.222115 0.085973 -0.171561 -0.297199 -0.093429 -0.481370 0.173372 0.260272 -0.003855 0.115968 -0.104097 -0.089723 0.171785 0.064552 -0.022874 -0.358766 -0.085213 0.182171 0.179089 -0.301917 0.048361 -0.275921 0.522927 0.245505 -0.733327 -0.038769 -0.019720 0.365020 -0.362784 0.488695 -0.043065 -0.330547 -0.422308 -0.444367 -0.317755 -0.032898 0.102864 -0.363246 0.409772 -0.413675 0.052103 0.125079 -0.393934 -0.143270 -2.716383 0.297568 0.243093 -0.054235 0.165901 -0.215120 0.843296 -0.255271 -0.204299 0.041165 0.145003 1.265486 -0.197605 0.256954 0.179417 -0.389038 -0.266273 -0.728961 0.151536 -0.717175 0.439518 0.499812 -0.012898 0.039470 -0.404178 -0.484733 0.487124 -0.221552 -0.266949 -0.273575 0.391828 0.765164 0.237863 -0.142041 -0.160000 -0.356494 -0.156471 0.458408 -0.083809 0.165536 -0.421318 0.281850 -0.108521 0.124660 0.341555 -0.240634 -0.165745 -0.134797 0.106410 0.804195 0.082511 0.383574 -0.212127 0.106047 -0.099495 -0.310795 -0.260808 0.413232 0.081773 0.344608 -0.206812 -0.023687 -0.202194 -0.131306 0.601868 0.078210 -0.270870 -0.424463 -0.537337 -0.135756 0.136115 -0.434599 0.409511 -0.605787 -0.117770 -0.049873 0.511973 -0.065049 -0.517133 0.073759 0.027412 -0.357841 -0.186274 -0.587085 -0.135698 -0.549641 0.516345 -0.810407 0.375225 -0.601977 0.023478 -0.108046 0.157130 0.043167 -0.497318 0.447510 -0.448007 0.119227 0.164632 0.282724 0.229536 -0.303555 -0.011487 -0.179400 -0.160593 -0.166597 0.257139 -0.070028 0.011547 -0.677700 0.525595 -0.004552 0.508631 0.073422 0.250881 0.061560 -0.049342 0.253001 -0.025939 -0.370550 0.120469 0.563758 -0.411582 0.123729 -0.894906 -0.790290 0.804284 -0.337310 0.482280
Capri 0.525266 0.264693 0.475259 -0.281963 -0.096321 0.128412 0.512658 0.041141 -0.137914 -0.206010 -0.142912 0.376569 -0.049764 -0.077243 0.418866 0.813736 0.146732 -0.494305 -0.010352 0.109478 0.221442 -0.321403 -0.860274 0.506898 0.539052 -0.145929 -0.099608 0.115505 0.240871 0.343753 0.229821 0.165666 0.461385 0.007318 0.259191 0.203670 -0.006397 0.608001 -0.185170 -0.254504 -0.450905 -0.353320 0.215414 0.090854 0.190756 -0.326095 0.347409 -0.735462 0.074825 -0.699442 -0.312072 0.832964 0.218454 0.079991 0.167942 -0.322996 -0.367912 0.303557 0.306949 -0.546405 -0.190087 -0.005948 -0.126336 0.076292 0.253240 0.062080 0.456983 -0.531212 0.313151 0.076937 -0.343355 -0.728975 -0.181989 0.098599 0.458337 -0.520213 0.521577 -0.067516 0.039856 0.339374 0.257472 0.186374 -0.345657 -0.325394 0.065894 0.544225 -0.155046 -0.410506 0.359772 0.189357 -0.053348 -0.040984 -0.165092 0.015717 -0.320557 0.014083 0.744238 0.071540 0.039835 -0.184127 -0.470382 0.055978 -0.051781 0.212899 0.267705 0.247755 -0.361718 -0.526529 -0.178949 0.425831 0.078719 -0.177636 0.237621 -0.426900 0.288956 0.342194 -0.458484 -0.093947 0.057854 0.562811 0.185066 -0.107368 -0.431544 0.054331 0.296575 -0.405540 0.022840 -0.465859 -0.281629 -0.298928 -0.323857 0.212417 -0.532334 0.260468 -0.283859 -0.303248 0.264315 0.602625 0.052629 -0.161044 0.117946 0.030820 0.559247 0.425642 -0.236732 -0.227050 -0.707413 -0.423076 0.260540 0.059686 0.111586 -0.177421 0.178246 -0.438057 -0.183044 -0.190048 0.261757 0.326743 0.036799 0.207953 -0.009956 0.292949 -1.099203 0.478441 0.123018 0.057844 -0.228528 -0.276974 -0.589085 0.603838 -0.210132 -0.665633 0.151519 -0.282352 0.225156 -0.284873 -0.419411 0.662338 0.009186 -0.002837 0.168528 -0.275668 0.684250 0.382756 0.228726 -0.783405 -0.119771 -0.062669 -0.403060 -0.143401 0.281800 0.345750 -0.202139 -0.062739 -0.134937 -0.467286 0.121762 -0.162501 0.462682 0.300968 -0.449649 0.040805 -0.360394 0.377339 0.554990 -0.093076 0.435762 -0.296524 0.569801 0.106324 -0.428051 -1.163239 -0.115812 -0.180610 0.092056 0.874911 -0.125719 0.149945 -0.016483 0.061328 0.167997 -0.119861 0.012111 0.483487 -0.529267 0.303236 0.379524 -0.235116 -0.216107 -0.209670 0.216011 -0.124523 -0.227061 0.381103 -0.397252 0.121753 -0.391054 -0.661799 -0.351261 -0.293328 -0.208580 -0.240390 0.505458 0.130239 -0.324492 0.218320 -0.146016 -0.112960 0.209478 -0.071836 0.240625 0.356754 -0.085150 -0.436874 0.154588 -0.174603 0.220495 -0.029704 -0.640247 0.546075 -0.014150 -0.040474 0.265558 0.183452 0.530780 0.172453 0.165710 -0.340826 0.180828 0.161938 -0.024854 -0.058452 -0.423497 -0.000839 -0.061147 0.009253 -0.593120 -0.455200 -0.063623 0.220418 -0.117512 0.202212 0.309761 -0.037502 0.171008 0.011034 -0.142785 0.328788 0.659996 0.194605 0.333946 -0.389602 0.061170 -0.210559 0.631867 -0.469285 -0.582267 0.226610 -0.142976 0.019600
paper -0.199839 0.028868 -0.259542 -0.680233 -0.112502 -0.030458 0.493063 0.343395 -0.389598 0.030893 -0.262251 1.031868 -0.546993 -0.242427 -0.391281 0.421879 -0.052516 0.611261 -0.184660 0.024139 0.252804 -0.218744 -0.410997 0.175892 -0.452482 0.073320 -1.724716 0.470544 -0.119072 0.181937 0.341951 0.107048 -0.067889 0.227620 -0.450042 -0.119348 0.062554 0.821829 0.654876 0.501431 0.039594 -0.098909 -0.661422 -0.100120 0.252246 -0.167187 -0.583273 0.274144 -0.162376 0.339522 -0.146742 -0.652120 -0.033265 -0.406178 -0.713880 -0.551687 -0.208450 -0.324026 0.087766 -0.334595 0.083015 0.217876 -0.158758 0.226392 -0.370931 0.077433 0.155510 -0.446832 -0.829535 0.246513 0.258226 0.292348 -0.176983 0.051538 -1.058525 -0.226826 0.662141 -0.104220 -0.177544 0.094398 -0.062740 0.134140 -0.216300 0.263850 0.314036 0.103434 -0.658004 -0.422303 -0.347043 0.381761 0.030225 0.017219 -0.170871 0.416119 -0.018778 0.015360 0.051588 0.520571 0.321676 0.125969 0.296613 0.182367 -0.669197 -0.268970 0.241952 0.268502 -0.278261 -0.186718 -0.079184 -0.266877 -0.445564 -0.221972 -0.429490 -0.218445 -0.386882 -0.015229 -0.344951 -0.518782 -0.242847 -0.452058 -0.215430 -0.387004 -0.282997 -0.196742 0.671472 0.712572 0.294449 0.041495 0.458660 -0.259559 0.260203 0.014074 0.248246 0.052823 -0.787175 -0.241298 -0.300247 0.560396 0.231990 0.129764 -0.133182 0.620245 -0.019618 0.276550 -0.066869 0.155700 0.235921 -0.200974 -0.439060 -0.817631 0.015673 0.051303 -0.195655 0.210846 -0.302354 0.171852 0.121387 0.242333 -0.250520 0.063909 0.137531 0.295106 0.230398 0.211183 -0.019556 -0.393938 -0.359086 0.056017 -0.237840 -0.262851 0.258557 -3.002699 0.104546 0.590638 -0.494609 -0.108006 0.113060 -0.077817 0.412339 -0.129453 0.111073 0.057372 2.244092 0.053631 -0.768196 0.297034 0.553697 0.504139 0.082518 0.294110 -0.037209 -0.454562 -0.034305 0.779233 -0.572367 0.034825 -0.044356 -0.069462 0.104892 0.522749 0.448820 0.050585 -0.116902 -0.785707 -0.545986 0.373541 0.027843 -0.441285 0.009115 -0.657319 0.758593 -0.298175 -0.298409 -0.061932 0.598081 0.090080 -0.059575 -0.172459 0.286205 0.328687 -0.583749 0.148040 -0.436189 0.459728 -0.004961 -0.044889 0.701158 -0.417957 -0.399194 -0.326251 -0.507116 0.325771 -0.546692 0.101550 0.465832 0.206937 -0.031993 0.023491 0.020526 -0.072142 -0.027565 0.093575 -0.036394 -0.212110 -0.053746 0.131428 -0.161519 0.356732 0.275590 -0.255169 0.373804 0.416763 0.054251 -0.152573 0.214171 0.021012 0.018550 -0.236467 -0.006213 0.362036 0.074908 0.291822 -0.006335 -0.363819 -0.658969 -0.344268 -0.505890 -0.005508 -0.130089 0.301203 0.054506 0.569383 -0.288777 0.242493 0.141848 0.172521 -0.134127 -0.020163 -0.523152 -0.528055 -0.040052 0.112721 0.538791 -0.374699 -0.467364 0.356199 0.335626 -0.274182 0.282527 -0.259308 0.181984 0.211364 0.036455 0.102307 0.357889 -0.674498 0.259950 0.117510 -0.244759 0.050155
chair 0.246790 0.162502 0.193689 0.568015 -0.156471 -0.182519 0.649672 -0.057549 0.119529 -0.144377 -0.086431 -0.012718 0.319033 -0.348690 0.199072 -0.420839 -0.061934 0.442138 0.095373 -0.299566 0.021399 0.130141 -0.422806 0.398604 -0.628489 0.103771 -0.341518 -0.134449 -0.351416 -0.246048 0.090744 0.096531 -0.006591 -0.228400 -0.313096 -0.157104 -0.307220 -0.018131 -0.159325 -0.895136 -0.150400 -0.020743 -0.434815 0.263768 0.190199 -0.476838 0.455495 0.131044 -0.329161 0.507133 0.049479 -0.555372 -0.027031 -0.770981 -0.419677 -0.497914 -0.147713 -0.336237 -0.674768 0.463008 -0.385806 -0.205492 0.490140 0.162341 0.052429 0.026652 -0.057058 -0.231871 -0.221850 0.665882 -0.418776 0.385866 -0.134541 0.832426 -0.370278 0.113499 -0.105246 -0.609011 0.134839 -0.535433 0.372875 0.422485 -0.125709 -0.050404 -0.055275 1.093844 -0.428374 0.018105 0.062152 0.285660 -0.166173 -0.139202 -0.766812 -0.157131 0.476836 0.487782 -0.069809 0.457665 -0.037402 0.721087 0.845859 0.380353 0.089969 0.438219 -0.065073 0.085947 -0.097483 -0.051433 0.321782 -0.368706 -0.372907 -0.037089 -0.070677 -0.172615 -0.100110 0.511749 -0.052846 0.499485 0.017422 -0.219205 0.242973 -0.258936 -0.171224 -0.161539 0.419767 0.172741 -0.224469 -0.080632 -0.412878 0.260259 0.421606 -0.302275 -0.614156 0.334762 -0.468595 -0.059449 0.224140 -0.356791 0.187668 -0.692483 -0.314586 0.318929 -0.301095 0.663292 0.314321 0.235524 -0.490450 0.216530 0.371199 0.063565 -0.140233 0.234734 -0.532342 0.153797 0.483451 0.612379 0.097735 -0.072213 -0.286035 0.305841 0.132262 0.273068 0.473272 0.210915 0.696684 0.187549 0.481040 0.546300 -0.260077 -0.649535 0.073108 -2.984101 -0.224376 -0.234610 -0.167852 0.530174 -0.240307 -0.114684 -0.008221 -0.330999 0.738663 0.851522 0.843748 0.205424 0.068248 0.283739 -0.434005 0.098672 -0.342364 -0.141057 0.033536 -0.079384 0.092205 0.432729 -0.407644 -0.087559 0.136150 -0.326040 0.614573 0.425596 -0.163975 -0.203373 -0.606100 -0.002293 0.023819 -0.018617 -0.156381 0.033837 0.055800 0.081370 -0.326742 -0.619100 -0.409959 -0.077499 0.463983 0.226492 0.136459 -0.739840 -0.069476 -0.519053 -0.378455 -0.084987 0.464698 -0.328604 -0.445781 -0.105465 0.384282 0.169353 -0.085852 0.101120 -0.271301 0.219815 -0.186784 0.082689 0.202662 -0.034312 -0.160272 0.858158 -0.253966 -0.783356 0.312359 -0.214107 0.393971 0.185738 0.273733 0.373884 -0.381882 0.385904 0.694866 -0.245038 0.155185 0.673138 -0.349919 0.437994 -0.129895 -0.051023 0.434726 -0.691369 -0.070770 0.033506 0.287500 0.158547 0.178380 -0.107412 0.382482 0.107975 0.137684 0.036737 -0.264762 -0.138168 -0.497904 0.246299 0.167518 0.008429 0.397991 0.499842 0.026096 -0.024580 -0.033026 0.033924 -0.152439 0.094310 0.204531 0.328380 0.365849 -0.142408 -0.116944 -0.067289 0.152374 0.226301 -0.041392 0.088980 -0.357705 0.313996 -0.391372 -0.508003 0.310836 0.373435 -0.034918 -0.001095
Bolivia 0.172370 1.022678 0.241171 -0.261227 0.196791 0.471307 -0.257465 -0.341566 0.147546 0.417779 -0.300342 0.412289 -0.679648 0.337617 0.033346 0.727165 0.646368 -0.801448 -0.310079 -0.383120 -0.306695 0.291506 -0.057721 0.707244 -0.956906 -0.228382 -0.761462 0.315831 0.137519 0.026026 -0.674967 -0.112703 0.116699 -0.066249 0.484615 -0.099855 0.116078 -0.178578 0.239943 -0.036660 0.247234 0.006402 -0.461677 0.065664 -0.378928 0.059267 0.256250 0.085428 -0.406086 0.577928 0.912761 0.186217 -0.505402 0.122084 0.109364 0.824813 -0.252014 -0.208682 0.292733 -0.202177 -0.596255 -0.318928 -0.435763 -0.406236 -0.015709 -0.007521 -0.458010 0.529526 -0.650320 -0.212288 0.229684 0.499876 -0.644060 0.064041 -0.346411 0.213922 0.094589 0.333194 0.709700 -0.052966 -0.557128 -0.259290 -0.176723 0.269990 -0.313199 0.416778 -0.034565 0.344900 0.732959 -0.373836 -0.761435 -0.293585 -0.108018 -0.020908 0.516411 0.001363 0.506349 0.083526 0.288492 0.332524 -0.143297 0.708886 -0.108879 -0.393906 -0.257192 0.297796 0.468929 0.039067 0.064121 0.043774 -0.129008 -0.274073 0.132917 -0.381029 0.271231 -0.037534 -0.386716 -0.660549 0.299492 0.837823 -0.900599 0.512322 0.211263 0.281512 0.023547 -0.148105 0.136320 -0.244978 -0.570798 0.269540 -0.158184 0.204123 0.621690 0.124869 0.752425 0.278883 0.184351 0.775214 0.517802 0.066125 0.124483 -0.103589 0.136966 -0.781273 0.357415 0.211037 0.209911 -0.417948 -0.124155 -0.075459 0.475230 -0.049519 -0.207579 0.095201 -0.205368 0.164579 -0.004230 0.059713 0.333738 0.245507 -0.219247 -0.352301 -0.406390 0.096949 -0.031085 0.307911 0.055280 -0.166303 -0.022543 -0.225133 -0.324128 -1.815739 0.464895 -0.985718 1.018417 0.555538 0.205704 0.223535 0.276273 0.545480 0.554243 0.133382 0.786232 0.242905 -0.207036 0.247370 -0.333540 -0.588844 0.354000 -0.048002 0.374031 0.403159 -0.113529 0.060634 0.312239 0.104815 0.115009 -0.808978 0.390970 0.122746 -0.089641 -0.330934 -0.210162 -0.294308 -0.081559 -0.287135 0.283528 -0.266960 -0.026117 -0.103715 0.022493 0.156797 -0.162588 -0.961786 0.437177 0.019359 -0.459877 -0.117703 -0.266936 -0.205504 0.317724 -0.103489 -0.197043 0.014802 -0.276965 0.421562 0.068788 1.052842 -0.450090 -0.300277 -0.061279 -0.083058 -0.188247 -0.122509 0.465781 0.373696 0.210682 -0.012748 -0.247253 -0.563263 0.024744 0.036721 0.149785 0.371264 -0.054463 -0.235180 0.062601 0.227336 -0.118440 0.526494 0.484818 0.079475 0.521785 -0.408190 0.392328 0.288488 0.021014 -0.155279 -0.237689 0.329752 0.162590 0.165443 0.085575 0.889799 -0.020984 0.434057 0.032643 0.164832 0.058685 -0.173324 0.133516 0.514492 -0.335176 0.480700 0.653060 0.116117 0.252079 0.166184 0.207632 -0.523966 0.028267 0.011822 -0.115843 -0.568733 -0.400609 0.032845 -0.358358 0.536527 -1.142386 0.135914 0.071984 0.142797 0.451072 -0.325317 -0.744183 -0.210189 0.334782 -0.053665 0.215116 0.203486
astrology -0.045109 0.445784 -0.240311 0.163479 -0.316737 0.468256 0.393363 0.305976 -0.083333 -0.045411 0.186378 0.084771 -0.269087 0.117450 0.220520 -0.331826 0.235797 0.340842 -0.508200 0.379261 -0.221716 -0.229818 0.054282 0.755041 0.360360 0.461861 -0.646136 -0.149049 -0.115553 -0.524711 -0.160601 1.033009 -0.243998 -0.221718 -0.207762 -0.104838 0.173660 0.388867 -0.391225 -0.005906 0.079721 -0.161246 -0.569644 0.265901 0.602287 0.723873 0.205135 0.406315 -0.103518 0.424932 -0.177506 -0.192850 -0.093219 -0.515030 0.356991 0.322669 0.294792 0.079441 -0.330592 0.388065 0.326921 0.229675 0.152670 0.567161 0.007624 -0.328832 -0.711277 -0.724676 0.238186 -0.095952 -0.127848 0.457421 -0.202160 0.187916 -0.316345 0.055261 0.171729 -0.006524 0.023794 0.022800 -0.402586 -0.036599 -0.138121 -0.434219 0.163016 -0.097815 -0.313274 -0.320436 -0.023853 0.171333 -0.313505 0.460264 0.300005 0.152386 -0.116306 -0.326558 -0.101518 0.364860 0.053985 0.320219 -0.159720 0.141283 0.399134 -0.295535 -0.150748 -0.171011 0.032487 0.291361 0.557093 -0.562085 -0.487960 -0.048702 0.593800 -0.263698 0.030973 -0.264458 0.522506 0.132232 -0.056407 0.269553 0.044616 -0.307581 -0.265635 0.354841 0.859742 0.215082 0.928090 -0.095631 -0.109927 0.124840 0.063029 0.549262 -0.306707 -0.371013 0.213622 -0.097591 -0.386840 0.475096 -0.366990 -0.027091 0.716995 -0.637870 -0.265588 0.215702 0.394968 0.526611 -0.151011 -0.280794 0.024115 -0.122429 0.789576 -0.037934 -0.339731 -0.113354 -0.297301 -0.119377 -0.207395 -0.488982 0.082217 -0.096691 0.015193 0.291246 0.674810 0.589029 0.057863 -0.271325 -0.031052 -0.281408 0.838116 0.191912 -0.477656 -0.521899 0.482006 -0.001324 -0.463619 -0.216538 -0.672880 0.733629 -0.358558 -0.328825 -0.350843 0.194310 0.815328 -0.643573 -0.592944 0.144040 0.162680 0.545630 -0.107723 -0.105579 -0.347648 -0.338314 0.044488 0.675092 0.551352 0.525666 -0.227276 0.075441 0.030899 0.453771 0.159171 -0.215299 -0.095566 -0.513511 0.135162 0.322933 0.009856 0.201180 -0.114995 -0.143357 -0.307372 -0.619541 0.221395 -0.280103 -0.262838 0.022143 -0.097057 0.436871 0.345970 0.765808 0.980972 -0.399658 0.072497 -0.081939 -0.059639 0.719937 -0.169181 0.599789 -0.054003 -0.574649 0.184359 -0.183667 0.245986 -0.214942 0.267851 0.444604 -0.338369 0.347149 0.546800 -0.283930 -0.083488 0.654125 0.120221 -0.190962 -0.246922 -0.043287 0.424025 -0.723946 -0.219115 -0.439001 0.786581 0.113944 -0.659136 -0.025585 -0.086904 0.151765 -0.201510 0.030052 0.319724 -0.266476 -0.029815 -0.452157 -0.399703 0.699028 -0.190132 -0.087243 0.541386 0.174132 -0.134269 -0.002480 -0.006004 0.761039 -0.300077 0.392875 0.131099 0.510708 -0.780898 0.517837 0.310812 -0.203564 -0.420799 0.390147 0.356718 -0.341680 -0.250062 0.331145 -0.192167 -0.000932 -0.067135 0.124635 -0.245280 0.130673 0.330587 0.405617 0.326707 -0.117858 -0.360278 0.974662 -0.293342 0.044727
March 0.263694 0.735388 -0.146809 -0.048866 0.487368 0.595046 -0.257160 0.046839 0.510258 -0.487012 0.074018 -0.064100 0.293256 -0.092391 -0.332570 0.622151 0.394053 -0.762414 -0.108184 -0.548308 0.680796 -0.235251 -0.181723 -0.147780 -0.081484 -0.012467 -0.891231 -0.394804 0.042414 -0.133640 0.255377 -0.286057 -0.071715 -0.639928 0.062695 0.069402 0.287982 -0.235952 -0.624947 -0.408743 -0.174738 -0.002982 0.251438 0.048035 -0.342532 -0.157679 -0.420877 -0.063033 -0.120214 -0.151830 0.016493 -0.079539 -0.067222 -0.348939 0.426822 -0.006708 0.041524 0.629685 0.977331 -0.100767 0.221501 -0.153580 -0.134887 -0.084043 0.235607 0.009733 0.341453 0.481101 -0.443351 -0.047030 -0.291571 0.438090 -0.013232 -0.126529 -0.437233 -0.266436 -0.163421 0.224341 -0.241087 0.391989 -0.240249 0.083844 0.358989 -0.131913 -0.381862 -0.653273 -0.230342 -0.005216 0.407375 -0.566529 0.095455 -0.139094 -0.534126 -0.215732 0.643653 -0.532483 0.290632 0.367745 0.157383 0.142625 -0.241657 -0.274160 -0.616938 -0.261490 -0.115498 -0.137459 0.540714 -0.125542 -0.258190 0.221267 0.200185 0.319382 0.181300 0.308846 0.114383 -0.125833 -0.100741 -0.052601 0.341404 0.372421 -0.011736 -0.082076 0.467250 -0.168808 0.084503 0.025578 0.082785 -0.360294 -0.165133 -0.102427 0.263177 -0.567769 0.123498 -0.407528 -0.567013 -0.058879 -0.007146 0.195562 -0.061200 -0.114579 0.099411 -0.002100 0.112517 -0.021318 -0.150488 0.161014 -0.173581 -0.019302 -0.070212 0.226656 0.297687 0.167950 -0.560643 0.078791 0.468296 -0.126432 0.069900 0.348742 -0.063654 -0.297872 0.106744 0.061760 0.080768 -0.306724 0.364457 -0.101465 0.101323 0.789321 0.329691 -0.102617 0.079410 -4.265751 -0.698096 -0.222323 -0.748765 -0.184226 0.211963 0.058370 -0.226896 -0.141354 0.045851 0.098086 2.866494 -0.024820 0.142850 0.231689 -0.417015 -0.103750 0.049686 -0.013088 0.084718 0.188664 0.493515 0.329701 0.035630 -0.168784 0.042245 0.032804 -0.375098 -0.099222 -0.151688 0.145336 -0.484254 -0.014263 -0.117683 -0.413461 -0.201184 -0.152068 -0.488309 0.073351 -0.093987 -0.043729 -0.051249 0.189295 0.211069 0.017786 -0.204637 0.030958 -0.219126 -0.533062 0.212757 -0.355827 0.197478 0.098456 0.021769 0.344524 0.793908 -0.213074 0.265465 0.020477 -0.237508 0.292597 0.021787 -0.338303 0.152995 -0.249897 0.345742 -0.467873 -0.384649 -0.052390 -0.013421 0.129483 0.113894 -0.217839 -0.607510 0.147801 -0.134366 -0.289058 0.150547 -0.086164 0.078450 0.359208 0.300221 -0.343073 0.120568 0.113703 -0.328314 0.266062 0.218843 0.035029 0.251306 0.121356 0.207294 -0.283859 0.044432 0.098340 0.496253 -0.331158 0.105025 0.022246 0.177180 -0.178796 -0.265466 0.201932 0.390174 0.210109 -0.064616 0.150728 0.520467 -0.781891 0.176003 -0.542039 -0.311364 -0.279515 -0.057484 -0.731715 -0.402750 -0.566840 0.196043 0.002901 -0.223200 -0.071668 0.106070 -0.006628 -0.216587 -0.744006 -0.206794 0.143554 -0.248556 0.658635
Nestlé 0.112105 0.147880 -0.207751 0.604057 -0.442064 -0.109419 -0.005529 0.309752 -0.306858 0.326357 0.091340 0.481499 -0.010436 0.572060 0.565442 -0.057823 -0.158693 0.202519 0.498260 0.045125 0.441850 -0.289816 -0.067155 -0.049791 0.331039 -0.132414 -0.853607 0.380931 -0.343341 0.122968 -0.250195 0.057457 0.293836 -0.890341 -0.313133 -0.213928 -0.084498 -0.222588 -0.083182 0.637495 -0.251529 -0.696198 0.640442 0.347195 0.420713 -0.115812 0.242532 0.515328 0.070228 -0.195825 0.151999 -0.317802 -0.193721 -0.231826 0.539375 -0.517501 -0.128705 -0.693440 -0.007177 -0.343530 -0.198638 -0.553841 0.010854 0.409314 -0.021717 -0.004658 0.689435 0.900130 -0.312293 -0.287058 -0.217669 -0.336425 -1.056749 -0.390095 0.233126 -0.194045 -0.309707 0.034106 -0.475749 0.085637 -0.549024 0.003877 -0.282435 -0.030282 -0.427346 0.085320 0.235118 -0.261220 0.372279 0.018031 -0.238879 0.125789 -0.385247 0.114042 -0.397751 0.029718 0.881070 -0.140257 0.738298 -0.557558 -0.374697 -0.014915 0.629023 -0.241601 -0.432442 0.834858 0.603468 -0.446179 0.206586 0.168158 -0.309378 0.298022 0.338026 -0.473683 0.590703 -1.005276 0.027225 0.205244 0.567975 0.828741 0.324544 -0.032513 0.475827 -0.051518 -0.178003 -0.109559 -0.541947 -0.370102 0.179729 0.047890 -0.436673 0.092586 0.301153 0.158727 -0.012397 -0.233375 0.525705 0.314922 -0.118836 -0.795389 0.230050 -0.579729 0.675998 0.060940 0.036735 -0.559224 -0.095689 -0.210117 0.082117 -0.118905 -0.231106 -0.152910 0.007045 -0.194866 0.447399 -0.201348 0.278641 -0.192301 0.166238 -0.261880 -0.259174 0.554256 0.759555 -0.421697 -0.010040 0.401483 -0.019127 0.550055 0.113889 0.085236 -0.039683 -0.581159 -0.161166 -0.067182 -0.236094 0.469601 0.409315 -0.279455 -0.630717 -0.202953 0.082753 0.152352 0.473531 -0.270891 0.084712 -0.048636 0.006351 0.223578 -0.523959 0.245515 -0.199109 0.213314 0.081911 0.347996 -0.213918 0.318109 0.493206 -0.451276 0.163311 0.214489 -0.084256 0.128865 -0.210316 -0.030745 0.508193 0.522541 0.003678 -0.623949 0.417106 0.303158 1.029220 -0.641066 -0.628658 0.604688 0.027850 0.030432 -0.177780 0.249611 0.237649 -0.254974 -0.465066 -0.148951 -0.252989 0.283458 -0.669449 -0.624125 0.043324 -0.202360 -0.123126 -0.116888 0.057150 0.169301 -0.194833 -0.349022 0.048390 0.404151 -0.284607 -0.156142 -0.532636 -0.119919 -0.017265 0.405240 0.699468 0.502465 0.025883 0.696177 0.157879 -0.544572 0.471897 0.710203 0.772719 -0.266432 -0.053755 0.004902 -0.178015 -0.167086 -0.064027 -0.234172 0.105128 0.073449 -0.244021 0.061772 -0.774572 -0.443685 0.094605 -0.463063 -0.395875 -0.005482 0.106820 -0.248636 0.059391 -0.356631 -0.275225 0.550188 -0.149414 0.049875 -0.684029 0.227466 -0.184059 -0.001632 -0.459825 -0.008707 -0.156873 0.266390 -0.405797 0.286713 0.078305 0.716364 -0.305114 0.215251 -0.734065 -0.161359 0.347402 -0.275973 -0.025841 0.120925 -0.409943 0.319159 -0.134646 -0.061192
cougar 0.118595 0.307336 0.276407 0.131432 -0.591176 -0.036365 -0.627284 -0.346665 0.459570 0.366916 -0.073060 -0.726068 0.144265 -0.036950 0.046422 0.305050 0.195332 0.206954 -0.123564 0.208690 0.113658 -0.176970 -0.292606 0.292990 -0.050097 0.264100 -0.320680 -0.603057 -0.257176 0.243128 -0.155279 -0.052504 -0.297743 0.334119 0.414016 0.123030 0.327612 0.035133 0.289279 0.106870 -0.186879 -0.013634 0.348148 -0.021132 -0.171654 0.340210 -0.198645 0.306228 -0.023575 0.221004 0.272176 0.226599 -0.008152 -0.757362 0.376380 -0.175992 0.074777 0.136296 -0.533963 -0.107078 -0.163076 -0.149931 0.044346 -0.329560 -0.077400 -0.316713 -1.054549 0.255189 -0.038254 0.651502 0.592320 0.429361 -0.160270 -0.407117 0.011507 0.024123 0.026872 -0.257413 0.129273 -0.333013 0.697099 0.351203 0.349990 -0.154483 -0.103071 0.832393 -0.171332 0.180020 -0.008566 0.492060 0.392269 -0.538853 0.085920 0.483468 -0.184838 0.359770 0.323317 0.092870 -0.361120 0.119350 -0.082328 -0.093699 0.281480 -0.104686 0.133206 -0.704583 -0.637411 0.064894 -0.108252 -0.219281 -0.119858 -0.082526 -0.675391 0.482307 -0.478734 0.214294 -0.449765 -0.351846 0.041683 0.539703 -0.501602 -0.386932 0.314019 -0.065410 0.087776 -0.270131 0.105495 -0.157626 -0.028468 -0.144546 0.042724 0.102599 -0.239645 0.261195 -0.244048 0.501481 0.202241 -0.003367 0.255800 -0.126012 0.233006 -0.036253 0.513493 0.043549 0.405201 0.257465 -0.077259 -0.045823 -0.305358 -0.215736 -0.547384 -0.487405 0.244906 0.024555 -0.326130 0.748970 0.171473 -0.328696 -0.475232 0.288584 0.319296 -0.543530 -0.338231 -0.314811 0.018831 0.014598 -0.174646 0.291381 0.272438 -0.376272 -0.051377 -0.455943 -0.194466 -0.578982 0.525305 0.325415 -0.023655 0.004666 -0.469095 -0.050989 1.013875 -0.140814 0.209886 -0.032212 0.302006 0.382694 0.566639 0.240352 0.013889 0.083842 -0.279339 0.626772 -0.042763 -0.281442 -0.180456 0.244555 0.219182 -0.088932 0.132649 -0.245783 -0.028730 -0.018939 0.073986 -0.345972 0.736235 -0.079452 0.268992 -0.031786 -0.238836 -0.102535 -0.399436 -0.024106 -0.074641 0.376126 -0.177902 -0.227612 0.036854 0.204985 0.328804 0.068161 -0.341327 -0.348731 -0.040992 0.578667 0.124730 0.392257 0.019436 0.154638 0.467239 -0.238530 0.491529 0.424008 -0.516444 0.175855 -0.550938 -0.248839 -0.690119 -0.092097 -0.093811 -0.176078 0.688247 0.212212 -0.467777 -0.293244 -0.882003 -0.313524 -0.379769 -0.326908 0.116127 0.132872 0.123586 0.020301 -0.279797 -0.170807 0.434680 0.253127 0.158866 0.145023 0.228254 -0.555690 0.683451 -0.067797 -0.514980 0.272546 0.488663 -0.428620 -0.050340 -0.033658 -0.057515 0.181189 -0.431546 0.269556 0.096814 -0.140273 -0.208264 -0.229488 0.512271 0.502108 0.177187 0.701925 -0.785360 0.343029 0.176457 0.121079 0.662018 -0.207762 -0.147898 -0.448874 -0.625877 0.103685 0.075540 0.093950 0.422679 -0.302669 -0.337209 -0.493686 0.407719 -0.107298 -0.035738 -0.498396
window -0.321149 -0.056660 -0.577019 -0.463125 -0.124059 -0.029825 0.189507 0.209964 -0.125054 0.191187 -0.385366 0.221324 -0.139396 -0.317952 -0.609494 -0.193235 0.262877 0.860925 0.046910 0.429011 0.435360 0.172524 0.719008 0.417815 0.379176 0.411880 -0.760662 -0.116475 -0.324085 -0.344182 -0.516629 -0.278380 -0.389947 0.384263 -0.090517 0.485863 -0.340800 0.467270 -0.197375 0.102518 0.610724 0.451070 -0.054325 -0.236867 -0.300648 -0.481686 -0.135478 0.406055 -0.451921 -0.346241 -0.908807 -0.852933 0.149633 0.140930 -0.125835 1.071236 0.202029 -0.333949 -1.049673 -0.095608 -0.254100 0.554964 -0.087517 0.669812 -0.404451 0.026397 -0.036213 0.347143 -0.069801 0.318097 0.269583 -0.174399 -0.082608 0.692474 -0.001171 0.140132 0.479448 -0.019692 -0.393449 -0.262408 -0.215591 0.351711 0.388729 0.390377 0.269146 0.646276 0.573567 -0.181840 -0.169508 -0.113832 0.177246 0.015475 -0.070575 0.103337 0.080003 0.463176 0.710061 0.510591 -0.065839 0.564141 0.685099 -0.741565 -0.298405 0.880381 -0.241653 0.549967 0.026879 -0.265138 0.411699 0.560595 0.562993 -0.463464 0.177004 -0.531589 -0.528285 -0.878376 0.183913 0.567889 0.345958 0.298184 0.146001 0.175149 0.450877 0.044002 0.203544 0.007240 -0.614116 0.299073 -0.497552 0.501458 -0.066741 0.556211 0.057672 -0.017423 -0.497738 -0.053182 0.379144 0.090395 -0.269027 0.225223 0.074326 0.522145 -0.393728 0.023622 -0.231780 0.360290 0.187379 0.856810 0.343025 0.128346 0.327761 0.302197 -0.526065 0.002399 0.093629 0.516469 0.027712 0.250857 -0.854375 -0.052291 0.091441 -0.393356 0.009018 -0.473851 -0.094320 0.284096 0.060841 0.448321 -0.628441 -0.505924 0.455349 -2.432817 0.050433 -0.292242 -0.103049 -0.363013 -0.403479 0.074104 0.535586 -0.412494 -0.286038 0.072812 1.893015 -0.189791 -0.599956 0.007436 0.769478 -0.158754 -0.392287 0.101185 -0.297250 -0.438543 0.156453 -0.136927 0.176706 -0.691603 0.165668 -0.305887 0.151072 -0.271519 -0.892737 -0.064382 -0.724019 0.433121 0.568856 0.056813 0.574396 0.214951 0.110484 -0.210688 0.411273 -0.115340 0.415995 0.131494 0.840705 0.170266 -0.025766 0.072619 0.120414 -0.438309 -0.084239 -0.346836 -0.121649 -0.340754 -0.127023 0.244116 -0.605845 0.255906 0.503300 -0.487584 0.401569 -0.043947 -0.364310 0.016648 -0.195783 -0.182985 -0.332457 0.671623 0.351006 -0.055098 0.412895 -0.521177 -0.308048 0.278510 -0.193093 0.650515 0.239138 0.190729 0.396498 -0.095853 -0.006604 0.338939 0.151263 0.018592 -0.386672 1.023758 -0.101233 0.282945 -0.287730 -0.045359 -0.289124 -0.569819 -0.118560 -0.190151 0.003936 0.212551 0.555935 0.363031 0.354545 0.127238 -0.335893 0.249767 0.316520 -0.072550 0.558103 -0.144357 0.526533 -0.133884 0.187788 0.208157 -0.342114 -0.324267 0.780822 -0.240629 0.708422 0.336959 0.264196 0.379717 0.238845 -0.004101 -0.214984 0.366082 -0.273054 -0.405320 0.127447 -0.289045 -0.204580 -0.432109 -0.148901 0.629378
government -0.267607 0.188907 -0.023645 -0.164497 -0.498700 -0.231051 -0.094661 -0.367116 0.127831 0.212269 -0.089096 0.083785 -0.607530 -0.060922 0.247728 -0.025326 0.057983 -0.427348 0.039041 -0.421765 -0.032871 0.940094 -0.383544 -0.100032 0.036039 0.429316 -2.128883 0.193972 -0.708218 -0.138408 -0.379102 0.123928 0.313451 0.195488 -0.107659 0.627442 -0.047598 -0.171420 -0.233430 0.165969 0.486609 -0.551044 -0.062600 -0.230988 -0.273439 -0.382196 -0.066104 0.430544 -0.775290 -0.010748 0.235304 -0.046927 0.340396 -0.325186 0.270181 -0.102795 -0.215025 0.137816 0.296383 -0.529150 0.483965 -0.201438 -0.753247 0.111200 0.565598 0.705115 0.417393 0.108195 -0.218045 -0.676490 0.228945 0.784966 0.158213 -0.289183 -0.045261 0.078642 0.342817 -0.000686 0.280447 0.235158 -0.542572 0.429825 0.182244 -0.650132 0.700224 -0.340345 0.073390 -0.017903 0.963394 -0.169940 0.176929 -0.359918 -0.486841 -0.073354 0.327002 -0.265467 -0.216606 0.065344 -0.044983 0.132034 0.379305 -0.062735 -0.416732 -0.307794 -0.002005 -0.239237 0.256593 0.110215 -0.399518 -0.077437 -0.705497 0.335999 -0.090306 0.696089 1.052880 0.467977 0.190295 0.459558 -0.383232 0.454617 -0.805932 0.850200 -0.111342 0.381222 -0.420230 -0.146348 -0.040168 -0.001279 -0.383891 0.600722 0.074157 0.373085 0.040784 0.747626 -0.025198 -0.117300 0.065325 0.009753 0.521637 0.446034 0.249843 0.383778 -0.060404 0.549534 -0.137153 0.076204 -0.666616 0.145266 0.199063 -0.508646 -0.046407 -0.246446 0.420589 0.061350 0.370345 -0.382032 0.107806 -0.189184 0.702300 -0.170504 -0.516120 0.715573 -0.428279 -0.186399 0.150249 -0.193182 -0.115751 -0.032243 0.420349 0.189487 -0.336265 -3.891062 -0.705201 -0.787242 0.277558 -0.176422 0.382340 -0.430168 0.064094 0.308712 -0.256337 0.034840 3.175059 -0.507304 -1.047686 0.409532 -0.151404 0.044739 -0.127615 0.594905 0.149838 -0.183771 0.120708 0.050184 0.373708 0.509695 0.046862 0.095300 -0.853596 0.141839 0.530707 -0.449903 -0.634352 -0.094270 -0.728942 -0.285838 -0.122288 -0.775246 -0.050605 -0.133737 -0.528231 0.443131 -0.569839 -0.326589 0.242278 0.137897 0.254089 -0.785862 0.093852 0.028202 -0.455018 -0.369850 0.051367 0.089177 0.246362 0.059439 0.079757 0.256288 -0.263014 -0.273206 -0.485022 -0.080702 0.345308 0.357449 0.597372 0.110323 0.051658 -0.180036 0.045884 0.027324 0.038321 -0.595432 -0.006068 -0.410525 0.717617 -0.183279 -0.288733 -0.232246 -0.144052 -0.348462 0.147887 0.094184 0.381856 -0.106360 0.260861 0.210958 0.183665 -1.277067 -0.090176 -0.018475 0.160706 0.193628 0.223724 0.533379 -0.211343 -0.119776 0.092883 0.067485 -0.310461 -0.061105 -0.410562 0.000906 -0.196085 -0.251614 -0.357390 0.323902 0.009780 -0.188967 -0.318829 -0.635853 0.833248 -0.335154 0.247968 0.356419 -0.154190 0.270555 0.159047 -0.461135 -0.560977 -0.021498 -0.086325 0.406328 0.382426 -0.179218 0.271046 -0.356035 -0.356122 0.218989 -0.108866 -0.044763
James -0.101159 -0.633438 -0.290696 -0.211461 -0.005625 -0.153492 0.329198 0.582868 0.331306 -0.175073 0.250511 -0.192421 0.762833 0.151283 -0.656805 0.221067 0.247163 0.179808 0.395490 -0.914016 0.096724 -0.383948 0.148476 -0.154855 -0.130356 -0.443348 -0.735484 0.306678 -0.111134 0.217238 -0.198674 -0.335756 -0.076220 -0.543353 -0.019374 -0.178140 0.266831 -0.100272 -0.323452 -0.264098 -0.602996 -0.115107 -0.071484 -0.228569 0.110025 -0.068703 -0.132431 -0.623802 0.557607 0.135972 -0.317354 0.178786 -0.076196 -0.475280 0.345478 -1.058207 -0.311073 0.426351 0.498836 -0.379078 0.432433 -0.468395 -0.199976 0.200364 0.149593 -0.058060 0.446228 -0.385599 0.939169 0.014156 -0.253199 -0.264617 0.308918 -0.285407 -0.877472 -0.152645 0.504196 0.084365 0.073928 0.306214 0.138643 -0.044134 0.050258 -0.070408 -0.111348 -0.105983 0.260794 0.131967 -0.248751 -0.009161 0.121420 -0.077730 0.111094 -0.012615 0.623962 -0.181136 0.100718 0.380551 -0.139791 -0.008566 -0.035002 0.354026 0.397571 0.413688 -0.309106 -0.373598 0.786823 0.222593 0.666566 0.212541 0.225649 0.601221 -0.202203 0.249130 0.042486 -0.419693 0.021041 0.127749 -0.233855 0.428788 0.134394 0.052807 0.050438 0.127474 -0.002661 0.241794 0.332153 -0.110254 -0.149296 -0.344577 -0.290298 0.564831 -0.154196 -0.002313 -0.198910 0.217568 -0.610198 -0.203379 0.237002 -0.424543 -0.044221 0.006282 -0.330755 -0.164702 -0.166697 0.349300 0.163063 0.573159 0.124072 0.245135 -0.467322 0.142766 -0.394192 0.565787 -0.013164 0.104666 -0.283183 0.282137 -0.201329 0.141184 0.260299 -0.263301 -0.245256 -0.159935 0.361159 -0.441919 -0.685064 0.082983 0.184899 0.169511 0.271262 -4.384377 0.245827 0.364445 -0.307195 0.172958 0.055338 -0.482324 0.317698 0.160541 -0.330501 0.087368 1.837811 -0.070760 0.633379 -0.283234 -0.889437 -0.190492 -0.371662 0.643572 0.683751 0.080251 0.190563 -0.325691 0.667088 0.196419 0.113121 0.671017 0.204119 -0.301525 0.026190 0.077565 0.681210 -0.087470 0.433045 0.630580 0.209793 -0.276150 -0.495760 0.030035 -0.324970 0.226930 0.043445 0.076204 0.590066 0.422918 -0.183706 0.042480 0.461036 -0.362451 -0.254905 0.421374 0.012161 0.480740 0.525880 0.458080 0.193454 0.020992 0.036764 0.291321 -0.569573 0.206575 0.382764 -0.254925 -0.160626 0.785121 0.184613 0.132163 0.446372 -0.525077 -0.435391 -0.263055 0.203790 0.276655 0.344498 0.099862 -0.071558 0.277477 0.359240 -0.059783 -0.022791 0.233153 -0.819951 0.190109 -0.269736 0.673169 -0.774567 -0.274283 -0.760461 -0.605031 0.485060 -0.272229 -0.353901 -0.408249 0.189292 -0.645604 0.063010 0.193295 0.362484 0.314160 0.499169 -0.172505 0.040138 0.093449 0.978650 0.216383 0.366821 0.114313 0.276743 -0.216063 -1.059464 -0.037302 0.152206 -0.270617 0.122494 -0.359249 0.327846 -0.075306 0.534119 -0.131311 0.167071 -0.138162 0.108490 -0.392771 0.397840 -0.331625 -0.196002 -0.221831 -0.089828 0.158091
fridge 0.104950 -0.271829 0.005686 -0.177892 0.105908 0.119674 0.113605 -0.238059 0.123716 -0.216522 0.216508 0.002729 -0.262706 0.086508 0.501142 -0.324975 -0.389830 0.304407 -0.355997 0.131768 0.325299 0.066866 0.184799 0.005286 -0.354547 0.496013 -0.218676 0.270640 0.090351 -0.007149 -0.388600 -0.116200 -0.397544 -0.118168 0.189468 0.071618 -0.514885 0.003733 -0.095891 -0.081458 0.065913 -0.006448 -0.413489 0.104490 -0.033341 -0.207707 0.075569 -0.662059 0.437535 -0.254659 -0.730379 -0.677988 -0.363747 -0.417152 -0.410404 -0.028846 0.040835 -0.303681 -0.321446 -0.298709 -0.151284 0.643794 -0.019925 0.248638 -0.114887 -0.108269 0.271057 0.264675 -0.129901 0.409931 0.001664 -0.318381 0.198844 0.495039 0.160093 -0.035362 0.076731 0.167191 0.315722 0.029409 -0.025831 -0.090469 0.209962 0.237034 -0.037949 0.466010 0.217499 -0.450777 0.462925 -0.218026 0.418303 0.048261 -0.252699 0.380961 -0.346603 -0.035719 0.250859 0.050384 0.111697 -0.015736 0.201543 0.150808 -0.057584 -0.138539 -0.177909 -0.183199 -0.172003 0.018845 0.090619 -0.442709 -0.273375 -0.512316 0.283143 -0.051748 -0.170669 -0.108670 -0.178604 0.074840 0.437206 0.197636 0.950987 -0.052852 0.115210 0.491989 0.419626 0.367004 -0.009467 0.025267 -0.052400 0.000021 -0.544612 0.008462 0.126794 0.104586 -0.037226 0.055037 -0.064832 0.186348 -0.110023 0.595445 -0.478414 -0.104383 0.324419 0.126308 -0.275758 0.279334 -0.281736 0.239388 0.063200 -0.205202 0.278710 0.153740 0.116370 0.077445 0.188122 0.150306 -0.040132 0.126675 -0.524715 -0.159093 0.068715 0.373296 -0.251161 0.406825 -0.148667 0.030087 -0.291167 0.068480 0.261308 -0.390999 0.229710 -0.219387 0.001781 -0.372201 -0.355810 -0.158523 0.037359 0.018198 0.311396 -0.412187 0.209462 -0.019709 -0.090041 -0.209867 -0.023416 0.211245 0.147585 0.005119 -0.120530 0.443153 0.023816 0.107742 -0.219041 -0.284364 -0.052616 -0.030515 0.158331 -0.114646 0.136619 -0.139015 -0.159082 0.071160 -0.310800 -0.226937 0.326862 0.296940 0.499384 0.039999 0.084180 -0.116110 -0.173992 -0.079780 -0.108054 0.124062 0.615331 -0.318208 -0.452242 -0.295521 0.019651 -0.377791 0.282131 -0.013477 0.386250 -0.504744 -0.132228 0.038362 -0.531074 0.340507 -0.053920 -0.340849 -0.208456 0.289187 -0.446027 0.155929 -0.190760 -0.045559 0.050436 -0.173646 0.076595 -0.061066 0.439815 -0.564764 -0.352247 -0.530398 0.037637 -0.370847 0.574328 0.155801 0.244997 0.486882 -0.180632 0.097087 0.222235 -0.346285 0.704751 0.111726 -0.202340 -0.478575 -0.163042 0.399550 0.038610 -0.059869 0.428596 -0.069253 0.374399 -0.291453 0.006000 0.186111 0.036171 -0.055437 -0.265450 0.185776 -0.051400 0.523424 -0.158111 -0.205295 -0.291018 0.332344 0.234288 0.141574 -0.274266 -0.009534 0.677456 0.316851 0.812053 0.464703 -0.236529 0.004044 -0.179174 0.137216 -0.041034 0.139277 -0.535953 0.351346 0.332791 0.095852 0.312703 0.611510 -0.195867 0.177514
lunch -0.301581 0.109852 -0.513814 -0.022077 -0.745292 -0.774628 0.827384 0.048099 -0.222087 0.485914 -0.347448 0.220446 -0.301450 0.772859 0.200130 0.311137 0.001558 0.232129 -0.338806 -0.301917 0.287595 -0.339940 -0.201729 0.116371 -0.250897 0.252262 0.129072 -0.689133 0.041480 0.211720 -0.068212 0.371955 -0.957894 -0.000199 0.017482 0.190064 -0.107391 0.321948 0.006753 0.069790 -0.272320 -0.496536 -0.082269 -0.028797 0.259440 -0.137458 0.260541 -0.343521 -0.024765 -0.143225 -0.332788 -1.008585 0.036994 -0.268640 -0.304825 0.376049 0.462190 -0.569933 -0.630493 -0.650237 0.542124 -0.381053 -0.089819 0.249175 0.092138 0.162846 -0.172684 -0.024558 0.019013 -0.191887 -0.195330 -0.643526 0.453382 0.718040 0.325639 -0.060898 -0.585943 -0.002107 -0.520893 -0.462210 0.076160 -0.055009 0.355353 0.064474 0.225170 0.401647 0.075881 -0.323371 0.353197 -0.159786 0.357297 -0.527281 -0.301774 0.297223 -0.187308 -0.213011 -0.432257 -0.207876 0.368141 0.275533 0.253498 -0.142980 0.327993 0.574892 -0.624166 0.489739 0.047694 0.282994 -0.535206 -0.121082 -0.135769 -0.859753 0.227020 -0.591353 -0.198782 -0.976976 -0.479543 0.577509 0.252532 -0.072687 0.093652 -0.409162 -0.095324 -0.108456 0.312576 -0.036968 -0.023922 0.379174 -0.195391 0.066882 0.016927 0.662247 0.074426 0.461848 -0.919859 0.069913 -0.238966 0.512724 0.236008 -0.534828 -0.127901 0.716052 -0.418352 0.402656 -0.455962 -0.972959 -0.339762 0.157159 0.345606 0.081411 0.777244 -0.068937 0.218417 0.036901 0.146140 0.385374 0.375546 0.554287 0.354908 0.051606 0.136918 0.381970 -0.353104 -0.059070 0.045418 -0.372892 -0.177701 0.407653 -0.494318 -0.222237 0.104130 -2.199742 -0.117506 -0.614918 -0.383828 -0.397430 -0.372066 -0.062604 -0.204936 0.122497 0.260742 -0.794166 1.059914 0.913733 -0.612651 -0.286204 -0.016571 -0.323707 0.373940 0.370262 0.064240 0.867493 0.614708 -0.238133 -0.413307 0.065174 0.119837 0.004994 0.366251 -0.210412 -0.262235 -0.126752 -0.455504 -0.504857 0.074108 0.241100 0.198717 -0.222806 -0.374785 0.091908 -0.438401 -0.344806 -0.104328 -0.233421 0.161382 0.109531 -0.862709 0.303042 -0.177433 0.282949 -0.032237 0.722549 0.332470 0.033253 0.028374 0.493393 0.050610 0.035855 0.259930 0.090501 0.398815 0.056408 0.062332 0.447134 -0.047199 -0.145782 -0.285940 0.411433 0.167612 0.468105 0.608921 -0.416320 -0.086764 0.004789 0.095330 0.284908 -0.018800 -0.145332 -0.032191 0.187973 -0.123682 -0.324515 -0.184944 -0.826350 -0.331894 0.411380 0.815549 0.232842 -0.227382 0.567676 -0.200558 -0.417788 0.126631 0.047644 0.251632 -0.131871 -0.054703 -0.188250 0.048713 -0.252177 0.302770 0.204489 0.184526 -0.346585 -0.145083 -1.126473 -0.052126 0.042852 -0.024920 -0.521123 0.487884 -0.200093 0.004495 -0.209361 -0.339278 0.217003 -0.189751 0.157959 -0.130311 -0.567255 0.188563 -0.020164 -0.197683 0.239699 -0.417337 0.028748 0.373320 0.393799 -0.159190 -0.129498
Juventus 0.111921 0.199528 -0.133599 0.422236 -0.437301 -0.237569 -0.118704 0.089885 0.483221 -0.122356 0.520111 0.182351 -0.077543 -0.264416 0.791680 0.282028 0.602325 -0.011812 0.767252 0.644773 0.074433 -0.260655 -0.030936 0.703940 -0.185358 -0.156874 -0.419202 -0.266522 -0.342622 0.729881 0.025486 -0.117906 0.678944 -0.219852 -0.300187 -0.216478 -0.427513 -0.471680 -0.135303 -0.112492 -0.427898 -0.454832 0.095465 0.114445 0.103077 -0.547672 -0.537043 -0.224418 0.449130 -0.586779 -0.134727 0.254349 -0.291534 -0.148607 -0.012447 0.093515 0.138658 0.142643 0.778900 -0.684821 -0.627952 -0.585721 -0.168131 0.004924 0.368318 -0.119099 0.501389 0.452148 -0.152197 0.436120 -0.243923 -0.087007 -0.150091 -0.166665 -0.780396 -0.452460 -0.163392 -0.256148 0.873528 -0.043563 -0.120644 0.116922 0.298827 -0.294829 -0.091723 0.272871 -0.182641 0.512152 -0.225593 0.588709 0.359308 0.855895 -0.030984 -0.098004 -0.231881 0.003438 0.274963 -0.016539 0.003208 -0.436673 -1.425093 -0.043353 0.488552 -0.240295 -0.024155 0.074596 -0.729170 -0.410377 0.315959 -0.185628 0.061553 0.345148 0.113569 -0.353862 0.259314 -0.477571 0.367254 0.571682 0.527184 0.237159 -0.671702 0.389778 -0.395161 0.267285 0.340173 0.118475 0.196150 -0.132313 -0.462989 -0.102306 -0.033699 0.289076 -0.217523 -0.376942 0.333396 -0.003766 0.362938 0.495325 0.344223 -0.167881 0.438609 0.169614 -0.170471 -0.052597 -0.018159 -0.252390 -0.255801 -0.318410 0.902743 0.994665 -0.009154 0.241761 0.877205 -0.588605 -0.276184 -0.510489 0.171266 0.061519 -0.115976 -0.399944 0.668536 0.406901 0.223750 -0.298895 -0.148062 -0.378487 0.895343 0.365864 -0.366640 0.360156 -0.529221 -1.060494 -0.310636 -0.238939 0.433353 -0.273920 0.265292 0.665632 -0.530919 -0.170441 0.326036 -0.093516 0.644568 0.495724 0.349712 0.596227 0.414326 0.283358 0.366655 0.065702 -0.094366 0.027458 -0.201407 0.628223 0.277252 0.047032 0.268825 0.570518 0.045667 0.464116 -0.091489 0.162121 -0.651840 -0.080633 0.754532 -0.125980 -0.409669 -0.269136 -0.558677 -0.109039 0.255621 -0.686469 -0.411345 0.396943 -0.148379 0.433702 -0.318472 0.666113 -0.584846 0.323742 -0.184452 -0.044993 0.299471 -0.070361 -0.233781 0.100028 -0.434343 0.399730 -0.130587 0.367896 -0.018951 -0.080221 -0.009889 -0.189034 0.802691 -0.053465 -0.864828 -0.237562 -0.175781 0.000508 0.423102 -0.225942 -0.203898 0.103547 -0.228012 -0.003914 -0.169656 -0.107901 -0.026605 -0.270931 0.481054 0.508160 0.256984 -0.137352 0.247659 0.118564 -0.319692 -0.077044 0.354508 0.082662 0.045554 -0.609517 0.264794 0.753778 0.688103 -0.051226 -0.120678 -0.188250 -0.068360 0.204063 0.009883 -0.092816 0.499573 0.404780 -0.849387 1.055710 0.097077 -0.062464 -0.178549 -0.386233 0.482915 0.310772 -0.729666 0.071606 0.127995 -0.094083 -0.250814 0.057603 -0.020462 -0.436536 -0.190307 -0.418418 -0.519284 0.083970 0.162753 -0.530581 -0.332259 0.288547 0.218532 0.326665
Venus -0.313188 0.210705 -0.181332 0.151566 -0.371297 0.069509 -0.143552 0.344301 -0.158319 0.154352 -0.655746 0.242211 0.011729 -0.353840 0.233211 0.119502 0.106667 -0.000243 -0.367837 0.281420 -0.183291 0.017595 0.098578 0.275370 0.438344 -0.088642 -0.646589 -0.470591 0.140975 -0.555158 -0.019572 0.672219 0.386135 -0.134112 0.003724 -0.688452 0.186987 0.078733 -0.179133 -0.601765 0.864289 -0.322397 0.684189 -0.041000 -0.021443 -0.195076 0.507016 -0.212925 -0.161810 -0.303686 0.152683 0.228799 -0.150905 0.074626 0.321103 0.164467 0.138042 0.445554 0.096443 0.081454 -0.431247 -0.512064 0.720161 0.075242 0.015499 -0.357939 0.431068 0.441841 -0.172064 0.346224 -0.314228 -0.022038 -0.068406 -0.162761 -0.450720 -0.339035 0.121896 0.145215 0.124120 0.827797 -0.251364 0.348297 -0.860671 0.334399 0.028375 0.591448 0.200038 -0.955195 0.116517 0.065651 -0.218270 0.487513 -0.545304 0.145052 -0.258436 0.207945 0.222161 -0.339867 -0.206064 -0.122622 -0.224390 0.080004 0.471350 0.021388 0.101013 0.022441 -0.022822 -0.521291 0.831871 0.166349 0.160589 -0.666652 0.503326 -0.894705 0.444991 0.014784 0.141562 -0.027043 0.696608 0.060666 -0.381924 0.140965 -0.204953 0.302347 0.468730 -0.231986 0.852511 -0.212799 0.037965 0.181814 -0.177982 0.113431 -0.012006 -0.889374 0.645731 0.435338 0.089174 -0.339901 0.271547 -0.143784 0.342888 0.620775 0.059301 -0.025060 0.532959 -0.189092 -0.206459 0.025342 0.233113 0.571013 0.172012 -0.676433 -0.325982 0.441126 -0.137423 -0.260055 0.218954 -0.023285 -0.299808 -0.145427 0.080329 -0.516517 -0.050602 0.362900 -0.074456 0.242127 -0.649643 0.151832 0.611636 0.538273 0.056069 -1.638772 -0.059469 -0.111733 0.099720 0.030609 -0.283200 0.451445 0.034158 -0.137622 0.029847 -0.192201 1.406179 -0.007141 0.309413 -0.332660 -0.127164 0.236169 -0.612621 0.119525 -0.818540 0.536093 0.219346 0.513156 -0.294176 0.177969 -0.397339 0.132139 0.211846 -0.192232 -0.133611 0.194001 -0.191704 0.604569 0.415517 -0.147094 -0.543293 0.303405 0.964854 0.416365 -0.034429 -0.347509 0.424615 -0.412104 0.048944 0.395718 -0.900304 0.167077 -0.027950 0.546584 0.381322 -0.330631 0.217390 0.662046 -0.532661 0.295096 -0.225732 -0.423527 0.031279 0.110877 -0.397790 -0.524094 0.230000 -0.604255 -0.225829 0.383220 0.037599 -0.131854 -0.173827 0.009536 0.020301 -0.063141 0.055865 -0.044581 -0.691545 0.004375 -0.241239 0.090813 -0.289089 -0.355879 -0.033811 -0.061365 -0.394041 -0.297346 -0.513246 -0.405289 -0.001397 0.331238 -0.823847 0.276995 -0.022986 -0.299974 -0.186779 0.072704 -0.085959 -0.100556 0.806287 0.062229 0.067179 -0.312205 0.418870 0.534978 -0.842642 0.357585 -0.075330 0.225503 -0.164681 0.428329 0.090871 -0.052086 0.016474 0.058064 0.614805 -0.148971 0.288083 0.058403 -0.456616 0.266899 0.432161 0.261833 -0.349051 -0.026635 -0.193784 -0.384715 0.329452 -0.504008 -0.738158 0.504223 -0.585744 0.692718
day -0.008739 0.740495 -0.377126 0.001564 -0.219326 0.389374 0.215856 0.364206 -0.017152 -0.168957 -0.048461 0.119015 0.092737 0.157471 -0.310348 0.235305 0.136931 0.391669 -0.492412 0.361479 0.131161 -0.180834 0.146165 0.315541 -0.225483 0.083547 -0.918623 -0.561561 -0.393293 -0.141441 -0.036229 0.340289 -0.124590 -0.143186 -0.011166 0.214270 -0.050304 0.030148 -0.183520 -0.019871 0.304847 -0.024519 -0.079758 0.098468 0.108584 -0.075761 0.408321 0.074814 0.304200 -0.075138 -0.790060 -0.782358 -0.139672 0.297923 -0.001907 -0.015231 -0.265329 0.260946 -0.065767 -0.006839 0.389069 -0.127894 0.454274 0.050422 0.201294 0.342601 -0.016950 -0.474187 -0.394426 -0.030095 0.559888 -0.179386 0.307825 0.523534 0.141836 -0.385047 -0.430018 0.247202 -0.163980 -0.278071 -0.179162 0.700693 0.520579 -0.044260 0.165470 0.058633 -0.185023 -0.069407 -0.078176 -0.374138 -0.185248 0.290273 -0.170274 -0.162187 -0.047141 -0.125427 0.288053 -0.153154 0.173026 0.410181 0.026274 -0.071347 0.175115 0.046311 -0.165256 -0.340304 0.624335 0.213069 -0.144136 0.454132 -0.028882 0.064248 -0.056238 -0.669784 0.247214 -0.464486 -0.133791 0.201910 0.300356 0.451686 0.125606 0.061125 0.036157 0.089995 0.107811 -0.393221 0.005010 0.287677 0.358751 -0.178588 0.122695 0.135781 0.157971 -0.502415 -0.573812 -0.173010 0.104210 0.268452 0.364844 -0.187969 -0.025942 0.057316 0.005946 -0.421644 -0.300509 0.205317 0.206258 0.157918 0.125570 0.327849 0.545038 -0.031566 0.319660 0.263871 -0.022577 0.174669 -0.053521 0.101482 -0.097409 -0.351261 -0.348777 0.168326 -0.109398 0.007152 -0.449492 0.099273 -0.127224 0.175315 0.359430 -0.167752 0.250528 -4.493931 -0.249489 -0.061607 -0.280405 0.067795 -0.134526 -0.100779 0.201050 -0.249474 0.209560 -0.151576 2.688635 0.117239 -0.673284 0.166295 0.018609 -0.214800 0.021736 0.578794 0.418136 0.321653 0.049320 -0.064924 -0.325793 0.199840 -0.310004 -0.420275 0.120335 0.127954 0.062210 0.228642 -0.550292 0.226660 -0.559611 0.378082 -0.178047 0.218862 -0.431665 -0.255168 -0.524476 0.315194 0.255750 -0.516216 0.224241 0.041830 -0.366474 0.544306 -0.017764 -0.110401 0.376029 0.264950 0.446396 -0.073080 0.566544 0.731377 0.677054 0.342701 0.675077 -0.199136 0.218045 -0.091995 -0.123192 -0.158762 0.033757 -0.085971 -0.248790 -0.090070 0.360642 0.434247 0.365714 -0.049312 -0.205075 -0.156503 -0.024803 -0.002109 0.071468 -0.098738 -0.585538 -0.011188 -0.436358 0.215844 0.348242 -0.823613 -0.033779 0.013068 0.267246 0.022997 -0.062104 0.426753 0.100497 -0.074576 -0.235131 0.266612 -0.134706 -0.301289 0.553606 -0.100249 0.140252 -0.132932 -0.025457 0.519901 -0.205804 0.017650 -0.253762 -0.626086 -0.004389 0.160440 0.563712 -0.647928 0.274772 0.051064 0.287992 0.059541 0.211492 -0.124585 -0.367303 -0.218844 -0.223520 -0.641626 -0.088433 -0.401582 0.492939 0.399742 0.231807 0.248799 0.209975 0.273303 0.153430 0.315335
Triton 0.278913 -0.337054 0.426955 0.520756 0.257495 0.575516 -0.209911 -0.052915 -0.078041 -0.323237 -0.001050 -0.241377 -0.352266 -0.301975 -0.027698 -0.197440 0.388426 0.171109 -0.285017 0.484923 -0.354847 0.149513 -0.467236 -0.222440 -0.172077 0.011967 -0.616436 -0.032611 0.433547 -0.118180 -0.075788 0.114089 0.143341 0.447686 -0.041048 -0.138761 -0.194730 0.137088 -0.005121 0.198606 0.299558 -0.022756 0.428142 0.210580 -0.059587 -0.123754 0.012008 -0.048075 -0.112214 -0.017228 0.116323 -0.075517 0.157644 -0.192564 0.134452 -0.924768 0.126771 0.254372 0.111189 0.131885 -0.558282 0.125089 0.306357 0.059050 -0.068400 0.345552 0.230765 0.361423 -0.060747 0.356456 0.438587 -0.438216 0.001082 0.375834 0.021417 0.263150 0.166815 0.525080 0.061148 0.454126 0.420169 -0.004039 -0.226008 0.644844 -0.209659 0.027077 -0.488122 -0.433177 0.552144 -0.197217 0.185866 0.013434 0.180231 0.209237 -0.381063 0.189722 0.091903 -0.016160 -0.294642 -0.570281 0.176872 0.092957 0.567385 -0.270159 0.169263 -0.005927 -0.275762 -0.189084 0.130882 0.240450 0.307147 -0.249794 0.490627 -0.568126 -0.166225 -0.005423 -0.443724 0.179046 0.265769 0.608632 0.523660 0.110440 -0.172766 0.471741 0.203973 0.363500 0.023133 0.235337 -0.089779 0.143189 0.401452 -0.192446 -0.651632 -0.301595 0.124389 0.009217 0.292630 0.291586 -0.006185 -0.127286 0.142499 0.337164 0.147044 0.284793 0.329757 -0.377842 0.392697 0.061207 -0.275965 0.561594 0.080060 -0.427352 0.235598 0.101392 -0.202907 0.302339 0.492344 -0.107636 -0.688312 -0.152295 -0.059746 -0.074977 -0.042476 -0.509428 -0.155320 -0.003023 0.366664 -0.039697 -0.258388 0.166140 0.166618 -0.891391 0.258226 0.118315 -0.487339 0.137032 0.186537 0.428966 0.153085 -0.068586 0.196644 0.026575 0.470684 -0.365255 0.203608 -0.225843 0.043012 0.583200 -0.131816 0.403455 0.296936 1.098630 0.634208 0.097041 -0.060707 0.297697 -0.077221 -0.336758 0.272375 0.691932 -0.159421 0.494477 -0.237438 0.207861 -0.065371 0.016936 0.208663 0.025121 0.682607 0.232596 -0.314414 -0.008051 -0.385618 -0.252461 -0.386723 -0.338676 0.239485 0.072103 -0.218703 0.324049 0.171595 -0.264902 0.450313 0.001466 -0.406414 -0.577859 0.307084 0.115100 0.643622 0.003543 -0.477667 0.112772 0.504828 0.019843 -0.400187 0.194018 0.163369 -0.919916 -0.295820 -0.271840 -0.009218 -0.100018 -0.068591 0.306675 -0.125514 0.318584 -0.010515 0.589277 -0.486627 -0.095512 0.260106 -0.054990 -0.533177 -0.560118 0.247777 0.102827 0.134139 -0.264810 -0.550168 0.226223 -0.238936 -0.508666 0.180520 0.187414 -0.191548 -0.058138 -0.107345 -0.105144 -0.039967 -0.078166 0.097694 -0.463663 -0.297184 0.442671 -0.312637 -0.121460 -0.767444 0.975804 -0.367840 -0.244970 -0.405886 -0.518475 0.653113 -0.093670 0.320061 0.258556 0.191562 0.199519 0.101195 -0.482341 0.222321 0.055972 0.343618 -0.759830 0.461436 -0.110184 -0.138242 0.086848 -0.694045 -0.219463
Thomas -0.297438 0.102558 0.085352 0.228553 0.421103 0.440713 0.591068 0.704640 0.124472 -0.395135 0.377728 -0.344127 -0.115305 0.087989 -0.346714 -0.194502 -0.044734 0.098280 -0.107756 -0.524553 0.163414 -0.502932 -0.217302 -0.165257 0.127433 -0.692025 -0.423654 0.159975 -0.079188 0.089934 0.569223 -0.718369 -0.380649 -0.254280 -0.856591 -0.068629 0.480945 -0.210121 0.424893 -0.646750 -0.107815 -0.157100 0.002457 0.300390 0.241440 0.641949 -0.150747 0.198006 -0.017331 -0.059747 -0.164242 0.311660 -0.302885 -0.274079 -0.730667 -1.116114 0.284835 0.230598 -0.022834 0.069500 0.445240 -0.678873 -0.105281 -0.032377 0.038346 -0.056142 0.880576 0.279129 0.545593 0.074240 0.078393 -0.370806 0.127475 0.096801 -0.695255 -0.233873 -0.140941 0.148042 -0.249306 -0.019251 -0.113595 0.219530 0.246991 0.282994 -0.009265 -0.079962 0.536049 -0.297714 -0.512750 -0.184668 0.004855 0.065274 0.332608 0.582572 0.391466 -0.471195 -0.669648 0.184611 0.027756 -0.035249 0.381540 0.099472 0.407041 -0.071737 -0.080661 0.633155 0.241937 -0.158749 0.325829 0.488928 0.372961 0.549892 -0.442816 0.325337 -0.081084 0.318797 0.320769 0.044563 -0.196674 -0.307485 0.059194 -0.209341 -0.286738 -0.257995 -0.217881 0.303779 -0.157828 -0.343046 0.239504 0.041381 0.189536 0.259447 0.358531 0.232756 -0.054362 -0.020086 -0.462953 -0.129783 -0.033583 -0.378257 -0.577021 0.363778 -0.257871 -0.269950 0.137496 -0.277627 0.239295 0.298505 0.048314 0.454296 0.222345 0.524887 -0.109336 0.368813 0.207416 0.443534 0.408895 0.117981 -0.026276 0.277541 -0.032444 -0.300141 0.092257 -0.177957 0.803409 0.117925 -0.514034 -0.001029 -0.963684 0.066186 0.364064 -4.125396 0.293543 0.105033 -0.249865 -0.176213 -0.072775 -0.403457 -0.279645 -0.265548 -0.560391 -0.007331 1.499356 -0.265957 0.243873 0.013991 -0.677352 -0.592632 -0.248183 0.554699 0.000730 0.136038 0.211240 -1.057661 0.348078 -0.485025 0.245525 0.478065 0.206528 -0.153036 0.119536 -0.124917 -0.287678 -0.224498 0.191395 0.202925 0.493195 -0.250323 -0.029248 -0.059247 0.074285 0.913240 -0.023493 0.196601 0.134917 -0.429538 -0.334166 0.033367 -0.256144 0.032527 -0.655211 0.180507 0.181360 0.521461 0.140865 0.589567 0.321312 -0.171567 0.108366 0.024573 -0.828122 0.370643 0.257746 -0.122394 -0.214778 0.498998 0.492324 0.492395 0.106299 -0.185097 -0.349498 0.614815 0.006299 -0.016437 -0.127290 0.562630 -0.107628 -0.600570 0.386886 -0.122641 -0.318901 -0.764776 -0.291943 -0.230124 -0.721645 -0.034077 -0.476779 -0.181891 -0.668384 -0.604873 -0.002218 0.032680 0.155713 0.256971 0.694544 0.147231 -0.191272 0.110187 0.187351 0.391037 0.892530 -0.272837 0.273028 0.150240 0.696189 0.363172 -0.189059 -0.427024 -0.115927 -0.220937 -0.999339 -0.282304 0.057581 -0.526122 -0.178932 -0.479590 -0.012470 0.369829 -0.122490 0.215506 -0.714315 0.028033 0.291917 0.383700 -0.020557 -0.452157 -0.346101 -0.739914 -0.029930 -0.020577
Saturn -0.025911 0.067283 -0.071458 0.640120 -0.315082 0.425741 -1.022729 0.474927 0.697346 0.314928 -0.264728 0.414235 -0.010666 -0.268866 0.312941 0.113876 0.116197 0.199701 -0.129226 0.459752 -0.609578 0.200104 0.363256 0.864427 0.704557 0.279331 -1.378708 -0.668016 0.111714 0.227190 -0.339205 0.550966 0.400734 -0.195181 0.559506 -0.327915 -0.142591 0.264966 -0.560888 -0.004281 0.241559 -0.124718 1.212652 0.100504 -0.440597 -0.300256 0.463337 0.389970 0.066114 0.464884 0.114040 0.556296 0.091164 -0.542056 0.333351 -0.177892 0.750899 0.693005 -0.461112 -0.088263 -0.174220 0.274271 0.418096 -0.729208 0.546538 -0.286955 0.166605 0.761647 -0.056097 0.069391 0.101312 -0.080510 0.276406 -0.338545 -0.155224 0.033459 0.407853 0.001695 0.360111 0.337791 0.106384 0.121607 -0.365940 0.398197 -0.160748 0.455070 -0.178638 -0.417218 0.551490 0.209243 0.177126 0.266590 -0.101266 0.224661 -0.407725 0.080705 0.515329 -0.347350 0.314426 -0.488719 -0.070894 0.344234 0.593682 -0.639994 0.130044 -0.024912 0.146980 -0.619754 0.059357 -0.052966 0.300873 -0.850499 0.693259 -0.598785 -0.146393 -0.137864 0.473237 0.017974 -0.757402 0.112353 0.211589 -0.370166 -0.286000 -0.300456 0.404473 -0.380216 0.602467 0.426479 0.432541 0.097948 -0.362990 -0.250943 -0.350057 0.037083 0.097043 -0.145513 0.261526 0.012396 0.589611 -0.207175 0.160719 0.222121 -0.215732 -0.407110 0.422887 -0.275698 0.065885 -0.460702 0.370260 -0.064752 -0.159072 -0.669925 -0.182730 -0.504919 0.261865 -0.385474 0.387604 0.004964 0.316588 -0.062154 -0.117880 -0.339396 -0.098546 -0.037264 -0.068451 0.334771 -0.482627 0.235441 0.321734 0.009181 -0.577866 -1.354382 -0.194188 -0.094017 -0.262612 -0.116484 -0.012866 1.109642 -0.332637 -1.049797 0.283755 -0.193575 0.807671 -0.183707 0.243879 -0.172153 0.189663 -0.164149 -0.736415 0.016819 -0.010487 0.718470 -0.128529 -0.001342 0.127000 -0.131200 0.412370 -0.195079 0.831900 -0.508246 -0.147813 0.168471 0.249251 0.205266 0.225490 -0.422230 -0.006233 -0.361530 0.497557 0.441308 0.770100 -0.079708 0.290363 0.585149 0.177635 0.952733 -0.504749 -0.186811 0.030723 -0.132698 0.330506 -0.206795 0.028616 0.191148 0.127041 -0.135540 -0.599282 0.010586 -0.018806 0.199197 -0.295779 -0.225933 0.323216 -0.601462 -0.169923 0.053088 -0.525278 -0.612043 -0.272240 -0.136353 -0.052184 -0.039534 0.104515 -0.176309 -0.665281 0.238103 -0.285555 0.336602 0.328738 -0.386939 -0.171969 0.323325 -0.484895 -0.189064 -0.112171 -0.371354 -1.007871 0.043845 -0.207078 0.156530 0.426764 -0.249809 0.028004 0.506970 -0.116599 0.083293 0.737656 -0.188193 0.157020 0.012076 0.172653 0.146473 -0.488562 0.185473 -0.177074 -0.245920 -0.663870 1.227267 0.065743 -0.034262 -0.416451 0.180807 0.108407 0.150100 0.659106 0.055413 -0.685746 -0.165541 0.405641 -0.013843 -0.277930 -0.336555 0.300784 0.177363 0.321935 -0.295363 -0.518843 0.161115 -0.609846 0.756945
jaguar 0.118751 -0.213017 -0.153564 0.329918 0.167519 0.269422 0.080572 -0.112901 0.258236 -0.060346 0.173173 -0.689158 -0.215915 0.208681 0.220564 -0.384958 0.380240 0.294262 0.086802 -0.251412 -0.071367 0.183022 -0.072574 -0.065399 -0.257466 0.100703 -0.062666 0.034647 0.090385 0.391945 -0.026946 0.258818 0.334876 -0.077182 0.437260 0.251935 0.276111 0.224829 0.048128 0.172893 0.374194 0.084148 0.030945 0.229158 -0.165869 0.190326 0.096639 0.192867 0.232720 0.187328 -0.028306 0.328329 0.000538 -0.989122 -0.214103 -0.056765 0.317227 0.249232 0.076465 0.307701 -0.472402 0.079135 -0.244826 -0.145751 -0.133770 -0.400669 -0.729128 -0.130068 -0.078563 0.501785 0.292456 0.726919 -0.414459 -0.271284 0.019293 -0.290530 -0.260021 -0.369669 0.518707 -0.137494 0.539436 0.385918 0.264411 0.559094 0.013722 0.392883 0.030383 -0.460813 0.151163 0.104018 -0.636580 -0.334531 0.136988 -0.317030 0.049894 0.576242 0.176240 0.170303 -0.371114 0.141663 -0.215540 -0.072163 0.130223 0.487842 -0.001895 -0.525872 -0.552896 0.002896 0.290476 -0.416177 0.031248 -0.157914 0.222411 0.017843 0.085719 0.104763 -0.243692 -0.101185 -0.380716 0.164075 -0.248902 -0.140587 0.017367 -0.110519 -0.153087 -0.424949 0.363005 0.356052 0.047896 0.183428 -0.142686 -0.494297 -0.155017 0.365702 0.023850 0.215615 0.427186 -0.201988 0.331926 -0.127643 -0.127284 -0.005778 0.334413 0.153889 -0.233101 0.252195 0.311416 -0.268945 -0.600814 -0.082770 -0.250830 -0.174066 0.229054 -0.113561 -0.307384 0.887669 0.014117 -0.323252 -0.608964 0.386719 0.575528 -0.277102 -0.198004 -0.009940 -0.307360 0.020047 0.088761 0.284240 0.928924 -0.191037 0.000283 -0.413778 0.293037 -1.186492 0.208673 -0.022321 0.360619 0.292663 -0.108734 -0.488806 1.022865 0.109616 0.074737 0.031854 -0.169212 0.349681 -0.037242 0.337714 -0.036719 0.152919 -0.020201 0.082664 -0.057682 -0.415961 -0.196458 0.148769 -0.331342 -0.632381 0.014351 -0.479565 -0.139908 0.050397 0.120388 0.024556 0.714978 -0.206329 -0.085767 0.293223 0.108689 0.451232 0.041045 -0.400463 0.619190 -0.047282 -0.094618 -0.290440 0.027038 0.362415 0.015188 0.475438 -0.088951 -0.119353 0.325065 0.474613 -0.173161 0.284587 -0.472013 0.192733 0.355975 -0.172094 -0.568990 0.252406 -0.224070 0.228851 -0.926868 0.413118 -0.615450 0.046618 -0.177683 -0.005909 0.613672 -0.005122 0.192366 -0.206526 -0.723356 -0.068874 0.421331 -0.394885 0.072917 0.126906 0.204786 -0.040888 -0.640381 -0.222524 0.243500 0.326424 -0.347905 0.029629 0.360549 0.020586 -0.083259 -0.229937 -0.285311 0.512450 -0.035074 -0.057209 -0.073338 0.294377 0.254432 -0.197314 -0.231452 0.670256 -0.132655 -0.140981 0.132774 0.484889 0.383929 0.736145 0.227427 0.793143 -0.398003 -0.140610 0.497997 -0.087969 0.562925 0.065705 0.292578 -0.455903 -0.121681 -0.444723 0.196384 0.247833 -0.052119 -0.176987 -0.048362 -0.367088 0.272210 0.165476 0.218279 -0.262912
Noah -0.207298 -0.292885 -0.053521 0.053268 0.249954 -0.538578 0.058331 -0.015039 -0.046349 0.669615 0.370289 -0.139867 -0.153751 0.190160 0.055929 -0.020772 0.124745 -0.014932 0.192417 0.200086 0.780732 0.214105 0.299923 0.067609 0.440044 -0.041170 -0.342377 -0.328669 -0.388700 -0.229111 0.064738 0.307353 -0.212206 -0.849120 0.502365 -0.064002 -0.183246 -0.817416 -0.098412 0.301555 0.331031 -0.679988 -0.031192 0.163121 0.168763 0.342085 0.157931 0.511817 0.561703 -0.183773 -0.256173 0.107836 0.002490 0.154274 -0.018993 -0.679397 0.255913 0.675744 -0.216056 0.568386 -0.191532 -0.280968 0.031818 0.528797 0.180146 0.062226 0.527618 0.305669 0.173706 0.166914 0.315608 -0.050644 -0.205685 -0.483807 0.081986 0.334096 0.177066 0.131860 0.048271 -0.185331 0.368740 -0.117355 -0.096651 -0.199917 -0.447719 0.197889 -0.187536 0.371845 -0.006081 -0.044304 -0.390641 0.415702 0.269638 0.220078 -0.039739 0.268121 0.110930 0.425703 -0.001113 -0.221475 0.384079 0.446896 0.323950 0.147179 -0.173085 0.096301 0.342111 -0.094797 -0.141909 0.385020 0.022657 0.146183 0.799798 -0.082854 0.684663 -0.590018 -0.125103 0.124144 -0.081216 -0.094126 0.296249 -0.415234 0.035089 0.159779 0.180926 -0.393757 0.301526 0.151815 0.296548 0.126332 0.032986 -0.658301 -0.265869 -0.404308 0.497493 0.072674 -0.503260 -0.143488 -0.372849 -0.524611 -0.001677 -0.016418 -0.179786 0.098903 0.293656 0.128404 0.277179 0.442419 0.371466 0.115500 -0.032962 0.226707 0.803802 0.066019 0.240037 -0.230281 -0.232582 -0.033329 -0.172063 -0.077572 -0.020650 0.237632 0.374531 -0.323323 -0.120528 -0.058706 -0.092478 -0.029213 -0.045573 -0.234377 -0.421861 -1.436821 0.594439 -0.081927 -0.251012 0.440600 -0.068528 -0.083757 0.085614 -0.261716 0.465281 0.017129 1.029980 -0.117244 0.132161 -0.117136 -0.702875 0.178146 0.295174 0.527392 0.068445 -0.041702 0.838493 0.436238 0.621449 -0.673315 0.128363 -0.311397 -0.198151 -0.098550 -0.564343 0.374262 0.020851 -0.493405 0.477543 0.530248 0.006856 0.032434 0.445592 0.014817 0.800324 -0.046418 -0.386795 0.400214 0.049641 -0.330492 -0.348173 -0.187639 -0.293676 -0.584467 -0.253228 0.694250 0.167850 0.206562 0.293018 0.167599 -0.361825 0.226037 0.415870 -0.009509 -0.495621 0.922617 0.029002 -0.510797 -0.423765 0.099707 0.078217 -0.059701 0.223597 0.240711 0.279342 0.097587 0.468836 0.032338 -0.104137 -0.030159 0.098909 -0.170321 -0.296950 0.122307 -0.255142 -0.152522 0.496446 0.206095 -0.434076 0.077493 -0.152902 0.268313 0.184872 -0.114100 -0.393397 0.226636 -0.386600 -0.361120 0.307034 -0.265092 0.507437 -0.108706 0.320726 0.073866 0.342072 1.040862 0.774761 0.082151 0.553122 -0.075615 -0.395903 0.180589 0.013048 -0.195907 -0.465411 0.131240 0.258782 -0.094124 0.146680 -0.528268 0.541412 0.004197 0.233115 -0.053773 -0.593683 0.152822 0.588264 -0.593381 0.101664 -0.558716 -0.210544 0.316173 -0.098792 -0.102939
Jupiter -0.107336 0.137107 -0.135096 0.493665 -0.139188 0.119955 -1.024744 0.562693 0.192610 0.234687 -0.471006 0.032551 -0.235994 -0.264436 -0.124779 0.254914 0.190699 0.019345 0.010011 0.498059 -0.565439 0.182473 0.057300 -0.044029 0.334822 -0.064047 -1.132723 -0.448378 0.150437 0.207164 0.042971 0.296724 0.249578 -0.198318 0.200112 -0.425209 0.266403 0.498319 -0.533388 -0.302405 0.808158 0.232317 0.926559 -0.008241 -0.092892 -0.159842 0.146644 0.039116 -0.199101 -0.080824 -0.086860 0.939918 -0.291857 -0.591215 0.263376 0.332486 0.183663 0.960970 0.029312 0.179026 -0.297717 -0.130344 0.565629 -0.179481 0.312149 -0.324171 0.135826 0.835780 0.120578 0.245885 -0.061014 -0.189517 0.404032 -0.062685 -0.216278 -0.117070 0.244525 -0.547258 0.636750 0.518852 0.071009 0.080944 -0.658455 0.343712 -0.205573 0.114116 0.006933 -0.343050 0.697914 0.128916 0.000166 0.182408 0.089932 0.135839 -0.378563 -0.159375 -0.110125 -0.458950 0.005943 -0.169132 -0.267056 0.498677 0.892796 -0.382042 -0.138332 0.285152 0.121357 -0.080631 0.267033 0.596340 -0.300847 -0.530094 -0.088181 -0.566042 0.308400 -0.062822 -0.595518 -0.166023 -0.246008 0.002265 0.210109 -0.147940 -0.152608 0.143408 0.155881 -0.173871 0.444301 0.143075 -0.097397 -0.274109 -0.677140 0.101646 -0.688524 -0.481599 0.582959 -0.144508 0.311920 -0.038915 0.456153 -0.101588 0.339984 0.313228 0.368082 0.014194 -0.056247 0.135685 -0.345259 -0.188249 0.003492 0.697086 0.159179 -0.540444 -0.355676 -0.223116 -0.072383 -0.162181 0.307397 0.231022 -0.163654 -0.605117 0.102366 -0.499717 -0.545013 -0.084717 -0.095666 0.574466 -0.544304 0.431729 0.458561 0.474254 0.179421 -1.590894 0.005638 -0.004771 -0.370869 0.216037 -0.021264 1.129035 -0.639167 -0.270799 0.184627 -0.247207 1.015877 -0.509450 -0.013773 -0.238792 0.178963 0.379801 -0.598768 -0.398043 -0.114925 0.816702 0.236563 -0.171122 -0.263510 0.256813 0.127729 0.069383 0.841231 -0.189295 -0.244789 0.531405 0.053197 0.383371 0.014154 -0.035369 -0.447341 -0.636745 0.434367 0.439924 0.222803 -0.072404 0.182825 0.568070 -0.229654 0.297258 -0.384235 0.160396 -0.007976 0.057120 0.604943 -0.215703 0.489024 0.217191 -0.001326 -0.041400 -0.208028 -0.022432 0.461352 -0.103724 0.017075 0.130555 0.160725 -0.093247 -0.312987 0.519165 -0.208393 -0.521546 0.000692 -0.032202 0.050224 0.568815 -0.030592 -0.819064 -0.546050 0.030140 -0.261755 0.041442 0.221387 -0.517910 0.596615 0.188336 -0.661130 -0.161984 -0.232466 -0.645080 -0.218995 -0.129932 -0.424769 0.538507 -0.451339 -0.244700 0.511941 0.606776 -0.047586 -0.334229 0.006984 0.032572 0.064816 0.096637 0.385346 0.592742 -0.920906 0.293907 -0.002017 -0.335380 -0.186779 0.401155 -0.037933 0.143256 -0.497184 0.406943 0.550269 -0.043471 0.649743 0.279367 -0.518607 0.041453 0.460936 -0.005974 -0.204744 -0.534568 0.103965 -0.174920 0.471232 -0.088475 -0.640854 0.307614 -0.553630 0.668209
Uranus -0.182185 -0.086871 -0.516982 0.270792 -0.091095 -0.110463 -0.902264 0.511621 0.428934 -0.026473 -0.036774 -0.113393 -0.211318 0.184635 -0.029553 0.151120 0.090795 -0.192489 0.401918 0.286250 -0.937750 0.314098 0.138251 -0.279719 0.048968 0.576345 -0.732976 -0.772206 0.351219 -0.288098 -0.522595 0.496484 0.029468 -0.440753 0.647393 -0.578160 0.036595 -0.236494 -0.375195 -0.076829 0.688708 -0.348390 0.606213 0.262503 0.033538 -0.060574 -0.198892 0.183986 0.021185 0.464226 -0.176636 0.212484 0.144192 -0.500517 0.158442 0.012396 0.554323 0.339602 -0.408334 -0.053009 -0.087160 0.087804 -0.020864 -0.523385 0.454380 0.153558 -0.185123 0.718999 -0.233066 0.049936 0.264077 0.067397 0.030003 -0.232868 -0.251362 -0.727541 0.171787 0.002036 0.145994 0.074446 0.187791 -0.450884 0.182028 0.175821 0.105952 0.045155 -0.170379 -0.706816 0.414657 0.331070 0.037575 -0.020787 -0.529820 -0.213617 -0.396093 0.167182 0.091296 -0.146228 0.157141 -0.546806 0.237270 0.201353 0.117465 -0.040019 0.047430 0.476187 0.199923 -0.161708 0.044954 0.398049 -0.127979 -0.128471 0.290589 -0.571117 0.062595 -0.153092 -0.326635 -0.308803 0.091247 -0.098751 0.113373 -0.371487 -0.366778 -0.154385 0.239615 0.147248 -0.104999 -0.375290 0.230417 -0.204907 -0.789379 0.393416 -0.306747 -0.433190 0.443949 -0.146081 0.171459 0.177240 0.393368 0.035632 0.248737 0.448533 0.043989 -0.282363 0.441388 0.221126 0.040570 -0.239746 -0.041745 0.618831 0.110763 -0.143413 0.420603 -0.564582 0.251649 0.246459 0.484800 0.442083 0.118820 -0.610243 -0.055647 -0.064228 -0.569002 0.098272 -0.264905 0.419126 -0.366644 0.640556 0.579478 0.368085 0.237868 -0.488903 0.220047 0.019280 -0.030007 0.150726 -0.127385 0.738226 -0.217774 -0.791177 0.001383 -0.032105 0.890804 -0.178219 0.197782 -0.423542 0.347746 0.306482 -0.501882 0.276893 -0.112640 0.588071 0.238431 -0.227119 0.149799 -0.094593 0.621343 0.172018 0.146776 -0.145691 -0.033158 0.402451 -0.048011 -0.098842 0.075772 -0.158808 0.178033 -0.270719 0.764333 0.656062 0.409814 -0.430426 -0.026029 0.200928 -0.214016 0.019594 -0.772962 0.030677 -0.490719 0.056448 0.227080 -0.366880 0.333983 0.271556 -0.138350 -0.017526 -0.322360 -0.178693 0.206946 0.212144 -0.481349 -0.432487 0.149281 -0.067452 -0.359499 0.417659 0.071155 -0.488823 -0.319869 -0.019670 0.205249 0.345884 -0.340198 -0.459115 -0.356080 0.415829 -0.382894 0.424678 0.063190 -0.225527 0.713207 -0.062184 -0.298870 -0.590641 -0.262295 -0.123779 -0.352734 0.095014 -0.159135 0.005041 -0.007532 -0.382098 0.106141 0.310761 0.102561 -0.260804 0.315806 0.378247 0.594563 0.073981 0.256836 0.197094 -0.759624 0.141740 -0.234660 -0.078639 -0.198951 1.166530 0.174844 -0.111456 -1.030237 0.456231 0.338537 0.183152 0.238329 0.161358 -0.335477 0.009699 -0.175202 -0.121263 0.016010 0.030780 0.252316 0.474619 0.117109 -0.183814 -0.492850 0.317147 -0.679055 0.495828
crucifixion 0.285684 -0.085051 -0.252747 -0.349609 -0.190123 -0.119382 0.233553 0.293022 0.303277 0.165066 0.261297 -0.278666 0.122237 -0.147296 -0.645870 0.182950 -0.142463 0.153517 -0.417178 -0.231202 0.031378 0.167110 -0.193382 0.199011 0.446584 0.317565 -0.538403 -0.405661 0.036649 -0.285332 -0.413931 -0.256893 0.687081 -0.465033 0.471268 0.243376 0.186308 -0.078426 -0.111904 -0.262921 -0.273990 0.595951 0.019018 0.276989 -0.211705 0.164012 0.739740 0.576329 0.013761 0.211495 -0.672563 -0.249587 -0.651766 -0.014141 -0.361947 -0.107653 0.159007 -0.129254 -0.579232 -0.019717 0.491738 0.031534 0.397088 -0.058069 0.262609 -0.015839 0.127711 0.006524 0.138274 -0.205818 0.055802 0.028161 -0.284501 -0.066409 -0.110630 -0.097998 0.642210 -0.108098 -0.104025 0.363421 0.155519 0.281461 0.398157 0.024724 -0.299126 0.140105 0.062379 -0.191266 -0.038026 0.300281 -0.083550 -0.185250 -0.946149 0.218223 0.268966 0.264043 0.609354 0.163960 -0.422593 -0.138024 0.293012 0.012110 0.626060 0.267324 -0.587270 -0.020441 -0.235659 0.090542 1.090182 0.431041 0.231674 -0.185578 -0.519129 -0.194102 0.215855 -0.204191 -0.076855 0.492145 0.530588 0.323474 0.196798 0.391958 -0.121139 0.349507 0.269175 0.133451 0.098628 0.288198 0.167756 0.238890 0.098342 -0.264506 -0.072447 -0.193046 0.150517 -0.228501 0.442690 -0.178196 -0.344001 -0.405375 0.198415 -0.195398 -0.627593 -0.208925 0.069470 0.241711 0.363235 0.404103 0.504638 0.296298 0.059484 0.606639 -0.394214 0.426279 0.166252 -0.044560 -0.612589 -0.019776 -0.506079 -0.156151 0.035707 -0.016108 0.875151 -0.083200 -0.344329 -0.284438 0.400300 0.234032 -0.242384 0.330260 -0.130330 -0.321888 -0.295719 -0.521268 -0.254206 -0.169318 0.016419 0.001615 0.200335 -0.368552 0.181574 0.311037 0.751190 0.332355 0.155456 0.070179 0.133003 0.363550 0.343118 0.058748 0.152055 -0.342232 0.095955 0.627219 0.419106 -0.118362 0.239498 -0.269909 -0.675594 -0.130026 -0.162625 -0.318069 -0.297820 -0.136273 0.102747 0.204735 -0.239840 0.193503 0.319862 0.204076 0.083129 0.394798 0.349075 -0.231131 -0.199618 0.046614 0.116512 -0.198831 -0.208265 -0.232953 -0.067514 0.136328 0.944524 -0.291818 0.206987 0.749360 -0.256471 0.001373 0.639329 -0.037653 0.225301 0.145888 0.173004 -0.017967 0.652845 0.328310 -0.205966 0.383384 0.917187 0.209648 1.061994 0.004446 0.010476 -0.425734 0.014250 0.069245 -0.423555 -1.051042 0.350229 0.309906 -0.479602 -0.105273 0.113299 -0.250536 -0.534867 0.222475 0.015492 -0.108214 0.077610 -0.558049 -0.348979 -0.412040 -0.168995 0.238857 -0.490087 0.041422 0.096799 0.055784 0.275891 -0.467142 -0.519227 0.846979 -0.457993 0.078652 -0.027594 -0.016518 -0.568612 0.115766 -0.062487 0.023829 0.216692 0.278237 0.496731 -0.154028 0.170779 0.052441 0.185922 0.581397 -0.085235 -0.334177 0.087769 -0.236175 0.482712 0.007964 0.236414 -0.256896 0.615391 -0.054323 -0.170823 0.705318
Bridgestone -0.123803 0.240869 0.454921 0.426761 0.069143 -0.215632 0.068987 0.342028 0.165403 -0.214630 0.211748 0.167374 -0.753513 -0.657996 -0.312276 0.191391 -0.022235 0.478541 0.043238 -0.200368 -0.375039 -0.044021 0.061865 -0.212394 -0.215713 -0.685147 -0.599188 -0.023857 0.086025 0.098654 0.062880 0.034173 -0.702241 0.044482 -0.250976 0.101309 0.196835 0.027513 0.296563 0.128340 -0.409486 -0.388127 0.307710 0.157891 0.369189 -0.265023 0.303214 -0.124660 0.055649 -0.049724 0.273424 0.557469 0.208780 -0.201225 0.691010 0.343796 0.047315 -0.061396 0.202607 -0.218269 0.468083 -0.586233 -0.045474 -0.247959 -0.161563 -0.196085 0.545721 0.612331 0.117893 -0.144823 -0.114369 -0.458433 -0.572091 0.122417 0.138187 -0.077989 0.116325 0.375425 0.061652 0.690542 0.166074 0.223238 -0.316167 -0.343411 -0.646765 0.423738 0.348242 -0.170952 0.459216 -0.001060 -0.031385 0.695310 -0.122081 -0.340287 -0.766701 -0.017157 0.126095 0.159526 0.420606 -0.297419 -0.045507 0.274042 0.203700 -0.179792 -0.519326 -0.032432 -0.731572 -0.802176 -0.216087 0.620073 0.050393 -0.427709 -0.262088 -0.572013 0.200452 -0.155011 0.113715 -0.042807 -0.095113 0.030055 -0.181307 -0.144980 -0.165014 -0.612360 0.206960 -0.552779 -0.262585 0.480910 -0.196437 0.065617 -0.528695 0.845557 0.267384 -0.424611 -0.793425 0.078665 -0.271306 0.112490 -0.078749 0.411931 0.298147 -0.139780 0.251901 0.014275 0.279276 -0.099248 -0.162685 -0.120775 -0.005449 0.215514 -0.962788 0.075923 0.449729 0.104469 0.872235 0.140981 -0.229350 -0.467914 -0.941138 -0.247538 0.206569 0.173310 -0.422443 -0.652491 0.044284 0.196777 -0.325862 0.457880 0.426572 -0.342499 -0.289956 -0.033380 -0.345811 -0.550739 0.251727 0.087591 0.197748 -0.436305 0.164424 0.080066 0.094299 0.275055 0.305558 0.965077 -0.202765 -0.042377 -0.016785 0.316181 0.122766 0.098255 0.081691 -0.470900 -0.457174 0.257592 -0.238024 0.104600 -0.138279 0.043508 0.443577 0.070055 -0.624167 -0.084057 -0.893577 -0.006460 0.032133 0.201870 0.003550 -0.037227 -0.332538 -0.041098 0.612176 0.054017 0.058841 -0.028543 0.012063 0.174652 -0.485435 -0.233984 -0.020276 -0.160494 0.093823 0.111874 -0.177946 -0.174876 -0.403619 -0.532794 -0.459700 0.039899 -0.573062 -0.280346 0.149221 0.137921 0.311466 -0.296008 0.365323 0.339409 -0.372245 0.001053 -0.335141 -0.053768 0.197770 0.195809 0.249716 -0.056915 -0.141034 -0.692241 0.103781 0.246493 0.204710 -0.208447 0.230718 -0.342157 0.052360 -0.672507 0.912849 0.006540 0.129524 -0.105038 0.042198 -0.125614 -0.282055 0.390664 -0.040598 -0.103719 -0.007344 -0.230084 -0.209532 0.461930 0.604543 0.451480 0.790128 -0.147112 -0.253145 0.150018 0.039053 0.437605 0.189980 0.437692 -0.460667 -0.167718 0.206495 -0.251861 -0.147185 0.245618 -0.419096 -0.799634 0.095203 0.118072 -0.400992 -0.021981 -0.078787 -0.081777 0.049498 -0.880815 -0.034032 -0.141854 -0.772199 0.245775 -0.067435 0.218897
Sun -0.587437 -0.069364 -0.119148 0.164641 0.193652 0.064430 -0.412046 0.108034 -0.625612 0.301350 -0.451133 0.190373 -0.420189 -0.596348 -0.042527 0.304314 -0.073467 -0.443472 -0.327033 0.541960 0.005170 0.424221 0.335970 0.161246 0.249270 -0.364636 -1.206683 -0.533590 0.418879 0.228559 0.240594 0.049160 0.121054 -0.227005 -0.583586 -0.196051 -0.148219 0.710179 -0.630888 -0.504814 0.711422 0.110747 -0.027941 -0.176847 0.608733 0.219358 -0.038588 0.288002 0.061479 -0.019805 -0.469815 0.153307 -0.269288 -0.170273 0.755532 -0.651837 0.601956 0.646723 0.294434 -0.115365 0.247697 -0.135729 0.617877 -0.073654 0.442923 -0.143636 0.188972 -0.438745 0.389111 0.575254 0.051592 -0.252725 0.723035 0.552101 -0.450022 -0.952426 0.018326 -0.100572 0.304408 0.227022 -0.341113 -0.123723 -1.061800 -0.057115 -0.099179 0.210838 -0.200597 0.140563 0.124488 -0.603389 -0.055481 0.613693 -0.171999 0.299581 -0.060587 0.753184 0.168289 -0.285771 -0.113246 0.041111 -0.685899 0.182057 0.538713 -0.516170 -0.072737 0.580597 -0.494674 -0.783451 0.404318 0.647539 -0.546323 -0.187097 0.357107 -0.642134 0.749501 0.340286 -0.148654 -0.285988 -0.102552 0.003699 0.142938 0.373294 -0.179384 -0.219222 0.003195 -0.369154 0.053336 0.316822 0.457653 -0.020631 -0.310668 0.018997 -0.384315 -0.136248 -0.135133 -0.113105 -0.451714 0.026678 0.343504 0.480060 0.610760 0.055220 0.225634 -0.186682 0.080788 0.332267 -0.842652 -0.974289 -0.284121 0.310510 -0.056680 -0.364293 0.217140 -0.601913 -0.226127 0.024183 -0.234816 -0.408694 -0.436638 -0.127053 -0.724306 -0.257595 -0.078629 0.321208 -0.049131 -0.137155 -0.793750 0.560382 0.131653 -0.060689 0.183949 -3.100542 0.220706 0.691232 0.551250 0.366681 0.113556 0.491969 -0.036972 0.168016 0.036275 -0.160764 1.878651 -0.535455 0.069304 -0.120214 -0.259571 0.521443 -0.870284 0.307565 -0.286470 -0.422486 -0.029221 0.194856 -0.106474 -0.194712 0.009086 0.469095 -0.776472 -0.063201 -0.296595 0.016294 0.463233 -0.058302 0.003827 -0.112574 0.026070 -0.084071 0.301926 0.341110 0.105287 -0.633152 0.007430 -0.161660 -0.325019 1.160545 0.088991 0.245457 0.179285 0.487703 0.199507 -0.367586 0.030628 -0.215695 -0.330561 0.004234 -0.082164 -0.409967 1.029424 -0.497881 0.248646 -0.025561 -0.214725 0.016103 -0.208969 0.432311 -0.191458 -0.267718 0.055465 -0.304388 -0.330245 -0.084914 0.553498 -0.482192 -0.512388 -0.435180 -0.164700 0.130140 -0.180608 -0.706767 0.677311 0.182677 -0.332595 -0.604041 -0.355811 -0.187550 -0.318471 0.104080 -0.413743 1.178217 -0.468381 0.093810 0.073942 -0.105033 -0.200184 -0.324915 0.383123 0.110246 -0.086373 0.038321 0.525649 0.057222 -0.703337 0.235588 0.106113 -0.711170 -0.420690 0.949196 0.112823 -0.154979 -0.536621 -0.549179 0.223367 0.054614 -0.624353 -0.083766 0.261397 0.370150 0.092393 -0.218212 0.044524 0.125993 0.029477 -0.213810 0.328169 -0.323549 -0.674436 0.873981 -0.545512 0.307024
HP 0.127192 -0.211709 0.147779 0.581809 -0.109160 0.764472 -0.150608 0.117944 -0.094027 0.459177 -0.423129 0.106270 0.253466 0.013465 -0.244675 0.281558 -0.080837 0.190628 0.114165 -0.531309 0.583121 -0.616006 -0.222855 0.740471 -0.097493 0.034525 -0.182170 -0.392829 -0.009903 -0.086116 0.381469 0.089649 0.347170 0.196880 -0.498766 0.501429 0.033158 0.556810 0.172643 -0.753128 0.089069 -0.069176 0.555361 -0.697712 -0.042443 -0.942463 -0.175957 -0.178883 -0.637859 -0.345683 0.073715 0.203285 -0.016542 0.066724 -0.129946 -0.037502 0.217666 -0.394974 0.330627 -0.120225 -0.180253 -0.061682 -0.085661 -0.047073 0.050577 0.002550 0.660658 0.098672 0.519805 0.196278 -0.333888 -0.017607 0.043157 0.191517 0.142343 -0.543909 -0.139375 0.415508 0.528411 0.216341 -0.444965 0.242620 0.060166 0.652850 0.029064 -0.070867 -0.453036 0.237046 -0.100785 -0.402513 0.109402 -0.520687 0.108450 0.048117 -0.514736 -0.220559 0.179642 0.133107 0.920132 -0.484323 -0.368710 0.132421 -0.208018 -0.044024 0.155153 0.021724 -0.393186 0.046481 0.583901 0.237905 -0.249768 -0.265477 0.703290 -0.347822 -0.002083 0.076117 0.142420 0.249738 0.818961 0.269283 0.002654 -0.257459 -0.604923 0.014519 -0.108778 0.125892 -0.261957 0.158039 -0.426797 0.743084 0.228442 -0.307514 0.588410 -0.854136 -0.878817 -0.676364 -0.009628 -0.273836 -0.442227 0.746045 -0.268179 0.333077 -0.237255 -0.185678 -0.158108 0.249459 -0.050822 -0.984053 0.176946 -0.521802 0.444112 -0.028817 -0.125116 0.196210 -0.279038 0.077591 -0.797428 -0.187992 -0.323953 -0.406653 -0.004322 0.664595 -0.491298 0.968781 0.142409 0.400475 -0.063885 0.016130 0.539982 -0.187517 -0.139019 -1.294508 0.052329 -0.240599 -0.427191 -0.789794 -0.102157 0.417134 0.263294 0.119383 -0.294331 -0.190632 0.564760 0.712258 -0.612754 0.019783 0.181400 0.276160 0.024205 0.003110 0.238154 -0.064571 -0.231926 0.174426 -0.265836 -0.096542 -0.427777 -0.051901 0.660938 -0.276264 -0.295473 -0.098609 -0.103818 0.757376 0.500686 -0.244900 0.020446 -0.209593 -0.105787 0.181356 0.576440 -0.193558 -0.647357 0.205038 -0.208306 -0.099146 0.620442 -0.676375 0.008076 -0.088002 -0.311064 -0.096787 -0.295334 -0.202993 0.502360 0.021297 -0.110237 -0.084860 0.587926 -0.120545 -0.519152 0.175323 -0.946746 -0.240021 -0.405875 -0.729322 -0.387994 -0.278753 0.108245 -0.835875 -0.088053 0.613096 0.244106 -0.547342 -0.030084 0.643865 0.027282 0.240181 -0.564509 -0.306328 0.456639 -0.424013 -0.130218 0.195081 0.271785 -0.151487 0.722233 -1.045891 0.219801 0.219245 -0.264334 -0.543589 -0.140309 -0.199580 -0.050689 -0.081051 -0.602107 -0.398136 0.637656 0.571786 0.760693 0.096718 0.051813 0.519540 -0.074379 -0.449681 -0.418872 0.559596 0.162111 -0.173534 -0.016380 -0.705095 0.705459 -0.402160 -0.300513 -0.022739 0.367283 0.334938 -0.136538 0.442541 0.162231 -0.255018 0.289685 0.463470 0.387662 0.098035 -0.223184 -0.239956 0.121360 0.140975
February 0.205153 1.017197 -0.049290 -0.183538 0.348661 0.587208 -0.330704 -0.079710 0.533376 -0.684357 0.171708 -0.230564 0.268205 -0.106418 -0.249603 0.798388 0.361024 -0.761389 -0.059061 -0.481150 0.883816 -0.230209 -0.110186 -0.207452 -0.117874 0.183245 -0.780490 -0.470880 0.234513 0.061829 0.130249 -0.464273 0.066425 -0.574764 -0.098553 -0.200667 0.359779 -0.282717 -0.473843 -0.377271 -0.246441 -0.012438 0.223361 0.051429 -0.322682 -0.179693 -0.446663 -0.137062 -0.310065 -0.057731 -0.106139 -0.058961 0.010365 -0.245769 0.326207 -0.056171 0.230497 0.556826 1.046708 -0.149080 0.060379 -0.114124 -0.092763 -0.254944 0.288419 0.150640 0.143021 0.503451 -0.599530 -0.114092 -0.341033 0.419695 -0.044770 -0.080779 -0.441855 -0.478152 -0.006866 0.164526 -0.302529 0.295110 -0.251531 0.189987 0.226873 -0.113230 -0.301631 -0.586631 -0.390636 -0.039523 0.442719 -0.701353 0.251611 -0.014348 -0.538175 -0.045906 0.671146 -0.489468 0.313913 0.080971 0.070590 0.223663 -0.276549 -0.119110 -0.634530 -0.471949 -0.222006 -0.160484 0.661754 -0.118550 -0.444013 0.036119 0.114486 0.235019 0.184495 0.293491 0.170148 -0.234225 0.058684 -0.099850 0.286541 0.152819 0.074253 -0.248983 0.481852 -0.251485 0.211042 -0.091729 -0.001443 -0.366336 -0.167762 -0.046240 0.181686 -0.247091 0.037572 -0.328354 -0.454159 -0.086777 -0.028578 0.347480 -0.189733 -0.139451 -0.246361 0.004095 0.060835 0.085698 -0.161129 -0.096214 -0.148074 -0.107296 0.102407 0.293620 0.303165 0.134553 -0.432033 0.228056 0.421720 -0.043707 0.226269 0.427567 0.006373 -0.084457 0.051965 -0.080700 0.102232 -0.152593 0.307223 -0.066623 0.147285 0.552701 0.163068 -0.043863 -0.092441 -4.191020 -0.632315 -0.103423 -0.790113 -0.153167 0.260376 -0.079354 -0.201914 -0.265037 0.035859 0.206939 2.886868 -0.022022 0.159821 0.190895 -0.401934 -0.145148 0.133167 -0.173228 0.366837 0.060325 0.435534 0.377301 0.128964 -0.325222 0.130888 0.202322 -0.230995 -0.090399 -0.169872 0.037280 -0.599029 -0.053626 -0.158240 -0.372254 -0.317246 -0.205210 -0.427841 0.048293 -0.092923 0.086582 -0.104322 0.537785 0.269102 0.022120 -0.120293 0.066944 -0.110209 -0.391217 0.269214 -0.169707 0.266757 0.241930 0.066116 0.240112 0.683802 -0.089289 0.139700 -0.078974 -0.178111 0.225074 0.123977 -0.360709 0.136904 -0.351588 0.168314 -0.332487 -0.362693 0.029910 -0.082599 0.164603 0.219573 -0.366950 -0.517274 0.176135 -0.187654 -0.269271 -0.077662 -0.081667 0.191305 0.382452 0.310371 -0.336053 -0.005137 0.178629 -0.432279 0.472072 0.196936 -0.035278 0.377338 0.008674 0.178670 -0.214792 0.318558 0.169228 0.515304 -0.295761 0.114137 0.163585 0.079048 -0.230830 -0.178093 0.199004 0.386328 0.363893 -0.108936 0.161115 0.587652 -0.753403 0.164760 -0.544085 -0.186887 -0.341615 -0.153082 -0.724130 -0.241831 -0.715353 0.187001 0.072719 -0.238870 -0.339263 0.104927 0.051896 -0.126591 -0.667055 -0.153175 0.142879 -0.344802 0.451712
Rio_de_Janeiro -0.023453 0.283365 0.336147 0.034448 0.509968 -0.269660 0.147785 -0.205656 0.647410 -0.350692 0.274099 0.126313 -0.374156 -0.116126 -0.009519 0.891073 0.477710 -0.696788 -0.116572 -0.033998 0.147549 0.066869 0.303848 0.009073 -0.457962 -0.379208 0.088349 0.031293 0.151188 0.303455 -0.098162 -0.294140 0.410143 -0.614183 -0.153660 -0.438845 0.014324 -0.249207 0.126427 0.646099 -0.630705 0.406420 0.174352 -0.609061 -0.405913 0.538613 0.287250 0.427727 0.089907 0.345867 -0.449268 0.245994 0.057990 0.377982 0.277302 0.146091 -0.004218 -0.426025 0.016504 -0.323982 -0.108161 -0.316517 -0.507405 0.395056 0.231900 -0.225830 0.200994 0.340868 -0.446788 0.361139 0.376945 -0.086968 -0.274673 -0.187817 -0.443963 -0.761401 0.296205 0.032317 -0.253081 -0.049996 -0.289272 -0.286676 0.118920 -0.302851 -0.755214 0.019518 -0.121509 -0.266231 0.954317 -0.009958 -0.253181 0.098038 -0.196891 -0.115988 0.618758 -0.063803 -0.175245 -0.111881 -0.339436 0.659840 -0.429142 -0.240040 -0.379159 -0.258177 -0.382867 -0.154004 0.150980 -0.330329 -0.374140 0.154960 0.306684 -0.488402 -0.749546 -0.028938 -0.079824 0.400354 -0.549952 -0.094311 -0.371252 0.406620 -0.040199 0.067140 -0.374628 0.505685 -0.326650 -0.137071 -0.066751 -0.034700 0.023713 -0.345388 0.012775 -0.133029 0.301145 -0.143006 0.280171 -0.321333 0.544022 -0.175078 0.335365 -0.369633 -0.706075 -0.203329 0.328015 -0.035065 0.381751 -0.255477 -0.096897 -0.736914 -0.390491 -0.007792 0.356347 -0.180592 -0.387215 -0.749970 0.018586 0.041892 -0.351742 -0.678072 0.000536 -0.436963 0.155817 0.311718 0.171413 -0.352079 0.365616 -0.054778 0.395056 0.072524 -0.177577 0.157854 -0.559597 -1.532166 -0.312307 -0.922668 -0.057284 0.099442 0.121057 -0.034338 -0.273338 -0.285614 0.480766 -0.615344 1.657325 0.343326 -0.144120 0.295512 -0.370882 -0.069858 -0.229091 0.024325 0.387955 0.406587 0.269290 0.687713 0.077688 -0.098135 0.489786 -0.246209 0.439048 -0.468148 -0.154164 -0.220210 -0.277485 0.341852 -0.166143 -0.254036 -0.419534 0.390539 -0.071550 0.621786 -0.104099 -0.202732 -0.051196 -0.662775 0.197512 0.080256 0.242267 -0.186279 -0.202756 0.099137 0.053461 -0.335117 0.039924 -0.066377 -0.104051 -0.204844 0.440212 0.533461 -0.359257 0.235327 0.188886 0.374935 0.173068 0.266686 0.151199 0.446958 0.150403 -0.368291 -0.854913 0.488181 0.447083 0.125012 0.076124 0.112804 -0.308660 -0.293762 -0.454254 0.035416 0.571512 -0.243211 0.023028 -0.359273 0.403737 -0.419482 0.210966 -0.095716 -0.042510 0.273967 -0.335686 0.070163 -0.089259 -0.522798 0.599343 0.948668 0.544947 -0.273800 0.441477 -0.142324 -0.324425 -0.350977 -0.313312 0.051238 -0.195180 -0.024316 0.065015 0.498997 0.045892 -0.007464 0.310324 -0.295683 0.008710 -0.428865 -0.258526 -0.177444 0.218209 0.054440 -0.595745 0.392307 0.358151 -0.179032 -0.401261 0.311903 -0.060756 -0.278850 -0.592280 -0.808868 0.115967 0.361467 0.319373 0.617662
Matthew -0.418314 0.197712 0.027565 0.107605 -0.187985 0.034656 0.121883 0.251884 0.445013 0.186721 -0.056782 -0.220067 0.397351 0.017143 -0.481323 -0.463253 0.028665 -0.448818 0.102693 0.001833 -0.267921 -0.015709 -0.600993 -0.231710 -0.098044 -0.269801 -0.202052 0.192035 0.005812 0.479336 0.081785 -0.203301 -0.324720 -0.534120 -0.395200 -0.205679 0.558253 -0.179416 0.527121 -0.232781 -0.623078 -0.242954 -0.155411 -0.071988 -0.146964 0.550445 0.038873 0.003596 0.365709 0.328674 -0.597960 -0.129833 -0.264858 -0.475603 0.103437 -0.991359 -0.157792 0.563212 0.339507 -0.058692 0.084490 -0.514217 -0.019861 0.145319 0.199155 0.349249 1.026930 0.557861 0.395461 0.076616 0.155142 -0.202374 0.188749 0.258078 -0.492636 -0.249639 0.463264 -0.438871 0.292192 -0.573735 0.070176 0.036668 0.294422 0.463349 -0.127611 -0.488781 0.360173 0.450184 -0.306256 -0.023739 0.209828 0.548210 0.121400 0.012883 -0.142712 -0.126061 0.403799 0.452347 0.028326 -0.012151 0.299582 0.360567 0.355871 0.126496 -0.259866 -0.274426 0.250043 0.119186 0.557301 0.241952 0.319014 0.497052 0.028262 0.101335 -0.099756 -0.532960 -0.465710 0.093664 -0.413472 0.160869 -0.146520 -0.681842 0.274373 -0.345340 -0.060175 0.119926 0.269164 0.341141 0.175434 -0.180316 0.102787 -0.019117 -0.273180 0.236658 0.060761 0.409395 -0.020702 -0.245913 0.125127 -0.428823 -0.175626 0.245192 -0.165550 -0.019423 -0.036231 -0.301017 0.183054 0.538451 0.267963 0.423659 0.565316 0.391638 0.057540 0.280821 -0.008658 -0.097798 0.109437 0.072173 -0.068713 -0.215372 0.376544 -0.244062 0.412192 -0.370433 0.183619 0.189127 0.194788 0.114389 -0.191759 0.288157 0.011566 -2.573389 0.001169 0.379894 -0.135188 0.293855 0.309687 -0.203827 0.104402 -0.303130 -0.051514 0.032841 1.330219 0.193197 0.637217 0.393787 -0.782288 0.188207 0.169165 0.354946 -0.269432 0.077782 0.349366 0.042849 0.610079 -0.323489 0.011940 0.192934 0.263789 -0.383008 -0.517626 0.130575 0.665825 -0.294668 -0.075477 0.475503 0.077112 0.045958 0.086021 -0.556821 0.258126 0.270620 0.389831 0.382403 -0.091603 0.400079 0.087590 -0.071175 -0.032667 -0.557541 -0.322698 -0.079883 0.414013 -0.336128 0.119395 0.549008 -0.283452 0.218224 0.422690 0.246359 -0.127711 0.619524 0.089152 -0.352259 -0.016723 0.206996 -0.150930 0.059830 0.050904 -0.007804 0.058021 -0.087386 -0.254316 0.257346 -0.429311 0.086198 -0.044490 -0.582783 -0.079416 0.157092 -0.363153 -0.741255 -0.084842 0.243541 -0.357045 -0.064259 -0.258047 0.124745 -0.183338 -0.777857 -0.515382 0.561181 -0.072877 -0.043524 0.021913 0.398290 0.099767 -0.250616 -0.055808 -0.301932 -0.156322 -0.239018 0.168181 -0.181233 0.477061 -0.319410 -0.413376 -0.232097 0.284596 0.015873 -0.564914 0.095420 0.376315 -0.735590 0.307635 -0.283909 0.249551 0.723995 0.550114 0.151947 -0.385805 -0.121418 -0.041653 -0.044796 0.543917 -0.610619 -0.014294 -0.493242 -0.331663 -0.136941
lion 0.628829 -0.007581 -0.645163 0.130947 0.139022 0.069416 0.438842 0.099744 0.699902 -0.254404 -0.191024 -0.383504 -0.037810 0.536706 -0.255572 0.361404 0.312380 0.430412 -0.104827 0.423091 -0.342649 0.347426 -0.255080 -0.124533 -0.002126 0.298618 -0.609687 0.600824 0.394367 0.559411 -0.506864 -0.014120 0.454392 0.350338 0.320059 -0.152121 0.190038 -0.157587 0.262061 0.485527 0.130443 0.519493 -0.047447 0.277564 0.072003 -0.383921 -0.049642 0.411237 0.192781 0.758370 -0.184421 -0.150996 -0.244032 -0.772858 -0.429872 -0.026839 0.456846 -0.245118 -0.315871 0.379205 -0.273552 -0.056247 0.544356 0.140115 -0.079263 -0.377263 -0.005526 0.052702 0.128479 0.729731 0.013439 0.632875 -0.250387 -0.069852 0.002509 -0.625706 -0.258683 -0.846952 -0.080930 -0.339323 0.425148 0.343063 0.334477 0.106358 -0.081308 0.582067 -0.136611 -0.179942 0.555231 0.085106 -0.491865 -0.272252 0.288792 -0.206684 0.130072 0.127694 0.326135 -0.421168 -0.267919 -0.200581 0.199124 0.378813 0.624411 0.271463 0.438837 -0.805317 -0.815087 0.149088 0.470800 0.031726 1.049439 0.624099 0.497454 0.171458 0.285513 0.316024 -0.162643 0.305566 0.178494 1.013489 -0.265058 0.169365 -0.134833 -0.028433 -0.432739 -0.223242 0.134479 0.216445 0.247501 0.350721 0.026728 -0.346342 -0.068496 0.792785 -0.176056 0.432233 0.918029 0.110858 0.639000 -0.768537 0.624041 -0.479329 0.239098 0.544083 -0.196584 0.221133 0.019314 0.153981 -0.264175 -0.088616 -0.320382 -0.318376 0.282570 -0.012609 -0.098714 0.382479 0.567492 -0.187105 -0.608055 -0.427794 0.040689 -0.265408 0.258277 -0.254299 -0.134419 0.088530 0.261158 0.291242 0.153574 -0.294741 0.193540 -1.428860 -0.284741 -0.605822 0.290280 0.195937 -0.172780 0.020168 -0.274149 0.109040 1.133116 -0.109903 0.950919 0.073171 -0.528756 0.738139 -0.043940 0.374419 -0.171302 -0.118886 0.063576 0.027110 -0.292860 0.071825 -0.049981 -0.483298 0.455275 -0.164475 -0.047929 0.275981 -0.487105 0.283172 -0.338532 0.063908 0.166898 0.574844 -0.248872 0.150436 0.815926 0.472704 -0.044944 -0.152994 0.419843 -0.301797 -0.123464 0.319736 0.804131 0.597419 0.033858 -0.430893 -0.476335 -0.200451 0.290717 0.291054 -0.230736 0.316955 -0.228435 0.037695 1.030265 -0.052773 -0.458092 0.187148 -0.579447 -0.384885 -0.676207 -0.069927 -0.525198 0.301306 0.317257 0.093962 -0.279315 -0.090784 -0.340573 -0.068185 -0.827336 0.023062 0.312550 -0.451034 -0.034479 -0.001159 0.267032 -0.474642 0.002231 -0.140365 -0.363584 0.317834 -0.213308 -0.525833 0.101370 0.234328 -0.333438 0.197714 -0.448529 0.479367 -0.447167 -0.307452 -0.470816 0.751718 0.407859 -0.559083 -0.724245 0.724622 -0.200686 -0.613507 -0.396205 0.143252 0.431333 -0.111609 0.117944 0.294764 0.296631 -0.279920 0.191649 0.149284 0.444532 -0.297442 0.476337 0.021057 0.052628 -0.224816 -0.088010 0.471650 -0.226199 0.340785 -0.753767 -0.584657 0.099954 0.000618 -0.213072 -0.174547
