Mercury 0.005314 0.124253 -0.110291 -0.052719 0.019963 0.113505 -0.350302 -0.164461 -0.078313 0.192665 -0.132376 -0.186894 -0.071390 0.009090 -0.250675 -0.233017 -0.049781 -0.144393 0.205108 -0.021033 0.058884 -0.202621 -0.076508 0.128779 -0.137652 0.080547 0.121128 -0.066497 -0.299131 0.279538 -0.049092 0.061064 -0.095370 -0.158139 -0.047159 0.233756 0.173050 0.059479 -0.173893 0.136350 -0.012808 -0.276288 0.066378 -0.121157 0.176840 -0.075895 -0.053376 0.009677 -0.082908 -0.043718 0.232471 0.099530 0.082795 0.221039 0.085826 -0.312957 -0.128704 -0.016353 0.106976 -0.345948 0.129092 -0.093101 -0.119678 0.034928 0.173960 0.027096 -0.265398 0.106263 -0.038801 0.146059 0.150676 -0.160373 -0.203481 0.188462 0.381997 0.429742 -0.045885 0.234355 0.053436 0.238272 -0.147842 0.368609 -0.104783 0.328218 -0.148047 -0.185739 0.099587 0.149085 0.057121 0.094459 -0.079624 0.279399 -0.136712 -0.094920 -0.017543 0.063622 -0.126106 0.151423 -0.010141 0.047434 0.117765 -0.152677 -0.088535 0.061966 -0.077471 -0.135251 0.091621 -0.106393 0.134475 0.026111 -0.103212 -0.033546 0.023555 -0.100425 0.276672 -0.015405 0.111668 0.111770 0.344785 -0.108361 0.055383 -0.029461 -0.295511 -0.044560 -0.057530 -0.036621 0.180670 0.003287 -0.116161 -0.014168 -0.165348 -0.014735 -0.142474 0.239634 -0.238929 -0.042602 -0.300704 0.029815 0.031036 -0.063870 -0.032535 0.024309 0.059060 0.021930 -0.184785 -0.141287 -0.152565 -0.086419 0.076049 -0.037402 -0.348624 0.009461 0.024419 0.072697 -0.007580 -0.022851 0.005890 0.055154 0.321941 0.197276 0.006114 -0.030001 -0.221443 0.264186 0.070158 -0.030600 -0.149737 -0.001321 -0.182024 0.345398 -0.370406 0.155192 0.108560 -0.101171 -0.170710 -0.035921 0.193288 0.128314 -0.091598 0.170116 0.137834 -0.026194 0.117620 0.023510 -0.239306 0.138802 -0.010814 0.107221 -0.211182 0.122851 0.113143 -0.006878 0.316275 -0.004747 0.009865 -0.002982 -0.074547 0.038840 0.042422 0.325893 0.080452 -0.239086 0.041806 -0.331374 -0.232015 0.044264 0.046560 -0.213317 -0.115890 -0.105174 0.205573 -0.080545 0.101584 0.090062 0.211236 -0.141757 -0.018710 -0.091148 -0.059506 0.048587 -0.164225 0.092901 -0.243401 -0.034570 -0.035638 0.179496 -0.075991 0.050706 0.023341 -0.060542 0.070988 -0.155661 0.077225 -0.065338 -0.482419 -0.063511 -0.136256 -0.226101 0.213316 -0.121858 -0.054527 0.081269 0.063383 0.136091 0.233183 -0.084430 0.056502 0.160177 0.086182 0.024840 0.140536 -0.416722 0.021290 0.068412 0.353716 0.109078 -0.102252 0.137679 0.010833 -0.010202 0.065519 -0.144924 -0.252596 0.050516 -0.007891 -0.117460 -0.023994 0.130749 0.246835 0.085695 -0.283154 0.138758 0.029833 -0.332780 -0.029669 0.098615 0.032014 -0.127755 0.120716 -0.107556 0.186653 -0.340583 0.192568 0.030895 0.155019 0.048952 0.137517 0.146965 -0.010415 -0.048509 -0.491153 0.228763 0.230640 -0.109271 0.081417 -0.213207 -0.175022 -0.138239 0.027310 -0.095374
Bundesliga 0.067594 0.082329 0.004413 -0.004721 -0.033819 -0.167483 -0.007942 0.043127 0.155927 -0.031635 -0.209023 0.024458 0.007949 0.041240 -0.080296 0.039526 0.073857 -0.140241 0.178682 0.028166 0.019422 0.055454 0.152624 -0.032732 0.107868 -0.143436 0.140440 -0.065139 0.064278 -0.059713 0.034422 0.121413 -0.016607 -0.134791 0.080851 0.030543 -0.018118 0.072031 -0.210164 -0.021583 0.160387 0.143702 0.023960 0.061223 0.085751 0.079866 -0.010206 0.047059 -0.223234 0.022324 0.178072 0.002426 0.020466 -0.015522 -0.064050 0.106069 -0.033717 -0.035965 0.072416 -0.138188 -0.003042 -0.120479 0.014649 -0.056883 -0.179028 -0.128502 0.142575 0.103743 0.070593 -0.035425 -0.072179 -0.156039 0.019811 -0.149029 0.102886 0.026323 0.080299 0.080280 -0.004628 0.053681 -0.031118 0.101087 -0.071759 0.244073 -0.100548 -0.009943 -0.156994 0.048244 0.027220 -0.181669 -0.029775 0.011732 -0.077140 0.134946 0.022327 0.073338 -0.025781 -0.137395 -0.329822 -0.015948 -0.137323 -0.091635 -0.067166 0.124930 -0.175113 -0.071183 -0.012713 0.124563 -0.041349 0.237925 -0.033507 -0.136143 -0.044840 0.030172 0.047667 0.014290 -0.067542 -0.072589 -0.186817 0.161964 0.058901 0.112550 -0.002342 0.109728 0.057201 -0.099588 0.188382 -0.059235 -0.006604 -0.079545 -0.090141 0.070553 0.022247 0.135311 0.202892 0.035969 0.012237 0.028578 0.016432 -0.021944 -0.135456 0.053148 -0.039376 0.103451 -0.004687 -0.127099 0.005671 -0.162318 0.140157 0.119302 0.061402 0.144265 0.042744 -0.111044 -0.311054 -0.060057 0.092288 0.339907 0.139381 -0.274416 -0.027865 0.253017 -0.011066 -0.004379 -0.051209 0.097524 0.085916 -0.010763 0.021212 0.101315 0.005917 0.025011 0.102688 0.204227 0.018577 -0.160757 0.056494 0.026709 0.004340 -0.058591 -0.042056 -0.040360 -0.019611 0.018301 -0.113166 0.009930 -0.085355 0.003331 -0.083890 -0.061657 -0.010141 0.039513 0.061766 -0.197381 -0.091099 0.051109 -0.076142 0.065333 0.124328 -0.013044 -0.058530 0.027696 0.082749 -0.039209 0.080934 0.169319 -0.275119 0.070505 0.026573 -0.032813 -0.052111 0.066204 0.080228 0.092797 -0.002438 -0.031525 0.145368 0.027021 0.147323 0.125430 -0.055332 0.025483 -0.058962 0.050325 -0.008995 -0.013639 0.064755 -0.017219 0.092056 -0.300693 0.030564 -0.014266 -0.039340 -0.124308 -0.085053 -0.291045 -0.068818 -0.103876 -0.115901 0.056350 0.060009 0.159081 0.100239 -0.074480 0.212591 0.016413 0.171405 0.123752 0.023840 0.046901 -0.152037 -0.120439 -0.051409 -0.103513 0.105286 -0.073012 -0.055921 0.107840 -0.011030 -0.015827 0.012755 0.088387 0.134748 -0.028318 0.189318 0.017021 -0.049114 -0.036825 0.057314 -0.059554 0.101711 0.007805 -0.009216 0.066226 0.007394 0.010078 -0.161264 -0.090611 0.114212 -0.096319 -0.205812 -0.082192 0.046265 -0.135115 0.096772 0.056401 -0.005888 0.014061 -0.131607 0.180908 0.072100 0.050880 -0.109928 -0.214416 0.059927 -0.019409 -0.084039 0.010867 0.053357 -0.006321
Porsche 0.360001 0.328353 -0.182456 -0.200709 -0.042185 0.230612 -0.108596 0.231264 -0.003933 0.157347 -0.209508 0.009823 0.132548 -0.004631 -0.009528 -0.076411 -0.148549 -0.091020 0.189319 -0.211076 -0.002521 0.117483 -0.078267 0.031525 0.161120 0.199026 -0.254714 0.255983 0.108260 0.182433 0.108918 0.027286 -0.169721 0.132170 0.285258 0.092766 -0.048618 0.071162 -0.098262 0.218164 0.002117 -0.146948 -0.205833 0.260484 0.127999 -0.125216 -0.312379 0.021236 -0.265672 -0.169044 -0.037344 0.343479 0.228387 -0.074940 -0.002606 0.005356 0.023957 0.146109 0.017549 -0.040507 0.045778 0.008577 0.059959 0.190364 0.098933 0.054439 0.040005 -0.063378 -0.014549 0.136869 -0.107815 -0.104851 -0.085461 0.143478 0.219452 0.156853 0.096263 0.066772 0.060175 0.154988 0.197157 -0.046565 -0.077224 0.346510 -0.185403 -0.202739 0.145897 0.017522 0.009887 -0.300502 -0.143339 0.190716 -0.127692 -0.147202 -0.056111 -0.029319 -0.089355 -0.253522 0.020211 -0.163749 -0.093265 -0.131369 0.115995 -0.209634 0.168671 -0.035198 -0.116366 -0.238891 0.051594 0.002991 0.141872 0.034437 0.028458 -0.135851 0.278940 0.084760 -0.050060 -0.087048 0.074571 -0.102773 -0.005964 0.067902 0.220703 0.002481 0.099576 -0.007911 0.333142 -0.022772 -0.079220 -0.124345 -0.131581 -0.175843 0.036036 0.280707 0.014332 0.031152 -0.110761 0.159561 0.016094 0.022903 -0.113949 0.163289 -0.143935 -0.206502 -0.057770 -0.076953 0.091085 0.032526 -0.025803 0.178170 -0.480669 0.351735 -0.124700 0.054686 -0.035185 -0.225583 0.481679 0.237353 -0.081423 0.160116 -0.206225 -0.029071 -0.104864 0.105655 0.088150 0.109987 -0.048086 -0.267702 0.295125 0.162588 -0.071408 0.414895 0.009556 -0.027259 -0.305552 0.344524 0.130243 0.189916 0.135193 0.008098 -0.013450 -0.078184 -0.280678 -0.018727 -0.350630 0.027014 -0.223027 0.027247 -0.076408 -0.141376 0.064200 0.092184 -0.031214 -0.008174 0.012970 -0.008582 0.061034 -0.084732 -0.161950 0.111855 -0.051268 0.027628 0.237408 0.281286 0.288382 -0.207444 -0.144727 -0.159284 -0.168673 -0.105639 0.263705 0.115683 0.124153 -0.043003 0.167332 -0.057509 0.035084 0.055828 0.152646 -0.192592 -0.190131 -0.244075 -0.249759 -0.115651 0.203672 0.279739 -0.334640 0.262765 -0.120664 0.128545 0.037065 0.169034 0.027777 -0.168974 -0.415121 0.106590 0.115786 -0.068735 -0.203356 0.051714 0.145760 0.006224 0.074048 0.331849 0.266732 0.082397 0.103560 0.383769 0.106524 -0.255475 0.134293 -0.216660 -0.039918 0.160464 -0.068106 -0.171720 -0.095751 0.166410 0.089407 0.388835 0.308740 -0.096199 -0.018676 -0.065740 0.053087 0.051430 0.059924 -0.025396 -0.083409 0.049738 0.219985 0.095820 -0.026630 -0.174443 -0.004828 -0.021778 0.167482 0.276672 -0.087329 -0.050312 0.109569 -0.325657 -0.048960 -0.144201 0.004076 0.004438 0.354009 0.269394 -0.288849 0.184923 -0.016293 -0.028281 0.227473 0.011130 -0.185086 0.041827 -0.074276 0.232720 0.084518 -0.067141
Moon 0.165494 0.118718 0.077426 -0.039840 0.086233 0.115880 -0.290598 -0.132519 -0.118743 0.039207 -0.254835 0.045641 0.104764 0.120434 -0.320668 -0.091745 -0.089011 0.037328 0.176519 0.117434 0.196598 -0.198397 0.046101 0.051795 -0.210851 -0.118854 0.151619 0.130728 -0.157380 0.283136 0.112334 0.148180 0.178122 -0.054735 -0.123502 0.200589 -0.085855 0.083019 -0.121548 0.054279 0.092554 -0.469362 -0.099942 0.115321 0.240118 -0.061924 0.107492 -0.002075 0.002432 0.067306 0.111769 0.269038 0.112141 0.262375 -0.166560 0.124855 -0.061132 0.047965 0.155843 -0.320482 0.201071 0.023099 0.212733 0.069366 -0.043214 -0.094220 -0.252045 -0.105299 -0.179343 0.002615 -0.058002 -0.221214 -0.145466 0.177949 0.343037 0.220374 -0.042421 0.080361 -0.106326 0.355794 -0.151931 0.491795 0.048574 0.457177 -0.302442 0.058365 -0.173961 0.200093 0.231219 0.058907 -0.052901 0.242003 -0.013813 0.088353 0.153905 -0.079370 -0.024257 -0.151236 0.042026 -0.039064 0.070989 -0.160315 -0.046897 0.248983 -0.185023 -0.099994 -0.128808 -0.017875 0.106132 0.121209 -0.051303 0.133874 0.191772 -0.032376 0.300038 -0.023985 -0.130767 -0.214668 -0.032784 0.036518 0.113310 -0.059914 -0.112994 0.343830 -0.038037 -0.180212 -0.165964 0.012226 -0.212472 -0.017919 -0.344560 -0.081253 -0.253290 0.120562 -0.322009 0.199933 -0.044824 0.240202 0.215825 -0.280502 -0.035076 -0.007622 0.322887 -0.207518 -0.157463 -0.125781 -0.122214 -0.037502 0.070018 0.010668 -0.202993 -0.027578 -0.082029 -0.011335 0.012258 -0.280615 -0.076202 0.217537 0.294465 0.215087 -0.110352 0.100790 -0.431701 0.272305 0.108809 -0.086498 0.013613 0.189737 -0.091327 0.229996 -0.049133 0.165349 0.015197 -0.201772 -0.012790 0.040162 0.234180 0.171747 0.007632 0.203487 0.056676 -0.136843 -0.019923 -0.411269 -0.176368 0.075161 0.006089 -0.172947 -0.244988 0.183469 -0.075798 0.206443 0.344534 0.241609 0.043377 0.161829 -0.235968 -0.432393 -0.131450 0.127820 -0.177838 -0.083702 -0.200279 -0.224643 0.301982 -0.008078 0.057380 -0.402131 -0.231238 -0.158878 0.203160 -0.156721 0.042032 0.117312 0.165549 0.161787 -0.006244 -0.127743 -0.121609 -0.218847 -0.183099 0.128251 -0.320926 -0.124974 0.042654 0.209147 0.184602 0.109413 -0.037295 -0.022271 0.169919 -0.042429 -0.034694 -0.022821 -0.436891 -0.067189 0.008221 -0.049126 0.137167 0.077737 0.173277 0.013207 0.095099 0.133473 0.458594 -0.094951 -0.234396 0.181904 0.284052 -0.116181 -0.009489 -0.303998 -0.123690 0.254205 0.115914 0.221664 -0.100935 0.349145 0.143175 0.134871 -0.044936 -0.129829 0.031946 0.139125 0.007856 -0.004406 -0.051159 -0.109250 0.283373 0.091877 0.012677 0.092584 -0.227468 -0.314380 -0.085963 0.259539 0.209648 0.004480 0.136894 -0.149378 0.121634 -0.276278 0.053200 0.164325 0.100505 0.212144 -0.180219 0.000714 0.064137 0.052283 -0.163920 -0.037816 -0.012118 0.048975 0.002720 0.172080 -0.329237 -0.028667 -0.011875 -0.008121
Capri 0.231474 -0.089769 -0.160087 -0.164574 0.129953 -0.066253 -0.198120 -0.196915 0.050902 0.204955 -0.393139 0.255577 0.157107 0.146109 -0.325582 0.050197 0.032033 0.044427 -0.029539 -0.099211 -0.019652 -0.518095 -0.031680 -0.189768 -0.042069 -0.344348 0.098536 0.152028 0.132983 -0.114440 -0.170146 -0.053483 -0.136038 -0.121917 0.192619 0.281284 0.018926 0.018680 -0.103438 -0.191813 0.022844 -0.199075 -0.262384 -0.006558 0.150749 0.013369 0.020742 0.171441 0.160234 -0.137093 0.222497 0.219213 0.118674 0.085184 0.035028 -0.157320 -0.187688 -0.208305 -0.099041 -0.184559 0.044885 0.029968 0.034311 0.022601 -0.057557 0.186466 -0.285425 0.049640 -0.182508 0.042260 -0.087325 -0.165682 -0.024243 0.104343 -0.060861 0.278547 0.031174 0.247273 -0.019468 0.066915 -0.039263 0.110902 -0.003884 0.257961 0.026169 -0.315824 0.154402 0.086352 -0.141514 -0.181465 -0.009265 0.283645 -0.143570 0.104082 -0.120792 0.017342 -0.214795 -0.182858 -0.089447 -0.042814 -0.136730 -0.074714 -0.165862 -0.038633 0.015766 -0.135623 -0.045809 0.033494 0.218220 0.051959 -0.127848 -0.033967 0.177275 -0.004154 0.221502 0.035523 0.126403 0.168061 -0.046347 -0.087380 -0.095917 -0.092814 0.028512 0.144052 0.283741 -0.240322 0.014889 -0.015523 -0.136013 -0.201170 -0.194258 0.082150 -0.174394 0.142804 -0.171874 0.010574 0.119886 0.080565 0.028349 0.100544 0.070739 -0.034812 0.005197 0.135964 0.002561 -0.205785 0.057435 0.079523 0.037925 0.024880 -0.300443 0.268989 -0.235352 0.062116 -0.144805 -0.183731 0.257736 -0.199445 -0.047942 0.212779 -0.232386 0.108150 -0.133514 0.164866 0.141148 0.147666 -0.086204 -0.089706 0.178315 0.298656 0.261219 0.095683 0.044802 -0.268222 0.071229 0.072097 0.450257 -0.048906 0.028254 0.007883 -0.057797 0.056369 0.005625 -0.122737 -0.059803 -0.028854 -0.057422 0.087823 -0.096614 -0.004129 -0.172501 0.022690 -0.068250 0.074394 -0.123623 -0.153321 -0.053282 0.008894 -0.074473 0.121011 -0.048457 -0.125682 -0.076383 0.106632 -0.172836 -0.034862 -0.177470 -0.111320 -0.088287 -0.004324 0.091300 -0.229634 0.076698 0.042344 0.116742 0.083483 0.114671 0.060138 -0.100596 -0.036829 -0.286148 -0.046291 0.015162 0.069532 0.108257 0.235367 0.011689 0.152951 -0.101905 -0.033489 0.213397 0.042115 -0.021119 -0.240637 -0.199227 0.126921 -0.064658 -0.063721 -0.047427 -0.230876 0.167576 0.130033 0.286516 0.154096 0.222330 -0.231057 -0.042767 -0.016791 0.234934 -0.087233 0.027762 -0.074249 -0.218337 -0.065403 0.149442 0.030229 -0.083225 -0.106495 -0.066777 0.344662 0.026440 -0.214856 0.282840 0.259855 0.025991 0.063975 0.012069 -0.024190 -0.002228 0.159541 0.298174 0.008142 0.006324 0.184152 -0.133204 0.239637 0.012286 0.008985 0.037966 -0.129499 -0.036346 -0.427789 0.151965 0.005328 -0.064715 -0.103438 0.014934 0.170837 -0.118391 0.036909 0.133095 -0.009187 0.346139 0.040183 -0.243480 -0.077814 -0.172811 0.181979 -0.157071 -0.266034
paper 0.081995 0.068538 0.163176 0.330322 0.482769 -0.718689 -0.144762 -0.464319 -0.202310 0.195253 -0.377441 0.297101 -0.404696 0.088869 -0.262487 0.341227 -0.355577 -0.364085 -0.259516 -0.549744 -0.847082 0.008628 0.191675 0.229172 -0.507072 0.029138 -0.528001 -0.456320 -0.568223 -0.023930 0.605054 0.161525 -0.563620 -0.056018 -0.024130 -0.475728 0.118219 0.268217 0.222064 0.116919 0.442588 0.342174 0.322986 0.191751 -0.434289 -0.316591 0.121103 -0.312598 -0.145140 -0.144924 -0.237934 0.083762 0.005975 -0.481784 0.131285 0.328060 -0.458624 0.103321 -0.318927 0.782571 -0.162933 0.431867 -0.061082 0.082025 0.154048 0.235370 -0.179284 0.041083 0.035152 -0.039454 0.300357 -0.391554 -0.454389 0.231997 0.281510 0.268622 -0.064837 -0.027299 0.262511 0.739695 -0.150391 0.179681 -0.707601 -0.096715 -0.342158 0.036118 0.485878 0.204890 0.209011 0.339790 -0.338406 0.133488 0.093890 -0.081492 -0.132894 0.415625 -0.316600 -0.137269 -0.362143 0.362427 0.233158 -0.305096 0.007550 -0.285783 -0.557380 -0.124404 -0.623424 -0.362689 -0.503774 -0.056964 0.628976 0.437362 0.569294 -1.010119 0.297961 0.238913 0.234177 0.397675 0.047172 -0.084992 -0.232553 0.229007 -0.509862 -0.584536 0.052704 -0.479135 -0.057104 -0.546206 -0.452190 0.255519 -0.148100 -0.215664 -0.266423 -0.266648 0.028382 0.360576 -0.402796 0.345591 -0.363381 0.176897 0.011377 0.129435 -0.101277 -0.475671 -0.099452 -0.085566 0.000418 0.295532 -0.167298 -0.339886 -0.245499 -0.022315 -0.004214 -0.138210 -0.054870 -0.178361 0.188350 0.419420 0.573244 -0.587466 0.046694 -0.085806 -0.255305 -0.196954 -0.177639 0.114834 0.216223 0.047555 -0.358709 0.100649 0.150966 0.456895 -0.202605 0.206662 0.054741 0.078964 -0.109573 0.049032 -0.085218 -0.373386 -0.487252 -0.290044 -0.524534 0.550483 0.083527 0.811376 -0.059180 0.575608 -0.435156 -0.372283 0.167632 0.085327 -0.265051 0.818203 -0.048363 -0.118981 -0.201924 -0.395194 -0.431475 0.395040 0.022918 -0.858019 -0.511437 0.496382 -0.055809 0.052886 0.214023 -0.019089 0.077924 0.068809 -0.363968 0.433989 -0.099562 -0.271916 0.146767 0.471215 0.116093 -0.009648 0.594921 -0.319223 -0.503056 0.598227 -0.068539 0.238954 0.012264 0.207929 0.106177 0.286824 -0.030088 -0.513311 0.130673 -0.061653 0.079980 0.423776 -0.826777 -0.205430 0.076274 0.050007 -0.087018 -0.580600 -0.544698 0.147587 -0.239017 -0.416223 0.145828 -0.233043 -0.239831 0.341262 0.254058 -0.000234 -0.437291 0.365160 -0.779040 0.192543 0.213763 -0.181716 0.987180 0.598493 -0.158944 0.591021 0.245373 0.426364 -0.616062 -0.429282 0.093707 0.143500 -0.125245 0.026987 0.012300 -0.520547 -0.344661 -0.252332 -0.214520 0.000268 0.320980 0.630439 0.443968 0.317903 -0.253817 0.004452 0.241738 -0.701525 0.160823 0.257327 0.269782 0.207270 -0.053298 0.138828 0.020516 0.368370 -0.507037 -0.010459 0.156157 0.311741 -0.220265 0.150986 -0.066479 -0.102610 -0.152317 0.078373
chair -0.113250 0.253552 0.016615 0.195543 0.127737 0.252496 -0.328878 0.095881 -0.155371 0.072497 -0.329601 -0.054858 -0.122529 0.033174 -0.018361 0.181760 0.123676 -0.212322 0.138106 0.139678 -0.130951 -0.170170 0.015277 -0.274546 0.242855 0.140293 0.071985 -0.043980 -0.172195 0.129625 0.178291 -0.110257 0.083059 -0.108616 0.024763 0.068257 0.089334 0.085860 0.004318 0.134234 0.025733 -0.230289 0.046404 -0.043926 -0.000447 -0.048352 0.083075 0.026275 -0.271178 -0.312324 0.065254 0.024445 0.410742 -0.236594 0.243049 -0.168300 -0.385400 0.095726 0.021218 0.329634 -0.153667 0.069091 -0.009363 0.281373 -0.060050 0.061847 -0.285184 -0.018187 -0.061052 0.136946 0.167180 -0.165986 0.075293 -0.057948 0.654690 -0.120487 0.009980 -0.061543 -0.172291 0.353909 -0.176883 0.321373 0.000770 -0.026429 -0.026879 -0.074434 0.161126 -0.180520 -0.087343 -0.116986 -0.247254 0.335622 -0.181119 0.055384 0.055838 0.095828 -0.096993 -0.383666 -0.205701 0.156085 -0.138799 -0.325574 -0.104812 0.218823 -0.184615 0.037067 0.014633 -0.176288 0.091861 0.109608 0.103110 0.226948 0.246222 -0.338187 0.324514 0.152340 0.168576 -0.060825 0.138806 0.339529 -0.146574 0.222145 0.152667 0.140980 0.047472 -0.079146 0.066069 0.076600 -0.334177 -0.041503 -0.239575 0.159207 -0.193050 -0.055447 -0.156039 -0.221686 -0.254792 0.032556 0.238462 -0.326894 -0.211892 -0.236484 -0.139286 -0.114127 -0.112976 -0.115763 0.165664 -0.257398 0.189840 -0.130652 -0.104440 -0.050032 -0.222137 0.081245 -0.024409 0.060791 0.126444 0.212848 0.555230 0.146987 -0.204076 -0.039086 -0.020055 0.039698 -0.162745 0.165954 -0.181157 -0.146622 0.140210 0.071794 0.211806 0.372574 0.095842 -0.071704 0.006879 0.141102 0.324851 0.370528 -0.113676 -0.264044 0.159574 0.036070 -0.076434 -0.218708 0.108860 0.246755 -0.212989 0.095972 -0.125203 0.255558 0.186193 0.068861 -0.421797 0.269993 0.038628 -0.064232 -0.085162 -0.198500 -0.163819 0.267714 -0.174926 0.062028 -0.082977 0.072699 0.095269 0.189333 0.046689 0.153070 -0.185521 0.073137 0.000302 0.164806 0.279972 -0.031265 -0.151379 0.088923 0.363937 -0.039405 -0.325391 -0.658030 -0.174247 0.394554 -0.122354 -0.019753 -0.180728 0.124839 -0.048803 0.146457 -0.241915 -0.067179 -0.248520 -0.368507 -0.071225 0.013350 -0.545123 0.511345 0.014098 -0.108554 0.201663 0.009334 0.180221 0.160908 0.143074 -0.038545 0.439445 -0.439610 -0.062787 -0.082689 -0.060667 -0.163666 0.035286 0.000743 -0.243668 0.135433 -0.066920 0.043853 0.327151 0.099627 0.252790 0.289578 0.213304 0.016568 -0.123218 0.188856 0.324251 -0.183865 0.124904 -0.353037 0.251062 0.395021 0.131748 0.110419 -0.014726 -0.189080 -0.081528 0.132477 -0.204251 -0.045218 0.319122 -0.096562 0.189399 -0.005347 0.076744 0.265518 -0.099761 -0.130483 -0.170624 0.027297 0.152456 0.075321 0.165036 -0.042165 0.055631 -0.064835 0.224618 0.041641 0.287599 0.000061 0.236205 0.033631
Bolivia 0.402835 0.360343 -0.026470 0.126873 0.208104 0.214220 -0.134095 0.062927 -0.361393 0.161881 -0.173398 -0.132871 0.198442 0.274344 -0.226141 0.048144 -0.042810 -0.108366 0.074426 -0.122016 0.101389 0.016036 -0.153021 -0.201405 0.028317 0.053378 0.199020 0.009449 0.131451 -0.043972 -0.137889 -0.024911 -0.361448 -0.421824 0.078380 0.120703 0.128319 0.368370 -0.237904 0.287365 -0.092112 -0.306385 -0.014018 -0.237163 -0.004975 0.168744 -0.066365 0.193945 0.141625 -0.331404 0.112732 -0.004286 -0.021404 0.061128 -0.133015 0.186879 0.168559 0.020570 -0.101663 -0.101986 0.044879 -0.281721 -0.148418 0.362199 -0.028055 -0.327612 -0.270781 -0.163484 0.019377 0.314331 0.113382 -0.137650 0.058734 -0.031012 0.068115 0.146238 0.057392 0.115849 -0.029294 -0.240153 -0.093660 0.054799 -0.007113 0.412281 -0.158415 0.023442 0.335936 0.094653 -0.075884 0.041002 0.259655 0.134258 -0.013861 -0.151920 0.221353 0.121047 -0.154763 0.045594 -0.360052 -0.159964 0.202302 -0.311561 -0.017125 -0.002695 -0.096842 -0.227910 -0.019664 0.094783 -0.030496 0.166031 -0.000469 0.065971 -0.020630 -0.113049 0.125370 0.345671 0.136398 -0.216308 -0.003163 0.226381 0.016563 -0.054589 -0.068920 -0.082201 -0.084135 -0.203459 0.151050 -0.157800 -0.090733 -0.206099 -0.075070 0.078154 0.050293 0.187081 -0.077026 -0.147384 0.149482 0.155027 0.105696 -0.229244 0.004774 0.016814 0.043933 -0.011615 -0.136285 -0.047642 -0.076538 0.159881 0.185689 0.172782 -0.321314 0.119545 -0.097781 0.209609 -0.092233 0.105976 0.071940 -0.091505 0.083491 0.156756 -0.104491 0.140709 -0.075672 -0.186922 0.027283 0.194945 0.049901 -0.081566 0.077150 0.087943 0.220136 0.505442 -0.111813 0.196491 0.105393 0.126297 0.361963 0.186530 0.008265 -0.092235 0.094965 0.044895 0.207779 -0.068295 -0.428729 -0.018924 0.200908 0.075104 -0.199745 0.130677 -0.141946 0.038308 0.148045 0.082921 0.138632 0.241568 -0.144757 0.021196 -0.095928 -0.101540 -0.058184 0.066191 -0.041180 -0.131079 0.133450 0.125578 0.020950 -0.072299 -0.017317 -0.167370 -0.087795 -0.027383 0.176410 -0.058493 0.002882 0.255820 -0.062441 -0.163917 -0.230793 0.070643 -0.127867 0.024292 -0.235170 0.169723 -0.113175 0.246088 -0.042727 -0.074207 0.194606 0.096340 0.097064 0.025479 0.062719 0.129915 -0.120907 0.078405 0.163487 -0.164965 -0.247715 0.232664 -0.056692 -0.110876 -0.166704 -0.007002 0.237558 0.070112 -0.061284 -0.111206 0.135253 -0.135237 0.356931 0.186875 0.180745 -0.172216 -0.019189 -0.077462 0.172998 0.209335 0.103112 0.235280 -0.064435 -0.236255 0.125678 -0.110407 0.056866 -0.044356 0.197540 -0.257603 0.039879 0.045124 0.413043 0.022587 0.095917 -0.088477 0.123587 0.248695 0.170099 -0.000976 -0.000606 0.003989 0.256657 -0.225630 -0.044862 0.065357 -0.065005 -0.031662 -0.048748 -0.041495 0.055871 0.162725 -0.111311 0.252953 -0.147736 -0.221309 -0.141799 -0.047858 -0.298359 -0.064459 0.052612 -0.103882
astrology 0.280655 -0.089521 -0.100000 -0.140268 -0.217426 0.075973 -0.231687 -0.047598 -0.180107 -0.007441 -0.007508 0.241990 -0.100615 -0.059804 0.000834 0.250623 -0.261081 0.035191 -0.200177 -0.084138 -0.117223 -0.120718 0.113690 0.001867 0.265735 -0.041512 -0.158713 0.136708 -0.385255 0.121303 0.475634 -0.030722 0.194557 -0.147626 -0.081097 0.097986 0.088055 0.409814 -0.261946 0.166926 0.089799 -0.340684 0.147484 -0.301778 -0.014505 0.133779 -0.090961 0.193681 0.094106 -0.310839 0.051393 0.196754 0.040744 0.058068 -0.016599 -0.178364 0.075369 -0.097726 0.190718 0.256101 -0.128642 -0.094906 0.134707 0.015602 0.004992 0.259092 -0.125372 0.084481 -0.250068 -0.195356 -0.154629 -0.172489 -0.146731 -0.285874 -0.021682 0.336145 -0.151609 -0.037044 -0.195279 0.210435 -0.164695 0.234490 -0.002958 0.185886 -0.341715 0.240676 -0.151672 -0.001223 -0.069569 -0.124726 -0.011806 0.285461 0.088010 0.082299 -0.188661 -0.096734 0.212791 0.074941 0.074121 0.085189 -0.051187 -0.128686 0.300944 0.104959 -0.045452 -0.194253 0.011815 -0.151900 0.110149 -0.092646 0.164525 0.053084 0.269240 -0.271081 0.153185 0.274767 0.203810 -0.232381 -0.270526 -0.184915 0.131702 -0.096934 -0.360154 0.078004 0.072663 -0.245580 0.102680 0.001339 -0.284361 -0.046016 -0.240430 -0.170208 -0.037757 -0.126004 0.130601 0.033356 -0.093004 0.059530 0.244782 0.276927 -0.401836 -0.178495 0.165965 -0.086669 -0.222403 -0.232486 -0.059640 -0.220954 0.025595 0.024161 -0.265575 0.231094 -0.193303 -0.117697 0.223122 -0.124714 0.006645 -0.299231 0.270558 0.317528 -0.457894 0.172991 -0.035503 0.144290 -0.166675 0.213992 -0.392202 0.037265 0.112356 0.125143 0.083155 0.351035 -0.136334 -0.242965 -0.101481 0.117008 -0.113963 -0.342756 -0.022365 0.346866 -0.245631 0.032622 -0.033928 0.121095 -0.199610 0.190357 -0.029414 -0.164950 0.014122 -0.082474 -0.363817 0.069374 0.132087 0.073765 0.181018 0.342571 -0.161090 -0.115115 -0.239602 0.033686 0.031976 -0.274527 0.015142 -0.298608 0.289287 -0.058746 0.084919 -0.061907 -0.067107 -0.341581 0.181448 -0.293727 -0.167143 -0.264660 -0.120242 0.017109 -0.123459 -0.116705 -0.174405 0.043953 -0.152120 0.128260 -0.053542 -0.219722 -0.316998 -0.020702 0.016760 0.059578 -0.150758 0.263170 0.131467 0.046058 0.375228 -0.035933 -0.331267 -0.263100 -0.261063 -0.347018 -0.001388 0.034337 0.505531 -0.020585 0.192540 -0.015814 0.355656 0.099247 -0.213928 -0.178993 0.411772 -0.197402 0.211078 0.001369 -0.011077 0.289767 0.187837 0.010171 0.238134 0.154831 -0.089236 0.425290 0.018949 -0.229479 -0.017732 -0.058430 -0.248966 0.063823 0.129355 0.366900 0.019136 0.147263 0.010829 -0.134849 0.070879 -0.156505 -0.010270 0.048451 0.429514 0.116844 0.244312 -0.249235 0.143169 0.126621 -0.070768 0.234633 0.074012 0.055342 -0.076157 0.106873 -0.087609 -0.253150 -0.122951 0.313389 0.122044 0.179552 -0.277598 -0.202512 -0.131317 0.048064 -0.019323 -0.146503
March 0.125524 0.256053 -0.160984 0.066878 0.135285 0.106259 -0.165216 -0.111570 -0.125272 0.108031 -0.512138 0.152387 -0.040373 0.138416 -0.084071 -0.183758 0.007468 0.038755 0.223246 0.116038 0.164079 -0.193177 0.240688 -0.110079 0.033157 -0.023906 0.069230 -0.095181 -0.297051 0.238448 0.107398 0.410232 -0.177280 -0.050570 0.130770 0.306600 0.047699 -0.051600 -0.496897 -0.058223 0.253116 -0.079590 -0.099711 -0.169947 -0.051656 0.137010 -0.293140 0.065048 0.214581 -0.108066 0.143240 0.101370 0.361056 -0.060004 0.084888 -0.045281 -0.313411 0.303758 0.005373 0.271240 0.092294 -0.220939 0.019551 -0.042125 -0.089642 -0.274851 0.048304 0.118098 0.045063 0.076531 0.106871 -0.291166 0.228749 0.005716 0.395747 0.333868 0.049515 0.172006 0.231504 -0.208950 -0.294345 0.153880 0.275676 0.254130 -0.010086 -0.151257 0.167636 -0.077003 -0.006827 0.073322 0.066502 0.163260 -0.007943 -0.039330 0.093490 0.417625 -0.097623 -0.274181 -0.052469 -0.087241 0.008973 -0.171179 -0.088695 0.030070 -0.162023 -0.250716 -0.226852 0.107339 -0.067713 0.158044 -0.065108 -0.148417 0.222129 -0.325151 0.277673 -0.014281 0.259934 0.125926 0.112178 0.203089 -0.214594 -0.193561 0.054735 0.098230 -0.052991 0.124283 -0.097515 -0.153449 -0.245849 -0.013992 -0.188302 0.294313 0.036496 -0.258952 -0.105944 0.223208 -0.198594 0.005726 -0.266815 -0.432746 0.221600 0.201110 0.008882 0.027521 -0.103978 -0.240217 0.054779 0.228364 0.005687 -0.182768 -0.130831 -0.034515 -0.138223 0.010734 -0.121171 -0.050268 0.040987 -0.303881 -0.042509 -0.155594 0.056074 0.088516 -0.303914 0.133628 0.010731 0.137899 -0.046506 0.140022 0.128138 0.180976 0.066279 0.023903 0.220725 0.114891 -0.130765 0.186492 0.371315 -0.087353 0.104157 -0.045326 0.140944 -0.102309 0.155461 -0.036984 -0.214190 0.248189 0.204637 -0.173260 -0.166852 0.218530 -0.158421 0.043117 0.141740 -0.062978 0.020009 -0.142878 0.071538 0.026442 0.037771 0.319688 0.071303 -0.495546 -0.070566 0.095533 -0.101194 0.143817 0.207156 0.144650 -0.044751 -0.072731 -0.057837 -0.018236 -0.044907 0.144347 -0.058975 -0.378424 0.304509 -0.127679 0.248394 0.014217 -0.480213 0.233668 0.172205 0.027491 -0.157470 0.221009 -0.266500 0.034853 0.098611 -0.090078 0.121435 -0.162672 -0.042961 -0.289711 -0.215476 -0.069971 0.075939 0.035126 -0.082754 0.203550 -0.073335 0.421080 0.097743 -0.233665 0.393787 -0.195644 0.038172 0.069772 -0.122301 -0.065107 0.139793 0.058195 -0.072333 -0.324854 0.253551 0.036006 -0.027963 0.230947 0.148367 0.339645 -0.189665 -0.019722 -0.015660 0.072349 0.151619 -0.106261 0.251157 0.049066 0.015366 -0.110168 -0.048118 0.036091 0.050757 0.130184 -0.017985 0.247662 0.209977 0.275489 -0.086973 0.069604 0.121419 -0.339242 -0.105401 0.282814 -0.407394 0.058821 0.281498 -0.046003 0.214000 0.278840 0.136483 -0.153571 -0.204796 -0.517576 0.343604 0.125929 0.021777 -0.306745 -0.000808 -0.158394
Nestlé 0.009681 0.025197 0.031961 0.052698 0.039846 0.087555 0.034232 -0.024000 0.064618 -0.095837 0.143155 -0.017803 0.000299 -0.011529 0.017402 0.008360 0.013429 -0.079138 0.056471 -0.037670 0.082762 -0.112583 0.031171 -0.052005 0.018754 -0.069283 -0.007484 0.023141 0.004402 0.036695 -0.111317 -0.061411 -0.156611 0.091458 0.039503 0.011449 0.021620 0.073960 0.060787 -0.028811 -0.056293 -0.041021 0.020428 -0.050472 -0.114438 -0.002432 -0.019547 0.000985 0.077143 0.002099 -0.090673 -0.092377 -0.023765 0.019766 0.015376 0.053071 0.036935 -0.076527 -0.038157 0.020352 -0.001268 0.023543 -0.053570 -0.057096 0.088904 0.092795 0.000255 -0.044039 0.066914 -0.077065 -0.125476 0.031800 0.058512 -0.010765 -0.069452 -0.032956 0.018779 0.011434 -0.058099 -0.082343 0.082661 0.009146 0.065183 -0.018657 -0.029607 -0.020161 -0.070625 0.029455 -0.100200 0.087364 -0.058425 0.078500 0.038337 -0.052462 -0.013700 0.025568 -0.014264 -0.023053 0.022486 0.091064 -0.084481 0.040500 -0.018051 -0.005610 0.006541 -0.052634 -0.029816 0.053289 0.105834 0.068289 -0.089693 0.065310 -0.118434 -0.041277 -0.066466 0.019374 -0.022412 0.021290 -0.011569 0.032395 -0.012193 0.040632 0.093131 -0.056043 0.109977 0.036216 0.063897 -0.033976 0.074587 -0.034143 0.056200 0.132918 0.074283 0.074423 -0.004142 -0.093165 0.110588 -0.015631 -0.011664 0.009529 0.096325 0.123857 0.022453 -0.034795 -0.027908 -0.069855 -0.054366 -0.020625 0.011016 -0.090179 -0.017654 0.107922 0.095271 -0.009260 -0.057978 0.045316 0.071899 0.028113 -0.012914 0.035681 -0.030170 0.019301 0.062977 -0.046301 0.078733 -0.000320 0.052129 -0.136832 -0.017170 -0.106951 -0.031620 0.037980 0.021554 0.007601 0.097254 -0.023194 -0.072899 0.070986 0.082688 -0.038814 0.059788 0.076708 -0.110199 0.009674 -0.026544 0.010682 -0.034264 -0.025739 -0.032562 -0.086278 0.038119 0.026528 0.043599 -0.025842 0.049311 0.018894 -0.024865 0.014536 0.104354 0.018596 0.042583 0.118373 -0.068807 0.045553 0.040069 -0.037711 0.049476 -0.017335 0.117407 -0.036875 -0.073702 0.016709 0.009816 -0.085491 0.001350 0.006799 0.036953 0.005234 -0.098417 0.052496 -0.041133 0.084425 0.013240 -0.034276 -0.000420 0.064213 -0.067663 0.025074 0.034672 0.023769 -0.047788 0.010313 0.020531 0.044920 0.044130 -0.000915 -0.030253 0.158379 -0.011128 -0.019490 0.068611 0.089414 -0.038243 -0.020631 0.052882 -0.009696 0.042785 0.011887 0.045611 0.023802 -0.073122 0.164764 -0.019338 0.020911 -0.050588 -0.011664 -0.112149 0.019577 0.045330 -0.042437 -0.033125 0.045950 -0.012456 -0.015661 0.002201 0.068525 0.063083 0.024805 0.143041 -0.046961 0.028940 0.041606 -0.064300 -0.056295 0.089869 -0.077529 0.092247 -0.087391 0.052009 0.049047 0.002400 -0.131255 0.006579 -0.032276 -0.022970 0.003982 0.088293 0.079549 -0.020089 -0.107246 -0.105189 0.092321 0.036663 0.035730 -0.022308 0.015049 -0.031642 -0.032182 -0.011150 -0.058484
cougar 0.116208 -0.114351 0.062258 0.051878 0.198197 -0.294136 -0.443838 0.289127 -0.048820 0.239679 -0.145950 -0.031315 0.178265 -0.070180 0.223468 -0.213221 -0.193074 -0.112397 0.037046 0.004062 0.065344 -0.004869 0.088707 -0.580260 -0.232166 -0.388848 0.371975 0.067842 0.106966 0.022342 -0.046309 -0.032717 -0.245766 -0.361003 -0.086368 0.028816 -0.109938 -0.157845 -0.331383 0.173401 0.167628 -0.066048 0.022595 -0.027002 -0.070370 -0.077754 -0.158372 0.064328 -0.035403 -0.119752 -0.174597 0.041983 0.172046 -0.044184 -0.199300 -0.205609 -0.040582 -0.069090 0.212577 -0.047178 0.285630 -0.027035 0.068307 0.534755 0.057388 -0.072768 0.014883 -0.111106 -0.460347 0.363267 -0.238049 -0.266920 -0.060489 -0.308843 0.353755 0.006627 -0.099588 0.157832 -0.272728 0.243283 0.053023 0.023155 0.118139 0.138287 -0.167492 0.099237 0.186691 0.031139 -0.579898 -0.126463 0.133459 0.202354 -0.136912 0.049143 -0.031578 0.329429 -0.261289 -0.234686 -0.194266 0.029112 -0.116499 0.156670 -0.214615 -0.017888 0.146403 -0.094392 0.005221 -0.175935 -0.048136 -0.170023 -0.061862 0.228804 -0.061872 0.092232 -0.276148 0.020015 0.071340 -0.037024 0.150212 -0.058535 -0.141519 -0.188053 0.464836 0.360467 -0.033061 -0.160728 0.081530 -0.215502 0.065136 -0.326894 0.041693 0.014660 -0.162171 0.276151 0.005154 0.199859 -0.114430 0.279128 0.281884 -0.245063 0.078134 -0.041437 0.132594 0.013344 -0.041082 -0.485003 0.113898 -0.057476 -0.170336 0.123319 -0.148962 -0.168794 0.010941 0.094751 0.031995 0.081397 0.117221 -0.077128 0.296647 -0.048171 -0.036235 -0.272345 0.028191 -0.070935 0.066956 -0.010253 -0.083077 -0.038778 0.185444 0.047762 -0.329861 0.155201 -0.089239 -0.127286 0.004250 0.184085 0.106974 -0.036899 0.314333 0.158585 0.045710 0.249751 -0.162624 -0.040279 -0.350100 0.113166 -0.042501 0.034285 -0.016525 -0.095882 -0.244412 -0.028350 0.084711 0.097799 -0.004884 0.096947 0.290498 -0.087927 0.224192 0.114110 0.047928 -0.006542 -0.075072 0.071019 0.155825 -0.320709 -0.220665 -0.194703 -0.221084 0.171304 0.332500 -0.077767 0.177382 0.251958 0.367782 0.183815 0.013506 0.137634 0.281414 -0.215313 -0.170531 0.066803 0.278976 -0.056205 0.009925 0.237326 -0.128471 -0.213606 -0.022219 0.145465 0.067671 -0.078205 0.126336 0.054495 -0.317533 -0.112596 -0.128552 0.095479 -0.214279 0.002852 0.039007 0.016648 0.075363 -0.065435 0.223426 -0.048534 -0.149819 0.088072 0.221915 -0.135171 -0.260885 -0.285438 0.187330 0.345244 0.420931 -0.377721 0.059797 0.188359 -0.049169 0.216720 0.124096 -0.055586 -0.019139 0.191363 0.152421 -0.256892 0.084403 0.059169 -0.302901 0.016224 -0.109124 -0.064486 0.143716 0.166844 0.086052 -0.115850 0.234275 -0.068148 -0.104088 0.032484 -0.025239 0.284337 -0.062313 0.090938 0.105397 -0.233240 -0.227847 0.154746 -0.134793 -0.124416 -0.192117 0.069622 -0.094279 0.088275 0.228344 -0.011771 0.195260 0.336228 -0.010239 0.056155
window 0.231248 0.341738 0.243215 -0.080194 -0.049219 -0.287660 -0.126789 -0.189774 -0.109862 0.172664 0.006653 -0.038291 0.122892 -0.039715 -0.015928 0.021738 0.158984 -0.053385 0.241060 -0.279506 -0.109057 0.130961 -0.022152 0.004808 -0.072093 0.014581 -0.149740 -0.017132 0.096996 0.061208 -0.093571 -0.061685 -0.158628 0.025281 -0.120475 -0.032110 -0.201470 0.154468 0.088979 -0.235432 0.175322 -0.166795 -0.029764 0.053923 0.277122 0.049688 -0.083843 0.051658 -0.122611 -0.124972 0.544981 0.024382 -0.029093 0.056903 -0.190756 -0.186047 -0.096617 -0.076521 0.009234 0.006563 -0.040042 -0.118785 0.078198 0.143257 0.014697 0.120393 0.089212 0.082498 0.230755 0.183252 -0.088200 0.043756 -0.196793 -0.121346 0.296431 -0.167487 -0.146167 0.159644 -0.058255 0.463583 0.176667 0.259637 0.112121 0.404517 -0.113918 -0.181932 0.064979 0.243329 -0.074128 0.158723 0.117679 0.165467 -0.376296 0.282768 -0.097202 0.042578 -0.001543 -0.396954 -0.000292 0.013301 0.037966 -0.276911 0.242107 0.309376 0.132025 0.222098 0.203269 -0.223411 -0.079206 0.176913 0.208607 0.093702 0.674092 0.151374 0.587920 -0.030874 -0.082133 0.053983 -0.112423 0.378380 0.120184 0.095002 -0.205215 -0.210641 -0.016851 -0.264475 0.242150 -0.197700 -0.154867 -0.096750 -0.425959 -0.229134 -0.032315 0.278306 -0.099174 0.113646 -0.125937 0.045786 0.062764 -0.415192 0.119445 0.198908 0.004661 -0.189867 -0.196271 0.131218 0.076082 -0.067073 0.097875 0.097041 -0.142706 -0.094365 -0.059433 0.119505 -0.013129 0.008498 0.080676 -0.174043 0.224813 0.092215 -0.048837 -0.083546 -0.147537 0.168722 0.087490 -0.082588 0.019426 0.002784 0.102419 0.202061 -0.135675 0.165690 0.116393 -0.225926 -0.083055 -0.121028 0.053519 0.435596 -0.179947 -0.038963 0.131318 0.092596 0.095437 -0.268082 -0.486879 -0.042069 -0.290972 0.199262 -0.208589 0.046146 -0.040883 0.215432 -0.043820 -0.056272 0.131801 -0.132314 0.026696 -0.058274 0.034758 0.115222 0.052055 -0.125030 -0.081918 0.110358 -0.074685 0.012282 0.006312 -0.042874 -0.042454 -0.155680 0.234276 0.074349 -0.191362 0.027703 0.123385 0.048624 -0.010723 -0.048718 -0.049111 -0.462250 -0.283350 0.343501 -0.108594 -0.346193 -0.268609 0.269034 0.178264 0.152122 0.046564 -0.154898 0.072413 -0.216039 0.194141 0.079186 -0.775067 -0.082457 0.068192 -0.023426 0.324298 0.002783 -0.001691 -0.270018 0.064408 -0.170730 0.398112 -0.272922 -0.083580 0.457118 0.110261 -0.400447 -0.026889 -0.170055 0.060435 0.137274 0.167808 0.091943 0.163377 0.233372 -0.001672 -0.250247 0.158736 0.101573 0.022792 -0.018016 -0.012833 0.006750 0.135799 -0.081629 -0.063644 0.098292 -0.077369 0.269094 0.154777 -0.087341 0.145816 0.216466 0.249176 -0.026215 0.282051 -0.338973 0.022532 -0.149079 0.011676 0.200963 -0.190336 -0.020179 0.069159 0.395487 0.142961 0.198655 -0.053081 -0.135576 0.183439 -0.182520 -0.208734 0.331720 -0.230411 -0.263751 -0.013346 -0.197240
government 0.426947 -0.208489 -0.111632 0.211984 -0.041057 0.510336 -0.012912 -0.021765 -0.140248 -0.321438 0.168607 0.297721 0.385522 0.308868 0.029661 -0.316873 0.037637 -0.059516 0.549606 -0.226278 0.218170 0.301771 -0.410380 -0.372847 0.125879 0.291068 0.789249 -0.782145 -0.340729 -0.209460 0.026486 -0.353057 -0.223397 -0.808714 0.195455 0.219905 0.123920 1.071213 -0.280279 0.111028 0.113434 0.038849 0.056173 -0.432132 -0.201667 -0.259255 -0.504809 0.101754 -0.015245 -0.515710 -0.177230 -0.129899 -0.091104 0.097399 0.280442 -0.294146 0.021642 -0.074652 0.500845 0.254537 0.107748 -0.148318 0.008592 0.615273 -0.280239 0.040448 -0.186285 0.297122 0.128387 0.112841 0.237882 -0.121240 0.566663 0.398364 0.662151 0.489818 0.203219 -0.254722 0.247019 -0.358162 0.179533 0.114205 0.070239 0.202285 0.226513 0.598364 1.189263 0.095711 -0.155176 0.159583 0.374633 -0.031392 0.055467 0.359729 0.274906 0.178332 -0.146990 0.111776 0.085816 -0.445739 -0.005223 -0.212288 0.479018 -0.028446 -0.109398 -0.094775 0.049291 -0.223802 0.260628 -0.130631 -0.052592 0.310822 0.410085 -0.137527 -0.677555 -0.003035 0.549125 -0.073790 -0.139356 -0.111983 -0.283754 0.243566 0.010192 -0.200483 0.152058 -0.024884 -0.240396 -0.043623 -0.165261 -0.588219 -0.322229 -0.367695 0.596791 0.309669 0.096464 -0.133260 -0.430424 0.327638 0.158425 -0.144658 -0.191078 0.253324 -0.351375 0.060970 0.086265 0.505921 0.065631 0.202050 0.100638 0.314587 -0.608814 -0.318582 -0.650972 0.498286 -0.087721 -0.358089 0.200536 0.382467 -0.346023 0.060016 -0.273397 0.212693 -0.249518 -0.491727 0.034525 -0.037177 0.224383 -0.029133 0.248309 0.777182 0.655069 0.793872 -0.124374 0.224385 0.067937 0.649526 0.794765 0.084737 0.563542 0.169434 0.204692 -0.276533 0.233088 -0.134164 -0.422105 -0.154947 -0.245983 0.189059 0.036219 -0.420179 -0.085664 -0.123875 0.446699 0.270896 0.126094 0.050483 -0.232896 -0.110772 -0.199977 -0.347716 -0.508432 -0.311416 0.148278 -0.204980 -0.274596 0.027661 0.296557 -0.262827 0.002413 -0.272890 0.013775 0.248192 -0.353251 -0.311867 -0.193825 -0.121106 0.055942 -0.224265 0.195814 -0.824101 -0.353164 -0.048092 -0.063072 -0.008520 0.248955 -0.348677 -0.155124 0.232945 0.216724 -0.484598 0.357898 -0.188219 0.149250 0.698535 -0.144848 -0.764767 0.465923 -0.351799 -0.125404 0.074874 -0.465685 0.433052 -0.395799 0.076186 0.384893 -0.562250 -0.158991 -0.712639 0.288695 0.262862 0.590370 0.091832 -0.251614 -0.557945 0.307676 -0.381959 0.696486 -0.225269 -0.061357 -0.439986 0.164211 -0.506964 0.171702 0.098898 0.388751 0.083348 0.029950 0.103918 -0.379001 -0.440387 0.501023 -0.465711 0.097828 -0.045222 -0.099297 -0.038774 0.903946 -0.035588 0.372546 0.295878 0.383308 0.291895 -0.410490 0.504099 -0.057862 0.284468 0.131626 -0.453690 -0.417288 -0.160079 -0.114506 -0.146660 -0.353033 -0.011655 0.066739 -0.068108 0.119645 -0.074051 0.490174 0.356227
James 0.123722 0.270457 -0.104310 -0.100431 0.080575 0.330593 -0.182165 -0.223283 -0.166453 -0.039633 -0.461583 -0.083856 -0.029900 -0.060286 -0.111307 -0.071169 -0.160513 -0.170917 0.029359 0.077138 0.019139 -0.246838 -0.116040 -0.144352 0.238674 0.027708 0.038601 0.015652 -0.236725 0.121905 0.018670 0.048208 0.027616 -0.049433 0.045046 0.146064 0.113977 0.151738 -0.262497 0.088893 -0.016215 -0.008477 -0.070226 -0.081891 -0.045371 0.100126 0.131497 0.252440 0.056987 -0.199023 0.038487 0.104600 0.277994 -0.117510 0.154655 -0.197856 -0.274692 0.129852 0.051718 0.034797 -0.113094 0.035245 0.033549 0.164293 -0.201769 0.017040 0.113585 -0.079335 -0.098489 0.066207 0.151705 -0.211274 -0.004730 0.080974 0.539443 0.211390 0.256500 0.114148 0.021174 0.165764 -0.078631 0.144883 -0.028993 0.057939 -0.004777 0.083868 -0.029313 -0.035071 0.153614 0.142048 0.096091 0.266855 0.045779 -0.095359 0.006954 0.191005 -0.169489 -0.246232 0.100520 -0.090917 0.101196 0.004573 -0.142250 -0.059717 -0.038895 0.012706 0.059303 -0.068259 0.221905 -0.083688 -0.227311 0.072298 0.102147 -0.144317 0.023479 -0.015039 -0.035287 -0.011823 0.154857 0.081267 -0.005282 0.014657 -0.021646 -0.014336 -0.117395 0.007606 0.181370 0.080225 -0.101335 -0.065358 -0.260425 -0.015878 -0.030207 -0.158474 -0.031480 -0.181653 0.109241 0.091204 0.101039 -0.139539 -0.034440 -0.072505 -0.076691 -0.080461 -0.178239 -0.001702 0.007727 -0.100968 0.000685 0.013171 -0.073797 0.140953 -0.060047 -0.194048 0.089989 -0.062195 0.004053 -0.022175 0.169787 0.029957 -0.188394 -0.064857 -0.212122 0.143745 -0.029745 0.139263 -0.108205 -0.025009 -0.203915 0.162850 0.156502 0.258248 0.000433 -0.188657 -0.135899 0.106483 0.173136 0.032944 0.111234 0.137638 0.189710 0.016414 -0.119964 0.026303 -0.024512 0.224830 -0.038940 0.053989 -0.220539 0.171305 -0.099079 -0.043942 -0.088299 -0.005338 0.129978 0.003116 0.162185 -0.244306 -0.104543 -0.033469 0.094508 -0.093504 -0.054329 -0.149049 0.135027 0.108056 -0.020395 -0.137129 -0.156596 -0.173152 0.001716 -0.262645 -0.091367 -0.029088 -0.022524 0.189983 0.136119 -0.051180 -0.064253 -0.192706 -0.203332 0.191987 -0.155145 -0.066382 -0.013338 0.013767 -0.036091 0.041025 0.119021 -0.206463 0.107377 -0.116678 0.019770 -0.164283 -0.402453 -0.049045 -0.074683 -0.094630 0.091934 -0.048737 0.026288 0.177602 -0.053268 -0.024013 0.272044 -0.087098 0.042313 0.143213 0.198885 -0.300642 0.089361 0.046940 -0.214002 -0.001852 0.220818 0.042797 0.219099 0.101796 0.218289 0.309557 -0.175362 -0.177365 -0.159589 0.074943 0.203210 -0.121901 0.103528 0.101850 0.275857 0.107196 0.136333 -0.045879 -0.000823 -0.247718 -0.082172 0.299144 0.164271 0.197200 0.185057 -0.082832 0.201938 -0.206354 0.097865 -0.029585 -0.080397 0.165164 -0.163889 0.072636 0.094683 0.029262 -0.204153 0.005257 0.118061 -0.081198 -0.046377 -0.168756 -0.071811 0.191253 0.157623 -0.123502
fridge 0.301627 0.337783 -0.057720 0.068020 -0.077641 -0.121858 0.049317 0.148556 0.020089 0.231218 -0.526823 0.057781 0.128272 -0.101537 0.168528 0.300922 0.062732 -0.232018 0.166829 -0.014967 -0.011911 0.179474 -0.197168 -0.140342 -0.159261 -0.061670 0.072569 -0.045377 0.292526 -0.091249 0.100245 0.171972 0.281987 -0.086076 0.113764 0.210822 -0.276204 -0.042059 -0.322565 -0.099904 0.094780 -0.124149 -0.207759 -0.064501 -0.138870 0.008418 -0.012680 0.134724 0.380139 -0.104640 0.018730 0.081387 -0.133288 0.024670 0.046930 -0.032111 0.082562 -0.083171 -0.088118 0.132764 -0.229961 0.161132 0.066137 0.208137 0.144890 0.107173 -0.377924 -0.165485 0.040328 -0.088831 -0.076859 0.093618 -0.203074 0.119148 0.154807 -0.318785 0.145857 -0.092273 -0.107575 0.257228 -0.141234 0.320987 -0.080039 0.293288 -0.214261 -0.131965 -0.029725 0.233747 -0.005777 0.032142 0.170194 0.088294 -0.066793 -0.011804 0.044123 -0.097389 -0.159168 -0.327231 -0.201718 0.068675 -0.147864 -0.154489 0.200215 0.227952 0.025130 -0.248931 0.065571 -0.469909 0.358776 0.170811 -0.060550 -0.137908 0.326478 -0.296112 0.610336 -0.046714 -0.140066 0.102894 -0.290477 -0.022710 0.152767 0.192870 -0.370375 0.021840 0.219641 -0.164583 0.039943 0.050113 -0.148669 0.019258 -0.347456 -0.208805 -0.128009 0.076389 -0.103278 0.429178 -0.125622 0.035467 -0.118477 -0.165163 0.001262 -0.138039 0.120949 0.187356 -0.044373 -0.097883 -0.077504 -0.241096 -0.020169 -0.035159 -0.312922 0.020895 -0.217863 0.228490 0.078514 0.090527 -0.099168 -0.007974 0.391609 0.177669 -0.083956 0.257459 0.139173 0.054670 0.193424 0.093537 0.033156 -0.285195 0.144943 0.298715 0.060144 0.274672 0.045943 -0.001361 -0.089479 0.161109 0.218607 -0.303331 0.072943 -0.126451 0.124616 -0.000747 -0.192505 -0.000128 -0.263661 -0.053854 -0.419186 0.033457 -0.041098 0.015108 -0.077037 0.233734 0.056216 -0.021870 0.071308 -0.143745 0.074592 0.027259 -0.136903 -0.094221 0.040058 -0.006131 0.117688 0.197494 -0.341058 -0.062943 0.039168 0.046102 0.103335 0.244814 0.270703 -0.157136 -0.044192 0.021280 0.055265 0.048283 0.282888 -0.057016 -0.111519 -0.411213 -0.417540 0.087032 -0.324741 -0.173571 -0.343765 0.268992 -0.190311 0.162892 -0.011904 -0.067351 0.260315 -0.382518 0.441151 0.063349 -0.770338 0.270629 0.208203 -0.033083 0.427765 -0.125762 0.285664 -0.018223 0.256720 0.083554 0.414998 -0.291303 -0.150964 0.529053 0.133255 -0.057694 -0.314223 0.058754 -0.302277 -0.022226 0.098896 -0.255882 -0.127055 0.439928 -0.001937 -0.361933 0.326588 -0.249515 -0.081451 -0.025481 0.084529 -0.129752 0.176537 -0.016675 -0.152120 -0.055715 -0.001097 -0.072751 -0.085231 0.084933 -0.018282 0.092828 0.348736 0.039809 -0.171706 0.197718 0.131411 -0.139243 0.054115 -0.188218 0.312043 -0.102226 -0.127142 0.269250 -0.357165 0.034987 -0.102864 0.027053 0.163267 -0.067658 0.003585 0.204198 0.028078 0.222715 0.177663 -0.331206
lunch 0.073960 0.330017 -0.159370 -0.021772 -0.061626 0.189419 -0.062862 0.038272 -0.311368 0.318830 -0.181795 0.034925 0.108624 0.065204 0.047409 0.014448 0.174398 -0.210810 0.237568 -0.103091 -0.164674 0.159458 0.013315 0.018312 0.085664 -0.153006 -0.264888 0.245975 0.023295 0.369371 0.100912 0.040507 -0.168260 -0.176796 0.199660 0.377079 -0.207147 0.053964 -0.064052 -0.230988 -0.118659 -0.070570 -0.287740 -0.108564 -0.286730 0.111384 0.268669 -0.001364 0.232317 0.007052 0.005735 0.143259 -0.278332 -0.130421 -0.093021 0.053775 -0.172472 0.163769 -0.164222 0.221769 -0.166863 0.259067 0.111965 -0.078641 -0.135746 0.069176 -0.381884 0.041595 0.007273 0.146042 0.074652 -0.005980 0.193052 -0.138920 0.172994 0.023462 -0.073275 -0.035900 -0.203014 0.153567 -0.347691 -0.232764 0.047972 0.349442 0.075647 -0.292002 -0.139157 0.019101 -0.128181 0.133217 -0.013313 0.176020 -0.110730 -0.174388 0.263173 0.293154 -0.133412 -0.272439 -0.335593 0.203122 -0.297556 -0.218544 -0.038500 0.192668 0.072115 -0.123008 -0.102119 0.009234 0.289445 0.049705 0.068308 0.053163 0.271237 -0.143368 0.466130 0.073006 -0.068173 0.108308 0.023381 0.103539 0.095212 0.309987 -0.062793 0.196378 -0.232643 -0.107099 0.419084 0.051896 -0.248660 0.218080 -0.199014 -0.164682 0.262879 0.125466 -0.280184 0.364477 -0.208447 0.049923 0.159137 -0.024490 0.022067 0.074492 0.016684 0.232396 -0.021328 -0.181352 -0.222707 0.042735 0.165964 -0.254143 -0.340073 0.106194 -0.255564 -0.022887 -0.073265 0.109671 0.179739 -0.166448 0.175049 0.215180 -0.394172 0.054600 0.153409 -0.102315 0.271945 0.170099 -0.055103 0.020656 -0.032721 0.155712 0.435414 0.175584 -0.037852 0.023774 -0.053401 0.213042 0.416940 -0.171651 0.009979 0.020296 0.290743 -0.108605 -0.154635 -0.418849 -0.222673 0.088765 -0.260254 0.009303 -0.347783 0.059015 -0.135809 0.197712 -0.185866 0.196336 0.174197 -0.079847 0.131225 -0.196116 -0.037079 -0.057963 0.122243 -0.290512 -0.232904 -0.041848 0.032239 0.262049 0.040836 0.050485 -0.116169 0.213569 0.044173 -0.274167 -0.074978 -0.123823 -0.040342 -0.190238 0.305780 -0.345992 0.021771 -0.495540 -0.401863 0.393827 -0.300322 0.010989 -0.240369 0.061843 -0.164385 -0.040836 0.097098 0.030056 0.167637 -0.329492 0.291774 -0.282104 -0.509559 0.165875 -0.046912 0.211962 0.347432 0.041394 0.223524 0.313905 0.159957 -0.247059 0.665868 -0.335862 -0.023929 0.034328 0.065617 -0.117401 -0.103188 0.080913 -0.308000 -0.070615 -0.063941 -0.107972 0.115372 0.350979 -0.125524 0.011804 -0.108230 -0.026689 -0.047629 0.446718 -0.065293 -0.238273 0.003032 0.430711 -0.056060 0.045160 0.249560 -0.141221 -0.137668 0.070753 0.197306 0.326374 0.181682 -0.005081 0.009259 0.146691 0.294989 -0.065628 0.031896 0.622955 -0.093936 -0.128649 -0.176030 0.508174 -0.071804 0.131455 0.004675 -0.534745 0.161844 0.071046 0.096652 0.013862 -0.072161 0.291868 0.187300 -0.394845
Juventus 0.146066 0.172162 0.064055 -0.076269 0.097454 -0.159471 -0.457776 0.212945 0.063335 0.088042 -0.215044 -0.250228 0.032071 0.083501 -0.089760 0.151554 -0.097758 0.061943 -0.182289 -0.048337 0.055676 0.004156 0.195594 0.134212 0.276158 -0.104870 -0.130545 -0.212092 -0.025611 -0.032889 -0.139707 -0.041272 0.097061 -0.063025 0.207381 -0.057932 0.284936 0.074040 -0.046923 0.218689 0.037471 -0.084057 -0.035761 -0.176040 0.078139 -0.052526 -0.033339 0.046833 -0.256147 -0.007060 -0.000659 0.120013 -0.026698 -0.019740 0.032335 0.009157 0.016372 -0.093284 0.124291 -0.003994 0.080295 0.042872 -0.106304 0.130048 -0.103798 0.074023 -0.029125 -0.038714 -0.197168 0.174812 -0.098347 0.043764 -0.083388 -0.047484 0.116209 -0.078198 0.083498 0.150130 -0.107496 0.095111 0.148214 -0.061769 -0.164929 0.114715 -0.166114 -0.064310 -0.193849 0.000551 -0.116912 0.035757 -0.153193 0.166243 -0.083112 -0.175694 0.049459 0.089300 -0.040822 -0.370817 0.022689 -0.114817 -0.046692 -0.270255 -0.159323 0.081250 -0.222597 -0.213325 -0.025892 -0.052849 0.162068 -0.024479 0.005224 0.236850 0.094312 0.072275 -0.006611 -0.160748 -0.018632 -0.152430 -0.090076 0.091152 0.247122 0.231098 0.288837 -0.029332 0.044347 -0.114583 0.200031 -0.191413 0.070123 -0.494280 -0.014884 0.193543 -0.203256 -0.092025 0.226515 0.207502 0.097724 -0.085461 0.181972 -0.085365 -0.073182 0.059777 0.049427 0.195485 0.215651 0.170191 -0.022772 -0.030852 -0.080697 -0.130945 0.037013 -0.015538 -0.216773 -0.181308 -0.045728 -0.029709 0.275026 0.048365 0.264995 0.185554 -0.210754 -0.137472 -0.058012 -0.126036 0.127734 0.033758 -0.265437 0.211091 -0.111447 -0.067704 0.245432 0.031331 0.198580 -0.073914 0.228621 0.050558 0.123851 -0.114344 -0.063113 0.161590 0.264892 0.133833 -0.141837 -0.161676 -0.114337 -0.045644 -0.050512 -0.285383 -0.000505 0.067962 -0.083074 0.048060 -0.053128 -0.003218 0.054875 0.031473 0.224691 -0.036247 -0.003723 0.269437 0.075679 0.140277 -0.157140 -0.292565 -0.219240 -0.110680 -0.150913 0.297063 0.108886 -0.161707 0.326476 -0.232782 0.148941 -0.364319 0.094211 0.077072 -0.031906 0.061043 0.120240 -0.129256 -0.369399 -0.087618 0.021535 -0.072403 0.093817 -0.056179 0.031299 0.037421 -0.111105 -0.085067 0.020849 -0.206944 -0.054031 -0.134013 0.074950 -0.209343 -0.040130 -0.267881 -0.060240 0.263102 -0.174606 0.347294 0.170951 0.078807 0.084000 0.074900 0.110130 0.078020 0.254898 -0.100318 0.019658 -0.160847 -0.057595 -0.122946 0.167427 -0.112041 -0.094362 0.029134 -0.037633 0.030293 -0.067344 0.031694 -0.044708 -0.189788 0.173731 -0.090201 0.062602 -0.027068 0.115324 -0.011517 -0.043202 0.120539 -0.110326 -0.234174 0.047052 -0.071382 0.098821 -0.009820 0.204857 0.063657 -0.116848 -0.038004 -0.103579 -0.007960 0.241759 0.091727 -0.073947 -0.030294 0.014844 0.121299 0.111139 0.128411 0.067794 -0.149298 0.057062 -0.171341 -0.155534 0.307268 -0.062215 -0.113254
Venus 0.077483 0.181417 -0.052655 -0.083442 0.092983 0.019766 -0.303026 -0.314703 -0.135788 0.164250 -0.275464 0.048356 -0.085884 0.014051 -0.279857 -0.061761 -0.030302 -0.238437 0.239904 -0.170277 0.274810 -0.308180 -0.156945 0.118090 -0.097164 -0.036773 -0.008619 -0.085243 -0.139581 0.090778 -0.051371 0.047811 -0.134283 -0.016003 -0.062387 0.129101 -0.053996 0.011252 -0.335204 0.049992 0.065330 -0.378030 0.012871 -0.142090 0.196801 -0.059991 0.138404 0.080538 0.058511 -0.082853 0.308253 -0.116488 0.176648 -0.047772 -0.014149 -0.019554 -0.034094 -0.016227 0.424950 -0.269482 -0.013591 -0.038608 0.061995 0.060010 0.102711 -0.004562 -0.208826 -0.032173 -0.138551 0.110289 -0.108419 -0.123205 -0.320306 0.159699 0.220435 0.070985 -0.142967 0.138793 0.047733 0.522025 -0.054639 0.486583 0.150209 0.614587 -0.598668 -0.026134 -0.112576 0.202055 0.181264 0.051974 -0.073194 0.368209 -0.104827 0.072580 0.141067 0.009739 0.056177 -0.344615 0.005272 0.081776 0.026088 -0.001688 0.039088 0.166042 -0.257001 -0.062987 -0.183213 0.062823 0.121752 0.167069 -0.102743 0.036752 0.293910 0.125622 0.218506 0.086859 0.016445 -0.087039 -0.072439 0.010743 0.187268 0.026001 -0.160176 0.248392 0.097430 -0.338709 -0.015721 0.022389 -0.342435 -0.039764 -0.381865 0.057277 -0.204906 0.280119 -0.207141 0.410606 0.000006 0.176646 0.104450 -0.148752 -0.117866 -0.086293 0.163882 -0.248599 -0.507926 -0.355739 -0.268590 -0.105886 0.044425 -0.069386 -0.182666 -0.057308 -0.051509 -0.143949 0.007596 -0.179503 -0.113242 -0.084827 0.424892 0.303540 0.229620 -0.103096 -0.498454 0.243237 0.123854 -0.148144 -0.093908 0.091151 -0.131846 0.197832 -0.186980 0.040713 0.092488 0.049801 -0.089824 0.080302 0.174361 0.102824 -0.131069 0.183978 0.159827 -0.162787 -0.070460 -0.389382 -0.225981 -0.083371 0.065907 -0.028170 -0.230244 0.116668 -0.061197 -0.016723 0.495536 0.081607 -0.046021 0.239163 -0.209400 -0.304569 0.007103 0.146774 -0.139230 -0.188868 -0.175043 -0.227245 0.207099 -0.050127 0.068867 -0.171492 -0.179587 -0.069453 0.240235 -0.234184 -0.028708 0.060314 0.164685 0.163727 -0.212067 -0.077452 -0.158131 -0.150632 -0.355151 0.169468 -0.241649 -0.042670 0.063568 0.183963 0.053726 0.349185 -0.173565 0.108096 0.048485 -0.069760 -0.072747 0.069445 -0.404244 0.131723 -0.105173 -0.017250 0.112010 0.024528 0.181542 0.029477 0.202443 0.179921 0.383340 -0.440541 0.013215 0.108962 0.136117 -0.292376 0.184592 -0.351921 -0.158833 0.188036 0.038420 0.056641 -0.167854 0.393306 0.215632 0.067388 0.037560 -0.023845 -0.025211 0.144642 -0.050491 0.017249 -0.017799 0.060082 0.393630 0.098551 -0.082321 -0.020954 -0.019069 -0.107621 0.080930 0.094301 0.261840 -0.043517 0.139363 -0.173830 0.215877 -0.143178 0.064839 -0.139515 -0.207927 0.393090 0.009439 0.108445 0.104676 -0.053317 -0.231994 0.080723 -0.148081 -0.155422 0.123818 0.036769 -0.231818 0.112606 -0.011598 -0.053057
day 0.037887 0.983374 0.119221 -0.145021 0.245475 0.468000 -0.420461 -0.181929 -0.233091 0.273966 -0.714590 0.305778 0.196256 -0.021156 0.196819 0.157750 -0.103060 -0.128255 0.708048 0.050364 0.007085 -0.343894 0.197759 0.359216 0.168479 -0.015332 -0.423576 0.337243 0.025275 0.046734 0.461069 0.129863 -0.173876 -0.065395 0.115106 0.506439 -0.306269 -0.400230 -0.239013 -0.458009 0.194685 -0.118070 -0.392627 -0.326600 -0.161558 -0.169467 -0.167455 -0.332132 0.264323 0.228121 -0.069076 0.026927 -0.093147 0.313000 0.362620 0.358852 -0.666937 0.267646 0.026037 0.642036 -0.163619 0.205171 0.309403 -0.368089 0.094596 -0.076795 -0.595055 0.078950 -0.077144 0.035897 -0.115629 -0.222159 0.027162 -0.044114 0.025601 0.332057 -0.493049 -0.204709 -0.727335 -0.318239 -0.333362 0.243859 0.058407 0.334111 -0.149463 0.069105 -0.222939 0.213132 -0.514198 0.274452 0.178241 0.243826 0.007656 -0.093382 0.075670 -0.177285 -0.213691 -0.622693 -0.282293 -0.250952 -0.141892 0.011526 0.637309 0.059075 0.446613 -0.112118 0.095154 -0.186106 0.593401 0.091429 0.083008 -0.146672 0.891355 -0.108980 0.667017 0.125202 0.039606 -0.016525 0.382861 -0.184763 0.467148 0.595398 -0.655891 0.234805 -0.457722 0.002397 0.390742 -0.165184 -0.324499 0.049333 -0.279171 -0.427303 0.304794 -0.592460 -0.563270 0.651727 -0.380266 -0.305177 0.088698 -0.154031 0.319988 -0.131671 -0.073100 -0.167722 0.029557 -0.582362 -0.193397 0.636677 -0.060889 -0.203041 -0.029479 -0.475056 -0.028203 0.220617 -0.312221 0.329068 -0.105721 -0.755967 0.155847 0.164172 -0.188841 -0.199413 -0.516357 0.058818 0.408720 0.117283 -0.439039 0.226708 0.282058 0.397332 0.209183 0.584857 -0.136429 0.449058 -0.068723 0.113145 0.885768 -0.123178 0.109057 0.165928 0.260549 0.058749 -0.212238 -0.136546 -0.251953 -0.122699 0.004158 -0.193639 -0.593034 0.306221 -0.314399 0.076919 0.360353 0.482809 0.046459 -0.469326 0.263426 -0.255227 0.074802 -0.290659 -0.242518 -0.283527 -0.040784 -0.473441 -0.007024 0.103873 0.531410 0.149501 -0.273494 0.197526 0.255656 0.012191 0.227462 0.168300 -0.234272 -0.267908 0.139300 -0.182020 0.191096 0.024753 -0.347411 0.734791 -0.492546 -0.405585 -0.940110 0.068255 -0.164906 -0.113568 -0.097504 -0.381323 0.184110 -0.582021 -0.247246 -0.719336 -0.580675 -0.072411 0.185286 0.553462 -0.127482 0.243405 -0.299386 0.346531 0.743629 -0.449426 0.633339 -0.350008 -0.045037 0.367659 0.247776 0.054059 0.091433 -0.050656 -0.307366 0.250889 0.405708 0.365330 -0.301665 0.409871 -0.125432 0.389852 0.060199 -0.041682 0.091327 0.105669 0.151259 -0.543360 0.419779 0.699821 -0.216868 0.293573 0.040410 -0.037313 0.046142 0.179353 0.101134 0.166651 0.544003 -0.185634 0.487313 0.414541 0.567492 -0.261544 0.455337 0.514003 0.114476 0.071913 0.092450 0.377596 -0.051178 0.016123 0.191300 -0.362109 0.051473 -0.407333 -0.407858 0.037534 -0.455319 0.085174 0.499479 0.063735
Triton 0.199536 0.032869 0.018136 -0.097783 0.020964 -0.180421 -0.021625 -0.094331 -0.253711 0.324267 -0.140099 -0.063091 -0.241834 0.153428 -0.024764 0.224434 -0.087445 -0.157439 -0.089419 -0.148344 0.067441 -0.200379 -0.171182 -0.057020 0.103305 -0.117080 0.373356 0.074367 -0.414520 0.259627 0.023591 0.040722 -0.243445 0.140342 0.100592 0.037594 0.032031 0.059754 -0.035572 0.039075 0.069496 -0.230704 0.134676 0.109497 0.100651 -0.245016 -0.267670 0.035697 0.335462 -0.207114 0.068375 0.045364 0.451652 0.220900 -0.183907 -0.299458 0.052619 -0.159915 0.184078 -0.256069 -0.149852 0.102059 -0.049571 0.221384 -0.177728 0.189072 -0.065621 0.163567 -0.285587 0.251854 -0.047667 -0.004517 -0.067572 0.086973 0.174514 -0.178227 -0.063785 0.227339 0.019534 0.328847 -0.103783 0.008902 -0.049045 0.394006 -0.403966 0.163133 0.026220 0.105813 0.237513 0.240898 0.025987 0.204743 0.102715 -0.197754 -0.050040 0.010874 -0.025832 -0.209733 -0.012181 0.084005 0.145886 0.113120 -0.111000 0.173875 0.026670 -0.225946 -0.122722 0.187650 0.007243 0.137847 0.011063 0.059464 0.217150 -0.281480 0.212196 0.076579 -0.284624 0.004766 0.046565 0.084662 0.250318 -0.028284 0.191926 0.179233 0.147258 0.030439 0.011287 -0.231214 -0.146341 -0.155371 -0.074050 0.123438 -0.223544 0.053065 -0.007603 0.016707 0.108519 0.187922 0.172739 -0.053005 -0.331810 -0.001326 -0.021500 -0.001801 -0.150678 -0.151808 0.214063 0.049532 0.289830 0.271817 -0.080101 0.006057 -0.087448 -0.003741 0.059092 -0.075955 -0.268213 0.198228 -0.055307 0.298159 0.141560 0.005741 -0.558234 0.201553 -0.056388 -0.096044 -0.003876 0.392764 0.028473 -0.099728 -0.068705 0.021688 0.177878 0.199427 -0.211172 -0.076866 -0.006861 -0.251702 -0.122540 0.135741 0.037603 0.171569 -0.001348 -0.143933 -0.133127 0.127176 -0.222753 0.079223 -0.143683 0.090017 -0.031181 0.161600 0.070544 -0.151344 -0.207838 0.083948 0.019016 0.006616 0.246593 -0.038347 -0.223404 -0.173379 -0.048810 0.112540 0.213518 0.200574 -0.060056 -0.140545 -0.154219 -0.273017 0.247986 -0.143233 -0.050826 -0.072195 0.229023 -0.228845 -0.163872 -0.298240 -0.403791 0.056532 0.007902 0.042948 -0.067188 -0.050357 0.279474 0.142595 -0.089556 -0.217798 0.107473 -0.233025 -0.015786 -0.014815 -0.120970 -0.492620 -0.352330 -0.116296 -0.179506 -0.029892 -0.015319 -0.262831 0.115352 -0.053007 0.016573 0.024304 0.353513 -0.302350 0.023790 0.174158 -0.044957 -0.109763 0.242721 -0.320210 -0.231676 -0.070181 0.219678 0.111302 0.084105 0.127387 0.212880 -0.102091 0.125372 0.070879 -0.220685 -0.014486 0.125170 0.073598 -0.059990 -0.012884 0.260709 -0.156968 0.102257 -0.191728 0.088886 -0.384340 0.032006 0.091679 -0.044453 0.059501 0.110840 0.002032 -0.073977 -0.057346 0.160361 0.110533 -0.287694 0.263099 -0.034369 0.097259 -0.072100 -0.154119 0.005435 -0.078215 0.181144 -0.279927 0.200402 -0.180938 0.147557 0.155664 -0.068862 -0.059384
Thomas 0.076605 0.239324 -0.049673 -0.180249 0.053741 0.255377 -0.149650 -0.184025 -0.029460 -0.024481 -0.455248 -0.095995 -0.010209 0.073735 -0.114219 -0.018454 -0.082943 -0.129903 0.067883 0.202598 0.020787 -0.258681 -0.023893 -0.088431 0.162621 -0.051582 0.006540 0.013696 -0.228840 0.082517 0.082738 0.060090 0.064385 -0.080543 -0.005439 0.029381 -0.035144 0.208232 -0.208368 0.161462 -0.107435 -0.073916 0.018407 -0.093117 0.019759 0.042468 0.189943 0.178055 0.011313 -0.197472 0.052858 0.079373 0.271798 -0.126732 0.174270 -0.232700 -0.321727 0.133277 -0.021248 0.012262 -0.063303 0.155045 0.039424 0.069532 -0.220883 0.026822 0.055912 -0.130276 -0.059820 0.025550 0.073157 -0.215454 -0.092430 0.092014 0.455664 0.235343 0.200626 0.054276 0.066087 0.128011 -0.055428 0.059384 0.023236 0.107902 -0.005208 0.045238 -0.056475 -0.085931 0.053858 0.125459 0.188675 0.249645 -0.003574 -0.044343 -0.030312 0.064013 -0.097786 -0.215959 0.112013 -0.106452 0.019251 -0.148874 -0.111276 -0.087363 -0.067990 0.022273 -0.043956 -0.091216 0.299428 0.010432 -0.220323 0.061222 0.121416 -0.206571 0.094887 -0.057884 0.102282 0.089789 0.144294 0.094682 0.064063 -0.020965 -0.017582 -0.015576 -0.057566 -0.022925 0.136762 0.163215 -0.064028 -0.077862 -0.278405 -0.049847 -0.093322 -0.173978 -0.019862 -0.225064 0.052253 0.091594 0.103840 -0.090904 -0.003570 -0.068615 -0.019859 -0.016377 -0.205227 0.029407 0.065961 -0.050637 0.046408 -0.017319 -0.042997 0.160497 -0.159602 -0.211848 0.114477 -0.070159 -0.002160 -0.055381 0.250067 0.025231 -0.140302 -0.004415 -0.165266 0.093225 -0.032183 0.150829 -0.083139 -0.000275 -0.242100 0.158260 0.162895 0.286575 0.084534 -0.124578 -0.079626 0.125961 0.114568 -0.044491 0.117203 0.212911 0.094528 0.032422 -0.007086 -0.036259 -0.006434 0.157098 0.013823 -0.032098 -0.124650 0.028604 -0.088754 -0.080901 -0.043890 0.055743 0.165689 -0.007551 0.119138 -0.167482 -0.084037 0.084638 0.093945 -0.133126 -0.066510 -0.190866 0.147850 0.119057 -0.055815 -0.151251 -0.201529 -0.087964 0.065724 -0.120487 -0.043557 -0.042893 0.022680 0.185750 0.240103 -0.108756 -0.154345 -0.183240 -0.205567 0.251088 -0.074831 -0.055561 0.031759 0.083570 -0.066248 -0.071811 0.098785 -0.049934 0.014211 -0.087923 0.009443 -0.161830 -0.345084 -0.012228 -0.075349 -0.123594 0.090906 0.002099 0.078930 0.170547 -0.013570 0.071361 0.320664 -0.028281 -0.042186 0.070984 0.122332 -0.253118 0.031291 0.157608 -0.192690 -0.050084 0.235888 0.069006 0.184640 0.080660 0.179856 0.217401 -0.267297 -0.146481 -0.147427 0.037190 0.194278 -0.145557 0.158166 0.068257 0.261738 0.079565 0.182378 0.059059 -0.054844 -0.244402 -0.018076 0.381494 0.245993 0.146136 0.208063 -0.008416 0.190844 -0.109356 0.158639 0.137392 -0.080163 0.062674 -0.190733 0.123506 0.075548 0.056957 -0.180245 -0.106382 0.117400 -0.098081 -0.035326 -0.206241 -0.092678 0.133628 0.148020 -0.106943
Saturn 0.158981 0.116917 0.041979 -0.051833 0.093068 -0.038119 -0.543670 -0.246016 -0.393961 0.267840 -0.296563 -0.076693 0.031349 0.126890 -0.153135 -0.069966 0.035186 -0.080832 0.371242 -0.082905 0.258900 -0.130485 -0.242662 -0.000871 -0.075243 -0.134951 -0.135890 -0.061862 -0.221862 0.328457 -0.056984 0.089022 -0.045042 -0.117082 0.009446 0.248901 -0.027423 0.222656 -0.172767 0.303352 0.067078 -0.441889 0.014618 -0.040960 0.198144 0.044186 -0.302611 0.070911 0.017237 -0.036254 0.236678 -0.057797 0.038753 0.142820 -0.026790 -0.083816 0.137310 0.032792 0.363367 -0.336080 -0.052140 0.021630 -0.070286 0.193206 0.101861 0.000495 -0.208613 0.130811 -0.419678 0.149786 -0.023141 -0.051855 -0.301102 0.131988 0.222754 -0.050312 -0.151672 0.367921 -0.109493 0.197870 0.042710 0.419563 0.142368 0.571027 -0.528448 -0.120303 0.025041 0.090704 0.083387 0.162152 -0.070231 0.568734 -0.280668 -0.009738 0.188835 -0.046261 -0.107020 -0.365139 0.077939 -0.004996 0.100073 -0.118565 -0.174375 0.237789 -0.154278 -0.041786 0.041673 -0.000575 0.160683 0.153227 -0.129789 -0.063138 0.061558 0.029643 0.170153 0.068872 -0.193998 -0.081116 0.020600 0.014905 0.259807 -0.303401 -0.142961 0.184446 -0.164075 -0.322851 0.155236 -0.072525 -0.087317 0.117321 -0.082006 0.041300 -0.144176 0.230006 -0.303298 0.296652 -0.082487 0.070200 -0.067071 -0.129838 -0.067655 0.051743 0.284037 -0.231447 -0.440384 -0.168833 -0.015285 0.255466 0.093481 0.150581 -0.074248 -0.114333 -0.027781 -0.093677 -0.117543 -0.103001 -0.078216 0.116755 0.326694 0.072172 0.199172 -0.068748 -0.214876 0.369212 0.369752 -0.109947 -0.223638 0.119930 -0.026877 0.213660 -0.221409 0.105862 0.086762 -0.169190 0.089478 -0.039838 0.260348 0.093857 -0.084421 0.040142 -0.006742 -0.219268 -0.049632 -0.227271 -0.338988 0.021239 0.000775 -0.040040 -0.506713 0.073178 0.121607 0.370515 0.452619 -0.049757 -0.202203 0.043927 -0.171230 -0.158716 -0.042300 0.213218 -0.317617 -0.314755 -0.127940 -0.311671 0.136680 0.028279 -0.017298 0.007944 -0.119208 -0.066337 0.419079 -0.211161 -0.069492 0.071329 0.117307 0.161859 -0.176298 -0.281597 -0.179249 -0.149563 -0.237643 0.186314 -0.216094 -0.045307 -0.131439 -0.040523 -0.014268 0.296740 0.005870 -0.071766 0.124510 -0.257268 -0.141699 -0.094531 -0.577289 -0.013876 -0.164260 0.019968 -0.025199 0.035825 -0.016357 0.007437 0.072995 -0.017732 0.344147 -0.079719 0.032134 0.150561 0.105964 0.118434 0.073904 -0.436829 0.045113 0.335275 0.039420 0.278332 -0.092718 0.346935 0.188419 -0.053141 0.181451 -0.319510 0.019039 0.190242 -0.132319 -0.007358 0.174951 0.069021 0.224011 0.034675 -0.080055 -0.205578 0.136398 -0.079583 0.089514 0.208910 0.063083 0.059593 0.031689 -0.058369 0.207898 -0.352466 0.022251 -0.032125 0.057610 0.231184 0.103633 0.198212 -0.129454 -0.353288 -0.087522 -0.007501 0.037365 -0.022292 -0.056581 0.006992 -0.146024 -0.054826 -0.096415 -0.112977
jaguar -0.250240 0.016989 -0.258916 -0.084863 0.033859 0.127001 -0.517654 -0.134470 -0.174190 0.187835 0.098993 -0.178350 -0.085362 0.145598 0.033951 0.073260 0.159744 -0.154297 0.144610 -0.117670 0.162166 0.094633 -0.070484 -0.155079 0.036405 -0.038501 -0.014268 0.036289 -0.030045 -0.333082 -0.114149 -0.042808 -0.113586 -0.063818 0.142180 -0.064524 0.126379 0.146273 -0.104987 0.287642 0.064457 -0.041379 -0.147989 -0.168423 -0.033600 -0.066939 0.038989 -0.109170 0.098027 0.046047 -0.043098 -0.008084 0.236409 -0.143930 -0.223005 -0.028095 0.016329 0.124236 0.083057 -0.166754 -0.130672 -0.130033 0.105378 0.414848 0.188489 -0.005702 -0.060022 -0.030637 -0.050817 0.397518 -0.136815 0.041648 -0.019767 0.169907 0.194859 0.073591 0.141408 0.196890 -0.165838 0.154608 0.164701 0.153733 -0.155048 0.229491 -0.092392 -0.270016 0.067419 0.202063 0.104090 0.248824 -0.214210 -0.042968 -0.087217 0.030799 -0.300612 0.091844 -0.090809 -0.024302 -0.208579 -0.108796 -0.139011 -0.157431 0.084997 0.115253 0.235952 0.079496 -0.073774 0.138645 -0.000193 -0.169728 -0.113061 0.012351 -0.081745 0.124240 0.172142 -0.217313 -0.003523 0.007935 -0.066311 -0.188269 0.142972 0.257390 -0.399610 0.122650 -0.221307 -0.236447 0.136465 -0.230969 0.212149 -0.334253 -0.046883 -0.090994 -0.237949 0.428788 0.324456 -0.088421 0.128835 0.003950 0.215918 -0.012122 0.068852 -0.388287 -0.043872 -0.083535 0.346658 -0.203564 0.078819 -0.024118 0.027434 0.089657 -0.053314 -0.071577 0.038821 0.057989 -0.050226 0.137281 0.125677 0.065013 0.225488 0.154267 0.024250 0.053953 -0.252119 -0.211317 -0.151474 0.030843 0.165940 -0.021026 0.047698 -0.113908 -0.128196 0.260094 -0.114358 0.100609 -0.048972 -0.028653 0.003438 0.121593 -0.017379 0.141550 -0.170356 0.132205 -0.159165 -0.252637 -0.020483 0.062860 -0.108314 0.047702 -0.143615 0.127721 0.122659 0.134161 0.078023 -0.283803 -0.109959 0.144242 0.146201 -0.029558 -0.055958 0.393304 0.089398 -0.006597 -0.028104 0.285937 -0.081553 -0.313253 -0.204215 -0.212073 -0.029100 0.078088 0.426825 -0.134550 0.176857 0.170126 0.272356 0.146549 -0.070672 0.199349 -0.095254 0.055641 0.069700 -0.009362 -0.333567 -0.018126 -0.282824 0.027078 -0.238889 -0.107749 -0.215859 0.230889 0.068971 -0.026023 0.029270 -0.074249 -0.229441 -0.007694 -0.436162 0.074261 -0.046885 -0.060904 0.235823 0.027314 0.188769 0.208685 0.168687 -0.288952 -0.167197 0.052636 0.322109 -0.207783 0.033166 -0.392639 0.146315 0.129406 0.208407 0.187064 0.234392 0.200951 -0.078369 0.005211 0.115615 -0.256292 -0.027642 0.107368 0.170905 -0.004196 -0.039357 0.097883 -0.078334 0.179401 0.016509 0.132585 0.102711 0.025004 0.176270 -0.043486 0.156136 0.050503 0.208523 -0.063651 -0.133175 0.015866 -0.043436 -0.093978 0.168000 -0.287227 -0.148836 0.237412 -0.091264 -0.029080 -0.280021 0.163949 -0.300776 -0.355834 -0.145366 0.131690 -0.017179 0.053424 0.079442 -0.206741
Noah 0.217331 0.223144 0.005439 -0.116949 0.129099 0.174392 -0.264765 -0.240937 -0.104111 0.098466 -0.371672 0.050735 0.079562 -0.208715 -0.314779 0.022139 0.017357 -0.116923 0.287092 -0.016783 0.040214 -0.420948 -0.175404 0.161465 0.132357 0.114139 0.127434 0.443821 -0.219034 0.057783 0.131136 -0.156947 0.141610 -0.005081 0.212322 0.034513 0.150387 0.075464 -0.038843 0.199521 -0.025997 -0.052240 -0.170281 -0.183388 -0.099466 0.221294 0.073964 0.321656 -0.045626 -0.107036 -0.043357 0.087492 0.419013 -0.082319 0.055175 -0.240695 -0.032052 0.304127 -0.020840 -0.143574 -0.082357 0.229698 -0.046551 0.101743 -0.090436 -0.085843 -0.059177 0.063498 -0.224458 0.168787 -0.265222 -0.024441 -0.111543 0.288875 0.203121 0.085574 -0.044436 0.049778 0.071688 0.077504 -0.205982 0.312889 0.123440 0.262228 -0.337089 0.169743 -0.059013 -0.071818 -0.078835 -0.048082 0.227617 0.197257 0.010887 -0.351198 -0.037378 -0.210265 -0.175652 -0.237734 0.245785 -0.047418 0.055036 0.000592 0.215896 0.018785 0.077476 -0.146930 0.084144 -0.110046 0.489549 0.189766 -0.461445 0.288788 0.302298 -0.027878 0.082884 -0.008086 -0.169933 -0.026401 0.028131 0.072810 0.130710 -0.050858 -0.154671 0.117387 -0.191060 0.024689 0.005311 0.023016 -0.236952 -0.086214 0.077455 -0.093674 -0.129378 0.024439 0.057777 0.170310 0.009833 0.030163 0.067772 -0.093646 0.015474 -0.084890 0.080807 -0.003645 -0.245336 -0.101442 0.120285 0.189011 0.021023 0.003651 -0.148045 0.167787 -0.016525 -0.133107 0.014859 0.041328 0.081686 -0.120294 0.142936 0.267545 0.004753 0.008383 -0.215893 0.024025 0.196487 0.197199 -0.155401 0.024865 -0.020317 0.171140 0.159565 0.426220 0.004547 -0.072400 0.018316 -0.007315 0.238879 0.007248 0.039011 0.241782 -0.003021 0.095143 -0.345948 -0.233098 -0.372017 0.227782 -0.021385 -0.113223 -0.115613 0.059834 0.015164 0.206030 0.136509 0.126959 0.364650 0.004955 0.088234 -0.337253 -0.036745 0.043819 -0.080958 -0.228910 0.022561 -0.123258 0.120719 0.263918 0.055459 -0.129270 -0.263033 0.088051 0.184000 -0.140115 0.213472 0.122120 0.348478 0.254120 -0.053445 -0.128040 0.190361 -0.075942 -0.323843 0.002491 -0.150374 -0.082152 -0.145013 0.186146 -0.287507 -0.025858 -0.103163 -0.171585 0.007134 -0.058136 0.084721 -0.252446 -0.519999 -0.122284 0.047599 -0.059950 0.195561 -0.041014 -0.001234 -0.069783 0.131485 0.362306 0.355351 -0.036035 0.070581 0.231042 0.172225 -0.401111 -0.057603 -0.026759 0.089298 0.032283 0.142980 0.300228 -0.246035 0.118257 0.198432 0.233031 -0.065558 -0.106946 -0.104836 0.016497 -0.096514 0.107475 0.263312 0.440255 0.409821 0.021421 0.064993 0.174614 -0.001302 -0.202597 -0.160128 0.109031 0.098839 -0.059148 0.183464 -0.050406 0.202839 -0.266006 0.074922 0.040808 0.064419 0.119382 0.066972 0.108423 -0.069276 -0.197522 -0.065158 -0.059953 -0.141203 0.112948 -0.070392 -0.138297 -0.105629 0.464410 0.192729 0.066047
Jupiter 0.096302 0.128120 0.102670 0.042265 0.071408 0.076813 -0.321084 -0.341292 -0.340931 0.399549 -0.294277 -0.220472 -0.107313 0.187350 -0.171244 -0.220947 -0.071279 -0.281381 0.277287 0.052607 0.182572 -0.511487 -0.166012 -0.029226 -0.035309 0.136269 0.184528 0.031983 -0.299168 0.268287 0.195996 -0.068744 -0.225535 -0.296348 0.207289 0.202894 0.039181 0.097836 -0.097007 0.197245 0.191672 -0.521906 0.031153 0.182923 0.221492 -0.054681 -0.255590 0.040336 0.016202 -0.209751 0.340628 0.159346 -0.012419 0.145200 -0.114730 -0.094009 -0.068954 -0.047252 0.225390 -0.183401 0.158621 0.161481 -0.099945 0.182744 0.220410 -0.057641 -0.149936 0.031965 -0.500836 0.365107 -0.054650 -0.137670 -0.298294 0.246550 0.120446 0.050694 -0.219818 0.508472 -0.067680 0.415457 -0.064603 0.487935 0.009366 0.663340 -0.470307 -0.390250 0.014967 0.191631 0.138945 0.163387 -0.269754 0.595828 -0.382392 0.239877 0.043430 0.113272 -0.064768 -0.349928 -0.007796 -0.142739 0.156412 -0.171714 -0.051516 0.199439 -0.050105 -0.209894 0.249514 0.044340 0.019647 0.156619 0.006503 0.063256 0.259245 -0.012619 0.258080 -0.004437 0.117154 -0.056097 -0.176234 0.207499 0.307626 -0.286704 -0.353052 0.249809 -0.110832 -0.200321 -0.212691 -0.017093 -0.133375 -0.051136 -0.191546 0.040535 -0.233412 0.572648 -0.123236 0.340454 -0.106689 -0.066369 0.172829 -0.273741 -0.014987 0.044491 0.233755 -0.189841 -0.277528 -0.192147 -0.013736 0.125184 0.211921 0.025762 -0.090655 0.049151 -0.124298 0.036645 0.055188 -0.149829 0.034258 0.219874 0.343172 0.047308 0.091006 -0.034021 -0.367083 0.446446 0.121721 -0.217229 -0.270054 0.040179 -0.090369 0.225871 -0.039498 0.110038 -0.140069 -0.212742 -0.250287 -0.274466 0.332777 -0.016091 -0.128200 0.428002 0.174924 -0.231481 0.216832 -0.279493 -0.280066 0.065295 0.074362 0.012338 -0.399687 0.303294 -0.094457 0.035180 0.298531 0.076035 -0.169534 0.016644 0.156687 -0.168101 0.072328 0.202483 -0.075339 -0.047983 -0.214497 -0.264813 0.261564 -0.015768 0.119730 -0.131776 0.002405 -0.279843 0.025777 -0.179589 -0.098430 0.065956 0.195032 -0.068326 -0.027389 -0.187642 -0.241201 -0.023818 -0.117611 0.316164 -0.586459 -0.214895 -0.276507 0.067700 -0.002460 0.290541 -0.186845 0.126684 -0.018667 -0.255047 0.020404 -0.086465 -0.713875 -0.111583 -0.098192 -0.135979 0.180304 0.013786 0.107552 -0.048143 -0.031191 0.169191 0.615650 -0.113808 -0.256387 0.145920 0.179890 -0.184220 0.229850 -0.364250 -0.029242 0.129438 0.172158 0.444470 -0.060624 0.365441 0.462732 0.049935 0.189032 -0.185518 0.018338 0.130861 -0.081197 0.146648 0.112538 0.003052 0.584242 0.227540 -0.243365 -0.071248 -0.000708 -0.331258 -0.068836 0.201660 0.043838 0.099166 -0.030428 -0.053060 0.169595 -0.314033 0.187965 -0.016173 0.070791 0.168547 0.164563 0.144392 -0.077268 -0.166297 -0.253889 0.176580 -0.016707 -0.272811 -0.238404 -0.012638 -0.021073 -0.198591 -0.117790 0.025711
Uranus 0.180703 0.113346 -0.056516 -0.169586 0.192839 0.038205 -0.447447 -0.210501 -0.145931 0.383273 -0.317120 0.273623 0.074730 0.119242 -0.049872 0.208533 -0.064340 0.064472 0.128641 0.083660 0.361194 -0.318408 -0.492534 -0.362824 -0.229757 -0.135717 0.278086 -0.125630 -0.133485 0.076869 0.073080 -0.062460 0.077193 -0.135660 0.422470 -0.101681 0.154672 0.267901 -0.184684 0.105070 0.021830 -0.552616 0.059559 -0.143691 0.032522 0.115271 -0.378043 0.037467 0.058377 -0.194934 0.095258 0.038899 0.223482 0.111507 -0.237895 -0.093744 0.035342 0.003572 0.114907 -0.422104 -0.061371 -0.004487 0.240877 0.122304 0.106123 -0.026670 -0.310120 0.128699 -0.521586 0.339932 -0.156766 -0.085514 -0.423039 0.252932 0.244541 -0.195181 -0.052447 0.167044 0.019749 0.187599 0.172064 0.245412 0.163264 0.581025 -0.495060 -0.266635 -0.081597 -0.003326 -0.064365 -0.174065 0.058935 0.502020 -0.325316 0.026821 0.181568 -0.030968 0.091399 -0.552036 0.037277 0.049382 0.077955 -0.031415 0.142631 0.358875 -0.364608 -0.023579 0.102417 0.045272 0.239751 0.096713 0.232090 -0.108776 0.123270 -0.062651 0.240875 -0.157239 -0.243360 -0.112281 -0.006088 0.150542 0.238029 -0.335782 -0.440921 0.117621 0.108631 -0.020723 -0.059986 -0.113413 -0.145139 0.207983 -0.320180 -0.095296 -0.116961 0.191077 0.248695 0.200835 -0.027088 0.098065 -0.110115 -0.062294 0.007654 -0.117631 -0.014097 -0.296283 -0.281362 -0.254416 -0.264293 0.109626 0.121723 -0.109770 -0.235600 0.121930 0.207976 -0.090156 0.066755 -0.271939 0.030951 0.197878 0.209298 -0.063611 0.254786 -0.193282 -0.194053 0.289300 0.352618 -0.325135 -0.182153 0.142500 -0.134833 0.312835 -0.500826 -0.032385 0.175636 -0.072746 -0.217498 -0.072423 0.183708 -0.005420 -0.237684 0.312038 -0.006458 -0.157633 0.193158 -0.265812 -0.285628 -0.013065 -0.349924 -0.054685 -0.395833 0.159672 -0.099952 -0.146732 0.192593 0.018876 0.064984 0.096806 -0.115572 -0.224283 -0.061007 0.269433 -0.214570 0.075402 -0.200163 -0.184450 0.250459 0.097490 -0.005454 -0.227921 -0.299190 -0.066015 0.238017 -0.201755 -0.366380 0.149341 0.121104 -0.124848 -0.053208 -0.087785 -0.326486 0.086302 -0.064387 -0.057287 -0.117999 0.124212 -0.088788 -0.102520 -0.118578 0.288059 -0.016268 0.113514 -0.225259 -0.379110 -0.078404 -0.399371 -0.168407 0.196265 -0.167192 0.235574 -0.128393 0.141074 0.107973 -0.063724 0.404420 0.084553 0.557299 -0.345531 -0.049997 0.341103 0.079423 -0.134508 0.147819 -0.225918 -0.132562 0.184907 0.079672 0.152446 -0.090892 0.505329 0.365459 0.158243 0.190598 -0.152307 -0.096833 0.127380 -0.016725 -0.030784 0.033676 -0.132150 0.372006 -0.041057 -0.258952 -0.239738 0.182922 -0.202402 0.006161 0.141507 0.131288 0.087846 0.139125 0.170166 0.169909 -0.153344 0.005724 -0.096388 -0.144897 -0.000341 0.178151 0.230253 -0.065966 0.019968 -0.124724 0.042448 -0.111077 -0.231816 0.009833 0.086614 0.049749 0.022509 -0.044590 -0.150263
crucifixion 0.135398 0.069352 0.277141 -0.376048 0.193860 -0.234574 -0.352882 0.098052 -0.244315 0.101531 -0.360515 0.443683 0.070103 -0.205716 -0.328048 0.087880 -0.102296 0.049956 0.112859 -0.113619 0.150597 -0.114244 -0.293920 0.031541 0.308493 0.299706 -0.356737 0.091840 -0.463677 -0.185929 0.202273 -0.165922 0.150182 -0.037486 0.231814 0.428525 0.068264 0.146767 0.008792 0.151517 0.421808 0.041275 -0.355949 -0.243896 -0.119326 0.239222 0.301384 0.071179 -0.120982 -0.202723 -0.056852 0.178380 0.403318 0.079404 0.055390 -0.230139 -0.097066 -0.052873 -0.015892 0.068337 -0.216373 0.209634 0.016948 -0.082530 -0.007724 0.048704 0.051511 0.277224 -0.246089 0.031490 -0.298377 -0.330062 -0.425670 -0.117145 0.200810 -0.128630 0.033052 -0.065724 -0.163902 0.134626 -0.062371 0.144622 0.253624 0.468829 -0.053181 -0.089289 0.092044 0.195161 -0.126811 0.081124 0.052873 0.355106 0.234589 0.074271 -0.024839 -0.012066 0.115614 0.157346 -0.342295 -0.386864 -0.011846 0.009730 0.310039 0.014068 -0.060998 0.135810 0.028422 -0.301017 0.234620 0.189588 -0.237530 -0.063792 0.258772 -0.004375 0.013287 -0.152890 0.191609 -0.424963 -0.035102 0.029960 0.571868 -0.150847 -0.156900 -0.022262 0.099139 0.189608 -0.063816 -0.287446 -0.358877 -0.266249 -0.201563 -0.199738 -0.014972 0.153872 0.279815 0.140517 0.325171 0.130763 0.123287 -0.082467 0.106480 -0.214175 0.200862 0.109599 -0.178715 -0.418760 0.083657 -0.042233 -0.338252 0.032568 -0.088552 0.092521 -0.395373 0.023841 0.111262 -0.224486 0.024818 -0.275315 -0.061182 0.028241 -0.395209 0.063120 -0.206873 0.166567 0.252198 0.073689 -0.053714 0.189248 -0.015945 0.010713 0.138785 0.146193 0.082394 0.016664 0.003791 0.045262 0.084613 -0.089388 -0.260657 0.197004 0.048996 0.022398 -0.204470 -0.258687 -0.311354 0.195999 0.042070 -0.203773 0.062377 0.455167 0.153897 -0.269067 0.048830 0.536726 0.321685 0.087286 0.244777 -0.321911 0.000138 -0.047895 0.314012 -0.092914 -0.117538 -0.384023 0.037242 0.401248 -0.030726 -0.388976 -0.188986 0.287565 0.051427 -0.114091 0.020461 -0.300637 0.175696 0.000465 -0.003854 -0.260407 0.043151 0.007884 0.063976 -0.078077 -0.303540 -0.380343 0.055073 0.324288 0.064052 0.054607 0.076687 -0.176721 -0.223126 -0.209638 -0.191605 -0.420673 -0.356261 -0.285124 -0.015039 0.104445 -0.046243 0.097802 0.229458 0.183332 0.176164 -0.088843 0.343357 0.002982 0.111249 0.200318 0.172076 -0.067349 0.212954 -0.501092 -0.164341 -0.182381 0.263355 0.302313 -0.179893 0.238256 0.244234 0.278478 -0.244482 0.078838 0.153605 0.060900 -0.201366 0.245468 0.278725 -0.034199 0.305278 0.179741 0.076322 -0.163748 0.050052 -0.172615 0.086856 0.355582 0.160079 -0.306403 0.147916 -0.110430 0.295420 -0.307668 0.014339 -0.005569 -0.006559 0.157953 0.208736 0.241791 -0.190632 -0.388312 0.195510 -0.066635 0.017428 0.170236 -0.302999 -0.076759 -0.228165 -0.045797 0.327920 0.123518
Bridgestone 0.107960 -0.010657 -0.115190 -0.000421 0.268076 -0.050265 0.053668 0.109460 0.051198 0.100183 -0.225294 -0.069953 0.106648 -0.010824 -0.181402 0.122062 -0.011999 -0.102510 0.155215 0.011631 0.033340 0.052009 -0.120364 0.196128 0.066943 0.086861 0.079714 -0.047789 0.051917 0.021517 0.196796 0.176357 0.049293 -0.031809 0.130348 0.146055 0.066365 0.139510 -0.039024 0.037958 0.101308 0.108582 -0.069147 -0.002493 0.085544 -0.195057 -0.000537 0.102624 -0.029439 0.037323 -0.165398 -0.000357 0.279006 0.086734 0.004426 -0.029949 0.080569 0.235079 0.065014 -0.230025 -0.069961 0.082634 -0.014518 0.154292 -0.110386 -0.161076 0.048009 0.026307 -0.008780 0.158902 -0.005722 0.116370 -0.160499 0.074940 -0.040392 0.067706 0.147953 0.105359 -0.166542 0.123833 0.036751 0.006338 -0.088385 0.190514 -0.185085 -0.168900 0.199936 0.054331 0.063195 0.134973 -0.008705 0.023259 0.059306 -0.009911 -0.152424 0.101825 -0.126202 -0.002670 -0.093410 0.183752 0.038690 -0.038545 -0.072093 -0.058416 -0.172640 -0.092734 0.005877 0.058366 0.011307 -0.156635 0.114592 -0.146945 0.111468 0.090923 -0.068445 0.088229 0.130286 0.124091 0.096424 0.002760 0.257759 0.188329 0.105289 0.026083 -0.140890 -0.232260 0.230850 0.065168 0.215629 -0.019245 -0.039402 0.001154 0.128007 0.098015 -0.155221 0.052021 0.148994 -0.074022 -0.120590 -0.054391 -0.064908 -0.130489 0.023459 -0.195081 -0.028583 -0.105884 -0.011785 -0.039582 0.055211 0.165805 0.026159 0.121314 -0.111202 0.102430 -0.007612 -0.006378 -0.065105 -0.019666 -0.234947 -0.030725 -0.234668 -0.011331 0.015728 0.049127 0.060229 0.172731 0.073222 -0.133638 0.167749 0.044941 -0.192337 0.102371 -0.011630 0.040962 -0.114376 0.096451 0.056040 0.010869 0.061267 0.046512 -0.041537 0.094579 -0.006670 -0.073374 -0.107417 -0.105651 -0.024226 0.115081 0.102763 -0.078600 -0.079365 0.153456 -0.004094 0.058816 -0.128007 -0.173663 -0.050682 -0.068658 -0.071193 0.071276 -0.035882 -0.071918 0.015290 -0.187565 -0.034758 -0.133135 -0.105676 0.025961 0.002438 -0.150286 0.101130 -0.203172 0.123444 -0.215054 0.126616 -0.067317 0.081196 0.074838 -0.105137 0.066688 -0.113382 -0.233453 0.054653 0.132520 -0.061136 0.221281 -0.053150 -0.047879 -0.020737 -0.333892 0.025251 -0.024276 -0.010783 0.050584 -0.129379 0.088157 -0.130515 0.047113 -0.094298 0.308006 -0.028449 -0.083946 0.098861 0.020481 0.140288 0.039642 0.163074 0.030576 -0.114233 -0.186102 -0.095371 0.087664 -0.215893 0.152316 -0.130637 0.004857 0.026116 -0.035307 -0.095840 -0.023874 0.002773 0.059549 -0.073369 0.045437 -0.048308 -0.227875 -0.058387 -0.108422 -0.192517 0.012159 0.200232 -0.107941 0.061636 -0.126824 0.110523 0.165642 0.022918 0.062234 0.161750 0.105104 -0.018407 0.070729 -0.073484 0.026390 -0.030781 -0.094268 0.203192 0.008363 -0.166196 0.040676 0.033791 -0.130339 0.209578 0.046281 -0.054906 0.081656 -0.049764 0.046725 0.144131 0.174162
Sun 0.246924 0.249149 0.070784 -0.061714 -0.115331 -0.089744 -0.067369 0.097390 -0.265881 0.236448 -0.171972 -0.106673 0.193979 0.100027 -0.117099 -0.148824 -0.160076 -0.251153 0.388872 -0.088755 0.093144 0.050766 0.008841 0.018433 -0.185017 -0.029039 0.119072 0.060196 -0.148427 -0.070896 -0.025195 0.132385 0.097708 0.081372 0.094605 0.260378 0.073039 0.085932 -0.089969 0.144648 0.274379 -0.080217 -0.100824 0.077743 0.300180 -0.117624 -0.149102 -0.111181 0.099815 -0.010438 0.377837 0.116191 0.010443 0.227004 -0.106355 0.152274 0.019951 0.062203 0.344119 -0.337585 -0.127772 -0.015758 -0.016792 0.093935 0.145506 -0.031542 0.073061 0.046467 -0.001954 0.106821 0.076908 -0.067435 -0.283409 0.060411 0.371490 0.268230 -0.015610 0.300360 -0.060511 0.202485 -0.083674 0.165322 -0.128595 0.532198 -0.362997 -0.148651 0.103255 0.219131 0.276603 0.209479 -0.168826 0.483236 -0.079572 0.156305 0.021292 -0.223950 -0.272029 -0.449307 0.049981 0.280620 0.190175 0.010258 -0.067290 -0.175441 -0.095096 -0.173957 0.021298 -0.306747 0.256214 -0.048329 0.047392 -0.007056 0.298739 -0.187389 0.200950 0.035599 -0.064445 -0.005285 0.002391 -0.019128 0.174443 -0.248667 -0.247840 0.174873 -0.061163 -0.208167 0.028541 -0.145981 -0.199691 0.033062 -0.117558 -0.035425 -0.139404 0.144908 -0.210471 -0.052632 -0.065400 0.062234 0.069929 -0.171878 0.054321 0.282633 0.065141 -0.176977 0.013867 -0.058799 0.102642 0.006352 0.219234 0.139034 -0.352488 -0.004333 0.098506 -0.016506 0.044153 -0.169590 0.204710 -0.119804 -0.024065 0.186574 -0.055121 0.091065 -0.137633 0.278298 0.268146 -0.069746 -0.004528 0.060332 -0.094566 0.068745 -0.000206 0.091420 -0.265400 -0.214973 -0.141590 -0.092163 0.301938 0.046498 0.000046 0.088574 0.046298 0.059217 0.076798 -0.110422 -0.347603 0.145560 0.040869 -0.014420 -0.293336 0.042949 0.074958 0.095039 0.014955 0.309870 -0.150640 0.132320 -0.051650 -0.002031 -0.078487 0.028276 -0.072082 -0.144942 -0.148726 -0.127651 0.022372 -0.030330 -0.013313 0.022853 -0.008302 -0.189981 0.251316 -0.192569 -0.132317 -0.023337 0.135722 -0.020037 0.061717 -0.199723 -0.147487 -0.135626 0.029508 0.111644 -0.123040 -0.080085 -0.006007 0.227786 0.077646 0.169015 0.020607 -0.273987 -0.059845 0.078494 -0.061062 -0.345352 -0.610047 -0.051013 -0.101148 -0.185794 0.106060 0.184011 0.233136 0.029111 0.126814 0.064764 0.274181 0.097255 -0.036618 0.335196 0.249218 -0.125887 0.115194 -0.257288 0.064411 0.069048 0.236428 0.049650 0.008521 0.277230 0.166251 0.012297 0.056269 -0.075529 0.025963 -0.014357 0.169207 -0.132853 0.159805 0.041845 0.414184 0.126628 -0.151459 -0.158814 -0.353040 -0.176051 0.020372 0.176048 0.205078 0.003529 0.020676 -0.246979 0.291864 -0.360793 0.057993 0.181415 -0.133173 -0.079161 0.058250 -0.050170 -0.168932 -0.141975 -0.251116 0.157383 0.233928 -0.070480 0.095610 -0.034580 -0.227999 -0.069331 -0.135689 -0.126786
HP 0.465674 0.249905 -0.126941 -0.136270 -0.116259 -0.189614 -0.258936 -0.144814 -0.252773 0.364721 -0.147254 -0.313781 0.248628 -0.100589 -0.140253 -0.272695 0.006676 -0.261863 0.203942 -0.021416 0.071539 0.033761 0.105106 -0.029298 -0.065166 -0.130312 0.114560 -0.181327 -0.113217 -0.095008 -0.162314 0.175817 -0.113959 0.006214 0.168171 0.278436 0.111823 0.477254 0.071157 0.341175 0.027124 -0.167079 -0.150559 0.233259 0.105524 0.030603 -0.268346 -0.012839 0.083232 -0.200565 0.381006 -0.028863 -0.024813 0.034632 0.056901 0.244606 -0.009461 -0.102390 0.264727 -0.168265 -0.264411 0.136911 -0.083734 -0.067514 0.105632 0.203582 -0.237249 0.067980 0.039661 0.328266 0.061289 0.006102 -0.120653 0.123625 0.120920 0.327922 0.252961 0.089406 0.097609 0.120425 -0.108621 -0.084029 -0.168920 0.330423 -0.281589 -0.274270 0.056493 0.043965 0.245174 -0.085098 -0.000350 0.326528 -0.059871 -0.157631 -0.038744 -0.074144 -0.067755 -0.242735 0.135257 -0.103314 -0.096479 -0.166295 0.158540 -0.285995 -0.113066 -0.123767 -0.149417 -0.002413 0.096896 -0.158688 0.000511 0.024607 0.229060 -0.340949 0.255601 0.088741 0.208175 -0.102986 0.148317 -0.082019 -0.036707 0.128802 -0.039804 -0.146450 -0.046803 -0.242371 0.183589 0.038741 -0.073680 -0.073374 -0.312104 0.002845 -0.089858 0.226185 -0.160968 -0.350849 -0.035072 -0.329592 0.044617 -0.119308 0.036344 0.188895 -0.125943 -0.097052 0.020171 0.046682 0.008549 -0.079675 0.083999 0.118558 -0.493488 0.140081 0.094822 0.237043 0.113387 -0.321857 0.006838 -0.103934 -0.115081 -0.047817 -0.188208 0.116911 0.099699 0.169561 0.251850 -0.183514 -0.080417 -0.085127 -0.038291 -0.027770 -0.238035 0.592655 -0.043568 -0.134255 0.127121 0.050605 0.499816 0.089399 0.030523 -0.196181 0.002822 0.043456 0.346301 0.030276 -0.171379 0.183976 -0.135755 0.104052 -0.190014 -0.194913 0.166299 0.176837 -0.038772 0.287708 -0.009030 -0.159968 0.323708 0.154918 -0.052423 0.153576 0.064439 -0.247873 0.085059 -0.088097 0.079372 -0.012569 -0.119370 0.035123 0.300029 -0.256156 0.174354 -0.147287 0.087382 -0.071282 0.012567 -0.067847 0.224408 -0.288129 -0.334995 -0.040757 -0.002900 0.042519 -0.282281 -0.046377 0.156084 0.139627 -0.037138 0.292128 -0.044137 -0.341560 -0.205118 -0.021873 0.026469 -0.084710 -0.450817 -0.251299 -0.129688 -0.153722 0.057688 0.082107 0.386744 -0.043655 -0.053666 0.291602 0.001136 0.033806 0.107177 0.148137 0.153009 0.083419 0.026638 -0.059092 -0.123553 0.215710 0.123196 -0.144848 0.008390 0.260474 -0.114651 -0.016981 0.119952 -0.001876 0.172627 0.021445 0.252485 -0.272163 0.163303 0.337399 0.143193 0.306898 -0.131071 0.168572 -0.220910 -0.178862 0.008611 0.326208 0.382817 0.348406 -0.044062 -0.013983 0.186922 -0.269477 -0.009008 0.414127 0.111522 -0.332773 0.218113 -0.162717 -0.014125 -0.055849 -0.214311 0.015548 0.344198 -0.086415 -0.066582 -0.063167 0.025576 -0.062914 -0.016917 -0.183661
February 0.146497 0.266901 -0.138667 0.015457 0.113240 0.119340 -0.190683 -0.072792 -0.195780 0.223331 -0.550289 0.131713 -0.027477 0.151049 -0.115741 -0.169941 -0.067213 -0.048296 0.257897 0.212071 0.163114 -0.216419 0.310100 -0.147932 0.054684 -0.050593 0.119443 -0.082500 -0.342849 0.293546 0.147537 0.411280 -0.174865 -0.118469 0.155137 0.341242 0.047695 0.012054 -0.469791 -0.109372 0.303840 -0.011258 -0.017711 -0.188499 -0.168295 0.054301 -0.214833 -0.040082 0.259901 -0.205975 0.257093 0.145808 0.282131 -0.120806 0.186925 -0.013193 -0.344563 0.263998 -0.073768 0.369828 0.119389 -0.249871 0.071334 -0.105084 -0.068846 -0.287359 -0.051380 0.105777 0.147271 0.057443 0.143995 -0.220457 0.264432 0.099301 0.403850 0.312651 0.036425 0.251352 0.267174 -0.312235 -0.136677 0.110151 0.165171 0.211047 -0.079674 -0.233418 0.184275 -0.019449 0.113134 0.089235 0.084725 0.193064 -0.034366 -0.082878 0.071111 0.473987 -0.128411 -0.260253 -0.116498 -0.099037 -0.006300 -0.231612 -0.118378 0.011749 -0.205643 -0.298262 -0.241261 0.081459 0.035809 0.084158 -0.013195 -0.132835 0.283240 -0.313965 0.191643 0.001148 0.295143 0.201885 0.216375 0.190418 -0.186048 -0.122148 0.010591 0.116998 -0.064129 0.143069 0.019988 -0.036580 -0.110137 -0.085054 -0.256334 0.345184 0.023973 -0.289632 -0.092834 0.349280 -0.217120 0.062302 -0.237878 -0.447071 0.208123 0.216867 -0.080740 0.095597 -0.097720 -0.239347 0.045435 0.269995 0.065031 -0.347693 -0.145938 -0.085056 -0.232442 -0.034963 -0.127432 -0.037585 -0.025352 -0.305996 -0.068766 -0.066021 -0.022478 0.049194 -0.279397 0.124347 0.052876 0.258415 -0.103074 0.113417 0.151619 0.319191 0.083089 -0.008530 0.257493 0.180398 -0.226342 0.091461 0.424414 0.017297 -0.020448 0.038277 0.057646 -0.117955 0.136083 -0.008689 -0.216344 0.302162 0.315035 -0.192133 -0.220685 0.149068 -0.217382 -0.017983 0.112152 -0.013073 0.060969 -0.137207 0.053396 0.065805 0.063806 0.296522 0.073902 -0.482396 -0.028898 0.108007 -0.228533 0.174440 0.221250 0.141266 -0.012597 -0.015922 -0.000688 0.070068 -0.107892 0.121046 -0.127025 -0.366250 0.264252 -0.093332 0.289496 -0.029007 -0.547702 0.197068 0.206673 0.030776 -0.083987 0.199527 -0.251285 0.093002 0.130145 0.026966 0.139519 -0.206191 0.009410 -0.220924 -0.213098 0.000431 0.062393 0.080587 -0.032646 0.212562 -0.104904 0.335706 0.116881 -0.232501 0.466464 -0.179596 0.096555 0.199761 -0.213343 -0.115489 0.122774 0.044857 -0.119423 -0.312155 0.318461 0.033940 -0.001013 0.174594 0.133016 0.391751 -0.222063 -0.030775 -0.044589 0.201472 0.252870 -0.088077 0.209795 0.059587 0.032878 -0.065583 -0.078004 0.115791 0.038460 0.101708 0.040735 0.246001 0.075155 0.312068 0.029129 0.043352 0.130463 -0.301450 -0.083385 0.304928 -0.314950 -0.085761 0.306041 -0.081767 0.204332 0.230555 0.069755 -0.210967 -0.238953 -0.584261 0.264783 0.159213 0.081638 -0.278913 0.045003 -0.175496
Rio_de_Janeiro 0.269745 -0.041363 -0.348541 0.001870 0.282125 0.107023 -0.294268 0.141877 -0.187353 0.091024 -0.172268 -0.193232 -0.008158 0.115023 -0.107146 0.036066 0.064328 -0.100870 -0.129526 -0.083687 -0.034980 -0.210421 -0.100430 -0.117403 0.145938 -0.113152 0.142905 0.090118 0.065693 0.054629 -0.104575 0.201688 -0.209312 -0.599626 0.041069 -0.071291 -0.016494 0.106130 -0.231842 0.019779 0.014619 -0.229269 0.112032 -0.132669 -0.041434 0.257640 0.152277 -0.001817 0.041762 -0.337793 0.239122 0.491769 0.062546 -0.162676 0.005091 -0.031198 -0.050116 0.232145 -0.151915 -0.100087 0.217256 -0.214633 -0.071584 0.431697 -0.236441 -0.332092 0.036409 -0.085320 -0.197370 0.240704 0.071803 -0.232412 0.056305 -0.198806 0.204470 0.335081 0.073773 -0.006992 -0.000222 -0.281834 -0.028085 -0.062610 0.091222 0.242452 -0.210158 0.067959 0.401419 -0.003742 0.082312 0.053733 0.392677 -0.137789 0.162676 -0.203054 0.023031 0.289785 0.032353 -0.360173 -0.219247 0.050359 0.066376 -0.246899 -0.209931 -0.135143 -0.061213 -0.151663 0.176530 0.055100 -0.305211 -0.167971 -0.357416 -0.208519 0.022940 -0.255288 -0.138360 0.222119 0.298314 -0.239144 0.160142 0.164860 -0.151599 0.209942 0.094885 -0.122075 0.020327 -0.384948 0.026295 0.099878 -0.134211 -0.184007 -0.003861 -0.057487 0.101002 -0.006501 0.053667 -0.117739 -0.045903 -0.008556 -0.012253 -0.214674 0.246984 0.068204 -0.247030 0.038722 -0.408053 -0.444521 0.112633 0.325470 0.093977 -0.037844 -0.023357 0.024328 -0.105129 -0.299892 -0.165387 0.076968 -0.025998 -0.255981 -0.012067 -0.122372 0.110246 0.094642 0.084681 0.030206 -0.074461 0.237860 0.136606 -0.060685 0.192137 0.301033 0.174279 0.259255 -0.061875 0.103152 -0.194123 -0.016436 0.383895 0.238578 0.098217 0.150713 0.106694 -0.263517 -0.027051 0.131288 0.018081 -0.135873 -0.013630 0.218040 -0.031784 -0.079066 0.044807 -0.099632 0.320962 0.310663 -0.101240 0.093117 -0.114238 -0.062847 -0.208721 -0.132477 0.074207 -0.204258 -0.088013 0.204217 0.016129 0.116018 -0.092788 -0.143382 -0.281307 -0.057210 -0.062044 -0.075488 -0.077703 0.121138 -0.098658 0.194081 0.166913 0.124888 -0.296121 0.002076 -0.468207 -0.034376 -0.194560 -0.084020 -0.224290 0.080692 -0.212506 0.099069 -0.077871 -0.076323 0.374931 -0.226396 0.070593 -0.255753 -0.196390 -0.045209 -0.061728 -0.159785 -0.007910 0.167932 -0.344334 0.324736 -0.079978 -0.096787 0.173465 -0.032827 0.034228 0.217717 0.108584 0.108458 0.283332 0.134669 -0.223760 -0.196176 0.008908 0.117426 0.109488 0.075528 0.008528 0.033583 -0.154505 0.008724 0.238002 0.094337 0.480713 -0.126293 0.292259 0.022648 -0.035809 0.301659 0.021297 -0.042730 -0.065458 -0.187775 0.237116 0.179171 0.181299 0.048116 0.113337 -0.324542 -0.033926 -0.103038 0.030853 0.090809 -0.029820 0.072938 -0.003591 -0.077066 -0.083165 -0.029736 -0.074476 0.148059 -0.374566 -0.431415 -0.084687 -0.115701 -0.114233 -0.081649 0.292112 -0.222742
Matthew 0.041702 0.230884 0.050762 -0.067475 0.078462 0.126126 -0.153105 -0.153832 -0.350855 0.116438 -0.439645 0.038443 -0.134662 -0.230886 -0.192965 0.003037 -0.078217 -0.038513 -0.040208 0.006984 0.106395 -0.173844 -0.037524 0.023506 0.134150 0.044921 -0.055438 0.151234 -0.163331 0.032612 0.258642 -0.045516 -0.030820 -0.028024 0.255887 0.017746 0.124672 0.244348 -0.120162 0.215172 -0.015276 0.007040 -0.112709 -0.194542 -0.260802 0.131438 0.260168 0.221667 0.139390 -0.060993 0.039595 0.137809 0.292146 0.005311 0.135057 -0.280880 -0.240695 0.236871 -0.023968 -0.102484 -0.072754 -0.054769 0.060762 0.011341 -0.118786 0.090148 0.136109 0.232803 0.075115 -0.018438 -0.009968 -0.290907 -0.217788 0.197910 0.387051 0.257554 0.142330 0.112809 -0.108763 0.238403 -0.119436 0.209821 0.106226 0.056535 -0.066021 0.176791 -0.020044 0.222083 0.042473 0.195479 -0.046346 0.317324 0.027239 -0.230516 -0.077442 0.173525 -0.211570 -0.116498 0.000289 -0.171671 0.091533 -0.070489 -0.080578 -0.056637 -0.164224 0.059552 -0.081694 -0.127584 0.292368 0.049162 -0.028544 0.123631 0.248928 -0.222004 -0.053908 0.039743 -0.064521 0.071294 0.017702 0.131088 0.053679 -0.248499 -0.089411 -0.074771 0.008311 -0.090643 0.104733 0.139802 -0.227905 -0.010936 -0.175508 -0.029348 -0.077849 0.047841 0.227136 0.034605 0.210640 0.130000 0.185668 -0.149912 -0.115447 -0.006449 -0.123256 -0.048049 -0.252651 -0.177422 0.153464 -0.005491 -0.086080 -0.022994 -0.062145 0.224160 -0.147903 -0.264786 -0.056940 -0.118791 0.029812 -0.182952 0.277995 0.087160 -0.050780 -0.124224 -0.139327 0.128367 -0.041139 0.089569 0.006352 0.107338 -0.113366 0.146976 0.223838 0.196078 -0.100287 -0.276728 -0.040313 0.016755 0.008232 -0.088201 0.141654 0.280483 0.097315 0.196779 -0.076367 0.215239 -0.234675 0.320755 -0.110946 -0.060541 -0.119225 -0.083127 -0.126642 0.077289 0.037610 0.159014 0.214344 0.105735 0.274868 -0.260781 -0.013296 0.119794 0.119859 -0.244803 -0.033390 -0.119020 0.235201 0.161524 -0.058136 -0.245772 -0.086872 -0.113714 0.150757 -0.235425 -0.149028 0.143367 -0.048360 0.157425 0.089793 -0.248210 -0.343448 -0.004706 -0.228814 0.231150 -0.111378 -0.131536 -0.156100 0.059388 -0.022167 -0.091440 0.049287 -0.219750 -0.045046 -0.192549 0.083704 -0.240895 -0.434998 0.021244 -0.083559 -0.008797 0.042184 0.013510 0.033739 0.076800 -0.013013 -0.163084 0.412233 0.159941 -0.030621 0.109947 0.154925 -0.180489 0.061252 0.098773 -0.064033 -0.098904 0.203445 -0.009981 0.022046 0.049457 0.298505 0.233414 -0.377257 -0.149183 -0.080384 -0.115844 0.043893 -0.032500 0.443061 0.170998 0.518897 0.270416 0.149247 -0.030817 -0.008217 -0.188993 0.000367 0.537204 0.121527 0.134134 0.128335 -0.025425 0.266810 -0.201439 0.038262 0.041449 -0.071241 0.089195 -0.092470 0.232261 0.023350 -0.163272 -0.199571 -0.139619 -0.044563 -0.118019 -0.131727 -0.060771 -0.100628 0.150259 0.219915 -0.062861
lion 0.136001 0.003482 0.142092 0.107394 -0.050945 -0.006336 -0.234498 -0.022831 -0.274376 0.025685 -0.284316 -0.029312 0.090551 -0.051891 -0.174356 0.006755 -0.079770 -0.093960 0.209474 -0.318843 0.447505 -0.113708 -0.167029 -0.030899 0.097236 0.113149 0.082938 0.121353 -0.083811 -0.145429 -0.012710 -0.438834 -0.062278 -0.134221 -0.173833 0.089212 -0.092137 0.206891 -0.119080 0.341974 0.209265 -0.028714 -0.232533 0.166142 -0.079315 0.148015 -0.021562 0.067810 -0.229442 0.133151 0.081398 -0.102522 -0.043238 -0.212919 -0.151002 -0.117947 0.162000 0.070866 0.071249 -0.024000 0.166395 0.040590 0.213493 0.330866 0.125498 -0.182132 -0.079328 0.083716 -0.021808 0.302700 -0.168545 -0.175530 0.079741 0.228477 0.290725 -0.013031 -0.096114 0.362472 -0.189725 0.309735 0.163205 0.065118 -0.360813 0.453276 -0.027834 -0.160392 0.234278 0.095166 0.080027 0.187220 -0.146146 0.340503 -0.033802 -0.103775 0.094669 -0.022922 -0.090940 -0.056262 -0.151980 -0.276034 -0.010402 -0.076752 0.080240 0.116976 0.205270 -0.055699 -0.013061 -0.146315 0.122393 0.333130 -0.048087 0.300702 0.205183 -0.090282 0.201943 0.166371 0.013955 -0.088384 -0.118094 -0.088228 0.049984 0.172503 -0.390254 0.004119 -0.322844 -0.125993 -0.081386 0.149047 0.267984 -0.175438 -0.161758 0.073407 -0.051902 0.321321 0.109456 -0.162297 0.081274 0.131095 0.188776 -0.029660 0.026578 -0.111505 -0.027739 -0.188741 -0.058431 -0.166163 -0.062350 0.039863 -0.177589 -0.143840 -0.008911 0.202011 -0.313736 0.352221 -0.057305 0.233767 0.192825 0.120639 0.433505 0.264449 -0.343053 -0.039154 -0.106585 -0.033694 0.072589 0.113239 -0.066987 0.032864 0.162471 0.167583 0.269791 0.280832 -0.314528 -0.188753 0.076794 0.161225 0.315435 0.190764 0.016248 0.237441 0.006553 0.061246 -0.347389 -0.143372 -0.632403 -0.001978 -0.278888 0.104729 -0.335664 0.143849 -0.075860 -0.139611 0.227442 0.197413 0.200721 0.015689 0.096866 -0.020847 -0.118290 -0.159851 -0.119106 -0.237381 0.126603 0.293843 0.128820 -0.064780 -0.121454 -0.187387 -0.095484 -0.069461 0.355035 -0.314307 0.232216 0.053926 -0.042738 0.123089 -0.130314 0.006498 0.093363 -0.232317 -0.265759 0.182337 -0.376562 -0.085149 -0.119473 0.160017 -0.114901 -0.044861 0.106286 0.236904 0.021844 -0.106971 -0.023571 -0.221937 -0.477348 0.084471 -0.091676 0.095905 0.077647 -0.054005 0.238491 0.033049 0.041661 -0.056862 0.407209 -0.511528 -0.116223 0.145106 -0.016761 -0.306839 0.083169 -0.055170 0.195298 -0.146407 0.104433 0.171280 0.097691 0.012627 0.363790 0.187003 0.089016 -0.284486 -0.126898 -0.135895 -0.196325 -0.059134 0.174676 0.145276 0.202684 0.225228 0.166692 -0.316950 -0.012317 0.005821 0.043873 0.045865 0.378753 0.177367 0.071018 -0.025832 -0.007605 -0.112302 0.081529 0.015582 0.063925 0.249865 0.050085 0.501265 -0.270197 -0.142867 -0.054513 -0.145031 -0.025801 -0.058089 -0.021646 -0.220400 -0.102888 0.063897 0.084124 0.065387
