Mercury -0.041260 0.132812 -0.206055 -0.150391 -0.072266 -0.236328 0.312500 -0.073730 -0.079102 0.104980 -0.074707 0.285156 0.228516 0.203125 0.133789 -0.190430 -0.048584 -0.347656 0.165039 0.248047 -0.124512 0.041016 -0.339844 -0.186523 0.161133 0.287109 0.279297 0.257812 0.199219 -0.169922 -0.026733 -0.104980 0.127930 -0.039307 0.324219 0.099121 0.072754 0.038574 -0.113281 0.037842 0.015503 -0.408203 -0.353516 0.267578 0.040283 0.408203 -0.025879 -0.124023 0.006042 0.103027 -0.267578 0.281250 0.066895 0.193359 -0.000767 0.125977 -0.030029 -0.010010 -0.039307 0.224609 0.291016 -0.091309 -0.341797 0.012756 -0.095703 0.326172 0.104980 0.324219 -0.013489 0.195312 0.058594 -0.125977 -0.118652 -0.129883 -0.605469 -0.010376 0.039062 -0.051270 -0.065430 0.096680 0.419922 -0.097656 0.281250 -0.189453 -0.277344 -0.196289 0.294922 0.068848 0.013672 -0.024048 -0.006317 -0.154297 -0.298828 -0.012024 0.142578 0.283203 0.116211 0.015747 0.220703 0.226562 -0.267578 0.061523 0.104492 -0.006165 -0.202148 -0.129883 -0.004852 0.094238 -0.176758 -0.049561 0.193359 -0.039795 -0.062500 0.026001 0.110352 0.079102 0.114746 -0.012634 -0.013489 -0.044189 -0.100586 0.094727 0.046631 -0.214844 -0.033447 -0.131836 0.119141 0.003937 0.200195 -0.361328 0.064941 -0.008606 -0.554688 0.006165 -0.055420 -0.094238 -0.102539 0.016113 -0.219727 0.131836 0.200195 -0.167969 -0.439453 -0.009521 0.128906 0.253906 0.052979 -0.004608 -0.073242 0.120117 0.523438 -0.314453 -0.225586 0.142578 -0.148438 -0.233398 0.234375 -0.167969 -0.237305 -0.003448 0.065430 0.251953 -0.013855 -0.023804 -0.017212 -0.249023 0.250000 -0.033203 -0.210938 -0.053223 0.028076 -0.302734 0.104492 0.119141 -0.065918 -0.123535 -0.281250 -0.086914 -0.079102 0.053711 -0.277344 -0.198242 -0.196289 -0.043945 -0.249023 -0.328125 -0.032227 0.250000 -0.108887 -0.024414 -0.324219 0.011353 0.037354 -0.140625 -0.242188 0.036865 0.206055 -0.154297 0.018921 -0.155273 0.205078 0.020264 0.102539 -0.175781 0.032471 0.042969 -0.039307 0.148438 -0.057861 -0.235352 -0.008789 -0.125000 -0.011108 0.152344 -0.037354 -0.087402 0.257812 0.316406 -0.114258 -0.472656 0.081543 0.231445 0.034912 -0.095215 0.033691 -0.167969 -0.195312 0.253906 0.267578 0.032227 0.161133 -0.188477 0.180664 -0.261719 0.041260 0.226562 -0.240234 -0.044189 -0.185547 -0.185547 0.114746 -0.086914 0.314453 0.039307 -0.103027 -0.193359 -0.162109 0.412109 0.416016 0.164062 0.204102 -0.090332 -0.036133 -0.110352 -0.188477 -0.141602 0.302734 0.077148 0.144531 -0.215820 0.150391 -0.449219 -0.064941 0.067383 0.032959 0.062500 -0.441406 -0.147461 0.271484 -0.208984 -0.201172 -0.195312 -0.136719 0.298828 0.211914 0.062500 -0.093262 -0.008667 -0.106934 -0.141602 -0.219727 -0.182617 0.020630 -0.048340 -0.041992 -0.193359 0.179688 0.078125 0.072266 0.200195 0.127930 -0.093750 -0.251953 0.095703 -0.111816 -0.010803 0.051514 0.079590 0.068359 -0.349609
Bundesliga 0.234375 -0.023071 -0.121582 -0.004150 -0.055420 -0.173828 0.082520 -0.045898 -0.018555 0.326172 0.052490 -0.062500 -0.077637 0.345703 0.025879 0.211914 0.113770 0.160156 -0.087402 0.045166 0.044678 0.039551 -0.057617 0.146484 0.042236 0.058838 -0.181641 0.070801 0.007874 0.031128 -0.353516 -0.054688 0.148438 -0.076660 -0.015503 0.138672 -0.091797 -0.050537 0.060303 -0.040039 0.029419 0.021973 0.115234 0.154297 0.014771 -0.007812 0.523438 -0.345703 -0.019043 0.144531 -0.367188 -0.419922 -0.162109 -0.057861 -0.194336 -0.076172 0.001617 -0.062256 -0.343750 -0.128906 -0.539062 -0.222656 -0.285156 0.257812 -0.161133 -0.166992 0.376953 -0.089355 0.028198 0.449219 0.109863 0.263672 0.052002 0.058594 -0.174805 -0.112793 0.283203 -0.275391 0.164062 -0.470703 -0.077637 -0.648438 -0.287109 0.014954 0.339844 0.167969 0.498047 0.316406 -0.159180 0.210938 0.009155 -0.175781 -0.205078 0.064453 -0.048584 -0.328125 -0.004913 -0.652344 0.292969 0.174805 0.020752 0.109375 0.234375 0.578125 0.170898 0.302734 0.118164 -0.021729 0.029907 -0.180664 0.359375 0.056152 0.554688 -0.164062 -0.027710 -0.055908 0.001137 -0.070312 0.020874 0.316406 -0.500000 -0.345703 -0.162109 0.142578 -0.070312 -0.251953 -0.127930 -0.179688 -0.562500 -0.294922 0.157227 -0.021362 0.204102 -0.523438 0.094238 -0.283203 0.007690 -0.000557 0.179688 0.269531 0.100098 -0.130859 -0.171875 0.416016 0.049316 0.332031 0.248047 -0.089355 -0.191406 -0.417969 0.314453 0.153320 -0.365234 -0.306641 0.152344 -0.123535 -0.253906 0.014893 0.212891 0.129883 0.259766 0.090820 0.047852 -0.171875 0.183594 -0.182617 -0.020996 -0.139648 0.199219 0.449219 -0.488281 0.055664 0.183594 0.014771 0.158203 -0.191406 -0.006439 -0.132812 -0.287109 -0.205078 0.074219 0.012573 -0.182617 -0.205078 0.349609 0.314453 -0.382812 -0.468750 0.086426 0.386719 -0.273438 -0.000591 0.031128 0.031738 0.149414 0.113281 -0.145508 0.589844 -0.345703 -0.472656 -0.322266 -0.190430 -0.060791 -0.355469 -0.002411 -0.625000 0.111328 -0.105469 -0.601562 0.036377 -0.332031 -0.001389 0.083984 0.237305 -0.408203 -0.180664 0.464844 0.002380 -0.149414 0.022583 -0.019897 0.247070 -0.269531 0.312500 0.006531 0.210938 0.267578 -0.339844 0.408203 -0.265625 -0.011658 0.029419 -0.175781 0.172852 -0.244141 0.227539 0.161133 0.112793 -0.197266 -0.110840 0.466797 -0.186523 0.097656 -0.337891 -0.127930 0.160156 -0.345703 -0.016846 -0.332031 -0.279297 0.123047 -0.277344 -0.181641 0.248047 0.084961 0.093262 -0.246094 0.066895 -0.231445 0.079590 0.134766 -0.064453 0.294922 0.188477 0.172852 0.136719 -0.330078 -0.324219 -0.250000 0.103516 0.316406 -0.051025 -0.101562 -0.155273 0.110840 0.193359 0.261719 0.109863 0.029785 -0.039062 -0.157227 -0.312500 0.018188 0.427734 -0.183594 0.554688 0.539062 0.490234 0.002121 -0.064453 -0.035400 -0.237305 -0.326172 -0.135742 -0.376953 0.294922 -0.142578 0.283203 0.102051 0.013123
Porsche 0.197266 0.022583 -0.145508 0.037842 0.038574 0.003296 0.416016 -0.267578 -0.031982 0.220703 -0.117676 0.153320 0.232422 0.018799 0.050781 0.167969 0.100098 0.035400 0.125000 0.082520 0.212891 0.074219 0.082031 -0.037842 0.172852 -0.023926 -0.330078 0.291016 0.208008 0.335938 0.102539 0.153320 0.089844 0.367188 -0.154297 -0.237305 0.363281 -0.007935 -0.259766 0.094727 0.229492 -0.025757 -0.079102 0.194336 -0.035156 0.207031 -0.022217 0.156250 0.636719 0.170898 -0.189453 0.412109 -0.125977 0.107910 -0.245117 0.300781 -0.038330 0.024902 0.011292 0.191406 0.030884 -0.312500 -0.302734 -0.112793 0.057129 0.122559 -0.031982 -0.052490 -0.345703 0.271484 0.213867 0.016602 -0.149414 -0.022339 -0.058594 0.012207 0.056396 -0.227539 -0.049561 -0.291016 -0.099121 -0.431641 -0.156250 0.166992 0.324219 0.166016 0.187500 0.240234 -0.219727 0.054932 0.030151 -0.175781 -0.253906 0.023071 -0.371094 -0.010376 -0.125000 -0.253906 -0.014648 0.222656 0.109375 -0.052979 -0.001129 0.441406 0.279297 -0.076660 0.132812 0.036865 0.030273 0.079102 0.163086 -0.018555 0.191406 0.027466 0.222656 -0.330078 -0.035645 -0.259766 -0.228516 0.105957 -0.106934 0.163086 0.108398 -0.101562 0.148438 0.003693 0.177734 -0.287109 -0.130859 0.175781 0.088867 -0.000668 -0.166016 -0.155273 0.279297 -0.101074 0.035400 0.126953 0.126953 -0.041016 0.196289 -0.184570 -0.125000 -0.110840 -0.181641 0.007355 0.335938 0.215820 -0.146484 -0.347656 0.455078 0.220703 -0.235352 -0.180664 -0.010376 0.230469 -0.110352 0.023071 -0.095703 0.004944 -0.006500 0.251953 0.018433 -0.166992 -0.261719 -0.137695 0.235352 0.423828 -0.104980 0.180664 -0.208984 0.087891 0.039062 -0.206055 -0.049805 -0.248047 -0.090332 -0.124512 -0.131836 -0.085449 -0.069824 -0.234375 -0.369141 -0.139648 0.018677 -0.071777 0.120605 0.213867 -0.110840 0.062256 -0.113770 0.028076 -0.103027 0.143555 -0.102539 -0.063477 0.077148 -0.291016 0.359375 -0.380859 -0.093262 0.074219 -0.216797 -0.138672 -0.062500 0.020386 -0.003403 0.068359 0.161133 0.110352 -0.034180 -0.227539 0.396484 -0.043701 -0.131836 0.081055 -0.020508 0.138672 0.111816 -0.169922 -0.351562 -0.020386 0.203125 0.147461 -0.042969 0.031128 0.184570 0.100586 -0.238281 -0.085449 -0.091309 0.048584 -0.024536 -0.275391 -0.134766 0.133789 -0.033691 -0.105469 0.184570 -0.410156 0.341797 -0.229492 -0.507812 -0.100586 -0.082520 -0.087402 -0.024536 0.137695 0.192383 0.100098 0.035400 0.304688 -0.020020 0.078613 -0.083496 0.063965 0.075684 -0.018188 -0.136719 0.135742 0.341797 0.013550 0.057861 0.180664 0.157227 0.123535 -0.118652 -0.201172 -0.032227 -0.049072 0.114258 0.220703 -0.130859 0.088379 0.056885 -0.053467 0.126953 -0.093750 -0.184570 0.267578 0.058594 -0.032715 -0.073242 -0.179688 -0.174805 -0.044434 -0.015198 -0.096680 0.087402 0.148438 -0.167969 0.243164 -0.014465 0.228516 -0.076172 -0.063965 -0.199219 0.296875 -0.324219 -0.291016
Moon -0.118652 0.133789 -0.089844 -0.104980 0.151367 -0.110352 0.031494 0.040527 0.220703 -0.071777 0.010437 0.071289 0.034424 -0.133789 0.025635 0.081543 -0.066406 0.062012 0.102539 -0.003006 -0.204102 -0.163086 0.180664 -0.116211 0.093750 0.082031 -0.199219 0.026978 0.203125 0.073730 -0.265625 -0.245117 -0.046387 -0.054443 -0.060791 -0.136719 0.177734 -0.062500 0.192383 -0.033447 -0.112305 -0.261719 -0.027222 0.173828 -0.034180 -0.210938 -0.058105 -0.314453 0.053711 0.081055 0.064941 0.009155 -0.179688 -0.013306 0.016235 0.059570 0.110840 0.169922 -0.029175 -0.084473 0.081055 0.134766 0.009766 0.023315 -0.160156 -0.092773 -0.021729 -0.087891 0.113770 0.144531 0.239258 -0.375000 0.267578 0.170898 -0.109863 -0.017212 -0.082520 0.406250 0.028931 0.019287 0.118652 -0.330078 0.277344 -0.451172 -0.028320 -0.318359 0.240234 -0.207031 0.343750 -0.020630 -0.134766 -0.011597 0.001007 -0.197266 -0.186523 0.062012 0.458984 -0.007080 -0.015625 0.052979 0.143555 -0.451172 0.121582 0.008545 -0.003403 0.028198 -0.027466 -0.300781 -0.179688 -0.051270 -0.161133 0.193359 0.267578 -0.050293 0.082520 -0.314453 0.090332 0.057373 -0.079590 -0.093750 0.029419 -0.109863 0.201172 -0.104492 0.009705 -0.232422 -0.213867 0.173828 -0.076172 -0.016479 -0.121582 0.095215 -0.224609 0.114746 0.145508 0.137695 -0.113770 -0.113770 0.163086 -0.060059 0.170898 0.033691 -0.087402 0.166016 0.078125 0.121582 0.071777 0.035400 0.124023 0.056396 0.121582 -0.094727 0.236328 0.069824 -0.091797 -0.235352 0.084961 -0.115234 -0.059082 -0.229492 -0.013184 -0.103027 0.150391 0.208008 -0.012573 -0.283203 0.052979 -0.012329 -0.091797 0.084961 0.187500 -0.111816 0.116211 0.104004 0.007263 0.006287 -0.048584 -0.283203 -0.082520 -0.250000 -0.216797 -0.045166 -0.065430 -0.163086 -0.165039 -0.096680 0.216797 0.238281 -0.168945 -0.183594 -0.163086 0.110352 0.177734 -0.079590 -0.277344 0.232422 0.306641 -0.208008 0.056641 0.176758 0.222656 0.011902 0.038574 0.235352 0.217773 -0.322266 -0.023682 -0.330078 -0.503906 0.103516 -0.345703 0.194336 0.187500 -0.080078 -0.213867 0.022583 0.100098 0.094727 -0.121582 -0.216797 0.232422 0.257812 0.134766 -0.084473 -0.042969 0.096191 -0.165039 0.075195 0.019409 0.255859 0.289062 -0.371094 0.033203 0.100098 0.087891 -0.028198 -0.208008 -0.314453 -0.118652 -0.223633 -0.057617 -0.091797 0.416016 -0.111328 -0.120605 -0.175781 0.081543 0.144531 0.033447 -0.030518 -0.048828 -0.193359 0.187500 0.226562 -0.057617 -0.125000 0.082031 -0.361328 0.072754 -0.146484 -0.073730 -0.386719 0.129883 -0.085449 0.144531 0.105957 -0.132812 0.265625 0.150391 -0.032715 -0.257812 -0.330078 0.098145 0.269531 0.012390 0.248047 -0.186523 -0.324219 -0.010132 -0.022583 -0.122070 0.255859 -0.128906 0.075684 0.204102 0.055176 0.063965 0.173828 -0.112305 0.074707 -0.105469 0.141602 -0.100098 0.075684 0.077148 -0.001175 -0.015503 -0.220703 0.058350 -0.167969
Capri 0.144531 -0.080078 -0.242188 0.100586 -0.161133 -0.050537 0.351562 0.212891 0.169922 -0.099609 -0.070312 0.011536 0.227539 -0.030884 0.082031 -0.091309 -0.126953 -0.180664 -0.066895 0.152344 0.228516 0.125000 0.143555 0.060059 0.133789 -0.135742 -0.016968 0.419922 0.210938 0.058105 0.146484 0.096191 -0.068359 0.267578 -0.056396 -0.038086 -0.427734 0.275391 -0.382812 -0.055664 0.026611 0.018677 0.097656 0.028198 -0.402344 -0.036865 -0.101074 -0.002289 0.153320 0.386719 0.150391 0.437500 0.174805 -0.104492 0.035889 0.128906 0.051758 -0.050781 -0.062012 -0.251953 -0.085938 0.439453 -0.015625 -0.057129 0.135742 0.145508 -0.126953 0.032227 0.267578 -0.052490 0.492188 -0.357422 -0.140625 0.219727 -0.478516 0.250000 0.012390 -0.202148 -0.009033 -0.097656 -0.113770 -0.589844 -0.199219 -0.265625 -0.136719 0.408203 -0.019287 0.636719 -0.013123 0.302734 0.078613 -0.175781 -0.235352 0.131836 -0.123535 0.025757 0.089844 0.141602 0.206055 0.114746 -0.026733 -0.186523 0.204102 -0.083496 0.070312 -0.296875 0.294922 -0.194336 -0.032471 -0.008118 0.224609 0.128906 0.414062 -0.172852 -0.089355 -0.101562 0.249023 -0.474609 0.142578 0.087891 0.044678 -0.099609 0.156250 0.061035 -0.026367 0.029663 -0.091797 0.174805 0.365234 0.347656 -0.034912 0.005524 -0.105469 -0.214844 0.021729 -0.048828 -0.215820 -0.113770 0.515625 -0.013977 -0.012695 -0.202148 -0.043945 -0.302734 0.404297 0.127930 0.126953 0.300781 -0.021118 0.043945 -0.116211 -0.130859 -0.200195 -0.128906 -0.008118 0.206055 0.018188 0.091797 0.194336 0.192383 0.072266 -0.037842 -0.109375 0.277344 0.081543 -0.110840 -0.093262 0.120605 -0.063965 -0.089355 0.060303 -0.265625 -0.054199 0.070312 -0.092285 0.144531 0.168945 -0.057129 0.024536 -0.177734 -0.104492 -0.057129 0.328125 0.071289 -0.113770 -0.135742 0.161133 0.120605 -0.062256 -0.886719 0.049561 0.197266 0.457031 0.056396 0.090332 0.163086 0.273438 0.106934 0.204102 -0.082520 0.235352 -0.108398 0.233398 -0.004913 -0.355469 -0.116211 0.083496 -0.118164 -0.038086 0.020630 0.184570 0.140625 0.095703 0.207031 -0.155273 0.034912 0.152344 0.242188 -0.059326 -0.074219 0.218750 0.166992 0.062500 0.001389 -0.033936 -0.099121 0.029541 0.191406 -0.054932 0.039062 -0.094238 0.098633 -0.041016 -0.166992 0.024780 -0.289062 0.339844 -0.132812 0.347656 -0.142578 0.219727 -0.265625 0.075195 -0.125977 0.291016 -0.057373 0.083496 -0.105469 0.291016 -0.020142 -0.013977 0.174805 0.468750 0.231445 -0.171875 -0.158203 0.302734 -0.003494 -0.189453 -0.177734 0.080566 -0.002777 -0.089844 0.400391 0.153320 0.099121 -0.343750 -0.119141 -0.026489 -0.058594 0.113281 -0.249023 -0.082031 0.139648 0.204102 0.287109 -0.125977 -0.242188 -0.351562 0.059326 -0.402344 0.031250 0.170898 -0.055664 -0.208984 0.100098 0.091309 0.111328 -0.357422 -0.167969 0.003098 -0.179688 0.033691 -0.045654 0.205078 0.215820 -0.139648 -0.215820 -0.208008 -0.098145
paper -0.088867 0.096191 -0.219727 -0.044678 0.122070 0.094238 0.068848 0.034668 0.181641 0.018677 0.091797 -0.145508 0.004120 0.025879 -0.294922 -0.007538 0.011353 -0.086914 -0.001564 -0.066406 0.112793 -0.157227 -0.002594 0.094238 -0.083008 0.145508 0.055176 0.081055 -0.096191 -0.065918 0.084961 -0.294922 0.061279 0.137695 0.015137 0.265625 0.090332 0.412109 0.134766 0.216797 0.029175 -0.146484 0.080078 0.147461 0.104980 -0.085449 -0.019409 -0.038330 -0.109863 0.066895 -0.135742 -0.091309 -0.239258 -0.166016 -0.104980 -0.098633 0.128906 -0.316406 0.097656 -0.257812 0.093750 0.143555 -0.002365 -0.046631 0.017822 0.023926 -0.263672 0.066895 0.182617 0.255859 -0.013489 0.041016 0.186523 -0.135742 -0.125977 0.030762 0.015137 0.156250 -0.051758 0.045654 0.137695 -0.159180 0.259766 0.044434 0.155273 -0.040283 0.087891 -0.012024 0.211914 0.124023 -0.085938 0.034912 0.064941 -0.041992 -0.316406 0.054443 0.064453 0.131836 0.106934 -0.005951 -0.185547 -0.283203 0.058105 0.072266 0.031494 0.212891 0.011902 -0.244141 -0.018433 -0.189453 -0.072266 -0.058594 -0.061523 0.061523 -0.033203 0.028931 -0.087891 -0.061768 0.137695 0.157227 0.126953 -0.038330 -0.007294 -0.069824 0.009827 -0.044434 -0.020264 -0.014771 0.096680 -0.104980 -0.014709 0.033203 -0.071777 -0.217773 0.245117 0.028442 -0.178711 0.003128 -0.056152 -0.090332 0.227539 -0.062012 0.093262 0.014954 -0.015869 0.166016 -0.027710 -0.059814 -0.037354 -0.089844 0.124512 -0.010193 -0.006714 0.089355 0.109375 -0.118652 -0.096191 -0.099121 -0.253906 0.199219 -0.148438 0.059326 0.083496 0.131836 0.257812 0.215820 0.235352 -0.198242 -0.151367 -0.076172 0.057373 -0.216797 -0.292969 0.087891 -0.022827 -0.064453 0.074707 -0.219727 0.041260 -0.011719 -0.000018 -0.455078 -0.181641 0.070801 0.111328 -0.084961 -0.163086 0.103516 0.079590 0.378906 0.149414 -0.259766 -0.180664 0.032959 0.037109 -0.077637 0.075684 -0.191406 -0.112305 -0.079590 -0.199219 0.237305 0.086914 -0.046143 -0.091309 0.174805 0.157227 0.176758 -0.024658 -0.212891 0.006165 -0.079102 -0.039062 0.036865 0.265625 -0.205078 0.126953 0.120117 -0.204102 0.052979 0.067383 0.087891 -0.298828 -0.002319 0.008179 -0.083008 0.073242 0.109375 -0.019531 -0.127930 0.036865 0.128906 0.074707 -0.139648 -0.131836 -0.115234 -0.087891 0.090820 0.131836 -0.191406 0.137695 -0.335938 -0.086914 -0.141602 0.046387 -0.194336 -0.014465 0.006256 -0.027344 0.265625 0.057373 0.026611 -0.023804 0.156250 -0.142578 -0.246094 -0.074219 0.063477 0.067383 0.027710 0.069824 0.050049 -0.277344 -0.208008 0.005402 0.005310 -0.136719 0.017822 -0.065430 -0.116699 0.121582 -0.083496 0.143555 0.128906 -0.041504 0.029541 0.172852 -0.040283 -0.027100 -0.088379 0.013245 -0.111328 0.058838 0.144531 0.141602 -0.206055 -0.055908 0.220703 -0.146484 0.170898 -0.138672 -0.212891 -0.061523 0.093750 0.032471 0.132812 -0.005829 0.061279 -0.061279 0.008362
chair 0.118652 -0.375000 0.161133 0.002151 -0.001877 -0.251953 0.207031 -0.141602 0.238281 -0.094238 -0.021729 0.046387 -0.069336 -0.210938 -0.015747 0.176758 0.224609 -0.009888 0.053711 0.050049 0.099121 0.240234 -0.158203 0.028687 0.124512 -0.269531 -0.212891 0.156250 -0.308594 -0.178711 -0.310547 0.108398 -0.094727 0.141602 0.006012 -0.056885 -0.239258 0.337891 -0.112793 -0.136719 -0.333984 0.109375 0.043213 -0.129883 -0.178711 -0.046875 -0.263672 0.104004 0.214844 0.249023 -0.300781 0.006744 0.155273 -0.033203 -0.023560 0.052490 0.069824 -0.108887 0.227539 -0.126953 -0.291016 0.008179 -0.065430 0.153320 -0.002808 0.050537 -0.217773 0.107422 0.116699 0.161133 0.337891 -0.294922 0.088867 0.021973 -0.378906 -0.265625 -0.019775 0.155273 0.153320 -0.197266 0.273438 -0.100586 0.039551 0.086426 -0.034668 0.090332 -0.059570 -0.388672 0.095215 -0.028442 0.184570 -0.191406 0.224609 -0.012695 -0.027100 0.199219 0.128906 -0.062988 -0.026245 -0.122070 -0.190430 -0.394531 0.001534 0.022339 -0.008972 0.199219 -0.201172 0.017822 0.029053 -0.075684 -0.332031 -0.200195 0.355469 -0.230469 -0.110352 -0.082031 0.038330 0.154297 0.201172 -0.007050 0.003326 -0.221680 -0.039062 0.007294 -0.074219 -0.071777 -0.035889 -0.002930 0.085449 0.211914 0.133789 -0.102539 -0.227539 0.048096 -0.067383 0.554688 0.220703 0.074707 0.041260 0.035400 -0.003265 0.054199 -0.055908 -0.115723 -0.059570 0.187500 -0.048584 -0.107910 0.445312 0.376953 0.314453 0.247070 0.059570 0.277344 0.349609 0.036865 -0.246094 -0.067383 -0.145508 -0.050049 -0.056885 -0.171875 0.251953 0.144531 0.140625 0.169922 -0.104492 -0.159180 0.076172 0.051514 0.306641 0.198242 -0.257812 0.073242 0.010254 -0.531250 0.289062 -0.186523 0.162109 0.148438 -0.077148 -0.073730 0.247070 -0.106445 -0.005737 0.054199 0.059326 0.104980 0.165039 -0.104980 0.228516 -0.150391 -0.022217 0.396484 0.043457 -0.108887 -0.173828 -0.186523 0.261719 0.000477 -0.404297 0.145508 -0.042236 -0.361328 -0.072266 -0.179688 0.292969 0.148438 -0.104004 0.060547 -0.064941 0.047119 -0.157227 -0.023438 0.078613 -0.065430 -0.271484 -0.105957 0.108887 0.151367 0.079102 -0.079590 -0.033936 0.287109 0.180664 0.102051 0.287109 0.040039 0.168945 -0.041016 -0.460938 -0.016602 -0.156250 -0.029419 -0.210938 0.093262 -0.015625 0.066895 0.124512 -0.039307 -0.010010 -0.223633 -0.095215 -0.121582 0.091309 0.064453 0.043701 -0.144531 -0.179688 -0.185547 -0.029297 0.128906 -0.269531 -0.142578 -0.097656 0.128906 -0.060547 0.178711 -0.125000 -0.074707 -0.028931 0.000759 0.035645 -0.269531 0.092285 -0.012024 0.031738 0.196289 -0.141602 0.148438 -0.093262 0.292969 0.198242 0.160156 -0.184570 -0.131836 0.023560 -0.064941 -0.215820 0.021973 0.361328 0.070801 0.130859 -0.028320 0.410156 0.271484 -0.082031 -0.250000 0.132812 0.003876 -0.285156 -0.071777 -0.140625 0.073730 -0.090332 -0.234375 0.198242 0.261719 0.120117 0.171875
Bolivia -0.024536 -0.251953 0.175781 0.353516 -0.017334 -0.215820 -0.042725 -0.289062 -0.337891 -0.088867 -0.037109 -0.058105 -0.066895 0.209961 0.181641 0.063965 -0.007874 0.269531 0.251953 0.107910 0.145508 -0.371094 0.060303 0.128906 0.097168 0.096191 -0.324219 -0.185547 -0.081543 0.153320 0.106934 0.008423 -0.183594 -0.124023 -0.013672 0.072266 -0.138672 -0.188477 0.118652 0.031982 0.279297 0.265625 0.218750 0.289062 0.118164 0.188477 -0.113770 -0.145508 -0.024170 0.289062 -0.498047 -0.333984 -0.128906 -0.184570 -0.192383 0.010010 -0.439453 -0.096191 -0.153320 0.090332 0.032715 0.104492 0.034424 0.166016 0.129883 -0.063477 0.054199 -0.367188 -0.109375 -0.121582 -0.279297 0.034424 -0.067383 -0.157227 -0.095215 -0.139648 0.170898 0.094238 0.005371 0.196289 0.065430 0.063477 -0.219727 -0.150391 -0.175781 -0.486328 -0.007751 0.037109 -0.032227 0.090332 0.062012 -0.096680 -0.316406 0.040527 -0.255859 -0.183594 -0.135742 -0.291016 0.294922 0.109375 -0.127930 0.160156 -0.033936 -0.267578 0.215820 0.020264 0.140625 -0.306641 -0.224609 0.107910 -0.035156 0.006683 0.006653 -0.318359 -0.014893 0.181641 -0.039551 -0.081055 0.214844 0.096191 -0.065918 -0.371094 -0.294922 -0.082031 0.018311 0.188477 -0.100098 0.095703 -0.388672 0.092285 -0.355469 0.232422 0.051025 0.003799 0.068359 -0.051025 -0.433594 -0.269531 -0.127930 0.149414 -0.075684 -0.417969 -0.148438 0.068359 0.215820 -0.023438 0.003067 0.016479 -0.002090 -0.050781 0.628906 -0.412109 -0.111816 0.105957 0.173828 -0.019775 -0.496094 0.275391 0.002304 0.156250 -0.043945 0.153320 -0.018066 0.001335 0.130859 -0.077637 -0.023560 0.067383 0.189453 0.004364 -0.435547 0.167969 0.233398 -0.059814 0.118164 -0.244141 0.018311 -0.322266 -0.235352 0.121094 -0.324219 0.049316 -0.300781 -0.007629 0.088379 0.017334 0.088379 0.147461 0.044678 0.106445 -0.271484 0.033936 0.006470 -0.209961 -0.198242 0.112305 -0.001907 -0.008545 -0.188477 -0.111816 0.136719 -0.123535 -0.031128 0.011169 -0.026611 0.073730 0.092773 -0.106934 -0.404297 -0.193359 0.057373 0.104492 -0.006958 -0.169922 -0.095703 0.054688 -0.037842 0.126953 -0.097656 -0.365234 -0.083496 0.038574 -0.193359 0.048584 -0.152344 -0.059570 0.198242 0.281250 0.421875 0.320312 0.026611 0.196289 -0.077637 0.057373 0.011963 0.410156 -0.042480 0.015259 0.091797 -0.118164 0.042969 -0.108887 0.015869 0.209961 -0.033447 0.051025 -0.170898 -0.257812 -0.033203 0.115723 -0.119141 -0.108887 0.140625 0.039062 0.222656 -0.015869 0.330078 0.084473 0.145508 0.047119 0.078125 0.172852 0.204102 0.308594 0.155273 -0.120605 -0.140625 0.037598 0.044189 -0.100586 -0.457031 0.147461 0.105957 -0.148438 -0.150391 0.157227 -0.182617 -0.093750 -0.069824 0.044189 0.345703 -0.222656 0.023560 0.212891 -0.144531 -0.108887 -0.132812 0.105469 0.239258 -0.053223 -0.089844 -0.277344 -0.241211 -0.009338 0.259766 0.248047 0.098633 0.061768 0.226562 0.007538
astrology 0.386719 -0.171875 0.045654 0.400391 -0.244141 0.347656 0.064941 -0.291016 -0.002945 -0.152344 0.271484 -0.048828 -0.273438 0.375000 -0.166992 0.449219 -0.080078 -0.035889 0.289062 -0.357422 0.048828 -0.030273 0.119141 -0.396484 -0.016602 -0.000113 -0.208984 0.099121 -0.030396 -0.347656 -0.351562 -0.217773 -0.259766 0.007111 0.355469 -0.037109 0.011658 0.073242 0.149414 -0.306641 0.267578 -0.167969 0.029663 0.414062 -0.051270 -0.322266 0.027344 -0.292969 -0.255859 -0.183594 -0.382812 0.143555 -0.365234 0.040283 0.178711 0.392578 -0.121582 -0.339844 -0.016602 -0.271484 0.306641 -0.133789 0.359375 -0.032715 -0.214844 -0.025513 0.033936 0.306641 0.125977 0.010071 0.113770 0.172852 0.044922 0.140625 -0.065918 -0.120117 -0.038818 0.098145 -0.189453 0.500000 0.201172 0.102539 0.207031 -0.124023 -0.007599 -0.101074 0.037598 0.100586 -0.094238 0.057129 0.376953 -0.279297 -0.187500 -0.250000 -0.132812 0.357422 0.769531 -0.291016 0.488281 0.076172 0.185547 0.110352 0.176758 -0.130859 0.239258 0.041748 -0.392578 0.107910 0.183594 -0.455078 0.157227 0.142578 0.066895 0.051758 0.133789 0.233398 0.020996 -0.133789 0.275391 -0.040039 0.210938 0.025757 -0.016113 -0.056152 -0.271484 0.022217 0.025269 -0.047607 -0.092285 0.107910 -0.511719 -0.292969 -0.177734 -0.069824 0.203125 0.500000 -0.071289 0.416016 -0.102051 0.236328 -0.016113 -0.069336 -0.239258 0.139648 0.130859 0.392578 0.099609 0.128906 0.038574 0.174805 0.060791 0.049072 -0.367188 -0.318359 -0.240234 -0.406250 -0.133789 -0.242188 0.304688 -0.040039 -0.265625 -0.166992 -0.259766 0.066406 0.107422 -0.019653 0.030518 0.016479 -0.015259 -0.279297 -0.098633 0.051025 0.194336 0.083984 0.279297 -0.037842 0.119141 -0.196289 0.214844 -0.335938 -0.316406 0.141602 -0.235352 -0.100586 0.277344 -0.257812 -0.065430 0.107422 0.121094 -0.204102 0.113770 0.271484 -0.074707 0.224609 0.072754 0.107910 0.120117 -0.177734 -0.231445 -0.261719 -0.230469 -0.472656 -0.124512 -0.093262 -0.100098 -0.283203 0.186523 -0.198242 -0.097168 -0.000568 -0.523438 0.054443 0.098145 -0.261719 0.224609 0.322266 0.277344 0.249023 -0.059570 -0.112793 0.435547 0.238281 0.124023 -0.103027 0.108398 -0.225586 0.168945 -0.129883 -0.247070 0.253906 0.177734 -0.078613 -0.281250 -0.061279 0.239258 0.314453 0.261719 -0.283203 -0.227539 -0.213867 0.343750 0.273438 0.283203 0.037598 -0.185547 0.104004 0.180664 0.053711 -0.365234 -0.234375 -0.091797 -0.062500 0.231445 0.253906 0.145508 0.115723 -0.435547 -0.144531 0.013184 -0.069336 -0.034912 -0.170898 0.068359 -0.271484 -0.209961 0.519531 -0.241211 -0.353516 0.326172 -0.044434 -0.279297 -0.251953 -0.251953 0.055664 0.046875 0.046387 0.199219 0.031738 0.048340 0.159180 -0.161133 0.445312 0.187500 -0.275391 0.102539 -0.230469 0.042236 0.414062 -0.238281 0.531250 0.349609 0.478516 0.030762 -0.058105 0.154297 0.078125 0.101562 0.216797 0.021851 0.053223
March 0.042969 -0.013062 0.070312 -0.161133 -0.020996 -0.057373 0.143555 -0.133789 0.145508 0.121582 -0.067871 -0.059570 0.048584 0.004669 -0.076660 -0.261719 0.026855 -0.059570 0.038574 -0.036621 0.080078 -0.062500 -0.076660 -0.257812 -0.135742 -0.069336 0.199219 0.009277 0.022095 0.108887 0.056152 -0.211914 -0.091309 -0.132812 0.017212 0.164062 -0.151367 -0.110352 -0.207031 -0.011353 -0.011169 -0.101074 0.203125 0.041992 -0.068359 0.015259 0.151367 0.199219 -0.130859 0.099609 -0.059570 -0.140625 -0.078125 0.055420 -0.061279 0.026978 -0.132812 -0.259766 -0.031494 -0.021973 -0.237305 0.015625 -0.099609 -0.060791 0.087891 0.025391 0.052979 0.271484 0.351562 0.109375 0.171875 -0.101074 -0.051758 0.255859 0.251953 0.152344 -0.014343 -0.085938 0.100586 0.116211 -0.111328 -0.222656 -0.048340 0.150391 -0.018799 -0.168945 -0.145508 -0.070312 0.031128 0.026978 0.146484 -0.016479 -0.106934 -0.147461 -0.111328 -0.200195 0.000416 0.040039 0.067383 -0.159180 0.257812 -0.244141 -0.100586 0.034424 -0.246094 -0.085938 -0.026245 -0.059570 0.002747 -0.136719 0.067871 -0.007019 0.072754 -0.234375 0.021729 0.063477 -0.154297 -0.058594 0.255859 0.114746 0.033203 -0.201172 -0.034668 0.061279 0.077148 0.090820 0.065918 -0.041260 0.117188 -0.028076 -0.015869 -0.013733 -0.059570 -0.215820 -0.257812 -0.033447 -0.017456 -0.154297 -0.171875 0.180664 -0.030518 0.170898 0.059326 -0.178711 -0.306641 0.050781 -0.005341 -0.104980 -0.052979 -0.034180 -0.137695 -0.006073 0.014038 -0.014221 0.156250 -0.186523 0.197266 -0.013062 0.046387 0.152344 0.102051 -0.034912 -0.103516 0.009338 0.106445 0.100098 0.104492 -0.031982 -0.030762 -0.151367 0.060547 -0.082520 -0.025269 -0.098633 -0.087891 -0.130859 0.239258 -0.046875 0.155273 0.044922 -0.373047 0.072754 -0.184570 -0.021484 -0.056396 0.137695 0.150391 0.058350 0.281250 -0.070312 0.157227 0.138672 -0.058838 0.112793 -0.110352 -0.007477 0.035400 0.092773 0.174805 -0.080566 -0.080078 -0.061279 0.060303 -0.047363 0.198242 -0.169922 -0.040039 0.193359 -0.093262 0.022949 -0.061523 -0.019653 0.116211 -0.066406 -0.279297 -0.102539 0.015747 0.111328 0.063477 -0.080078 0.001793 0.198242 0.029419 0.004547 -0.174805 -0.149414 -0.215820 0.197266 -0.033936 -0.183594 0.123047 -0.048584 -0.127930 0.242188 -0.161133 0.043213 0.097168 -0.034912 -0.100098 -0.093750 0.012390 0.202148 -0.176758 0.029541 -0.237305 0.082520 0.035645 0.103027 0.161133 -0.011536 -0.132812 -0.109375 -0.138672 0.061523 0.275391 0.069336 0.223633 -0.090820 0.191406 0.036865 0.130859 -0.208008 0.101074 0.047363 0.073242 0.037842 -0.279297 0.072266 0.109863 0.065430 0.023804 0.121582 0.143555 -0.042725 0.063965 -0.058105 -0.189453 0.053223 0.043945 -0.018799 -0.055176 0.055420 -0.045898 -0.013733 -0.011047 -0.273438 -0.149414 -0.015869 0.047119 0.208984 0.022095 -0.121582 -0.080078 0.050293 0.081055 -0.310547 -0.229492 0.133789 0.032227 -0.150391
Nestlé -0.232422 0.025513 0.155273 0.228516 -0.091309 0.041260 0.139648 -0.177734 -0.168945 -0.098145 0.007019 0.047119 -0.028320 0.215820 -0.078613 0.089844 0.099121 -0.150391 -0.077637 0.078613 0.151367 0.125000 0.074707 -0.052979 0.376953 -0.124023 0.034668 0.103516 0.077637 0.160156 0.196289 -0.255859 -0.050049 0.207031 -0.049072 -0.101562 0.353516 0.137695 0.188477 0.061279 -0.083496 0.037842 -0.275391 0.155273 -0.265625 0.063965 -0.137695 0.310547 0.000204 0.031982 -0.189453 -0.060791 -0.220703 0.037109 -0.071777 -0.075195 0.092773 -0.304688 -0.075195 -0.175781 -0.170898 0.077637 -0.062256 -0.026733 -0.075684 -0.190430 0.105957 -0.029175 0.074707 -0.143555 -0.142578 0.019897 0.142578 -0.052979 0.069824 -0.063477 -0.193359 -0.154297 0.148438 -0.010803 -0.202148 0.021118 0.240234 -0.031738 -0.092773 -0.128906 -0.023438 0.283203 0.064941 0.122559 0.161133 -0.163086 -0.279297 -0.032227 -0.281250 -0.048096 0.139648 -0.006683 0.777344 0.306641 -0.176758 0.058350 -0.087891 0.515625 0.236328 -0.273438 0.312500 0.031250 -0.034180 0.071289 -0.054443 0.005798 -0.226562 -0.326172 -0.035645 -0.132812 0.056885 -0.016235 -0.083008 -0.285156 -0.155273 -0.380859 -0.196289 0.051758 -0.503906 0.244141 -0.047363 0.129883 -0.046631 0.031250 -0.255859 0.345703 -0.275391 -0.546875 0.054199 0.014832 -0.082031 0.133789 0.052002 -0.029785 0.359375 -0.451172 -0.080078 -0.498047 -0.296875 -0.083008 0.437500 0.100586 0.010742 -0.257812 0.123047 -0.202148 -0.371094 -0.038086 0.023682 -0.020020 -0.182617 0.312500 0.091309 0.125000 -0.390625 0.110352 0.316406 0.090820 0.109375 -0.050537 0.343750 0.308594 0.009827 -0.094727 -0.222656 0.029419 -0.155273 0.056885 -0.345703 -0.157227 0.174805 0.058350 0.419922 0.067383 -0.185547 -0.062012 -0.205078 -0.263672 0.157227 -0.011780 0.164062 0.425781 -0.083496 -0.092285 -0.519531 -0.253906 0.255859 -0.111328 0.071289 0.337891 0.007172 -0.289062 0.298828 -0.062500 0.236328 0.023438 -0.123535 -0.026245 -0.010559 0.080566 0.402344 0.094238 0.074707 -0.023926 -0.021118 -0.271484 0.229492 0.531250 0.067383 -0.117188 0.125977 -0.199219 0.115234 0.246094 0.080078 0.173828 -0.062500 0.246094 0.289062 0.114746 0.166992 -0.070312 0.197266 -0.118652 -0.022583 0.111816 -0.235352 0.012573 0.251953 -0.077637 -0.028198 0.033447 0.172852 -0.089844 -0.068359 -0.221680 0.084961 0.112305 0.375000 -0.115234 -0.285156 0.090820 -0.503906 -0.275391 -0.245117 0.178711 -0.080078 -0.166992 0.054932 0.105469 0.137695 -0.166992 -0.112305 -0.052246 0.096680 -0.101074 -0.203125 0.492188 0.073730 -0.365234 -0.166016 0.032471 0.108398 -0.012390 -0.072266 0.117188 -0.257812 -0.230469 -0.243164 0.138672 -0.028076 -0.094727 0.062256 0.008118 -0.251953 -0.180664 0.239258 0.261719 -0.116211 -0.020142 0.002716 0.203125 0.128906 0.104004 -0.129883 -0.190430 -0.343750 0.097168 -0.060303 -0.116699 0.125977 0.240234 -0.269531 -0.470703
cougar -0.013306 -0.074707 -0.367188 0.238281 0.195312 0.094727 -0.273438 -0.001282 0.197266 0.111328 0.086426 -0.337891 0.050781 -0.314453 0.206055 -0.390625 -0.088867 -0.015503 0.040527 -0.091309 -0.053711 -0.083984 0.106934 -0.006165 -0.147461 -0.002655 -0.310547 0.640625 0.570312 -0.069336 0.052002 -0.025635 0.008301 -0.214844 -0.230469 -0.248047 0.120605 0.072266 0.369141 0.419922 0.103516 -0.046631 -0.067871 0.129883 -0.115234 -0.244141 0.546875 -0.026123 0.464844 0.324219 -0.050049 -0.333984 -0.261719 -0.156250 -0.048340 0.049316 0.335938 -0.451172 0.048096 -0.156250 0.318359 0.077148 0.091797 0.010986 -0.198242 -0.341797 0.257812 0.120117 -0.201172 0.070312 -0.043213 0.155273 -0.173828 -0.218750 -0.090332 0.431641 0.068848 -0.279297 0.068848 0.287109 0.025879 -0.128906 0.255859 -0.020020 -0.281250 0.031738 -0.109375 0.085938 0.255859 -0.202148 -0.172852 0.279297 -0.069336 0.116211 0.193359 0.031494 0.016602 0.154297 0.078125 -0.298828 -0.066406 -0.279297 0.216797 -0.080078 0.515625 -0.484375 -0.195312 0.014465 0.015747 -0.103516 -0.406250 -0.111328 0.539062 0.330078 0.061523 -0.202148 -0.054443 -0.250000 -0.203125 -0.222656 -0.029785 0.208984 -0.539062 0.181641 0.052246 -0.037109 0.028198 0.078613 -0.029541 0.137695 -0.047852 -0.283203 -0.166016 0.230469 -0.107422 0.169922 0.073242 -0.034912 0.204102 0.531250 -0.026367 -0.400391 -0.055908 0.154297 -0.019165 0.243164 -0.306641 0.435547 0.157227 -0.163086 0.406250 0.018555 -0.333984 -0.208008 -0.018311 -0.080566 0.102051 0.031250 0.150391 -0.067383 -0.018066 0.036621 0.231445 0.075195 -0.029785 0.161133 -0.013611 0.104980 0.008423 0.279297 0.104004 -0.055908 0.121582 0.077148 -0.058350 -0.031982 0.232422 0.068359 -0.447266 -0.054932 -0.117676 -0.298828 0.134766 -0.139648 -0.126953 -0.191406 -0.162109 0.008423 0.073242 0.251953 0.165039 -0.328125 -0.076660 0.013000 0.257812 0.425781 0.244141 -0.094238 0.037109 0.250000 0.052002 -0.289062 0.098145 0.067383 -0.206055 0.160156 0.492188 0.100586 0.339844 0.147461 -0.593750 0.090820 0.007416 -0.554688 -0.449219 0.182617 0.283203 0.012207 -0.073730 0.050781 0.091309 0.070312 0.150391 -0.245117 0.388672 -0.149414 0.192383 0.181641 0.166992 0.150391 0.108398 -0.154297 -0.093262 0.171875 0.186523 0.054199 0.089844 0.018677 0.112793 0.390625 0.466797 -0.326172 0.090820 -0.609375 0.217773 0.198242 0.030640 -0.143555 -0.129883 -0.082520 -0.429688 0.216797 -0.126953 0.077637 0.109863 0.281250 -0.039062 -0.171875 -0.441406 -0.197266 -0.287109 -0.039551 0.304688 -0.083496 0.328125 0.006805 -0.437500 -0.008057 -0.116211 -0.109863 -0.127930 0.294922 0.049561 0.449219 0.070801 -0.112305 0.367188 0.302734 0.136719 0.271484 0.175781 0.355469 0.223633 0.206055 0.041748 -0.447266 0.051025 -0.102051 0.273438 0.040039 0.111328 0.217773 -0.092773 -0.025513 0.213867 0.141602 0.328125 0.081543 0.047363 0.091309
window 0.098633 0.086426 -0.077637 -0.093262 0.140625 0.035400 0.192383 -0.140625 0.312500 0.283203 -0.132812 -0.394531 0.180664 -0.087402 -0.308594 -0.314453 0.112305 0.083008 0.160156 -0.064941 0.127930 -0.024658 -0.209961 -0.160156 -0.051270 -0.007690 0.064453 0.474609 0.296875 0.190430 -0.322266 -0.148438 -0.151367 -0.011658 0.025879 -0.095703 -0.074707 0.074707 -0.180664 -0.146484 -0.053223 -0.075684 0.058350 0.211914 -0.127930 0.161133 -0.363281 0.168945 -0.099609 -0.038818 -0.190430 -0.067383 0.085449 -0.152344 -0.355469 0.111328 -0.017334 0.047607 0.172852 -0.152344 -0.198242 -0.070312 0.222656 0.059326 -0.074707 -0.019043 0.183594 -0.009277 -0.209961 0.034668 0.060303 -0.023315 0.158203 -0.220703 -0.263672 0.133789 0.227539 -0.028564 0.203125 -0.092285 0.141602 0.189453 -0.134766 -0.208984 -0.053467 0.289062 0.093262 0.063965 0.216797 -0.158203 -0.106445 0.027954 0.152344 -0.061035 -0.077637 0.047607 0.090332 -0.294922 0.069824 -0.059082 -0.104980 -0.318359 -0.105957 -0.184570 0.185547 0.011597 0.192383 0.004730 -0.141602 -0.255859 -0.247070 0.013367 -0.200195 -0.230469 0.232422 0.046387 0.079590 -0.182617 0.008789 0.222656 0.090820 -0.204102 -0.027466 0.146484 -0.050537 -0.075195 -0.044434 0.106934 0.174805 0.171875 -0.013367 -0.074707 0.125000 -0.200195 0.131836 0.098145 -0.125000 -0.213867 0.099609 0.194336 -0.023193 0.073242 -0.296875 0.059082 0.158203 0.059082 -0.046631 -0.191406 0.148438 -0.008667 0.079102 0.213867 0.158203 0.040039 0.200195 0.061035 -0.081543 -0.209961 -0.116211 0.085449 -0.159180 0.211914 -0.092285 -0.251953 -0.072266 -0.298828 -0.115234 0.049805 0.018311 0.066406 -0.429688 0.090820 -0.314453 -0.118652 0.023804 -0.009155 0.361328 -0.179688 0.055420 0.233398 -0.404297 0.057373 0.162109 -0.103027 0.048828 -0.050049 0.011108 0.298828 0.227539 0.062500 0.185547 -0.213867 -0.090332 -0.010010 -0.002563 0.217773 -0.150391 -0.253906 -0.217773 -0.003616 0.017944 -0.003708 -0.238281 0.003830 0.412109 -0.233398 0.205078 0.183594 -0.144531 0.017090 -0.225586 0.316406 -0.335938 0.083984 -0.080566 -0.059570 0.098145 0.234375 -0.172852 0.059814 0.018311 -0.113770 0.126953 0.226562 -0.133789 0.034424 0.033203 0.070801 -0.149414 -0.221680 -0.171875 -0.119141 0.024780 -0.093262 -0.111328 0.030029 -0.023804 0.077637 -0.026489 0.134766 0.173828 -0.062988 -0.255859 -0.041748 -0.041748 -0.004242 -0.191406 -0.167969 -0.035400 -0.169922 0.099121 -0.127930 -0.010437 -0.131836 0.032715 -0.007782 -0.033203 0.246094 0.070801 -0.233398 -0.162109 -0.310547 -0.398438 -0.167969 0.052246 0.164062 0.035156 0.142578 -0.353516 0.137695 -0.038330 0.343750 0.013184 0.250000 0.171875 -0.062256 0.229492 -0.188477 0.044678 -0.049561 -0.092773 0.097656 -0.183594 0.219727 -0.038574 0.194336 -0.054688 -0.010193 -0.157227 -0.017090 0.020508 0.162109 0.083984 -0.033203 -0.049561 0.049805 0.105469 -0.145508 -0.064453 -0.140625
government -0.168945 -0.104492 -0.034180 0.167969 0.020020 -0.320312 -0.055420 0.096191 0.213867 -0.127930 -0.016113 -0.082031 -0.098633 0.020386 -0.398438 0.187500 -0.026123 -0.015442 -0.113770 -0.099609 0.016235 0.121582 0.190430 0.083008 0.184570 -0.037354 0.073730 0.002350 0.155273 -0.073730 0.157227 -0.144531 -0.085938 0.220703 -0.112305 -0.134766 0.102539 0.114746 0.031494 0.106445 0.075684 -0.120117 0.332031 0.073730 -0.001945 -0.246094 -0.185547 0.275391 -0.324219 -0.023071 0.185547 -0.013184 -0.054443 0.034424 -0.094727 -0.022217 -0.257812 0.154297 -0.175781 -0.021973 -0.134766 0.087402 -0.126953 0.148438 -0.092773 -0.003143 -0.021362 0.179688 0.075684 0.027954 -0.090332 0.238281 0.190430 -0.005829 0.015564 -0.061035 -0.041504 0.122070 0.069336 0.059082 0.051758 0.125000 0.111328 0.034912 -0.149414 -0.160156 -0.069824 0.049561 -0.056885 0.101562 0.175781 -0.049805 -0.001785 -0.182617 -0.112793 -0.001953 0.130859 -0.251953 0.092773 0.035400 -0.041260 0.037109 -0.050781 0.012146 0.009155 0.051758 -0.335938 -0.227539 0.285156 -0.145508 -0.054443 -0.106934 -0.135742 0.219727 0.086914 0.019287 -0.087891 -0.109863 0.082031 0.242188 0.097168 0.112305 -0.212891 -0.092773 -0.060059 0.093750 0.080566 -0.275391 0.005890 -0.187500 0.022583 0.181641 0.149414 -0.220703 0.023560 -0.059570 -0.007446 -0.281250 0.047607 0.016357 0.026611 -0.005829 -0.048828 0.247070 -0.104004 -0.112793 0.029053 -0.002945 -0.072754 0.043457 0.205078 -0.107422 -0.149414 0.001930 0.086914 -0.037842 0.001999 -0.273438 -0.015625 0.065918 0.110352 0.096680 0.085938 -0.121094 0.062500 0.057861 0.017944 -0.039795 0.191406 0.027588 -0.055176 -0.007874 -0.065430 0.013489 0.242188 -0.164062 0.098145 0.038086 -0.103516 -0.021240 -0.283203 -0.085449 -0.061768 -0.302734 -0.002289 0.063477 0.031738 0.131836 -0.047607 -0.004059 -0.141602 0.028931 -0.042236 -0.000139 -0.025513 -0.093262 0.027344 0.097168 0.095703 0.033203 -0.248047 0.091797 0.162109 -0.007202 -0.039795 -0.045410 0.022339 -0.093262 -0.110352 -0.160156 -0.004639 -0.105469 0.043945 0.084473 -0.025879 0.107422 -0.046875 0.218750 -0.212891 0.064453 -0.048828 0.035400 0.095215 0.100586 0.038086 -0.028809 0.164062 0.279297 0.289062 0.068848 0.095703 -0.024292 -0.158203 0.037354 0.046631 -0.003754 0.240234 0.084961 0.117676 -0.175781 0.056396 -0.038818 -0.025635 0.065430 0.135742 -0.178711 0.053711 -0.000452 0.134766 0.093262 -0.052246 -0.085938 0.097168 0.024414 0.154297 -0.033447 0.082520 0.015320 0.078613 -0.091309 0.045166 0.151367 -0.017456 0.030029 -0.024536 0.316406 -0.136719 -0.079102 -0.125000 0.084473 -0.001160 0.060791 0.125977 -0.136719 -0.010071 0.031128 -0.000338 -0.107422 0.016846 -0.053955 -0.204102 -0.175781 0.261719 0.009888 0.096191 -0.118652 0.040771 0.109863 0.223633 0.009583 -0.310547 -0.010986 0.062500 -0.066406 -0.000119 0.134766 -0.159180 0.158203 0.064941 -0.018677
James 0.283203 0.104004 -0.169922 0.065918 0.209961 -0.051270 -0.183594 -0.150391 0.119141 -0.026367 -0.134766 -0.034912 0.226562 0.207031 -0.007385 0.169922 0.069336 -0.088867 0.359375 0.097656 -0.134766 -0.052490 0.163086 -0.158203 0.039795 -0.043945 0.145508 0.152344 -0.098633 0.056885 -0.110840 0.041016 0.054688 -0.092773 0.011169 -0.022217 0.180664 0.161133 -0.041260 -0.001602 0.066406 -0.063965 -0.141602 -0.025635 -0.127930 -0.065918 0.125000 0.045166 0.062988 0.036621 0.009216 0.135742 -0.157227 -0.186523 0.002655 0.076660 -0.026123 -0.213867 -0.103027 -0.027710 0.143555 0.096191 -0.204102 -0.083008 -0.104004 -0.041260 -0.053955 -0.062500 0.091797 -0.122559 0.072266 -0.230469 0.001312 0.015076 0.016113 -0.017822 -0.021484 0.057129 0.220703 0.122559 0.150391 0.015320 0.056885 -0.044189 0.219727 -0.132812 -0.103027 0.306641 0.023438 -0.119629 0.125000 -0.032959 0.165039 0.023560 0.026489 0.165039 0.018188 -0.021240 -0.113281 -0.149414 -0.181641 0.034424 -0.009155 -0.135742 0.046631 -0.073730 0.123535 -0.106934 -0.083008 -0.044189 -0.114746 0.287109 -0.142578 -0.004333 -0.020630 -0.208008 -0.172852 0.009216 0.127930 -0.112793 -0.155273 0.003250 -0.091309 -0.121094 0.040283 -0.144531 -0.016357 0.152344 0.041992 0.119141 0.049561 0.033691 -0.104004 0.048096 0.073242 -0.093262 -0.128906 0.207031 0.095215 0.086426 0.159180 0.058350 0.086914 -0.091309 -0.040771 0.195312 0.077148 -0.211914 0.030273 0.069336 -0.013611 -0.236328 0.036377 0.229492 -0.022705 0.078125 -0.187500 -0.081543 0.021851 -0.017090 0.002274 0.186523 0.275391 -0.011536 -0.084961 0.052490 -0.073242 -0.058105 0.007751 -0.015442 -0.043457 0.153320 0.097168 -0.118164 0.164062 -0.030273 0.083008 0.150391 -0.191406 0.024536 -0.144531 -0.061035 0.028442 0.095703 -0.149414 -0.081055 0.197266 -0.000858 0.106934 -0.064941 -0.033203 0.050049 -0.020996 0.086426 0.014343 0.101562 0.092773 -0.060791 0.020386 -0.066406 0.089355 0.004608 -0.012024 0.163086 0.176758 0.031250 0.107422 0.137695 -0.123047 -0.141602 0.214844 -0.194336 -0.009766 -0.089355 -0.152344 -0.031982 -0.009888 -0.116699 -0.042725 -0.160156 -0.019897 -0.111328 0.146484 -0.304688 -0.023193 -0.052734 0.023315 0.170898 0.060547 -0.121582 -0.069336 0.096191 0.134766 -0.046875 -0.011841 -0.014160 0.099121 -0.141602 -0.070312 0.191406 0.018555 -0.043701 -0.004364 -0.271484 0.022583 0.212891 -0.013062 0.044434 0.112305 -0.034424 -0.147461 -0.004517 0.024414 0.186523 0.062500 0.120117 0.219727 -0.036133 -0.077148 -0.098633 -0.097168 0.020630 -0.090332 0.004364 0.063965 0.292969 -0.036621 0.054932 0.085449 -0.009277 0.007996 -0.064941 0.004028 0.149414 -0.022461 -0.095215 -0.005737 -0.021118 -0.037354 -0.075195 0.103027 0.011963 0.011353 -0.156250 0.015991 0.159180 -0.023682 -0.052002 0.115234 0.015442 -0.029297 -0.029297 -0.028931 0.208008 0.028320 -0.244141 -0.015564 -0.070312 0.011963 0.003143
fridge -0.388672 0.218750 0.014893 0.209961 0.079590 0.382812 0.218750 -0.084961 0.231445 0.141602 0.036621 -0.175781 0.082520 -0.029419 -0.177734 0.117676 0.027710 0.005310 0.203125 0.031128 0.447266 0.177734 0.172852 -0.023071 0.068848 -0.025757 -0.190430 0.273438 0.022949 0.002838 -0.324219 0.018555 0.064453 0.304688 -0.104004 -0.214844 0.062256 -0.004852 -0.140625 0.032959 -0.145508 -0.101562 -0.018188 -0.014221 0.020874 0.078125 -0.281250 0.215820 -0.065918 -0.156250 -0.265625 -0.273438 0.104980 0.040283 -0.236328 -0.212891 0.072754 0.001892 0.014709 0.429688 -0.214844 0.318359 -0.060791 0.112793 -0.134766 -0.134766 -0.168945 -0.490234 -0.137695 0.003616 0.209961 0.162109 0.220703 0.164062 -0.539062 0.089844 -0.145508 -0.012756 -0.083008 -0.507812 0.068359 -0.038574 0.049805 -0.102051 -0.096191 0.049072 0.019409 0.367188 0.251953 0.246094 -0.169922 -0.072266 0.031494 -0.263672 -0.082031 -0.087402 0.108398 -0.287109 0.177734 0.005829 -0.195312 -0.197266 0.201172 0.114746 -0.049072 -0.492188 -0.165039 0.145508 -0.197266 0.035645 -0.083008 -0.289062 0.075684 -0.184570 0.133789 0.015747 -0.173828 0.027466 -0.006561 -0.279297 -0.235352 -0.371094 -0.056396 0.193359 -0.092773 -0.038574 -0.071289 0.207031 0.051758 0.092285 -0.068848 0.318359 -0.052002 0.230469 -0.007233 0.353516 0.140625 -0.186523 0.034424 0.400391 0.145508 -0.318359 0.053955 -0.105469 0.049561 0.018066 -0.052979 0.017090 0.018433 -0.117188 0.431641 0.129883 -0.060547 0.088867 -0.044434 0.022949 -0.139648 -0.223633 -0.219727 0.206055 -0.289062 0.107910 0.198242 0.019287 0.306641 -0.146484 -0.018188 0.275391 0.063477 -0.203125 -0.388672 0.129883 -0.223633 0.285156 -0.558594 -0.055176 0.384766 -0.139648 0.154297 0.333984 -0.204102 0.054688 0.127930 -0.060547 0.003265 0.115723 -0.277344 0.139648 0.015381 0.263672 -0.275391 -0.020874 -0.074219 0.277344 0.045410 0.535156 -0.004486 -0.071777 -0.069824 0.046631 -0.229492 0.170898 -0.386719 0.212891 0.083984 0.031738 0.043457 -0.107422 0.012207 -0.257812 -0.355469 -0.000755 -0.172852 0.243164 -0.013245 0.115234 -0.098633 0.355469 -0.080566 0.279297 -0.075684 0.043701 -0.008057 0.179688 -0.231445 0.140625 0.007721 -0.023560 -0.251953 -0.265625 -0.115234 0.143555 0.244141 -0.104980 0.094238 -0.181641 0.246094 0.207031 -0.063477 -0.003204 0.153320 0.037109 -0.039795 0.011414 -0.101074 0.170898 -0.243164 0.263672 0.089844 -0.032715 -0.190430 0.222656 0.318359 0.171875 -0.093750 0.143555 -0.031128 -0.092285 0.062012 -0.145508 0.059814 -0.100098 -0.523438 -0.184570 -0.081055 -0.129883 -0.117188 -0.207031 -0.143555 0.047119 -0.048828 0.009094 0.441406 0.291016 0.140625 0.062256 0.186523 -0.142578 0.006622 -0.075684 0.308594 0.152344 0.174805 0.271484 0.115234 0.116699 0.330078 0.185547 -0.075195 0.172852 -0.006470 0.247070 -0.312500 0.174805 -0.137695 -0.531250 -0.197266 0.018188 -0.204102 0.211914
lunch -0.193359 0.022583 -0.226562 0.447266 -0.013123 -0.006256 -0.002197 -0.092285 0.030273 0.041748 0.073242 0.138672 0.345703 -0.059326 -0.028809 0.190430 -0.022949 -0.041748 0.277344 -0.008667 -0.017456 -0.016357 0.056885 0.145508 -0.024536 0.081055 -0.157227 0.061035 -0.058105 0.111816 -0.085938 -0.294922 0.084473 0.075684 -0.082031 -0.097656 0.013306 -0.287109 -0.097168 0.039551 -0.218750 -0.298828 0.419922 -0.113281 0.087891 0.099121 -0.386719 0.065430 -0.106445 0.457031 -0.009888 -0.267578 -0.009277 -0.043945 0.140625 -0.076172 0.108887 -0.119141 0.033691 -0.188477 -0.287109 0.251953 -0.208008 -0.075684 -0.069824 -0.146484 -0.292969 -0.185547 0.205078 0.097168 0.221680 0.094238 0.036865 0.058105 -0.423828 -0.064941 -0.500000 0.213867 -0.093750 -0.136719 0.067383 -0.089355 -0.059814 0.133789 -0.153320 0.000713 -0.106445 -0.087891 0.185547 -0.086914 -0.082031 0.010681 -0.088379 0.037598 -0.204102 -0.163086 0.107910 0.035889 -0.092773 -0.109863 -0.108398 -0.235352 -0.152344 0.287109 -0.147461 -0.142578 0.275391 -0.039307 -0.002625 0.067871 0.038330 -0.131836 0.068359 -0.005432 0.214844 -0.322266 0.287109 -0.181641 0.028931 0.005463 0.027344 0.031494 0.226562 0.089355 -0.123047 0.182617 -0.060059 0.069824 0.273438 0.084473 -0.271484 -0.316406 0.007812 -0.018921 -0.302734 0.211914 0.222656 0.098145 0.179688 0.097168 -0.111816 -0.267578 -0.083496 -0.219727 -0.100586 -0.134766 -0.067871 -0.119629 0.159180 0.101562 0.132812 0.041992 -0.131836 0.312500 0.085449 -0.180664 -0.035645 -0.221680 -0.578125 -0.128906 -0.326172 0.236328 0.090332 0.047363 -0.180664 0.074219 0.063477 0.068848 -0.015137 -0.009949 -0.292969 0.188477 0.204102 -0.066406 -0.202148 -0.093750 -0.006744 0.287109 -0.094727 0.036621 -0.111328 -0.206055 0.045410 0.066406 0.287109 -0.000809 0.139648 -0.012024 0.003464 -0.277344 -0.170898 0.312500 -0.062500 0.100098 -0.095703 0.227539 -0.005432 -0.116211 -0.146484 -0.050537 -0.049805 0.125000 0.027588 -0.367188 0.067871 -0.088379 -0.046631 0.267578 -0.020752 -0.093750 -0.149414 -0.164062 -0.138672 -0.103027 0.014038 0.201172 0.089355 0.089844 -0.263672 -0.125000 -0.016235 -0.054688 0.230469 -0.052002 -0.009338 -0.201172 0.043457 0.089844 0.079102 -0.124023 0.077148 -0.128906 -0.184570 -0.184570 0.316406 -0.231445 0.220703 0.219727 0.007721 0.097168 0.173828 0.068359 0.160156 -0.220703 -0.091309 -0.072754 -0.023926 -0.133789 0.228516 0.026855 0.078613 0.222656 0.038330 -0.104980 0.076660 -0.063965 -0.014343 -0.253906 -0.167969 0.065918 -0.222656 0.134766 -0.218750 -0.120605 -0.020264 -0.181641 0.091309 0.429688 -0.217773 -0.020020 0.109375 0.100098 -0.079102 0.079102 0.292969 -0.075195 0.203125 -0.209961 0.040283 -0.133789 0.087402 0.015503 -0.154297 0.242188 -0.210938 -0.001808 -0.020508 0.539062 -0.152344 0.084473 -0.028442 -0.004333 0.106934 0.140625 0.171875 -0.186523 -0.096680 0.097168 -0.106934 0.019409
Juventus 0.277344 -0.060791 0.238281 0.219727 -0.016846 -0.113281 -0.129883 -0.006134 0.130859 0.386719 -0.050049 0.152344 -0.069824 0.208008 0.013550 0.111816 -0.150391 -0.189453 0.161133 0.125977 0.084961 0.019043 0.207031 -0.066895 0.249023 0.088867 0.114746 0.019531 0.027710 0.167969 -0.251953 0.087891 0.123047 -0.076660 -0.136719 0.017090 0.031738 -0.007690 0.029907 0.012756 -0.277344 -0.061035 0.207031 0.065430 0.218750 -0.178711 0.511719 0.245117 -0.120605 0.184570 -0.255859 0.234375 -0.390625 -0.031738 -0.400391 0.135742 0.073242 0.029785 -0.339844 0.091309 -0.248047 0.263672 0.004395 -0.026733 -0.104004 -0.255859 -0.111328 0.043945 0.251953 -0.008606 -0.105957 0.134766 0.096680 -0.002777 -0.355469 -0.026123 0.088379 -0.349609 -0.056885 -0.019165 -0.277344 -0.279297 0.003464 -0.335938 0.458984 -0.176758 0.335938 0.292969 0.069336 -0.192383 0.251953 -0.287109 -0.376953 0.169922 -0.118652 -0.625000 -0.150391 -0.582031 0.183594 -0.078125 -0.240234 -0.085938 0.030518 0.431641 0.083496 0.275391 0.072266 -0.296875 0.206055 -0.259766 0.378906 0.166016 0.601562 -0.187500 -0.191406 -0.063477 -0.090332 -0.014648 0.425781 0.263672 -0.240234 -0.269531 -0.141602 0.040039 0.028809 -0.259766 -0.037109 0.060059 -0.519531 -0.014282 0.128906 -0.229492 -0.109863 -0.507812 0.476562 -0.131836 -0.032715 0.137695 0.476562 -0.052490 0.341797 -0.123535 -0.255859 0.249023 0.147461 -0.005127 -0.177734 -0.121094 -0.019653 -0.378906 0.289062 0.137695 -0.114746 0.002533 0.168945 -0.037842 -0.076172 0.090332 0.161133 0.255859 0.433594 0.031250 0.053467 -0.027466 0.042969 -0.382812 -0.135742 -0.124512 0.096191 0.425781 -0.429688 0.001740 -0.188477 -0.045654 -0.095703 -0.085449 -0.165039 -0.145508 -0.243164 -0.416016 0.186523 0.281250 -0.107910 -0.081055 0.226562 0.044189 -0.194336 0.072266 -0.084961 -0.249023 -0.371094 -0.206055 0.134766 0.010437 0.141602 -0.013794 0.273438 0.092285 -0.279297 -0.154297 -0.006042 -0.023560 -0.373047 -0.480469 0.039062 -0.574219 0.037598 0.049561 -0.198242 -0.142578 -0.605469 -0.028809 -0.084473 0.435547 -0.593750 0.234375 0.015869 0.073242 -0.312500 -0.166016 -0.064941 0.039795 -0.226562 0.051514 0.133789 0.261719 0.443359 -0.052979 0.519531 0.000433 -0.032959 0.163086 0.034668 0.002213 -0.214844 0.003326 -0.153320 0.294922 -0.068359 -0.035400 0.539062 -0.322266 0.248047 0.068359 -0.449219 -0.156250 -0.292969 0.051270 -0.375000 -0.015198 0.470703 0.105469 -0.228516 0.253906 0.127930 0.102051 -0.108887 -0.058105 -0.139648 0.257812 0.353516 -0.126953 0.353516 0.146484 0.312500 0.081543 -0.652344 -0.246094 0.100098 0.025513 0.165039 0.110840 -0.037598 0.125000 0.378906 -0.047852 0.373047 0.083984 0.022949 0.210938 -0.441406 0.104980 0.045166 0.194336 -0.273438 0.218750 0.226562 0.312500 -0.163086 0.027100 -0.029663 0.188477 -0.486328 -0.115723 0.164062 0.247070 -0.111328 0.072266 -0.092773 0.012390
Venus -0.212891 -0.090332 -0.014648 -0.069336 0.090820 0.203125 0.107422 -0.001091 0.051758 0.187500 -0.213867 0.396484 0.263672 -0.238281 -0.154297 0.109863 0.071777 -0.255859 0.302734 0.054932 -0.145508 0.141602 -0.174805 -0.267578 0.162109 -0.081055 -0.084473 0.033447 0.047852 -0.100098 -0.236328 -0.357422 -0.265625 -0.378906 -0.151367 0.034424 -0.160156 -0.132812 -0.009888 -0.198242 0.140625 0.082520 0.066406 0.153320 -0.112793 -0.259766 0.187500 0.092773 0.283203 0.244141 0.081055 0.285156 -0.079590 -0.120605 -0.105469 0.122559 0.156250 -0.244141 -0.225586 -0.004517 0.113281 0.099121 0.061768 -0.082031 -0.316406 0.155273 0.146484 0.197266 -0.040283 0.123535 -0.009155 -0.113770 -0.112793 0.118652 -0.503906 -0.112305 0.025269 0.003799 -0.242188 0.234375 -0.177734 -0.096680 0.398438 -0.390625 -0.359375 0.057617 0.010193 0.223633 0.318359 -0.192383 -0.107422 -0.431641 -0.283203 0.013123 -0.189453 -0.064453 0.095703 -0.300781 -0.053467 -0.037109 -0.357422 -0.143555 0.029541 -0.347656 0.107422 0.036377 -0.204102 0.141602 -0.124023 0.046387 0.036865 0.058105 0.279297 -0.123047 -0.187500 0.175781 0.197266 -0.355469 0.119629 0.036133 -0.201172 -0.084473 0.052979 -0.174805 -0.231445 -0.095215 -0.034668 0.203125 0.116699 -0.220703 -0.051514 0.177734 -0.554688 -0.097656 0.148438 0.135742 -0.267578 0.118164 -0.072266 0.153320 0.376953 -0.281250 -0.163086 -0.048096 -0.229492 0.406250 0.104980 -0.066895 -0.100098 -0.176758 0.087891 -0.061035 -0.306641 0.194336 0.263672 -0.044922 -0.041504 0.020752 0.292969 -0.184570 -0.085938 0.112793 0.197266 0.201172 0.289062 -0.156250 0.041260 -0.169922 0.259766 0.096680 0.041992 0.119629 0.210938 0.341797 -0.152344 -0.180664 -0.143555 0.045898 -0.112793 -0.500000 -0.365234 0.318359 -0.443359 -0.155273 -0.121582 -0.079590 -0.135742 0.084961 -0.214844 -0.234375 -0.112793 -0.182617 0.345703 -0.271484 -0.144531 0.298828 0.055908 0.072754 0.287109 -0.048828 -0.056152 -0.259766 -0.550781 -0.160156 0.069824 -0.034424 -0.100586 -0.174805 -0.287109 -0.014587 -0.164062 0.437500 -0.018799 -0.011230 -0.125000 0.050293 -0.018066 0.273438 -0.044189 -0.143555 0.084961 0.162109 0.189453 -0.122559 -0.500000 -0.052734 0.105957 0.011902 0.216797 0.005859 -0.275391 -0.065918 0.169922 0.155273 0.419922 0.238281 -0.112793 -0.273438 0.075684 -0.225586 0.239258 -0.176758 0.453125 -0.273438 -0.171875 -0.171875 -0.177734 0.203125 -0.011475 0.215820 0.217773 0.074219 0.087891 0.212891 -0.247070 -0.002579 0.271484 0.073242 0.131836 -0.283203 0.298828 -0.228516 -0.193359 -0.239258 0.291016 -0.026611 -0.055908 0.081543 0.215820 0.240234 -0.186523 0.248047 -0.158203 0.458984 0.421875 0.106445 0.018555 -0.207031 0.155273 0.015015 -0.173828 0.198242 0.192383 -0.134766 0.101562 0.053467 -0.104492 0.021729 -0.143555 0.251953 0.162109 0.357422 -0.190430 -0.018311 0.089844 0.198242 -0.090332 -0.047852 0.079102 -0.041016
day -0.150391 0.072266 0.030518 0.041504 0.018066 -0.036865 0.168945 -0.125000 0.218750 0.045898 0.079590 -0.063477 0.153320 -0.034668 0.060547 0.130859 -0.119141 0.035156 0.159180 -0.092773 -0.123535 0.004303 0.049805 -0.121094 -0.089844 0.087891 0.111816 0.125000 0.124023 0.074219 -0.041504 0.054443 0.080078 0.023438 -0.112305 -0.016846 -0.087891 -0.106445 -0.082520 0.061279 0.059814 -0.024658 0.237305 0.051270 -0.052979 -0.052490 -0.103027 0.132812 -0.076172 0.042236 0.027832 -0.089355 -0.027344 0.093750 0.071289 0.026001 0.005524 -0.014465 0.083008 -0.152344 -0.082031 0.091797 -0.001030 -0.102051 0.108887 -0.012146 -0.046387 -0.041504 0.045654 0.042480 0.064453 0.034912 -0.030396 0.111816 0.095215 -0.113281 0.072266 0.037598 -0.003967 0.065918 -0.004883 -0.099121 0.005920 -0.063965 0.048828 0.019043 -0.114746 -0.080078 0.142578 0.162109 0.241211 0.213867 -0.063477 -0.248047 -0.375000 -0.008545 0.130859 0.078613 0.063965 -0.046875 0.162109 -0.161133 -0.118652 -0.014832 -0.109863 -0.217773 -0.043213 -0.010254 -0.106445 0.014221 0.163086 0.033447 0.044922 -0.001701 0.257812 -0.029663 0.144531 -0.020020 0.025635 0.110840 -0.115723 -0.091309 0.025513 0.062500 0.000286 0.010254 0.156250 -0.029053 0.000866 0.047363 -0.104980 -0.183594 -0.015076 -0.084473 -0.157227 -0.188477 0.003784 0.042969 -0.099121 -0.075684 0.193359 -0.128906 0.047363 -0.123535 -0.148438 0.068359 0.034424 -0.182617 -0.008667 -0.074707 0.084961 0.187500 -0.149414 -0.009888 0.065918 -0.111816 -0.057861 -0.250000 -0.172852 0.074707 -0.092773 0.039062 0.121094 0.126953 -0.011230 0.046143 0.039795 -0.092773 0.099121 -0.118164 -0.106445 0.066895 -0.010132 -0.239258 -0.069336 -0.179688 0.014343 0.036133 -0.018066 -0.010864 -0.180664 0.049561 0.017700 0.047852 0.191406 0.035645 0.187500 -0.065918 0.190430 -0.013855 0.023193 0.095215 -0.128906 0.024902 -0.207031 0.074707 -0.049805 0.107910 -0.296875 0.024414 0.018921 0.007080 -0.103516 -0.063477 0.228516 -0.004303 -0.180664 0.146484 0.072266 -0.157227 0.090820 0.059814 -0.149414 -0.036133 -0.104980 0.025879 -0.021973 0.027466 -0.265625 0.065430 0.169922 0.177734 0.186523 -0.147461 -0.054199 -0.129883 0.032715 -0.004761 -0.053223 -0.039551 0.182617 0.029907 0.036621 -0.015991 -0.000006 -0.028687 -0.037109 0.138672 0.050537 -0.101074 0.180664 0.050293 -0.089355 -0.231445 0.011536 -0.085449 -0.110352 -0.068359 0.028442 0.003036 -0.104492 0.107910 0.071777 -0.021362 0.015442 0.004517 0.100586 0.055664 -0.006561 -0.062988 0.031006 -0.083496 0.136719 -0.017822 0.170898 0.101074 0.215820 0.203125 -0.134766 0.150391 0.102539 0.000751 0.141602 0.147461 0.202148 -0.064941 -0.128906 -0.025024 0.081543 -0.056396 0.018188 0.018677 -0.076172 0.148438 -0.005371 -0.132812 -0.140625 0.184570 0.072754 0.157227 0.109863 -0.041992 -0.168945 -0.074219 -0.042725 -0.057129 -0.207031 0.131836 0.084473 0.018677
Triton -0.010925 0.178711 -0.306641 0.046387 -0.165039 -0.052734 0.084473 0.005249 0.021240 0.154297 0.016724 0.004944 -0.075684 -0.117676 0.281250 0.086914 -0.140625 -0.021362 0.136719 0.020874 -0.203125 0.243164 -0.006592 0.142578 0.145508 0.031250 0.118652 0.322266 0.169922 -0.081543 0.165039 -0.002869 -0.191406 -0.052246 0.089844 -0.119629 0.275391 -0.053711 -0.063965 0.085449 0.241211 -0.090332 -0.239258 0.168945 -0.033447 0.211914 -0.139648 0.070801 0.117676 -0.092773 0.110840 0.223633 -0.031738 -0.208008 -0.064941 0.137695 -0.023682 0.150391 0.070312 0.013367 -0.152344 -0.100586 -0.211914 0.096191 -0.322266 -0.053467 -0.061279 0.011597 -0.011230 0.153320 0.161133 -0.004120 0.220703 -0.105957 0.002869 0.004730 0.085938 -0.231445 0.188477 0.246094 -0.145508 -0.269531 0.015259 0.082520 0.208984 -0.009338 -0.130859 0.159180 0.083496 -0.055664 0.132812 -0.125000 -0.081055 0.267578 -0.143555 0.148438 0.038086 -0.224609 0.156250 -0.008240 -0.002121 -0.152344 -0.076660 0.103516 -0.031494 0.162109 0.022339 -0.068359 -0.008606 0.227539 -0.048096 -0.117676 -0.081543 -0.066406 0.085938 0.075684 -0.015747 0.149414 -0.060791 -0.125977 0.127930 -0.197266 0.083496 -0.154297 -0.104492 -0.090332 -0.029419 0.093750 -0.077148 0.058350 -0.143555 0.121582 -0.273438 -0.148438 0.078125 -0.005737 0.275391 0.176758 -0.369141 0.182617 -0.211914 -0.359375 0.124512 -0.082520 -0.105957 0.412109 -0.073242 0.101562 0.123535 0.263672 0.027100 -0.009521 -0.127930 0.138672 -0.318359 -0.079590 0.010193 -0.032227 -0.020874 0.191406 0.123047 0.083496 -0.098145 -0.112793 0.147461 -0.208008 0.080566 0.013794 -0.076172 0.153320 -0.111816 -0.052002 0.103516 -0.253906 0.050537 -0.179688 0.000847 -0.117188 -0.361328 -0.010742 0.231445 0.031738 0.012390 0.029663 -0.153320 -0.123047 0.375000 -0.026978 0.175781 -0.166016 -0.285156 -0.185547 -0.090820 -0.059326 -0.582031 -0.073242 0.261719 -0.080566 0.075195 -0.125000 0.231445 0.001564 0.028198 0.060791 -0.221680 -0.008545 0.215820 0.047607 0.041260 0.029297 -0.070312 0.142578 -0.015320 -0.084961 0.021118 0.316406 0.025879 -0.054443 -0.088379 -0.202148 0.095703 0.345703 0.251953 -0.255859 -0.041992 -0.015198 -0.074219 0.148438 -0.059082 -0.025269 -0.030151 0.235352 -0.045166 -0.375000 -0.086914 0.115234 -0.040283 -0.257812 -0.069336 -0.289062 0.049316 -0.082031 -0.010742 -0.033691 -0.089355 -0.447266 -0.067871 0.011658 0.010193 -0.139648 0.180664 0.156250 -0.049316 -0.137695 0.031006 0.039062 0.445312 -0.169922 0.363281 0.039062 0.255859 0.014648 -0.445312 -0.153320 -0.002579 0.133789 -0.221680 -0.026001 0.257812 0.043945 0.055908 -0.202148 -0.212891 0.277344 0.094238 0.228516 -0.114258 0.041260 0.021729 0.029419 -0.335938 0.076660 0.257812 0.072266 -0.041016 -0.012634 0.183594 -0.010986 0.065430 -0.021240 -0.107422 0.075195 -0.302734 -0.324219 0.042236 0.074707 0.075195 0.005890 -0.109863 -0.027954
Thomas 0.244141 0.289062 -0.040283 0.056396 0.086426 -0.106934 -0.109375 -0.104492 0.118652 -0.021484 -0.099609 -0.162109 0.165039 0.093262 -0.021973 0.051514 0.125977 -0.018066 0.094238 0.153320 -0.221680 -0.040283 0.120117 -0.180664 0.008423 0.220703 -0.075195 -0.015076 -0.066406 0.090332 0.050781 -0.051514 -0.046387 0.029419 0.081055 0.033936 0.144531 0.122559 -0.065918 0.034424 0.019409 -0.005859 -0.124512 -0.048340 -0.055664 -0.094727 0.071289 -0.135742 0.139648 0.009827 0.040283 0.073242 -0.196289 -0.174805 0.129883 0.047852 0.014404 -0.138672 -0.198242 -0.067871 0.043701 -0.081543 -0.097168 -0.049805 -0.011230 -0.071777 -0.073730 -0.025757 -0.027954 0.185547 0.208008 -0.160156 0.059570 -0.012939 0.086914 0.020752 0.010620 0.011475 0.271484 0.060303 0.104980 0.062256 -0.046387 -0.141602 0.177734 -0.096680 -0.049805 0.140625 -0.033936 -0.158203 0.111816 -0.008362 -0.030518 0.010864 -0.002182 0.129883 0.133789 -0.029053 -0.076172 -0.098633 -0.226562 0.032959 0.053711 0.044678 0.071777 -0.018677 0.041992 0.073730 0.005707 0.031738 -0.019897 0.085938 -0.094238 -0.149414 0.096680 -0.080078 0.002197 0.014038 0.194336 0.005188 -0.253906 0.053955 -0.028809 -0.099609 -0.070312 -0.291016 -0.046875 -0.001785 -0.028442 0.219727 -0.144531 -0.032471 -0.169922 -0.030273 -0.027100 -0.098633 -0.013062 0.165039 0.069336 0.044678 0.055420 -0.117676 0.136719 -0.124023 -0.355469 0.028809 0.110840 -0.176758 -0.008179 0.059082 0.009644 -0.223633 0.031006 0.180664 0.123535 0.086914 -0.070312 -0.004211 0.067871 -0.100098 0.070801 0.201172 0.275391 0.021851 0.067383 0.021729 -0.128906 0.013672 0.140625 0.099121 -0.032471 0.021606 -0.071777 -0.237305 -0.075684 -0.053467 0.052734 0.071289 -0.131836 -0.006500 0.014893 -0.004913 0.057861 0.032227 0.010986 -0.118164 0.157227 -0.031250 0.073730 0.014771 0.062256 0.076660 -0.030151 0.073730 -0.028809 0.015198 0.029907 -0.148438 0.110352 0.083496 -0.040527 -0.132812 -0.070312 0.116211 0.123047 0.042969 0.166992 0.091797 -0.128906 -0.147461 0.056641 -0.118164 -0.072754 -0.015076 -0.051270 0.067383 0.108398 -0.125977 0.186523 -0.149414 0.188477 -0.093750 0.078613 -0.142578 -0.081543 -0.013916 0.019897 0.211914 0.002029 -0.180664 0.004883 0.169922 -0.088867 0.057617 -0.009399 -0.020020 0.054932 -0.192383 -0.123047 0.208984 0.016724 -0.008240 -0.002121 -0.291016 0.048584 0.165039 -0.098145 0.041992 0.151367 -0.090332 -0.014099 0.000215 -0.070312 0.255859 -0.040527 -0.018066 0.052490 -0.066895 -0.051025 0.036621 -0.028931 0.124023 -0.140625 0.108398 0.065430 0.128906 0.164062 0.076660 -0.023682 0.044678 0.190430 -0.065918 -0.047119 0.175781 -0.056641 -0.080078 -0.090820 -0.054443 -0.091309 -0.012207 -0.014954 0.127930 -0.038330 0.062988 -0.073730 0.099609 -0.063965 0.008179 0.155273 0.007935 0.043701 0.020752 0.077148 0.228516 -0.029541 -0.166992 -0.027832 -0.053955 0.048340 0.003708
Saturn 0.156250 -0.069824 0.087891 -0.036621 -0.140625 0.007812 0.302734 -0.117188 -0.096680 0.048584 -0.074219 0.224609 -0.056396 -0.104980 0.028076 -0.202148 -0.007294 0.058105 0.291016 -0.085449 0.061768 -0.007294 0.037354 -0.376953 0.470703 0.139648 0.003052 0.192383 0.445312 -0.022461 -0.269531 -0.312500 -0.005280 0.131836 -0.129883 0.143555 0.165039 -0.068848 -0.242188 -0.154297 0.041260 -0.114258 -0.136719 0.291016 -0.402344 -0.038818 0.010437 0.154297 0.122559 -0.049072 -0.357422 0.373047 -0.165039 0.390625 -0.227539 0.122559 0.061523 0.162109 0.016113 -0.014343 0.086426 -0.251953 -0.208008 -0.173828 -0.158203 -0.207031 -0.205078 0.133789 -0.056641 0.106445 -0.034424 -0.167969 -0.283203 -0.318359 -0.433594 0.030518 -0.080078 -0.143555 -0.028076 -0.104492 0.503906 -0.187500 -0.032959 -0.347656 -0.198242 -0.158203 0.173828 0.296875 0.227539 0.130859 -0.314453 -0.474609 -0.083008 0.001511 -0.149414 0.056152 0.125977 0.034180 0.188477 0.124023 -0.216797 -0.202148 0.037354 0.034180 0.208984 -0.041504 -0.128906 0.139648 -0.188477 -0.095703 0.203125 0.122070 0.145508 -0.214844 0.285156 0.002930 -0.169922 -0.021729 0.065430 0.039062 -0.164062 0.018433 0.208008 -0.206055 0.108398 -0.151367 0.120605 0.112793 -0.076660 0.209961 -0.026489 -0.084473 0.014832 -0.110840 0.333984 0.142578 -0.063965 -0.118164 0.177734 0.172852 0.162109 -0.143555 -0.308594 0.197266 -0.055664 0.451172 0.355469 -0.138672 -0.184570 -0.141602 0.281250 -0.053223 -0.165039 -0.116699 0.105469 -0.112305 0.412109 -0.126953 0.008667 0.382812 -0.028564 0.154297 0.037842 -0.047607 0.019409 -0.112793 0.202148 -0.117188 -0.133789 0.198242 0.065918 -0.069824 0.079590 0.136719 -0.019531 -0.168945 -0.004333 0.022827 -0.022461 -0.318359 -0.251953 -0.002335 -0.257812 0.040039 -0.124023 -0.009033 -0.176758 0.498047 -0.339844 -0.287109 -0.089355 -0.095703 -0.083008 -0.337891 -0.106445 -0.054443 0.371094 -0.120605 0.466797 -0.121582 0.371094 -0.205078 -0.145508 -0.122559 0.021851 -0.328125 -0.117188 0.051758 -0.065918 0.125977 -0.203125 0.163086 -0.059814 0.176758 -0.002548 0.043701 0.168945 0.298828 -0.179688 -0.173828 0.155273 0.084473 0.302734 0.263672 -0.171875 -0.101562 0.093262 0.086426 0.098145 0.031128 0.066895 -0.294922 0.231445 -0.015503 0.133789 0.007538 -0.302734 -0.451172 -0.058105 -0.376953 0.217773 -0.162109 -0.182617 -0.339844 -0.324219 -0.267578 0.347656 0.181641 0.228516 0.067871 -0.142578 -0.138672 -0.080566 0.023682 -0.154297 0.064453 0.097168 0.119141 0.243164 -0.279297 0.134766 -0.656250 -0.208008 0.054932 0.462891 0.216797 -0.125977 0.017456 0.239258 0.118652 -0.113770 -0.138672 -0.066895 0.166992 0.117676 -0.003967 -0.241211 -0.108887 -0.147461 0.075195 -0.332031 -0.079102 0.255859 -0.026489 0.031982 -0.146484 0.273438 0.026855 0.078613 -0.150391 -0.255859 0.263672 -0.181641 -0.062012 -0.036865 0.010437 0.020630 0.240234 0.292969 -0.296875
jaguar 0.133789 0.213867 -0.155273 0.129883 0.227539 -0.127930 0.115723 0.025513 0.160156 -0.182617 -0.072266 -0.201172 -0.172852 -0.449219 0.253906 -0.045166 0.091797 0.535156 -0.135742 -0.382812 0.042969 -0.324219 -0.015869 0.138672 -0.249023 -0.167969 -0.433594 0.099121 0.365234 -0.271484 0.016235 0.026611 -0.116211 0.019897 -0.306641 -0.265625 -0.076660 -0.176758 0.398438 0.302734 -0.333984 0.053467 0.165039 0.656250 0.237305 -0.096680 0.304688 -0.034180 0.384766 0.285156 -0.367188 0.237305 0.277344 -0.257812 -0.024170 0.022827 0.185547 -0.308594 0.345703 0.246094 0.034912 0.056641 -0.091309 -0.320312 0.195312 -0.439453 0.324219 -0.314453 -0.222656 -0.169922 -0.462891 -0.125000 -0.476562 -0.019043 -0.378906 0.281250 0.158203 -0.328125 -0.142578 -0.150391 0.055420 0.106934 0.257812 -0.402344 -0.314453 0.269531 -0.224609 0.316406 0.020508 -0.150391 0.084473 0.098633 -0.107422 0.285156 0.218750 -0.507812 0.196289 0.006500 0.128906 0.179688 -0.117188 -0.605469 0.196289 -0.535156 0.343750 -0.318359 -0.117188 -0.123047 -0.153320 0.078125 -0.664062 0.141602 0.214844 0.628906 0.198242 -0.265625 0.039307 -0.353516 0.035156 -0.094238 0.033691 -0.337891 -0.285156 -0.171875 0.087891 0.376953 0.726562 -0.153320 0.212891 -0.178711 -0.181641 0.063477 -0.034912 0.204102 0.201172 -0.412109 -0.531250 -0.014038 0.213867 0.384766 -0.056885 -0.427734 -0.324219 0.206055 0.055664 0.218750 0.088379 0.550781 -0.000401 0.048096 0.468750 -0.070312 -0.406250 0.279297 0.195312 0.101074 -0.208008 0.213867 -0.017212 0.257812 -0.087402 -0.033447 0.107910 0.104004 -0.402344 0.115723 0.165039 0.049805 0.221680 0.003204 0.269531 0.057617 -0.007599 0.302734 -0.075195 0.263672 0.175781 0.205078 -0.249023 -0.255859 -0.753906 -0.189453 -0.155273 -0.335938 -0.054199 -0.084473 -0.125977 -0.084961 0.271484 0.202148 -0.326172 -0.298828 -0.054932 -0.098633 0.008545 0.198242 0.185547 -0.410156 -0.102539 0.107910 0.267578 -0.069824 -0.151367 0.208008 0.140625 -0.010925 0.314453 -0.120605 0.114258 -0.166016 -0.263672 -0.065430 0.199219 -0.574219 -0.294922 0.345703 0.437500 -0.283203 -0.359375 0.077148 -0.124512 0.222656 -0.320312 0.124023 0.184570 -0.059570 -0.062988 0.134766 0.394531 0.157227 -0.125977 -0.062500 -0.157227 -0.007782 0.077637 -0.041504 -0.009277 0.132812 0.030029 -0.287109 0.106934 -0.408203 -0.167969 -0.224609 0.070312 0.046387 0.237305 0.052979 -0.093262 -0.009705 0.041016 0.310547 -0.137695 -0.081055 0.225586 0.223633 -0.109863 0.194336 -0.277344 -0.200195 0.200195 0.073730 0.578125 0.109375 0.198242 -0.063477 -0.341797 -0.057373 -0.186523 -0.043457 -0.283203 0.101074 -0.083008 0.279297 0.306641 -0.119629 -0.078613 0.003342 -0.055908 0.199219 0.343750 0.085449 0.241211 0.210938 -0.012268 -0.515625 0.218750 0.196289 0.597656 -0.292969 -0.155273 0.028198 -0.007324 -0.208984 0.237305 0.474609 0.255859 0.124023 0.134766 0.226562
Noah 0.380859 0.086914 -0.180664 0.036377 0.145508 -0.120117 0.206055 -0.115234 -0.008972 -0.186523 0.088867 -0.122559 -0.084961 0.230469 0.000790 -0.104004 0.192383 0.050781 -0.135742 -0.022949 0.075195 0.179688 0.263672 -0.072266 0.038086 -0.124512 0.149414 0.030029 0.091309 -0.140625 0.049072 -0.002686 -0.114746 -0.151367 -0.032227 -0.077637 0.125977 0.053711 0.012268 -0.028320 0.201172 0.021729 -0.061279 0.021118 -0.030884 0.014771 0.034668 0.017456 0.072266 -0.200195 0.083496 0.043701 -0.283203 -0.308594 0.267578 0.410156 -0.014648 0.007355 -0.063965 -0.187500 0.275391 -0.063477 -0.048584 0.049316 -0.021118 -0.103516 0.044434 -0.042725 -0.107422 -0.060547 0.140625 -0.219727 0.031494 0.060791 -0.053467 -0.016235 0.095703 -0.134766 0.052490 0.090820 0.165039 0.142578 -0.186523 -0.283203 -0.022095 0.042236 0.129883 0.386719 0.217773 -0.241211 0.075684 -0.170898 0.077637 -0.067383 -0.156250 0.208008 -0.107422 -0.012695 -0.009644 -0.112793 0.006653 -0.062500 0.011597 -0.154297 -0.054199 -0.133789 0.141602 -0.396484 -0.404297 0.115723 -0.118652 -0.166016 -0.038818 -0.061768 -0.039551 -0.026245 -0.149414 0.057617 -0.205078 -0.227539 -0.220703 -0.196289 -0.119629 -0.144531 -0.196289 -0.091797 0.081543 0.115234 -0.135742 0.091797 -0.202148 -0.032471 -0.220703 0.118164 -0.155273 0.000298 0.094238 0.102539 0.052734 0.171875 0.353516 0.123535 0.004395 -0.259766 0.093750 0.165039 0.265625 -0.072266 -0.142578 0.000465 0.022095 0.034180 -0.460938 0.376953 -0.232422 -0.070801 -0.021851 -0.083496 0.092285 0.019653 0.009766 0.087402 0.398438 0.052734 -0.036621 -0.002731 0.148438 0.084473 -0.146484 0.057373 -0.125977 -0.076172 0.001305 0.010864 0.176758 0.092285 0.369141 -0.039551 -0.134766 -0.162109 -0.066406 -0.104492 -0.021606 0.050537 -0.026978 0.100098 0.010071 -0.078125 0.127930 -0.141602 0.126953 -0.085449 0.142578 0.312500 -0.088867 0.189453 -0.125000 -0.324219 -0.169922 -0.318359 -0.149414 -0.086426 0.163086 0.092285 -0.001205 0.010620 0.209961 0.039795 -0.109375 0.067871 0.077148 -0.244141 -0.061523 -0.104492 -0.219727 0.166016 0.177734 -0.144531 0.108887 -0.242188 0.127930 0.300781 0.255859 0.047607 0.027222 0.120605 -0.133789 0.386719 0.020386 -0.250000 0.041992 0.074219 0.027466 -0.036621 -0.048584 -0.208984 0.105957 -0.119141 0.001183 0.136719 0.032715 0.202148 -0.137695 -0.084473 0.016235 0.243164 -0.047363 0.213867 -0.072754 -0.090332 -0.182617 -0.050537 0.018799 -0.043457 0.028931 -0.040039 0.292969 -0.129883 -0.106934 0.028076 -0.322266 0.051025 -0.137695 0.075684 -0.076172 0.326172 0.054199 -0.069336 0.177734 0.241211 -0.069824 0.013855 -0.036377 0.244141 0.059082 -0.098145 -0.089844 0.108887 0.070312 -0.074219 0.102539 -0.059326 -0.022095 0.014648 0.064453 0.166016 0.092773 0.062988 -0.035889 0.261719 -0.011780 0.190430 0.035889 -0.202148 -0.218750 0.076660 -0.018799 -0.128906 0.156250 0.022583
Jupiter -0.016235 -0.100098 -0.277344 0.013855 -0.451172 -0.025635 0.152344 -0.126953 0.023315 0.052246 -0.133789 0.126953 -0.058105 -0.098633 -0.191406 0.161133 -0.060791 -0.050293 0.089844 -0.110352 0.233398 -0.154297 0.166992 -0.070801 0.188477 -0.137695 -0.008362 0.153320 -0.012634 0.170898 0.079590 0.214844 -0.296875 -0.294922 0.127930 -0.081543 -0.161133 -0.235352 0.089355 0.031494 0.094727 -0.080566 -0.093262 0.519531 -0.090332 -0.269531 -0.029419 -0.028442 0.018188 -0.203125 0.030029 0.427734 -0.105957 0.001366 -0.125000 0.062500 0.165039 0.197266 -0.139648 -0.109375 -0.073730 -0.015137 0.114746 -0.083496 -0.051514 -0.070801 -0.244141 0.168945 -0.049561 -0.071289 -0.044434 -0.453125 0.259766 0.249023 -0.300781 0.159180 0.162109 -0.202148 -0.296875 0.150391 0.122559 0.082520 -0.050537 -0.207031 0.006775 -0.176758 -0.077637 -0.164062 0.089355 -0.121094 0.032959 -0.186523 0.285156 -0.118652 -0.230469 0.041504 0.531250 0.089355 0.028809 0.154297 0.202148 -0.310547 0.036865 -0.059082 0.125000 0.053223 -0.004669 0.108398 -0.304688 -0.033203 0.037354 -0.194336 0.275391 0.009888 0.029663 0.061768 -0.160156 -0.201172 0.172852 0.064941 -0.010986 0.008362 0.233398 -0.215820 -0.121094 -0.135742 0.100098 0.208008 0.119629 0.083984 -0.095215 0.169922 -0.298828 0.035889 0.263672 0.143555 -0.123535 0.120117 0.035156 0.203125 -0.134766 -0.302734 -0.117188 0.133789 0.304688 0.138672 0.371094 -0.040527 -0.098633 0.130859 0.151367 -0.061523 -0.414062 0.170898 0.277344 -0.030273 0.176758 -0.217773 0.202148 0.196289 -0.125000 0.102051 0.110352 -0.123535 0.163086 -0.008789 0.048584 0.115723 -0.177734 0.083984 -0.080078 -0.160156 0.183594 0.259766 -0.044678 0.116699 0.130859 0.174805 0.023071 -0.145508 0.202148 0.097168 -0.330078 0.298828 -0.145508 -0.233398 0.250000 -0.017700 0.214844 -0.542969 -0.001564 -0.081055 0.210938 -0.339844 -0.229492 0.157227 0.210938 0.074707 0.263672 -0.124023 0.102051 -0.220703 -0.050781 0.083496 -0.191406 -0.080078 -0.078613 -0.068359 -0.271484 0.057373 -0.074707 -0.037598 -0.107422 -0.002838 -0.208008 0.359375 0.215820 0.220703 -0.179688 -0.253906 0.427734 0.169922 0.044189 -0.392578 -0.462891 0.257812 0.084961 0.165039 0.231445 0.036865 -0.363281 -0.162109 0.135742 -0.248047 0.441406 0.063965 -0.137695 -0.640625 0.109375 -0.265625 0.078125 -0.104980 -0.141602 -0.455078 -0.119629 -0.151367 0.098145 0.257812 0.255859 -0.102051 -0.071777 0.039307 0.122559 0.140625 0.156250 -0.187500 0.041260 -0.064941 0.146484 -0.200195 0.333984 -0.296875 -0.031494 0.083984 0.127930 0.245117 -0.220703 -0.184570 0.030151 0.188477 -0.236328 -0.486328 -0.375000 0.373047 -0.277344 -0.023193 -0.186523 -0.007782 -0.087891 -0.024414 -0.045166 0.154297 0.077148 0.373047 0.068359 -0.106445 0.157227 0.392578 -0.182617 0.058838 0.181641 0.143555 -0.088379 -0.048096 -0.041260 0.177734 -0.125977 0.006683 -0.022095 0.154297
Uranus -0.257812 -0.056885 -0.128906 0.125977 -0.314453 -0.075195 0.016724 -0.250000 0.188477 0.160156 -0.044434 -0.009033 -0.228516 -0.059814 -0.046875 0.188477 -0.131836 -0.011230 0.267578 -0.122070 0.194336 -0.310547 0.265625 -0.251953 0.007812 0.065918 0.322266 0.324219 0.062256 -0.095703 -0.304688 -0.324219 -0.106445 0.044189 -0.137695 0.142578 -0.038086 0.009033 0.113281 -0.223633 0.083496 0.109863 0.072266 0.330078 -0.021606 -0.087402 0.097168 -0.229492 0.015747 -0.124023 -0.439453 0.038330 -0.013306 0.296875 0.176758 0.050781 0.253906 -0.294922 -0.181641 0.000165 -0.077148 -0.040283 0.118164 -0.257812 -0.209961 -0.106934 -0.000278 0.076172 -0.006897 0.151367 -0.005951 -0.074219 0.002670 -0.312500 -0.388672 0.008972 0.326172 0.164062 -0.238281 0.245117 0.271484 -0.138672 0.176758 -0.490234 -0.151367 -0.261719 0.326172 0.222656 0.267578 0.296875 0.014771 -0.648438 -0.376953 -0.182617 -0.199219 -0.021973 0.345703 -0.066895 0.145508 -0.124023 -0.081055 -0.085938 0.039062 -0.198242 0.125000 -0.333984 -0.105957 0.460938 -0.153320 -0.049561 0.246094 0.083984 0.478516 -0.195312 0.191406 0.137695 0.068359 -0.019287 0.207031 -0.396484 -0.058105 -0.079102 0.062500 -0.033447 -0.172852 -0.291016 -0.339844 0.073242 -0.433594 -0.122559 -0.125977 0.164062 -0.035156 0.040527 0.458984 0.217773 -0.023682 -0.090820 0.052734 0.648438 0.077148 0.072266 -0.396484 0.193359 0.020020 0.209961 0.104004 0.018433 -0.182617 0.170898 0.341797 -0.468750 -0.550781 -0.173828 0.138672 -0.133789 0.083496 -0.125977 0.390625 0.020386 -0.119141 -0.031250 0.189453 0.167969 0.160156 -0.322266 0.119629 0.048828 -0.209961 0.351562 0.035156 -0.008667 0.396484 0.482422 -0.230469 -0.070312 -0.185547 0.332031 0.140625 -0.484375 -0.408203 0.490234 -0.490234 -0.265625 -0.061523 -0.101562 0.125000 0.079590 -0.087402 -0.232422 0.101562 0.201172 -0.197266 -0.285156 -0.062500 0.247070 -0.236328 0.017334 0.155273 -0.245117 0.087891 -0.228516 0.027344 -0.271484 -0.019287 0.120605 -0.294922 -0.132812 -0.312500 0.075684 -0.152344 0.143555 0.037109 0.139648 -0.273438 -0.076660 0.029785 0.083008 -0.031494 -0.037598 0.304688 -0.127930 0.472656 -0.263672 -0.324219 0.271484 0.222656 0.214844 0.566406 0.378906 0.234375 0.079590 0.227539 0.038086 0.235352 0.333984 -0.033691 -0.527344 -0.028442 -0.189453 0.241211 0.159180 -0.058594 -0.519531 -0.036377 0.202148 0.061768 0.589844 0.013428 -0.130859 -0.053467 -0.068359 0.220703 0.496094 -0.097168 -0.273438 0.001518 0.118164 0.388672 -0.332031 0.176758 -0.449219 -0.398438 -0.232422 0.151367 -0.116211 -0.140625 -0.341797 -0.017822 0.316406 -0.373047 -0.151367 -0.013672 0.125977 0.144531 -0.136719 -0.353516 -0.261719 0.151367 -0.021851 -0.076172 0.255859 0.349609 -0.003647 0.239258 -0.154297 0.120605 0.045410 -0.124512 0.022461 -0.023560 0.169922 -0.201172 -0.198242 0.018555 0.065918 -0.102051 0.185547 0.215820 0.202148
crucifixion 0.332031 0.058838 -0.201172 -0.104492 -0.037354 0.054443 0.172852 -0.007355 0.613281 0.314453 0.261719 -0.172852 -0.145508 0.500000 -0.067383 0.287109 -0.253906 -0.443359 -0.081543 -0.094238 0.361328 -0.212891 -0.298828 -0.017578 0.073730 -0.038086 -0.345703 -0.417969 0.069824 -0.119141 -0.269531 0.359375 -0.109863 0.007324 0.119629 -0.199219 -0.060059 -0.095215 0.103516 0.084961 0.250000 -0.197266 0.359375 -0.328125 -0.119141 0.137695 -0.141602 0.242188 -0.084961 0.004547 0.011047 0.275391 -0.474609 0.016724 0.535156 -0.056885 -0.160156 0.087402 0.020386 0.026611 0.122559 0.158203 -0.194336 -0.261719 0.135742 -0.032959 -0.090820 -0.480469 0.249023 -0.449219 -0.243164 0.156250 -0.060303 0.253906 -0.123047 -0.106445 0.226562 -0.143555 0.000816 -0.219727 -0.102051 0.059814 0.062988 -0.102051 -0.204102 -0.015259 -0.170898 0.064453 0.423828 -0.124512 0.123047 -0.102051 -0.095703 0.049561 0.345703 -0.184570 -0.093262 -0.039062 0.503906 -0.065918 -0.026489 0.168945 0.457031 -0.148438 0.322266 -0.373047 -0.096680 -0.026245 -0.011536 -0.075684 -0.163086 -0.202148 0.679688 -0.013062 0.233398 0.031494 -0.066895 -0.101074 0.129883 0.392578 0.020386 -0.265625 0.061523 -0.234375 -0.073730 -0.146484 0.030640 -0.096680 -0.187500 0.077637 -0.562500 0.343750 -0.337891 -0.320312 0.043945 0.337891 0.043945 0.125977 0.050049 0.062256 0.135742 0.127930 0.102539 -0.060547 0.304688 0.531250 0.247070 -0.118652 -0.404297 -0.143555 0.322266 -0.095215 -0.144531 0.392578 -0.055908 -0.128906 -0.109863 0.048828 0.153320 -0.150391 -0.035400 0.119141 -0.053955 -0.164062 -0.065430 0.333984 0.236328 -0.149414 -0.113770 -0.031982 0.214844 -0.011780 0.118652 -0.291016 0.005920 -0.328125 0.255859 -0.144531 0.199219 -0.199219 -0.378906 0.181641 -0.251953 -0.283203 0.087891 0.332031 -0.174805 -0.263672 0.320312 0.150391 0.122559 0.232422 -0.136719 -0.261719 -0.004456 -0.165039 0.137695 -0.211914 -0.203125 -0.157227 0.359375 -0.210938 0.044678 -0.112793 0.417969 0.083984 0.074219 0.057373 0.002304 -0.178711 -0.542969 0.142578 0.090820 -0.287109 -0.215820 -0.127930 -0.275391 0.041016 0.128906 -0.134766 -0.006195 -0.016846 0.277344 0.031738 0.335938 0.019897 -0.231445 0.172852 0.231445 0.234375 0.429688 -0.180664 -0.232422 0.365234 0.010254 -0.175781 0.164062 0.511719 0.191406 -0.033447 0.376953 -0.333984 0.107910 -0.578125 -0.085938 -0.291016 0.099121 0.053467 -0.230469 -0.187500 -0.082520 0.451172 -0.101562 0.146484 0.062988 0.166992 0.004883 -0.043457 0.129883 -0.130859 -0.188477 -0.134766 0.071289 0.027710 -0.239258 0.406250 0.253906 -0.224609 -0.123047 -0.150391 -0.009888 0.326172 -0.004700 0.082520 0.318359 0.022461 -0.089355 0.105469 0.070312 0.332031 -0.128906 0.179688 -0.083984 0.068848 -0.235352 0.095215 -0.136719 0.302734 -0.490234 0.328125 -0.285156 0.177734 -0.170898 0.261719 -0.102051 0.416016 0.119629 -0.347656 -0.134766 0.531250
Bridgestone -0.199219 -0.004822 -0.106445 -0.004669 -0.005219 -0.151367 0.016113 -0.001053 0.075684 0.523438 0.062500 0.202148 0.041504 0.042969 -0.103516 -0.035400 -0.066895 -0.283203 0.523438 0.041748 0.036377 0.023560 0.120117 0.363281 0.212891 -0.003784 -0.365234 -0.085938 0.059814 0.292969 0.020630 0.050293 0.023193 0.500000 -0.343750 -0.190430 -0.114258 0.241211 0.120605 0.029175 0.054932 0.153320 0.179688 0.253906 -0.134766 0.122559 0.122070 0.188477 0.121094 0.285156 -0.386719 0.171875 -0.135742 0.408203 0.093750 -0.217773 0.133789 -0.042480 0.447266 -0.460938 -0.322266 0.191406 -0.330078 -0.406250 -0.009766 0.168945 0.004028 -0.202148 0.380859 0.251953 -0.011658 -0.044678 -0.012085 0.040527 0.131836 0.025757 0.095215 -0.335938 0.306641 0.009399 0.287109 -0.470703 -0.236328 0.406250 0.033691 -0.178711 0.037354 0.201172 -0.095703 0.390625 -0.177734 0.208984 -0.242188 0.208008 -0.308594 -0.062012 -0.187500 -0.322266 0.250000 0.002777 -0.139648 -0.178711 0.003815 0.406250 0.047363 0.001640 0.320312 -0.224609 0.191406 0.142578 -0.111328 -0.108398 0.103516 -0.020996 0.105469 -0.128906 0.085449 -0.396484 -0.382812 0.357422 -0.285156 0.011169 -0.347656 -0.129883 -0.250000 -0.170898 -0.021851 -0.515625 0.054199 -0.145508 -0.102051 -0.326172 -0.212891 -0.546875 0.149414 -0.462891 -0.190430 -0.096680 0.062988 -0.271484 0.332031 0.318359 0.171875 -0.088867 -0.051270 -0.186523 0.267578 0.099121 -0.240234 -0.429688 -0.070801 -0.225586 -0.127930 -0.017944 -0.062500 0.080566 0.209961 -0.115234 -0.235352 0.142578 -0.160156 0.202148 0.164062 0.051025 -0.003693 0.027588 0.253906 0.165039 0.209961 0.204102 0.173828 0.058594 0.234375 0.027588 0.135742 0.012085 0.171875 -0.294922 0.205078 -0.185547 -0.355469 -0.107422 -0.008728 -0.062500 -0.190430 -0.355469 -0.218750 -0.046387 0.070801 -0.015747 -0.257812 0.119141 -0.055176 -0.250000 -0.148438 0.184570 0.687500 -0.361328 0.077637 -0.582031 0.310547 0.028442 -0.106445 0.253906 0.059082 -0.310547 -0.071777 -0.330078 0.062988 0.196289 0.269531 -0.036865 0.212891 0.125000 0.271484 -0.086426 -0.131836 -0.103027 -0.291016 0.063965 -0.400391 -0.118164 -0.083008 0.314453 -0.012268 0.239258 -0.065430 -0.265625 -0.104004 0.036865 -0.166992 0.027954 0.072266 -0.231445 0.092773 -0.099121 -0.308594 -0.298828 0.099121 0.031982 0.218750 -0.058838 -0.200195 0.054199 -0.195312 -0.376953 -0.118164 0.294922 -0.067871 0.149414 0.196289 -0.085449 -0.103027 -0.046387 -0.003967 -0.082520 0.184570 -0.061279 -0.206055 0.298828 0.349609 0.341797 0.044922 -0.001053 0.214844 -0.001152 -0.046387 -0.337891 0.300781 -0.238281 0.052002 0.149414 -0.376953 0.166016 0.197266 0.114258 -0.083008 0.217773 -0.095703 -0.002411 -0.214844 -0.075195 0.279297 0.083496 -0.006714 -0.096680 -0.361328 -0.026611 -0.064453 0.152344 0.109863 0.109863 -0.339844 -0.044678 0.021851 -0.218750 -0.036377 0.296875 -0.158203 -0.462891
Sun -0.279297 0.129883 -0.036133 -0.255859 0.126953 0.077637 0.265625 0.238281 -0.145508 0.042236 -0.211914 0.217773 0.174805 0.048584 -0.241211 -0.058105 0.046875 -0.170898 -0.173828 -0.017456 -0.076660 -0.006134 0.067383 -0.047363 0.257812 0.322266 0.127930 0.367188 -0.039062 -0.063965 0.292969 0.041504 -0.042725 -0.136719 0.104980 -0.141602 0.010986 0.421875 -0.123047 0.237305 0.186523 -0.492188 -0.172852 -0.014465 0.347656 0.066406 -0.090820 -0.292969 0.011414 0.201172 0.318359 0.008057 -0.054688 0.130859 -0.200195 0.134766 -0.074707 -0.123047 0.057129 -0.257812 0.166016 0.178711 0.134766 0.159180 0.054443 0.056152 -0.038330 0.162109 -0.191406 0.300781 -0.176758 -0.298828 0.002075 -0.059570 -0.067383 0.195312 -0.017944 -0.121094 0.033691 -0.100586 0.110840 -0.102539 0.159180 -0.136719 -0.217773 0.020630 0.253906 0.071777 0.088379 -0.125000 0.012390 -0.279297 -0.232422 -0.068359 0.104004 0.250000 0.203125 0.084473 0.135742 0.123047 -0.119629 -0.165039 0.145508 0.072266 -0.103516 0.008362 0.122070 -0.098145 -0.159180 -0.180664 0.234375 -0.004974 0.150391 -0.281250 0.255859 0.165039 0.283203 -0.061279 0.119629 -0.002289 0.053467 -0.330078 0.040283 -0.308594 -0.135742 -0.263672 -0.152344 0.218750 0.369141 -0.121094 0.045654 0.158203 -0.359375 -0.320312 0.332031 -0.095215 0.076172 0.194336 -0.055176 0.030396 0.163086 -0.114746 -0.141602 0.090332 0.230469 0.207031 0.052490 -0.064941 0.052246 -0.032471 0.202148 -0.054932 0.022217 -0.216797 0.008179 -0.300781 0.040527 -0.133789 0.127930 -0.218750 -0.132812 0.145508 0.326172 0.127930 -0.114746 -0.179688 -0.046387 -0.045654 -0.257812 0.041748 -0.035156 -0.255859 -0.259766 -0.110352 -0.100098 0.300781 0.105469 -0.075684 -0.048584 -0.263672 0.004150 -0.115723 0.408203 -0.212891 -0.421875 -0.175781 -0.111328 0.392578 0.230469 -0.146484 0.067383 0.165039 0.124512 -0.049561 0.013672 0.193359 0.105469 0.024658 -0.152344 -0.011658 0.089844 0.001732 0.263672 0.035156 -0.227539 0.077148 0.154297 0.076172 -0.322266 0.273438 -0.014648 -0.077637 0.094238 0.292969 0.195312 -0.259766 0.199219 0.507812 -0.458984 -0.408203 0.208008 0.223633 0.053955 -0.050781 -0.212891 -0.014709 0.121582 0.196289 0.235352 -0.038818 0.024414 -0.217773 -0.046631 -0.178711 -0.152344 0.030029 0.098145 -0.006744 -0.019165 -0.292969 -0.132812 -0.065918 -0.016235 -0.195312 -0.088867 -0.326172 -0.150391 0.205078 0.192383 0.085938 -0.137695 0.103516 0.162109 0.181641 -0.001068 -0.093262 0.233398 -0.115234 -0.174805 -0.124512 -0.163086 -0.208008 0.091797 0.110840 0.259766 -0.126953 -0.216797 0.000549 0.265625 -0.054688 -0.189453 -0.198242 0.079102 0.084961 0.195312 0.208984 -0.129883 -0.152344 -0.287109 0.133789 0.182617 0.125977 -0.044434 -0.098633 0.077148 -0.361328 0.017334 0.261719 -0.324219 0.427734 0.020996 -0.119629 0.126953 0.306641 0.101074 0.064453 0.060791 -0.114258 0.102051 -0.157227
HP 0.114746 0.077637 -0.184570 -0.015747 -0.144531 0.219727 0.173828 -0.056885 -0.139648 0.233398 0.052002 0.376953 0.134766 -0.062500 -0.100098 -0.020752 0.055664 -0.251953 0.014221 0.114746 -0.091309 0.013428 -0.086914 -0.050049 0.124023 -0.036133 -0.155273 0.150391 0.212891 -0.043701 -0.095215 0.007050 -0.125000 0.006622 -0.075684 -0.241211 -0.068359 -0.028809 0.212891 0.236328 0.098633 0.326172 0.080566 -0.112793 -0.071777 0.036377 -0.003174 -0.126953 0.302734 0.188477 -0.088379 -0.012939 -0.162109 0.173828 0.023804 0.095703 -0.012817 0.068848 0.173828 0.064453 -0.038330 0.207031 -0.310547 0.049072 -0.124512 -0.125977 -0.026978 0.273438 -0.151367 0.063965 -0.160156 0.163086 0.294922 0.089844 -0.156250 -0.179688 -0.077148 -0.318359 -0.143555 0.015503 0.108887 0.273438 0.172852 0.215820 0.068848 -0.038818 0.320312 0.294922 0.093262 0.193359 0.088867 0.003433 -0.232422 0.231445 -0.168945 -0.211914 0.088379 0.263672 0.412109 0.102051 0.030884 0.044189 -0.166992 0.210938 -0.191406 -0.114746 -0.135742 0.079102 0.234375 -0.351562 -0.214844 0.016602 0.117676 -0.127930 0.064941 0.082031 0.090332 -0.287109 0.209961 -0.035889 -0.155273 0.122070 0.094238 -0.145508 0.073242 -0.230469 0.048828 0.119629 -0.000089 -0.106934 -0.195312 0.065430 -0.279297 -0.111816 0.203125 0.040283 0.057617 0.115234 -0.176758 -0.285156 0.024780 -0.111816 -0.083984 -0.201172 -0.115723 -0.035400 0.263672 0.052246 -0.240234 -0.091309 0.032715 -0.208984 -0.333984 0.259766 -0.153320 0.125000 -0.145508 -0.072754 -0.122070 0.081543 -0.172852 0.041260 0.041016 0.021729 0.020142 -0.020996 0.175781 -0.006592 -0.308594 0.080566 -0.010193 -0.408203 0.043945 -0.245117 -0.324219 -0.137695 0.169922 0.062500 0.140625 -0.287109 -0.408203 0.050537 -0.177734 -0.503906 -0.056152 -0.088867 0.211914 0.245117 0.031982 -0.139648 -0.133789 -0.099121 -0.112793 -0.214844 -0.052490 0.061768 0.035645 -0.123047 0.113281 -0.265625 0.168945 -0.046387 0.125000 0.015747 -0.057373 0.098145 0.034180 -0.085449 -0.163086 -0.460938 0.131836 -0.090820 -0.016235 0.161133 -0.039795 0.146484 -0.024536 0.453125 -0.367188 -0.104004 -0.416016 0.247070 0.104980 0.539062 -0.130859 -0.048584 -0.003220 0.208984 0.355469 -0.236328 -0.296875 0.010620 -0.041504 -0.500000 -0.130859 0.028076 0.065918 0.030518 -0.188477 -0.058838 0.179688 0.037598 -0.006470 0.124023 0.202148 -0.398438 -0.182617 0.095215 0.015076 0.132812 -0.267578 0.341797 -0.165039 0.125000 0.150391 0.113770 0.159180 -0.139648 -0.095703 -0.080566 0.211914 0.294922 -0.142578 0.141602 0.253906 -0.130859 0.000458 -0.089355 0.257812 -0.006653 0.180664 -0.094727 -0.182617 0.023682 0.056641 0.196289 0.145508 -0.182617 -0.033691 0.042480 0.098633 -0.147461 -0.081055 0.016968 0.040283 -0.279297 0.281250 -0.166992 0.062988 0.177734 0.209961 -0.071777 -0.033936 -0.052002 0.088867 -0.045166 0.322266 0.166016 -0.211914 0.066895
February 0.070312 -0.005585 0.083008 -0.155273 -0.007782 -0.004639 0.076660 -0.127930 0.139648 0.093750 -0.096680 -0.006195 0.000241 -0.031982 -0.085938 -0.189453 0.005768 -0.052979 0.027222 -0.038086 0.100098 -0.077637 -0.054199 -0.229492 -0.115234 -0.095215 0.221680 0.049805 0.006653 0.102539 0.022461 -0.163086 -0.102051 -0.018555 0.125000 0.094238 -0.177734 -0.154297 -0.243164 0.025391 0.006897 -0.097168 0.202148 0.155273 -0.031006 0.043945 0.157227 0.184570 -0.089844 0.169922 0.033936 -0.164062 -0.106934 0.020752 0.007996 0.054688 -0.037598 -0.186523 -0.092773 -0.059326 -0.224609 0.034668 -0.073242 0.007690 0.044922 0.021729 -0.032959 0.208008 0.328125 0.215820 0.194336 -0.106445 -0.042236 0.291016 0.236328 0.113770 0.072754 -0.034180 0.078613 0.171875 -0.129883 -0.159180 -0.017456 0.006531 0.008484 -0.168945 -0.083984 -0.060791 -0.056885 0.069336 0.161133 -0.014282 -0.196289 -0.230469 -0.141602 -0.184570 -0.052246 0.005737 0.177734 -0.159180 0.285156 -0.227539 -0.142578 0.018311 -0.211914 -0.180664 -0.022827 0.081543 0.007507 -0.166016 0.028564 0.061035 0.093262 -0.185547 0.085449 0.031494 -0.134766 -0.034180 0.234375 0.158203 0.023071 -0.144531 -0.154297 0.091309 0.137695 0.067383 0.063477 -0.099609 0.086426 0.012207 -0.001015 -0.023315 0.022705 -0.227539 -0.245117 -0.031494 -0.051514 -0.128906 -0.136719 0.208984 -0.098145 0.125000 0.006256 -0.176758 -0.347656 0.119141 -0.002594 -0.094727 -0.075684 -0.010132 -0.034912 0.120605 0.017822 0.033936 0.124512 -0.220703 0.127930 -0.023804 0.042725 0.161133 0.095215 -0.045898 -0.104980 -0.015869 0.035156 0.105469 0.083496 -0.061523 -0.065918 -0.135742 0.066406 -0.036865 0.001289 -0.087402 -0.070312 -0.121094 0.257812 -0.110352 0.223633 0.041260 -0.330078 0.079102 -0.269531 0.007202 0.002975 0.107422 0.104492 0.039307 0.337891 -0.060547 0.125977 0.192383 -0.026855 0.019775 0.052490 0.067871 0.048584 0.089844 0.173828 -0.041260 -0.030518 0.038818 0.065918 -0.045410 0.271484 -0.158203 -0.054443 0.197266 -0.082031 0.052246 -0.116699 -0.027710 0.115723 0.005341 -0.296875 -0.182617 0.097656 0.097168 0.083984 -0.006409 0.012024 0.242188 0.048096 0.042725 -0.155273 -0.163086 -0.094238 0.164062 -0.100098 -0.181641 0.148438 0.005310 -0.068359 0.173828 -0.115723 0.050293 0.068359 -0.076172 -0.105957 -0.010559 -0.043213 0.248047 -0.172852 0.023682 -0.203125 0.032227 0.056641 0.162109 0.178711 -0.031982 -0.075684 -0.090820 -0.134766 0.001205 0.223633 0.165039 0.195312 0.021362 0.223633 -0.005127 0.141602 -0.215820 0.090820 0.096680 0.136719 -0.025146 -0.318359 0.073730 0.118652 0.052734 0.052734 0.109375 0.184570 -0.044434 0.069336 -0.053467 -0.118164 -0.036133 0.094727 -0.092285 -0.048584 0.038330 -0.023560 -0.017822 0.062988 -0.217773 -0.172852 -0.089844 0.068359 0.148438 0.024902 -0.187500 -0.050293 0.111328 0.130859 -0.287109 -0.277344 0.182617 0.085449 -0.154297
Rio_de_Janeiro -0.045898 -0.099609 0.076660 0.094727 0.098145 -0.205078 -0.455078 -0.281250 0.019165 -0.117188 0.035400 0.022827 0.132812 -0.096191 0.079590 0.398438 0.084961 0.208984 0.029663 -0.037598 0.034668 -0.546875 -0.024170 0.121582 0.249023 -0.285156 -0.038330 -0.097656 -0.184570 0.033691 0.261719 0.035889 -0.437500 0.050537 -0.027954 -0.000977 -0.300781 -0.214844 -0.044678 0.223633 0.051270 0.177734 0.190430 0.500000 -0.192383 0.124512 0.053467 -0.265625 -0.029907 0.257812 0.287109 0.347656 0.326172 -0.574219 -0.333984 0.367188 -0.392578 -0.419922 -0.241211 -0.159180 -0.111816 0.081543 0.045410 0.203125 0.233398 0.036865 0.164062 -0.092285 -0.105957 0.004028 -0.605469 -0.072754 -0.017456 0.570312 0.083496 0.324219 0.335938 -0.143555 -0.111816 0.042725 -0.074707 -0.057373 -0.210938 -0.281250 0.082031 0.030396 0.441406 -0.167969 0.157227 0.196289 0.082031 0.038574 -0.470703 -0.026611 -0.324219 0.049316 0.119629 0.151367 0.261719 0.185547 -0.275391 0.209961 0.070801 0.103516 -0.106934 -0.015198 -0.001137 -0.503906 -0.201172 0.126953 -0.143555 -0.283203 0.330078 -0.029175 -0.108887 0.156250 -0.156250 -0.169922 -0.211914 0.033447 -0.417969 -0.375000 -0.507812 -0.090820 0.435547 -0.277344 -0.061523 0.085449 -0.163086 0.105469 0.031494 -0.187500 -0.186523 -0.283203 -0.042969 -0.263672 -0.223633 -0.171875 -0.090820 0.091309 0.184570 -0.136719 0.279297 0.034912 0.094727 0.161133 -0.078613 0.054932 0.006989 -0.253906 0.163086 -0.128906 0.363281 0.419922 0.122559 -0.192383 -0.320312 0.326172 -0.085938 -0.055664 0.107422 0.148438 -0.015259 0.378906 0.345703 0.239258 -0.351562 0.060303 -0.082031 0.078613 -0.345703 -0.166992 0.079590 0.057129 -0.086914 -0.322266 0.001984 -0.200195 -0.421875 0.118652 0.043457 0.306641 -0.206055 -0.109863 0.214844 -0.081543 -0.103027 -0.034912 0.253906 -0.084961 0.041260 0.209961 -0.087891 -0.218750 -0.242188 0.363281 0.095215 -0.294922 -0.168945 -0.562500 0.148438 0.168945 -0.484375 -0.353516 0.113281 -0.205078 0.157227 -0.197266 -0.232422 -0.012817 -0.349609 0.002319 0.037109 0.174805 -0.384766 -0.109863 -0.094238 0.211914 -0.206055 -0.265625 -0.126953 0.114258 -0.255859 0.204102 -0.292969 0.010010 0.094727 0.302734 -0.105957 -0.047119 0.250000 -0.134766 -0.412109 0.208984 0.320312 -0.026123 -0.037842 -0.175781 0.039551 -0.100098 0.035889 -0.507812 -0.183594 0.050781 -0.271484 0.228516 0.076660 -0.108398 -0.113281 0.000954 -0.205078 -0.110352 -0.079590 -0.158203 0.355469 -0.162109 0.101074 -0.180664 -0.112305 0.253906 0.121582 0.259766 0.010559 -0.082520 0.066895 -0.108398 0.235352 -0.094238 -0.033447 0.361328 -0.558594 0.005615 -0.188477 -0.192383 -0.154297 -0.173828 -0.269531 0.386719 0.182617 0.337891 -0.067871 -0.070312 -0.079590 -0.229492 -0.132812 0.069824 -0.161133 0.007385 -0.122070 -0.128906 -0.011353 -0.149414 -0.031982 0.226562 0.263672 0.187500 0.263672 -0.141602 -0.040527 -0.214844
Matthew 0.275391 -0.032471 -0.277344 -0.174805 0.149414 -0.042236 -0.121582 -0.106934 0.049316 0.154297 0.068848 -0.064941 -0.002365 0.240234 -0.096680 -0.077148 0.152344 0.110840 0.129883 -0.063965 -0.010681 -0.148438 0.217773 -0.245117 0.182617 -0.148438 0.132812 0.143555 -0.021362 -0.017578 0.015869 0.099609 0.097168 -0.146484 0.095215 -0.112305 0.014954 0.062012 0.002258 -0.042969 -0.042236 0.078125 -0.155273 -0.133789 -0.029297 0.124512 -0.003830 -0.028564 0.014099 0.017334 0.084473 0.164062 -0.032471 -0.196289 0.023682 0.017334 0.015991 0.016968 -0.077637 -0.221680 0.049072 0.004028 -0.341797 -0.077148 -0.041504 -0.076172 0.032715 -0.126953 -0.035889 -0.072266 0.132812 -0.169922 0.073242 -0.146484 0.065430 0.010986 -0.140625 0.134766 0.075195 0.170898 0.140625 -0.088867 0.018066 -0.058838 0.078613 -0.151367 -0.046143 0.322266 -0.144531 -0.112793 0.189453 -0.269531 0.052734 -0.160156 -0.049805 0.101562 -0.166992 -0.013855 -0.191406 -0.349609 -0.162109 0.043701 0.093262 -0.233398 -0.008972 -0.062988 0.191406 -0.099121 -0.120117 0.047607 -0.096680 -0.087402 0.102051 -0.043457 0.018066 -0.037354 -0.255859 0.009399 0.102539 -0.044189 -0.052734 -0.051758 0.007355 -0.095703 -0.081055 0.023804 0.073242 0.166016 -0.001747 0.265625 -0.154297 -0.310547 -0.086426 -0.132812 0.028564 0.019531 0.052979 0.145508 0.087402 0.080078 0.128906 0.110840 0.107422 -0.098145 -0.220703 0.241211 0.173828 -0.147461 -0.022827 -0.141602 0.184570 -0.193359 0.101562 0.294922 -0.131836 -0.078613 -0.178711 0.027100 -0.014709 -0.078125 -0.000538 0.135742 0.306641 -0.063965 -0.132812 -0.005798 0.155273 -0.084473 -0.040527 -0.083496 -0.119141 -0.097656 0.104492 -0.185547 0.166016 0.122559 0.355469 -0.007874 -0.159180 -0.010559 -0.296875 -0.116211 -0.000546 0.107422 -0.196289 0.069824 0.031982 -0.144531 0.188477 -0.181641 -0.046875 -0.120117 -0.079102 0.068359 0.034424 0.103027 0.192383 -0.125977 0.004913 -0.328125 0.267578 -0.004852 -0.040283 0.045654 -0.013306 0.141602 -0.015503 0.316406 -0.204102 -0.122559 0.131836 -0.314453 0.019897 0.016235 -0.162109 -0.108398 -0.233398 -0.287109 0.185547 -0.202148 0.029785 -0.175781 0.217773 -0.205078 -0.091309 -0.039307 -0.002411 0.098145 0.068359 -0.191406 0.072754 -0.011169 -0.004517 -0.009583 0.076660 0.011841 0.048828 -0.124023 -0.025391 0.138672 -0.088379 0.126953 -0.024292 -0.207031 0.031494 0.375000 -0.140625 0.115723 0.062012 -0.046143 -0.166992 -0.095215 0.067383 0.085938 0.002914 0.242188 0.271484 -0.060791 -0.025146 -0.102051 -0.240234 0.046143 -0.089844 -0.079590 0.040283 0.375000 0.184570 -0.167969 0.064941 -0.058105 0.132812 -0.172852 -0.073730 0.187500 -0.263672 -0.219727 -0.085938 0.140625 0.104980 0.014709 0.117676 0.162109 -0.041992 0.059326 -0.064941 0.241211 0.202148 0.098633 0.233398 0.222656 -0.026855 -0.257812 0.191406 0.094238 -0.197266 -0.261719 0.170898 0.067871 -0.036377 0.002869
