year 0.255114 0.068905 -0.015155 0.010468 -0.265961 -0.103874 0.356001 -0.094020 0.005143 -0.419561 -0.041295 -0.018394 0.043940 -0.245370 -0.111361 -0.020770 0.053956 -0.041091 -0.243957 -0.311343 0.033122 0.146565 -0.096628 -0.042146 -0.051078 -0.120014 0.195452 0.140001 -0.075342 -0.156010 0.204809 0.192801 0.175671 -0.162548 0.003484 0.066694 0.059335 -0.032387 -0.053226 -0.065772 -0.027588 -0.045120 -0.040621 -0.025914 -0.092843 0.194152 -0.192725 -0.282912 -0.033035 0.096075 0.210905 0.093945 -0.109718 0.169898 -0.066167 -0.071505 -0.009782 0.030867 -0.086767 -0.196536 -0.044958 0.015823 0.065319 -0.198737 -0.160950 -0.033233 0.066157 -0.054694 0.181578 0.314395 0.376898 -0.218585 -0.083466 -0.150580 0.272235 0.133141 0.244383 0.126500 -0.219866 0.002100 0.100623 0.080987 -0.033211 0.084381 0.133341 -0.016328 -0.206439 -0.052214 0.177480 -0.211254 -0.472993 -0.407797 0.007774 0.008490 -0.331465 -0.156142 0.032411 0.017575 -0.149778 -0.032660 0.017757 0.021423 0.101409 0.335978 -0.120572 -0.035953 -0.169690 0.168115 0.111253 0.316984 0.124210 -0.063190 -0.381769 0.076124 -0.233928 0.058564 -0.172278 0.318211 0.090663 -0.166817 0.023712 -0.012651 -0.061386 -0.204188 -0.028961 -0.124785 0.266661 -0.506762 0.007179 0.020125 -0.306298 0.034445 -0.028536 0.070655 0.233979 -0.283148 -0.046952 0.233132 -0.147973 0.116068 -0.060965 0.180109 0.434192 -0.082231 -0.081708 0.138798 -0.168047 -0.096214 0.056374 -0.060448 -0.268584 -0.069989 0.054688 0.272704 -0.028660 -0.135906 -0.060295 -0.095450 -0.256063 0.006410 -0.205878 0.045681 0.281787 -0.151414 -0.007156 -0.012616 -0.278387 0.370792 -0.005419 0.147483 -0.096178 -0.032182 -0.060664 -0.108893 -0.061285 -0.014981 0.047704 0.313541 -0.242430 0.016913 -0.335614 -0.031680 0.089901 -0.117990 -0.528938 -0.049645 0.133166 0.442953 0.031191 0.034549 0.202655 -0.263662 0.283197 -0.047860 -0.109531 0.062106 0.026276 -0.452390 0.090053 0.182451 -0.204480 -0.223511 0.118051 0.047572 -0.078020 -0.076643 0.187972 -0.441355 -0.066888 -0.208690 0.174879 0.205929 -0.326550 0.157717 -0.195279 0.055546 0.285892 0.187793 0.111968 0.279830 0.253880 0.293818 0.094748 0.132182 -0.033925 0.288961 -0.112539 0.027996 -0.046996 -0.016786 -0.067638 -0.125151 0.001815 0.064180 -0.170743 -0.138591 0.544448 0.157900 0.071429 -0.296311 0.149506 0.254550 0.213048 -0.073275 0.175813 0.087949 0.559626 0.094460 0.182600 -0.163659 -0.131643 -0.279804 0.169323 -0.227733 -0.086096 0.133568 0.013276 -0.026874 0.028521 -0.294555 0.186252 -0.027869 0.314906 -0.302722 0.117988 0.142913 0.262317 0.132822 -0.002350 0.286267 0.088699 0.241725 0.039337 0.126809 -0.242978 0.220755 0.274117 0.113888 -0.112221 0.031084 -0.199411 0.173380 -0.102894 0.186006 0.016150 -0.008716 0.161756 0.049451 0.086836 0.255102 0.170115 0.113407 -0.113197 0.245191 -0.265813 0.052023 0.187218 0.116664 -0.082203 -0.022854
May 0.069861 0.290450 -0.372090 -0.168818 0.178233 0.019682 0.027279 -0.142141 0.093015 -0.401779 -0.114974 -0.071440 0.025137 0.011030 -0.060097 -0.055642 0.241882 0.010757 0.008679 -0.052499 -0.128001 0.102090 0.180200 0.486385 0.069121 -0.108557 0.098603 0.183610 -0.109064 -0.051092 0.115627 -0.054755 -0.110823 -0.315778 0.235928 -0.004811 0.023942 0.024454 0.056353 0.151815 0.086944 -0.064866 0.051827 0.214361 0.206772 0.417730 -0.049712 -0.271720 -0.144512 -0.055417 -0.048603 0.063046 -0.211249 -0.123020 -0.083712 0.057115 0.041620 0.052716 -0.054662 -0.093799 0.245994 0.318837 -0.203528 -0.129193 -0.073959 0.222661 0.008898 -0.007432 0.352649 0.122225 0.251142 0.111520 -0.040952 -0.245360 0.046130 -0.093592 0.134417 0.208138 0.316985 0.022884 0.135505 0.352118 0.383774 0.042623 -0.164223 -0.275519 -0.222081 -0.265991 -0.036535 -0.217953 -0.276995 -0.381958 -0.150058 -0.011906 0.068409 -0.335822 -0.051663 -0.039599 -0.098683 0.234958 -0.124523 -0.047577 -0.150405 0.203385 -0.257332 0.027998 0.042643 0.034338 0.164973 0.277590 0.146029 0.127919 -0.324648 0.271190 -0.225370 -0.228578 -0.356015 0.018025 0.160220 -0.103556 0.043152 -0.088197 -0.180826 -0.061711 -0.099486 -0.160032 0.311990 -0.506621 0.273695 0.193901 0.178734 -0.199176 0.033099 -0.016212 0.107975 -0.011271 0.024185 0.152539 -0.029811 0.033672 0.081066 0.009779 0.364908 0.016272 0.018696 0.013889 -0.278298 0.047863 -0.246509 0.448180 0.124548 -0.061443 -0.038743 0.115804 -0.237926 -0.137397 0.109647 0.215980 -0.373937 -0.008871 0.072415 0.068988 0.220809 -0.047983 0.173522 -0.144099 -0.268088 0.347398 -0.068743 -0.213830 -0.098465 0.056724 0.303042 -0.028768 0.167253 0.289773 -0.026297 0.058213 -0.137423 -0.080926 -0.366029 -0.179673 0.021182 -0.116624 -0.608371 0.349018 0.194277 0.068290 0.036477 -0.157970 -0.168970 -0.463908 -0.136445 0.020836 0.278863 0.059920 -0.246274 0.057458 0.300601 -0.182143 0.059543 -0.191705 0.053924 0.010687 -0.001635 -0.072651 -0.002980 0.103607 -0.121384 -0.167535 -0.128659 0.098534 -0.152733 -0.127183 -0.504917 -0.002279 0.067954 0.015661 0.020774 0.251690 0.037330 -0.075605 0.191911 -0.073310 0.043488 0.151005 -0.044921 0.218920 0.161161 0.270361 0.076844 -0.366524 -0.124204 0.014584 0.019988 -0.151968 0.261079 0.387060 0.073646 0.043581 0.176649 0.024501 -0.387514 -0.059265 0.077491 -0.310733 0.515547 0.057660 0.173593 -0.148258 0.211000 -0.190864 0.155589 0.077546 -0.155721 -0.007954 -0.011737 0.250070 0.002411 -0.150031 0.303637 -0.056550 0.263486 -0.293186 0.169085 0.161207 0.113740 0.150644 -0.105275 -0.144998 -0.122395 0.093308 0.066902 0.017841 -0.110575 0.253459 -0.349548 0.069087 -0.028910 -0.259080 -0.683941 0.124532 0.092120 0.145413 0.015234 0.090346 0.176488 -0.017355 -0.029053 0.025910 0.099283 0.336051 0.081096 0.517794 -0.008882 0.158135 0.324915 -0.139547 0.105792 -0.104056
September 0.003175 0.246521 -0.334806 -0.137339 0.209792 0.127472 -0.061743 -0.182867 0.101199 -0.365191 -0.142256 -0.131546 -0.062623 -0.007048 -0.093201 -0.012967 0.166835 0.071977 0.017845 -0.011563 -0.102295 0.114931 0.118798 0.492198 0.081432 -0.076716 0.193084 0.211785 -0.036014 0.045889 0.077544 0.010600 -0.039157 -0.284820 0.179557 0.067989 0.015907 -0.001928 0.050555 0.234891 0.124458 -0.000963 0.135078 0.266017 0.081794 0.390045 -0.100353 -0.285157 -0.151589 -0.085452 -0.095723 0.044940 -0.241618 -0.081963 -0.040014 -0.040177 0.079213 0.087260 -0.023172 -0.125639 0.209590 0.285956 -0.188870 -0.091432 -0.080862 0.274220 0.017456 0.052860 0.289233 0.260788 0.211014 -0.079691 -0.022152 -0.300971 0.110653 -0.056258 0.035114 0.146878 0.311902 0.040493 0.068781 0.386918 0.441316 -0.039051 -0.213406 -0.358371 -0.238986 -0.393171 -0.125000 -0.273219 -0.317335 -0.409633 -0.117914 -0.052128 0.037868 -0.262588 -0.051043 0.049649 -0.059084 0.199885 -0.034898 -0.068805 -0.124052 0.273595 -0.253751 -0.075388 -0.037200 0.025639 0.322054 0.264466 0.210948 0.140101 -0.303137 0.224926 -0.275033 -0.288996 -0.315548 0.037409 0.211846 0.013945 0.005167 -0.029994 -0.194284 -0.158556 -0.112955 -0.195342 0.353851 -0.536659 0.355408 0.143554 0.173254 -0.230866 0.072365 0.063053 0.112233 0.023531 0.008821 0.135443 -0.137653 0.023826 0.045463 0.133084 0.269964 0.060209 -0.002733 0.124233 -0.206470 0.102277 -0.276606 0.412642 0.049854 -0.084475 -0.044495 0.030544 -0.274261 -0.142510 0.020538 0.202512 -0.377594 0.050955 -0.023848 0.070803 0.168363 -0.010513 0.130545 -0.137898 -0.261385 0.330637 -0.127667 -0.101461 -0.092228 0.028846 0.394943 -0.008288 0.171195 0.284253 -0.071120 0.067206 -0.088669 -0.156590 -0.389653 -0.185460 0.003302 -0.133229 -0.651396 0.267254 0.120780 0.067677 -0.039556 -0.197450 -0.192895 -0.410183 -0.172044 -0.087161 0.330675 -0.095837 -0.297732 -0.038149 0.233416 -0.242383 0.015471 -0.137268 0.069046 -0.034269 0.012170 -0.021038 -0.038860 0.109985 -0.104496 -0.144411 -0.071493 0.068454 -0.225953 -0.086606 -0.530540 0.072311 0.027532 0.024453 0.001465 0.323736 0.010271 0.007390 0.142097 -0.062615 0.080643 0.164748 0.000430 0.219305 0.095221 0.282905 0.116966 -0.390911 -0.073352 0.082618 0.018518 -0.183861 0.344808 0.434680 0.133006 0.010107 0.226231 0.055310 -0.411926 -0.023534 0.154383 -0.315047 0.403363 0.116729 0.101468 -0.263523 0.256690 -0.139485 0.184232 0.010437 -0.163262 0.042030 -0.071803 0.359495 0.044047 -0.105897 0.225416 -0.104742 0.316110 -0.234556 0.189787 0.208353 0.115179 0.107464 -0.074364 -0.132025 -0.110716 0.093197 0.067029 -0.004712 -0.133672 0.232027 -0.350374 0.036253 0.026652 -0.314045 -0.665643 0.217447 0.164869 0.185524 0.062110 0.045568 0.172266 -0.143747 -0.056319 0.096321 0.037551 0.336943 -0.047989 0.423932 -0.058066 0.214534 0.395533 -0.163123 0.078404 -0.049335
June 0.065609 0.237366 -0.324321 -0.179081 0.198199 0.042065 -0.016275 -0.108646 0.073307 -0.394337 -0.152471 -0.117481 0.014891 -0.015667 -0.089694 -0.027022 0.215543 -0.021334 -0.008364 -0.068303 -0.126615 0.157181 0.197571 0.431002 0.038573 -0.094989 0.148106 0.188633 -0.136678 -0.039429 0.086704 -0.067376 -0.059280 -0.334938 0.200569 0.078063 0.071406 -0.024301 0.033167 0.188563 0.069267 -0.064306 0.039295 0.247101 0.146242 0.390826 0.014518 -0.322715 -0.140194 -0.060005 -0.052984 0.051545 -0.264493 -0.092679 -0.051223 0.024494 -0.004042 0.055060 -0.101743 -0.114987 0.225140 0.310834 -0.190079 -0.092683 -0.095262 0.242670 0.044693 0.026588 0.327474 0.101484 0.205573 0.071238 -0.045641 -0.290194 0.067772 -0.084494 0.145155 0.162417 0.309685 -0.025406 0.149192 0.409686 0.375593 0.020656 -0.163813 -0.359973 -0.253091 -0.320864 -0.077796 -0.227741 -0.383330 -0.428130 -0.184331 0.013603 0.005895 -0.330294 -0.016483 0.045861 0.018171 0.174218 -0.031809 -0.038600 -0.160349 0.257147 -0.301434 -0.054631 0.009302 0.019789 0.183431 0.310513 0.186331 0.136445 -0.298807 0.294454 -0.244797 -0.276017 -0.367475 -0.000122 0.153844 -0.119070 0.082144 -0.085608 -0.153006 -0.078939 -0.060921 -0.165188 0.316413 -0.591063 0.351400 0.145105 0.138609 -0.166154 0.039469 -0.047668 0.091404 -0.001591 -0.008553 0.083268 -0.013500 0.075059 0.113070 0.013295 0.352038 -0.018898 0.012289 0.044869 -0.233779 0.118822 -0.297994 0.506593 0.087557 -0.087316 -0.049249 0.030498 -0.302653 -0.126786 0.126739 0.303705 -0.431155 0.027519 -0.004821 0.075133 0.202129 -0.022741 0.221759 -0.169500 -0.268903 0.354637 -0.047987 -0.181908 -0.087920 0.036002 0.266928 0.014063 0.115153 0.249185 -0.038229 0.122855 -0.104402 -0.060116 -0.365309 -0.184927 0.038171 -0.130442 -0.567854 0.332592 0.097734 0.095108 -0.019880 -0.194023 -0.169745 -0.474737 -0.131762 0.026495 0.290151 0.017383 -0.244690 0.002326 0.271660 -0.208600 0.069015 -0.151475 0.026662 -0.007913 -0.030467 -0.114269 -0.013075 0.158575 -0.065820 -0.220172 -0.105806 0.091715 -0.161082 -0.140000 -0.463627 0.012574 0.022372 0.008233 0.007184 0.264659 0.015822 -0.071473 0.175587 -0.036808 0.044012 0.134126 -0.007076 0.261482 0.149905 0.307372 0.095438 -0.332787 -0.153557 0.060438 0.042420 -0.109821 0.333559 0.385882 0.126552 0.039054 0.202357 0.083619 -0.432352 -0.096104 0.105693 -0.347946 0.506757 0.057088 0.121596 -0.215445 0.148790 -0.250301 0.089490 0.020029 -0.211787 0.090697 -0.001304 0.209410 -0.070803 -0.170493 0.309289 -0.064927 0.282590 -0.320035 0.109123 0.187342 0.094992 0.144714 -0.103651 -0.146041 -0.132482 0.065756 0.133754 -0.018198 -0.137016 0.212558 -0.330192 0.079652 -0.024746 -0.285210 -0.646450 0.151672 0.039447 0.144256 0.083368 0.056064 0.159207 -0.074975 -0.035808 0.024915 0.138974 0.317937 0.024039 0.505031 -0.058540 0.138225 0.360475 -0.098646 0.025778 -0.063535
March 0.004859 0.213809 -0.273348 -0.192224 0.211339 -0.010617 -0.001027 -0.157748 0.182789 -0.350320 -0.210226 -0.052333 0.008887 -0.061182 -0.084271 -0.068040 0.228343 0.036639 -0.015306 -0.038934 -0.134929 0.224357 0.114672 0.497106 0.128851 -0.045900 0.066240 0.133892 -0.078742 -0.061917 0.142155 -0.003953 -0.092132 -0.240131 0.230329 0.065663 0.064339 -0.005675 0.064389 0.144998 0.017136 -0.041650 0.066080 0.164227 0.161035 0.344535 -0.102505 -0.301483 -0.178855 0.009159 -0.113970 0.164339 -0.247055 -0.050224 -0.082826 0.086360 0.050719 0.060779 -0.100355 -0.151805 0.226013 0.356216 -0.162049 -0.206373 -0.096322 0.270477 0.038772 0.058139 0.352479 0.141190 0.280500 0.168752 0.011609 -0.166911 0.057577 -0.040261 0.174185 0.181168 0.325821 -0.009676 0.118262 0.443248 0.371677 0.025067 -0.118033 -0.251628 -0.259993 -0.318115 -0.127101 -0.191352 -0.360253 -0.375385 -0.085040 -0.097870 0.002657 -0.289150 -0.070012 0.059134 -0.099971 0.238753 -0.062421 -0.087965 -0.134317 0.161681 -0.305612 -0.070143 0.008776 0.005665 0.151267 0.245022 0.107815 0.214988 -0.270641 0.212082 -0.192144 -0.339686 -0.412248 0.016900 0.037230 -0.132081 0.037752 -0.161611 -0.172734 -0.158740 -0.024502 -0.082314 0.411673 -0.545685 0.305899 0.230201 0.157820 -0.243533 0.099241 0.023523 0.066625 -0.002765 -0.088250 0.206645 -0.054827 -0.005586 0.121487 0.002451 0.260255 -0.002854 0.063676 0.049845 -0.231388 0.130721 -0.299295 0.445419 0.070508 -0.076906 0.024569 0.235123 -0.232216 -0.145928 0.053761 0.293794 -0.365310 0.060700 0.033562 0.061327 0.178874 -0.033281 0.157031 -0.150980 -0.250726 0.290356 -0.040901 -0.170637 0.004564 0.042350 0.306423 0.000871 0.200528 0.328704 0.031031 0.084133 -0.033166 -0.166769 -0.380840 -0.251673 0.004697 -0.169660 -0.635950 0.300632 0.180935 0.107471 -0.091262 -0.175838 -0.213095 -0.454444 -0.142245 0.074246 0.348453 -0.001581 -0.266948 0.048636 0.247031 -0.137400 0.143965 -0.097404 0.015962 -0.110836 0.072868 -0.040100 -0.046353 0.170459 -0.177434 -0.177906 -0.138714 0.120972 -0.227046 -0.198318 -0.504650 -0.032679 0.078252 -0.048780 -0.140589 0.285173 0.042664 0.002356 0.161961 0.014270 0.094062 0.256732 -0.031267 0.229681 0.157209 0.239458 0.029532 -0.333051 -0.156323 0.067134 0.064254 -0.169882 0.278938 0.345665 0.148247 0.022826 0.118514 0.093123 -0.438940 -0.087965 0.079169 -0.301922 0.495208 0.120333 0.220415 -0.206386 0.239266 -0.186189 0.105109 0.077539 -0.196211 0.016501 -0.072110 0.218634 -0.017936 -0.147823 0.258606 -0.054318 0.208258 -0.222757 0.171356 0.207752 0.089132 0.163048 -0.112228 -0.136740 -0.087723 0.111389 0.036225 -0.010484 -0.164579 0.230628 -0.394989 0.039374 0.001150 -0.305298 -0.645268 0.097802 0.089005 0.042872 0.053449 0.099308 0.175701 -0.178467 -0.017315 -0.020534 0.048754 0.393640 -0.005416 0.430762 -0.003236 0.209065 0.365271 -0.134939 0.047649 -0.107211
July 0.024935 0.280724 -0.362574 -0.215535 0.158305 -0.005030 0.061721 -0.139174 0.088382 -0.354530 -0.148129 -0.150355 -0.022919 -0.029692 -0.136651 -0.017007 0.207100 -0.025058 -0.003162 -0.104109 -0.114344 0.204078 0.292821 0.365051 0.096363 -0.066623 0.134402 0.172932 -0.126931 -0.021339 0.102857 -0.028042 -0.083256 -0.376284 0.205901 0.100916 0.015071 -0.083044 0.032798 0.140828 0.047297 -0.061699 -0.003322 0.213029 0.139785 0.383596 -0.067671 -0.357580 -0.170715 -0.106777 -0.083365 0.075560 -0.262861 -0.133145 -0.107423 0.025508 -0.023710 0.050906 -0.134272 -0.149779 0.214014 0.297681 -0.200535 -0.124184 -0.055339 0.246673 0.028391 0.063751 0.317677 0.128690 0.203524 0.033636 -0.005284 -0.296845 0.056141 -0.016859 0.120263 0.178159 0.368407 0.044110 0.126604 0.437133 0.371483 0.014205 -0.213402 -0.299408 -0.235951 -0.283142 -0.081527 -0.244402 -0.348597 -0.381273 -0.200843 0.018725 0.059068 -0.329665 -0.004028 0.025694 0.005358 0.214601 -0.049448 -0.034686 -0.150420 0.263738 -0.268425 -0.074830 0.037813 0.004019 0.200004 0.317087 0.141198 0.161243 -0.246874 0.317815 -0.204127 -0.269070 -0.332771 0.011329 0.102036 -0.066797 0.092811 -0.094675 -0.177007 -0.149565 -0.055567 -0.202536 0.349911 -0.530669 0.283792 0.104538 0.190437 -0.161246 0.025208 -0.049221 -0.004442 -0.005444 -0.012362 0.079885 -0.014480 0.027715 0.068542 -0.009402 0.313278 0.046686 -0.030983 0.023775 -0.290903 0.085512 -0.307055 0.512276 0.141117 -0.113299 -0.019218 0.112628 -0.310646 -0.124569 0.137677 0.305244 -0.432442 -0.023035 0.068440 0.101142 0.188036 -0.053347 0.204487 -0.147912 -0.198576 0.396237 -0.014624 -0.135126 -0.047847 0.030253 0.219854 0.073104 0.143825 0.267635 0.020394 0.040394 -0.116280 -0.091296 -0.333681 -0.145485 0.036408 -0.128535 -0.632991 0.310246 0.064491 0.077454 -0.001991 -0.208772 -0.129508 -0.476037 -0.145296 0.056436 0.264269 0.012640 -0.299449 0.050381 0.221453 -0.189394 0.113203 -0.166147 0.007368 -0.009272 0.011577 -0.086707 -0.017118 0.164882 -0.040468 -0.183910 -0.138901 0.105256 -0.161707 -0.104645 -0.521607 -0.029669 0.009067 -0.034370 0.042788 0.243332 -0.002823 0.038593 0.086425 -0.060553 0.133741 0.127208 -0.043857 0.293250 0.166803 0.294477 0.067300 -0.378016 -0.166926 0.019456 0.008527 -0.095877 0.333415 0.420768 0.072880 0.054714 0.185549 0.070383 -0.410355 -0.122184 0.130905 -0.363904 0.515466 0.042572 0.146467 -0.240354 0.206652 -0.219783 0.155745 -0.013953 -0.227882 0.077796 0.022339 0.196552 -0.104752 -0.203956 0.287898 -0.085330 0.307822 -0.314077 0.140318 0.175496 0.114399 0.178680 -0.096441 -0.198975 -0.127838 0.051175 0.070121 -0.063540 -0.168818 0.258172 -0.417917 0.087777 0.061355 -0.227703 -0.650484 0.219985 0.075598 0.155006 0.048836 0.019115 0.188254 -0.211792 -0.115564 0.031408 0.097441 0.376241 -0.003282 0.441469 -0.053608 0.144176 0.377206 -0.116466 0.105633 -0.075194
January 0.057923 0.170679 -0.346046 -0.270001 0.207914 -0.026156 0.093619 -0.251483 0.106978 -0.296258 -0.209993 -0.046374 -0.037168 -0.050225 -0.182196 -0.003926 0.264922 -0.032845 -0.023572 -0.086505 -0.059668 0.249814 0.154766 0.453041 0.175631 -0.106088 0.193712 0.175555 -0.004631 -0.006119 0.061473 0.039179 -0.118866 -0.288567 0.184974 0.176240 0.044509 -0.029172 0.049912 0.098406 -0.063266 -0.099053 0.036561 0.142021 0.166561 0.387163 -0.118161 -0.318330 -0.313536 0.036710 -0.156462 0.198944 -0.183942 -0.079565 -0.061011 0.078667 -0.054939 0.025837 -0.101542 -0.170047 0.267268 0.264293 -0.104278 -0.165284 -0.091742 0.200724 0.030382 -0.015096 0.319195 0.153674 0.190814 0.234360 0.058902 -0.258335 0.067226 0.021753 0.228831 0.182392 0.364260 0.022635 0.102112 0.449567 0.317889 0.040031 -0.214226 -0.287473 -0.249980 -0.285727 -0.090452 -0.181013 -0.353282 -0.313036 -0.134327 0.027557 0.073640 -0.255698 0.056440 0.105717 -0.083222 0.166667 -0.041488 -0.035752 -0.133453 0.172661 -0.228072 -0.062096 0.050636 -0.024270 0.197436 0.286650 0.158940 0.155563 -0.285135 0.216282 -0.149362 -0.319239 -0.367038 0.031690 0.046025 -0.093678 0.037892 -0.092567 -0.155921 -0.083518 0.042087 -0.139305 0.443748 -0.580917 0.207957 0.211954 0.198129 -0.175754 0.075876 0.008018 0.022896 0.100468 -0.115540 0.100838 -0.059931 0.034709 0.136418 0.029067 0.200869 0.081927 0.065575 0.014184 -0.218763 0.133069 -0.372137 0.403770 0.121442 -0.103407 0.133749 0.243284 -0.222934 -0.180467 0.046787 0.400165 -0.416214 0.031762 0.107163 0.089182 0.241729 -0.077893 0.056856 -0.126724 -0.286221 0.283478 -0.035668 -0.186720 -0.006381 0.026222 0.277945 -0.033124 0.142323 0.408628 -0.012767 0.095958 -0.024134 -0.090449 -0.321804 -0.153927 -0.029426 -0.109464 -0.660348 0.312644 0.175649 0.069078 -0.029937 -0.248239 -0.130432 -0.442057 -0.180968 0.101527 0.339561 -0.013330 -0.307842 0.076780 0.236439 -0.198417 0.084653 -0.009768 0.044276 -0.054739 0.035924 -0.048116 0.007644 0.115275 -0.068477 -0.190147 0.013065 0.110341 -0.234296 -0.235009 -0.609983 -0.028902 -0.006250 0.019475 -0.021447 0.317214 0.055416 0.128498 0.133542 -0.003782 0.076859 0.299142 -0.100680 0.225035 0.236061 0.312099 -0.000950 -0.284378 -0.201594 0.130490 0.034825 -0.150944 0.278518 0.391037 0.069727 0.003207 0.207857 0.170863 -0.342669 -0.107821 0.135530 -0.317561 0.474985 0.070637 0.211365 -0.186938 0.282146 -0.159763 0.133935 0.002155 -0.288127 0.063142 -0.006580 0.113466 -0.040551 -0.094579 0.226663 0.000483 0.253798 -0.303619 0.230387 0.200733 0.035084 0.281327 -0.142017 -0.149862 -0.020663 0.115072 -0.029660 -0.036240 -0.144276 0.275903 -0.358815 0.011108 0.076046 -0.392345 -0.663481 0.129080 0.069211 0.055527 0.010585 0.144527 0.136444 -0.310768 0.048342 -0.031868 -0.006849 0.443661 -0.103640 0.443902 -0.032286 0.242605 0.331884 -0.170327 -0.005190 -0.113893
John 0.066997 -0.016374 -0.364133 -0.118586 0.009515 0.017823 -0.368626 -0.084973 -0.096969 -0.377506 0.135187 0.108846 0.104248 0.032980 -0.410126 -0.015503 -0.037849 0.120596 -0.009661 0.054402 0.110346 0.269527 -0.076058 0.262240 -0.254557 -0.024276 -0.129423 0.175417 -0.059005 0.064040 0.148601 0.174594 -0.049312 0.113029 0.110507 -0.447382 0.300260 -0.071070 0.018476 -0.383004 -0.059704 -0.071882 0.053318 0.125165 0.342942 0.021740 0.073579 -0.077395 -0.141524 -0.259748 0.289561 -0.093923 -0.118829 0.056325 0.121781 0.146118 0.103911 0.152727 0.097216 0.044926 0.229269 0.388843 -0.279765 0.078942 -0.158635 -0.026713 -0.133259 -0.098578 -0.073952 0.095436 0.241933 0.131745 0.072616 -0.229002 -0.023350 0.100735 0.139489 0.340403 -0.124622 0.131310 0.011568 0.276179 0.127949 -0.098462 0.110793 -0.166111 0.034433 -0.202101 -0.195327 -0.314366 -0.211318 -0.209797 0.034890 0.085421 0.154499 -0.164927 0.103550 -0.509218 -0.202612 -0.117660 -0.214980 -0.040964 -0.098248 -0.076535 -0.189087 0.046385 -0.054792 0.037492 0.053625 0.097566 0.208517 0.180170 -0.123337 0.065246 -0.161885 0.077853 -0.322947 0.198268 -0.079024 -0.130341 -0.020820 0.253168 0.029088 0.238016 -0.099121 0.061931 0.229326 0.018822 0.204173 -0.136208 -0.257259 -0.437575 0.085049 0.116902 0.183658 -0.128728 -0.151012 0.264997 -0.007200 0.176576 -0.101836 -0.251245 0.173518 0.017476 0.247668 -0.041393 -0.060774 -0.207864 -0.335413 0.086596 -0.075906 -0.166290 0.022754 -0.154147 -0.076253 0.010854 -0.449181 -0.449111 -0.008534 -0.354892 0.072207 -0.095355 0.272996 0.093548 0.201703 0.025538 -0.331025 0.302137 -0.238988 -0.075969 -0.323280 0.204159 -0.106513 0.372812 0.216548 0.328283 0.133461 -0.347605 -0.119652 -0.024916 -0.205276 -0.242323 -0.019570 -0.237941 -0.600035 0.060983 0.181149 0.181462 0.221290 -0.165259 0.533749 -0.231493 -0.065385 -0.291861 0.149724 0.169852 0.081022 -0.330174 -0.050976 -0.026502 -0.099242 0.137432 -0.037992 0.059305 0.135577 -0.016251 -0.155458 0.145188 0.158080 -0.031134 0.184932 -0.126517 -0.362321 0.151109 -0.006560 0.025671 -0.132649 -0.051685 -0.129968 0.063077 0.257820 0.327862 0.003418 0.260322 -0.121578 0.220378 0.134068 0.198832 0.015451 0.264893 0.202843 0.145370 -0.169780 -0.171367 -0.009974 -0.046132 0.043790 -0.100608 -0.092020 0.247541 0.287384 0.275819 -0.246531 -0.282275 0.211666 -0.028621 0.296407 0.163943 0.366444 -0.140957 0.456988 -0.304596 0.189060 0.071819 -0.111140 0.061645 0.136830 -0.224363 -0.048474 -0.161705 0.144046 -0.170527 0.188813 -0.371007 -0.293741 0.127331 -0.017311 -0.112370 -0.138914 -0.002865 0.133566 -0.182529 0.253150 0.024392 0.033367 0.183031 0.148186 -0.116327 -0.037079 -0.185230 -0.142374 0.021483 -0.265835 0.044018 -0.256470 -0.191880 -0.363077 -0.054568 0.334272 0.006685 0.103898 -0.198789 0.235311 0.133832 0.184488 -0.029597 0.171759 0.198678 -0.032851 0.073933
November 0.014353 0.222719 -0.331123 -0.174340 0.220199 0.023522 0.002427 -0.174161 0.106149 -0.422053 -0.240123 -0.020698 -0.001121 0.022625 -0.101305 -0.033692 0.253025 0.033431 -0.024193 0.047272 -0.181975 0.183848 0.113396 0.491564 0.109884 -0.057555 0.139107 0.180414 -0.121717 -0.069443 0.077247 -0.031106 -0.121972 -0.328890 0.234373 0.082826 0.086591 -0.027535 0.078683 0.197845 0.034551 0.009187 0.068150 0.240419 0.142213 0.337112 -0.079958 -0.258217 -0.216422 -0.085304 -0.137605 0.163156 -0.213861 -0.057826 -0.045421 0.076555 0.075793 -0.025189 -0.061317 -0.035572 0.230609 0.323063 -0.124750 -0.120061 -0.108967 0.268064 -0.019876 -0.011810 0.366972 0.150386 0.263634 0.151485 0.005908 -0.270733 0.048280 -0.042884 0.139838 0.221269 0.254539 -0.004467 0.080503 0.374850 0.391056 0.018115 -0.170849 -0.316200 -0.239420 -0.280727 -0.149570 -0.190399 -0.334564 -0.391193 -0.119762 -0.091624 0.030801 -0.243019 -0.069562 -0.028934 -0.009576 0.214907 0.016817 -0.069461 -0.111657 0.150732 -0.321610 -0.081849 0.006144 0.022869 0.225589 0.306708 0.151052 0.111288 -0.307621 0.178215 -0.215098 -0.383635 -0.356968 0.004925 0.112377 -0.078222 -0.036672 -0.058950 -0.193471 -0.055935 -0.005658 -0.130314 0.435632 -0.544848 0.274556 0.207859 0.129357 -0.261815 0.077798 0.036812 0.083565 0.041648 -0.107321 0.194515 -0.119472 0.053023 0.042601 0.027133 0.265545 0.003851 0.067617 0.070800 -0.194092 0.116481 -0.214458 0.413205 0.076805 -0.063736 -0.016001 0.168488 -0.196547 -0.216672 0.021595 0.205200 -0.369772 -0.003393 0.005874 -0.014591 0.168061 -0.012413 0.136316 -0.112672 -0.343202 0.313097 -0.097278 -0.116434 -0.081156 -0.028007 0.312377 -0.057488 0.191023 0.269492 -0.019600 0.074547 -0.115277 -0.083630 -0.376637 -0.265193 -0.006274 -0.094325 -0.728239 0.386024 0.184583 0.079589 -0.006892 -0.208373 -0.259589 -0.393025 -0.180088 0.044658 0.378624 -0.063614 -0.311191 0.013989 0.284438 -0.194178 0.099715 -0.071202 0.046159 -0.050792 0.039241 -0.041328 0.002103 0.138237 -0.065299 -0.163383 -0.071227 0.076071 -0.220333 -0.201810 -0.518496 0.082786 0.030852 -0.002088 0.078232 0.241967 0.078227 -0.005231 0.218737 -0.005377 0.108263 0.160035 -0.058084 0.201327 0.128087 0.328229 0.097412 -0.350625 -0.091978 0.037936 0.104133 -0.225174 0.252730 0.367812 0.139272 0.014920 0.245496 0.083333 -0.427043 -0.014307 0.114108 -0.276035 0.452855 0.204549 0.157229 -0.168239 0.242150 -0.146906 0.209471 0.030028 -0.204308 0.033754 -0.024688 0.247223 0.039766 -0.097061 0.203183 -0.017414 0.232341 -0.366585 0.257700 0.154778 0.082168 0.136962 -0.110640 -0.098800 -0.077507 0.039604 0.063548 0.048782 -0.133987 0.219658 -0.376925 0.120581 -0.057680 -0.301135 -0.688169 0.082441 0.129074 0.120775 0.038921 0.090094 0.154066 -0.104291 0.019452 -0.053764 0.075484 0.299027 0.026195 0.524261 0.026492 0.168986 0.372076 -0.209876 0.069666 -0.100286
town 0.196309 0.200916 -0.053291 -0.457048 -0.101752 -0.033727 0.342971 0.364490 0.140884 -0.462872 -0.270735 0.050355 0.329862 -0.214331 -0.062889 -0.173697 -0.084021 0.093252 0.000175 -0.152578 0.194476 0.373866 0.046896 -0.078429 0.264007 0.122183 -0.222083 0.108497 -0.017833 0.352343 0.226218 -0.054722 0.098791 0.287889 -0.078416 0.069898 0.377322 -0.200845 -0.317473 -0.552503 0.122524 0.000885 0.036952 -0.001460 0.106943 -0.162926 0.241834 -0.146672 -0.215507 -0.169217 0.189479 0.024854 -0.087887 0.123891 -0.148802 0.167750 -0.082930 -0.297170 -0.065793 -0.097919 0.013375 0.097056 -0.115210 -0.241034 -0.333350 -0.140869 -0.138624 -0.504374 -0.136395 0.382103 0.042666 0.115242 0.126501 0.181768 -0.157687 0.127037 -0.103108 0.266502 0.040021 -0.145244 -0.041611 -0.231590 0.367630 0.082122 -0.093386 -0.269717 0.015720 0.033491 -0.013138 -0.124878 0.298617 0.128134 -0.488042 -0.085851 0.037696 0.169731 -0.094021 0.052550 0.080090 0.425869 0.247407 -0.154263 0.378208 -0.023833 0.181257 0.423441 -0.111676 -0.039763 0.338672 0.173397 0.157016 0.018816 -0.554533 0.133290 -0.379543 -0.061776 -0.002782 0.510498 -0.100017 -0.125923 0.268369 0.215998 -0.303769 0.067012 -0.282686 0.113218 0.149768 -0.417689 0.257390 0.179478 0.109450 0.022249 0.012576 0.454184 -0.064134 0.579578 0.171357 -0.218032 -0.110251 0.328705 0.297902 -0.178996 0.033208 -0.274936 0.143220 -0.172142 -0.401335 -0.162177 -0.211221 -0.012598 -0.425412 -0.357298 0.033472 -0.058773 -0.087667 0.173631 0.147272 0.261234 -0.209839 -0.024159 -0.356425 -0.228841 0.006626 -0.381711 -0.091866 0.230052 -0.227374 0.541735 -0.056280 0.240757 -0.169482 -0.097250 -0.347440 0.313649 0.172245 0.426859 0.218553 0.029971 -0.258448 -0.542387 -0.210423 0.012623 0.185228 0.050979 -0.433424 -0.140522 0.108547 -0.054304 0.250645 -0.320588 0.212135 0.015604 -0.155166 0.000826 0.024732 -0.335725 -0.232821 0.001199 0.198616 -0.081522 0.031602 0.026926 -0.081296 -0.000714 0.219028 -0.003912 0.129333 -0.269169 0.053477 0.042939 -0.094947 0.377462 -0.361667 0.155810 0.022560 0.197563 0.370331 -0.155371 -0.036354 0.254286 0.093797 -0.141569 0.489863 0.150025 -0.127305 0.255836 0.179113 0.091829 0.219365 0.008083 -0.079047 -0.237004 -0.419267 0.282110 -0.398382 0.012838 0.382584 0.121248 -0.223184 0.478668 0.268578 -0.092586 0.306086 0.430129 0.270831 0.087884 0.396518 0.287759 0.030618 -0.021169 -0.252689 0.276992 0.149862 -0.370199 -0.381844 -0.268070 -0.251697 -0.060926 0.029520 0.013604 0.254665 -0.084023 0.101865 0.147281 -0.152579 0.050089 -0.089031 0.041047 -0.236142 0.001381 -0.148748 -0.092623 -0.041124 -0.153311 0.176442 -0.018606 -0.277276 -0.173087 -0.065350 -0.051276 -0.165422 -0.039237 -0.014925 0.048043 -0.247509 0.194387 0.039567 -0.044012 -0.036077 0.102438 -0.167784 0.224670 0.366121 0.039807 -0.112702 0.003136 0.214654 0.239196 0.183588 0.364936
government -0.056062 -0.157783 -0.143549 -0.186243 -0.373566 -0.126024 -0.337619 -0.218235 0.182252 -0.313269 -0.206147 0.116003 0.158537 0.092214 -0.025562 -0.092795 0.209682 0.389864 0.151233 -0.069983 0.091151 0.352767 0.051978 0.061050 0.100278 -0.312054 0.105879 0.149204 -0.344618 -0.393713 0.152823 0.095655 0.052988 -0.055988 0.183644 -0.116037 0.240880 -0.056724 0.258951 -0.225066 -0.001571 0.121666 0.058726 0.090890 0.101839 0.001465 0.072020 0.190867 -0.279891 -0.076563 0.366215 0.047439 -0.188226 0.308548 -0.013451 0.348136 0.263013 0.004440 -0.082157 -0.153843 0.147719 -0.250610 -0.272812 0.097843 -0.084731 -0.104254 0.067774 -0.311867 -0.068874 0.042120 0.053609 0.147706 0.023738 0.009579 0.161481 0.232743 -0.095077 0.010995 0.228943 -0.127615 0.196295 -0.006903 0.392042 -0.068810 -0.284652 -0.258706 0.331668 -0.230575 0.079281 -0.192761 -0.237811 -0.125232 0.023011 0.032740 0.092867 0.116676 0.372492 0.027039 0.023003 0.017944 -0.103637 -0.161772 -0.025957 0.119289 -0.139599 -0.018549 -0.083725 0.001356 0.203136 0.115930 0.097706 0.017754 -0.507926 0.035943 0.066205 -0.346514 -0.165625 0.347403 0.115600 -0.135932 0.371251 -0.398804 -0.210269 -0.035792 0.090450 0.253782 0.080340 -0.394550 0.174338 0.154681 0.361210 0.124621 -0.035089 0.141971 0.163576 0.168947 -0.169966 -0.094646 -0.036489 -0.141012 0.083893 0.304547 0.196458 -0.136257 -0.072973 0.233578 -0.107345 -0.034819 -0.303597 -0.398753 -0.474493 -0.076007 0.115229 0.124638 -0.255007 -0.184985 0.243129 0.248283 -0.205520 -0.146356 0.204745 -0.221126 0.383577 0.276584 0.049511 -0.079731 -0.032304 0.051643 -0.079122 -0.141102 0.139513 -0.019267 0.048046 0.314637 -0.244880 0.253743 0.366332 0.212620 -0.103088 -0.124425 -0.265059 -0.193288 0.181999 0.118932 -0.174377 -0.285976 0.236894 0.403423 -0.012345 0.024378 0.001287 -0.125977 -0.077096 0.282365 0.372179 -0.188827 -0.153329 0.129435 -0.077401 -0.471828 0.199262 -0.063152 -0.220676 0.099401 0.077461 -0.078617 0.103503 -0.231849 -0.314339 -0.022471 0.010703 0.120297 -0.511678 -0.028580 0.002558 -0.208496 0.282662 0.197691 0.285485 -0.191637 0.136759 0.024610 0.189313 -0.114698 -0.069294 0.133608 0.124645 0.161422 -0.209885 -0.084385 0.116539 -0.523113 -0.362893 0.375088 0.214906 0.120105 -0.056045 -0.109007 -0.078432 -0.075171 0.276648 0.213082 -0.195357 -0.111863 0.270467 0.075239 0.328715 0.009575 -0.062458 0.286494 0.122947 0.078207 0.230462 -0.138702 -0.162549 0.028239 -0.175375 0.133103 0.050407 -0.191261 0.353490 -0.105077 0.137110 -0.060237 -0.159941 0.157721 -0.099039 -0.044249 0.102043 0.184761 -0.305059 0.090276 -0.159593 0.201724 -0.316467 -0.281857 0.165433 0.123561 0.108596 0.055073 -0.275608 0.259995 0.092756 -0.148949 -0.090539 0.032822 -0.006307 0.096585 0.022342 0.299005 -0.092466 0.093639 -0.002390 0.139254 -0.027093 0.546474 0.012365 0.413607 -0.054975 -0.191441
New_York -0.236780 0.108917 -0.174290 -0.112855 0.294653 0.089536 0.288348 -0.223694 0.115300 -0.140194 0.198701 -0.095071 -0.058058 0.093607 -0.099541 0.115958 0.384243 0.272001 0.092354 0.196077 -0.010660 0.157685 -0.310311 0.113367 -0.108083 0.124791 -0.140591 0.082321 0.086380 0.180750 0.012230 0.302122 0.015181 -0.220565 0.060500 -0.112653 0.008286 0.237188 -0.118083 -0.049183 -0.113673 -0.135019 -0.092813 0.161509 -0.079407 0.222064 0.059667 -0.287522 -0.098040 -0.031911 0.300734 -0.349871 0.072268 0.183207 -0.085298 -0.165954 -0.230620 -0.336650 0.078125 -0.307161 0.043522 0.065888 -0.295809 0.048947 -0.266387 0.180852 0.044942 -0.014304 -0.237174 0.446844 0.440887 0.038585 0.375227 0.243951 -0.072296 -0.273274 -0.244217 -0.231295 0.180083 -0.040153 -0.070948 0.302787 0.399703 -0.169641 0.072247 -0.568793 -0.078215 -0.325651 0.040149 -0.187689 -0.037902 -0.402587 -0.171572 -0.119403 0.028097 0.020344 0.132547 -0.244535 -0.116297 -0.012944 0.228475 0.118581 -0.021099 0.282327 -0.480097 0.242751 0.314195 -0.175669 0.045694 0.469345 0.313015 0.054941 0.121405 -0.074637 0.008119 0.368524 -0.254553 0.144792 0.073153 -0.108317 -0.120700 0.496255 -0.001171 -0.732547 0.276302 0.205760 0.536754 -0.095640 0.129238 0.011050 0.130569 -0.241150 -0.331740 0.044997 -0.022217 -0.224890 -0.102282 0.268660 -0.353254 -0.204447 0.004548 0.275419 0.143110 0.136691 -0.122951 -0.015776 -0.192552 0.044086 -0.215694 -0.049023 -0.368012 -0.006149 0.071756 -0.083617 -0.076215 -0.128811 0.101912 -0.532014 -0.161785 -0.098849 0.017467 -0.168926 0.454546 0.236085 -0.069393 -0.182303 -0.713018 0.035364 -0.017020 -0.034224 0.274494 -0.085277 -0.182879 0.029745 -0.000475 0.323102 -0.061536 0.202894 0.134277 -0.228009 -0.178914 -0.630199 0.053073 0.168452 -0.437190 0.057179 0.024303 0.085952 0.445468 0.302835 -0.001371 -0.274633 0.125500 -0.019385 0.075256 0.065433 -0.297030 0.013029 -0.094522 0.176216 0.050355 0.033417 -0.041360 0.060020 -0.178843 -0.061296 -0.017501 -0.333837 0.092432 -0.166706 -0.065879 -0.002596 0.014524 0.191416 0.001954 0.470297 -0.041346 0.464451 0.254307 0.245269 -0.210481 -0.204373 -0.035646 -0.046208 -0.300434 0.036927 0.048572 0.219242 0.023105 -0.051046 0.131756 -0.394158 -0.039159 0.195065 0.045870 0.240582 0.048455 -0.051100 -0.461560 -0.174372 0.149070 0.353234 -0.217498 0.022152 0.154083 0.137039 0.490312 0.207910 -0.082646 -0.081801 -0.045723 -0.381543 0.164118 -0.123875 -0.286262 0.120371 -0.110644 -0.058241 0.042745 -0.118885 -0.131727 -0.115636 -0.058603 -0.248680 -0.169647 0.124887 -0.260472 -0.062205 -0.259023 -0.222759 -0.001649 -0.078934 0.003588 0.165760 -0.187339 0.218897 -0.053343 -0.243625 0.000727 -0.033340 -0.076799 0.287956 -0.316902 0.229635 -0.082797 0.152675 -0.173690 -0.138586 0.024925 0.227359 0.028189 -0.035770 0.423280 0.273097 0.368096 -0.109525 0.287513 0.240734 0.026758 -0.131136
February 0.052934 0.220878 -0.292876 -0.196682 0.184692 0.040311 -0.008529 -0.218285 0.149106 -0.345469 -0.161477 -0.038265 0.070304 -0.050996 -0.097220 0.004119 0.261850 0.039430 -0.053632 0.036737 -0.178271 0.217794 0.121009 0.487852 0.139791 -0.053288 0.130723 0.138550 -0.120616 0.004988 0.192305 -0.054340 -0.101236 -0.325422 0.273873 0.107835 0.053536 0.030912 0.079755 0.196234 -0.025606 -0.054822 0.101791 0.224445 0.172589 0.345628 -0.150808 -0.271059 -0.204157 0.031395 -0.114820 0.182707 -0.227377 -0.115585 -0.065740 0.053259 -0.008397 0.015427 -0.081699 -0.126395 0.246823 0.322494 -0.166807 -0.185909 -0.059650 0.225772 0.032242 0.066671 0.365087 0.113451 0.303295 0.249422 0.019619 -0.252751 0.034788 -0.072891 0.179052 0.221121 0.269375 -0.001713 0.108403 0.408670 0.367833 0.041091 -0.151292 -0.289845 -0.236900 -0.333132 -0.104925 -0.220184 -0.317912 -0.360069 -0.088657 -0.042044 0.074228 -0.271064 -0.001311 0.084267 -0.064138 0.205305 -0.021619 -0.063372 -0.111074 0.175465 -0.345978 -0.083917 0.023962 0.029566 0.209454 0.278122 0.112197 0.193872 -0.290596 0.276461 -0.216910 -0.349734 -0.433631 0.008048 0.066637 -0.059317 0.034203 -0.106924 -0.157939 -0.148145 -0.019907 -0.117936 0.399117 -0.485115 0.288461 0.222293 0.170724 -0.151086 0.075463 -0.007629 0.055370 0.039945 -0.087371 0.165341 -0.079593 0.061571 0.108478 0.012394 0.242100 0.035902 0.085100 0.016764 -0.208524 0.124117 -0.324077 0.465426 0.076590 -0.081475 0.034730 0.180964 -0.261389 -0.125760 0.071443 0.305185 -0.363223 0.074060 0.056391 0.023465 0.206306 -0.006782 0.154445 -0.111015 -0.336923 0.314332 -0.088449 -0.184138 -0.034732 0.038581 0.301722 -0.035876 0.151904 0.323162 0.000177 0.046531 -0.051377 -0.135769 -0.365891 -0.247694 0.018903 -0.115514 -0.658613 0.355247 0.147515 0.063509 -0.081054 -0.239879 -0.182733 -0.493401 -0.197073 0.085259 0.383758 -0.014284 -0.314458 0.024212 0.200677 -0.171017 0.102879 -0.076891 0.006816 -0.045462 0.115142 -0.049080 0.022001 0.162320 -0.134395 -0.164621 -0.101915 0.113210 -0.239455 -0.187175 -0.567421 -0.036448 0.043211 -0.023887 -0.037149 0.297342 0.069461 0.006165 0.141267 -0.004652 0.047424 0.218357 -0.026199 0.210012 0.202329 0.310578 0.085737 -0.357573 -0.130433 0.082397 0.095407 -0.240694 0.295053 0.377909 0.121173 0.004748 0.197929 0.124019 -0.406284 -0.110921 0.095773 -0.284571 0.397734 0.122445 0.195953 -0.172126 0.237785 -0.155007 0.116136 0.090475 -0.192178 0.033202 -0.026266 0.227708 -0.049330 -0.142900 0.276825 -0.043092 0.214765 -0.236598 0.201290 0.196966 0.044690 0.159972 -0.095344 -0.126504 -0.099937 0.102628 0.044988 -0.023992 -0.121841 0.276874 -0.364294 0.129766 0.003483 -0.341126 -0.696046 0.112053 0.093981 0.020082 0.028333 0.094586 0.141084 -0.161747 -0.020971 -0.040260 0.050921 0.412267 -0.009354 0.433247 -0.043662 0.222162 0.346577 -0.135898 0.049786 -0.062020
day 0.279396 0.268142 -0.285968 0.028921 -0.018821 -0.094729 0.382562 -0.167673 0.289475 -0.209470 0.103327 0.022010 0.019908 -0.251250 0.116657 0.085853 -0.095923 0.194768 -0.101231 -0.511227 -0.258025 0.175606 -0.046520 -0.061432 -0.172099 -0.124190 0.227129 0.005274 -0.008444 -0.070308 0.211175 0.129207 0.090294 0.003519 0.018564 -0.285474 -0.074617 -0.088533 0.187370 0.130193 0.188045 0.077978 0.029320 0.048082 0.266343 0.184355 -0.090704 0.049420 -0.034662 -0.087026 0.187294 0.075380 -0.191194 0.005246 -0.080802 -0.225116 -0.042203 0.166287 -0.126042 -0.299993 0.007422 -0.206874 0.180398 -0.016402 -0.330513 -0.043867 -0.069160 -0.044243 0.070294 0.267421 0.161753 0.024438 -0.028613 -0.349182 -0.022850 0.035150 0.022101 0.221874 -0.168814 0.156732 0.189672 0.065969 0.169579 0.225838 -0.106738 0.075749 -0.198137 -0.278104 0.252801 -0.324198 -0.442151 -0.126950 -0.101711 -0.104702 -0.195715 -0.130940 0.006972 -0.016847 -0.260379 0.053101 0.106523 -0.026345 0.197087 -0.028760 0.144630 0.241095 -0.122970 -0.041800 0.114307 0.235287 0.210481 -0.148073 -0.242066 0.454956 -0.182397 0.025463 -0.275163 0.123025 0.303332 -0.049360 0.292465 -0.025580 -0.303514 -0.142467 -0.164842 -0.216733 0.288418 -0.577990 0.204054 0.206723 0.019088 -0.002077 -0.037332 0.394362 -0.138874 -0.049730 -0.002350 -0.073504 -0.115261 0.246727 -0.091383 0.083941 0.387007 -0.052818 -0.112471 -0.126091 0.060874 -0.164080 0.051817 0.160023 -0.133303 -0.079495 0.015032 0.127313 -0.230171 -0.084349 -0.163525 -0.089258 -0.278592 -0.023349 -0.008678 -0.081984 0.116160 0.471303 -0.021641 -0.212539 -0.467697 0.365614 0.133140 0.179891 -0.212737 0.323902 0.221399 -0.011865 0.009579 0.079640 -0.234424 0.041900 -0.190114 -0.048333 -0.109618 -0.105223 0.218434 -0.088475 -0.545021 -0.015059 0.124278 -0.058174 0.085416 0.086584 0.217029 -0.151825 -0.054299 -0.171278 0.121090 0.125361 -0.003108 -0.146716 -0.121377 -0.098891 0.245002 -0.158196 0.162061 0.042821 -0.103639 0.200251 -0.039019 -0.334252 -0.136565 -0.012822 -0.026199 0.173861 -0.284245 0.043734 -0.295945 0.147074 0.256425 0.040293 0.084871 0.265362 0.220927 0.213247 0.042371 -0.060907 -0.144093 0.095920 0.075236 0.114372 -0.037625 -0.007163 0.055199 -0.129824 0.104676 0.051991 -0.383510 0.016365 0.429565 0.077242 -0.099312 -0.095549 0.015579 0.145236 0.055027 0.109737 0.383931 0.004239 0.241155 0.102503 0.009126 -0.175493 -0.111068 0.104448 0.160303 -0.293844 -0.097857 -0.125616 -0.204054 0.044770 -0.105583 -0.089586 0.149119 -0.216181 0.205683 0.010218 0.206196 0.306288 0.279230 0.101159 -0.097818 -0.058423 0.017861 0.130294 0.085357 0.199812 -0.287138 0.146754 0.168872 0.097807 -0.138136 0.066213 -0.190955 0.117014 -0.039331 0.364309 -0.170390 -0.005707 0.050010 -0.111011 -0.002340 0.485357 0.244141 0.027209 0.335346 0.401411 -0.141034 -0.100729 0.179075 -0.004863 0.045636 -0.207611
New 0.085994 -0.302829 -0.242752 -0.291951 0.077844 -0.139398 -0.357308 -0.127072 0.029059 -0.422753 0.160767 -0.194847 -0.228262 0.076065 -0.089470 -0.009295 0.215531 0.282735 -0.227824 -0.002401 0.147725 0.376942 0.207589 0.449395 0.143316 0.038909 -0.055370 0.060640 0.118164 0.122973 0.369035 0.219992 0.578456 -0.330633 0.152102 0.085541 -0.211155 -0.087319 -0.034784 -0.170269 -0.284443 0.242614 -0.038906 -0.058417 0.100945 -0.011971 0.396087 -0.306855 0.170760 0.205299 0.140213 0.271525 -0.035702 0.328050 0.222553 -0.037580 0.192227 -0.350813 0.082341 -0.191678 0.197246 0.289501 0.241181 0.325596 -0.063044 -0.161568 0.064691 -0.212432 -0.179605 0.452695 0.427031 -0.031016 0.261041 0.153162 -0.066195 -0.126668 0.038254 0.443743 0.076416 -0.038510 -0.038697 0.257192 0.388728 0.254708 0.000834 -0.411695 -0.215331 -0.451369 0.193362 -0.390257 -0.393905 0.059059 0.161807 -0.333880 -0.022294 -0.181589 0.134866 -0.175294 0.427485 -0.072822 -0.232659 0.221010 0.034556 0.108919 -0.248663 0.178399 -0.185277 0.105518 0.009764 0.232840 0.194823 0.048445 0.003565 -0.061693 0.134153 -0.134336 -0.240083 0.171838 0.399250 0.014006 -0.249709 0.135350 0.095740 -0.179674 -0.042859 0.129881 0.374681 -0.209285 0.384373 0.144570 -0.157802 -0.278357 -0.579782 0.153540 0.009664 0.188122 0.131224 0.492826 -0.207435 0.058835 -0.285909 0.134165 0.009285 -0.445286 0.166087 0.171519 -0.099108 0.007346 -0.192280 -0.069332 -0.358593 -0.184399 -0.217094 0.233082 -0.017209 -0.115481 0.038365 0.040740 -0.198235 -0.300090 0.038500 0.018136 0.153206 0.167922 0.064453 0.009108 -0.564205 -0.302918 -0.030574 0.028173 0.041944 0.285538 -0.372983 -0.046922 0.156924 0.429282 0.034971 0.240626 -0.219735 -0.028647 -0.322842 -0.083907 0.325826 -0.065609 -0.255853 0.075279 0.455477 0.174890 -0.035926 -0.073628 0.298272 -0.197208 -0.238301 0.129100 0.334732 0.035413 -0.130724 -0.301987 0.203713 0.029946 0.024686 0.120743 0.065248 -0.111401 -0.126116 0.115836 0.021942 -0.083028 0.082647 0.314614 -0.183828 -0.029812 -0.136287 0.015158 -0.183840 0.021121 0.162861 0.051585 -0.115348 0.189456 0.223612 0.084507 -0.169134 0.088221 0.123622 -0.255884 0.248122 -0.172221 -0.045340 0.011720 0.227552 -0.397335 -0.197086 0.436399 0.185521 -0.215937 -0.119870 -0.015100 -0.321155 -0.198908 0.224302 0.203230 -0.023882 -0.154958 -0.026101 -0.016392 0.246453 0.141477 0.003043 0.208673 -0.251299 -0.067849 0.298919 -0.338059 -0.162617 0.169583 0.188791 0.293200 0.008443 -0.184134 -0.021472 -0.124539 -0.063110 -0.172760 0.264126 0.176662 0.003816 -0.160557 -0.368320 0.136625 0.188408 0.173517 0.167786 0.149434 -0.065948 0.112429 0.067749 -0.422797 -0.065478 0.060059 -0.180156 0.186232 -0.418239 0.398602 -0.109036 -0.103189 -0.064529 -0.061890 0.091534 0.163412 -0.059259 0.033334 0.350701 0.104238 0.234635 0.209817 0.018529 -0.157686 0.221991 -0.186343
de 0.274874 0.141475 0.282546 0.355383 -0.358057 -0.334644 0.015268 0.013646 -0.368684 -0.170089 -0.041138 0.248878 0.014623 0.020703 -0.033405 0.144558 0.207952 0.437252 -0.016879 0.134793 0.304656 -0.051342 0.339511 0.295798 -0.089592 -0.123784 0.462424 0.196121 -0.414716 0.314345 0.477314 0.071867 0.072191 0.058502 0.006012 0.100537 0.174013 -0.178758 -0.221837 -0.526029 -0.323596 -0.221548 0.131562 0.484890 -0.296728 0.183248 0.343117 -0.166777 0.021564 0.490253 -0.035052 0.453126 -0.333679 -0.391302 -0.031429 -0.021333 -0.354812 0.114413 -0.147074 0.406990 -0.280958 0.142242 -0.251217 -0.466286 -0.032982 0.102860 -0.179096 -0.143360 -0.016454 0.684721 0.069508 0.038384 0.288216 0.037796 -0.230535 -0.191901 -0.023626 -0.221658 0.144075 0.650642 0.192110 0.499819 0.542818 -0.458304 -0.067985 -0.138889 -0.010998 0.312454 0.270245 -0.066229 -0.205377 -0.053178 -0.189259 0.187092 -0.294752 -0.061524 -0.203336 -0.068325 -0.086346 -0.091407 -0.176706 -0.287366 -0.027098 0.344179 -0.448973 0.073185 0.367659 -0.238699 0.066949 0.245036 0.189084 0.020630 -0.054466 -0.136703 -0.187157 -0.265706 0.066471 0.095989 0.368789 -0.068423 -0.215836 0.032373 -0.397099 0.345560 0.052871 -0.202312 -0.410135 0.172703 0.088196 0.173808 0.303643 -0.191125 -0.410928 -0.110401 0.100171 -0.003964 0.086893 -0.363264 -0.034848 0.098151 -0.117681 0.211169 0.500822 -0.234633 0.390855 -0.224267 0.010770 -0.277794 -0.353558 0.015143 -0.052099 -0.102739 -0.059237 0.015608 -0.266480 -0.035515 0.107903 0.036002 -0.032008 -0.531195 0.254078 0.266181 0.142412 -0.001700 -0.074845 -0.123149 -0.224302 -0.234315 -0.218558 0.016438 -0.366101 0.283317 0.021701 0.002588 -0.007188 0.142949 -0.102398 -0.082971 -0.299075 -0.100798 0.153404 -0.187952 0.228567 -0.307932 -0.443399 0.409963 0.067335 -0.145280 -0.180320 0.175324 0.148640 -0.095155 0.105958 0.045846 0.050370 0.175450 0.138823 -0.675137 -0.245628 0.125479 -0.441762 0.111105 -0.207221 -0.104104 0.271669 -0.385080 -0.079477 -0.046846 0.057440 -0.011027 0.252036 0.177215 -0.412200 0.225050 -0.345309 -0.093438 0.185765 -0.090336 0.038479 0.062042 0.286081 -0.033148 0.406097 0.286900 -0.078895 -0.017757 0.357474 0.179861 -0.225663 0.064802 -0.071126 -0.365085 -0.300327 0.369879 -0.012025 -0.159411 0.010835 -0.000147 0.314745 0.081085 0.011654 -0.029089 -0.224283 -0.141822 0.153086 0.155364 0.054653 0.168261 0.472954 0.092547 0.521280 0.066225 0.517272 -0.080433 -0.148759 0.204446 -0.108476 0.123803 0.307289 -0.161389 -0.083833 0.020741 0.157308 -0.362017 0.210456 0.019730 -0.168340 -0.212787 -0.070742 0.006736 0.167061 -0.325029 0.197397 -0.131864 -0.023739 0.074543 -0.046291 0.102998 -0.139450 0.144714 -0.230494 0.626287 0.004854 -0.003857 -0.311185 0.069172 -0.389744 -0.200590 0.137301 0.239240 0.228552 0.386758 0.209673 0.257161 -0.140030 -0.158588 0.301159 0.133796 0.212558 0.111541
football -0.203045 0.170374 -0.055473 -0.053508 0.111430 -0.073148 0.357587 -0.629249 0.248282 -0.358677 -0.393079 -0.417157 0.197920 -0.124370 0.015733 0.087868 0.170790 -0.074663 -0.242306 -0.316168 0.128498 0.062664 -0.164061 0.063809 0.215742 0.052895 0.227318 0.097594 0.033789 0.236418 0.020086 -0.122697 0.086000 0.277623 0.197451 0.187628 -0.200588 -0.081486 0.022232 -0.102080 0.084643 -0.048282 0.319542 -0.319763 -0.019604 0.620645 0.116271 -0.123060 -0.353343 0.060907 -0.017974 0.210455 -0.056022 -0.228657 0.431926 0.532242 0.119839 -0.250396 -0.569535 0.025098 0.250108 -0.108602 0.089593 -0.302414 -0.131034 0.157318 -0.395556 0.182182 -0.293423 0.091161 -0.139833 0.089419 0.028225 0.318617 -0.010236 -0.164409 -0.156269 -0.085619 0.149034 -0.286392 0.589174 -0.041426 0.143938 0.293226 -0.442828 -0.157852 -0.169817 0.094306 0.372963 0.154215 0.387695 -0.376868 -0.333236 -0.272341 0.541521 -0.094571 0.124201 -0.178871 -0.263134 -0.260190 0.372993 0.099853 -0.322861 -0.212850 -0.472371 -0.089173 -0.343551 0.410265 0.017683 -0.040038 -0.192581 0.173607 -0.091806 0.317248 -0.130864 -0.035443 -0.390917 -0.029428 -0.047466 -0.110289 0.233391 0.028797 0.008974 -0.119278 -0.057215 0.063392 -0.110713 -0.652111 -0.253389 0.337359 0.041802 0.089212 0.287754 0.355360 0.281146 -0.016692 -0.082203 -0.048854 -0.151308 -0.028971 -0.404477 0.562126 -0.075693 0.224314 -0.204130 0.280474 0.417330 -0.366336 -0.231873 0.070406 -0.742267 -0.186320 -0.085945 -0.101034 0.271865 0.139048 0.120380 0.042642 -0.146580 -0.377940 0.048584 0.174057 0.334746 -0.005281 0.072744 0.267502 0.059456 0.176204 -0.317361 -0.251101 -0.586990 -0.077536 -0.430516 0.117542 0.008207 -0.083715 -0.263697 0.187750 -0.120749 -0.187159 -0.330932 0.102450 -0.202263 0.115848 -0.196215 0.351882 0.421991 0.158833 0.349715 -0.454676 0.195146 -0.190772 -0.185276 0.360423 0.279859 -0.234173 -0.408449 -0.342494 -0.455854 -0.567626 -0.538506 -0.131684 0.236696 -0.196980 0.348700 0.177474 0.429607 -0.310914 0.406900 0.545161 0.202672 -0.148588 -0.630544 0.068512 0.292357 -0.102644 0.098227 0.100883 0.265981 0.439326 0.110696 0.328966 -0.038386 0.300858 0.045688 0.132785 0.250731 -0.208808 -0.170097 0.354577 -0.235128 0.054642 -0.422063 0.256422 -0.535850 -0.074984 0.475170 0.188440 -0.333149 0.045209 0.262492 0.074216 -0.017478 -0.269083 0.067497 0.309663 0.498724 0.133951 0.148634 0.312802 0.381359 -0.093282 0.212254 -0.036586 -0.504157 -0.526979 -0.443800 0.282762 -0.168153 -0.143213 0.077763 -0.244909 0.156231 -0.420448 0.040883 0.364748 -0.008282 0.131668 0.144136 0.131371 0.352100 -0.003798 -0.040423 0.286355 -0.247190 -0.069248 -0.231591 -0.061264 -0.351896 -0.015612 -0.584294 0.074472 0.178320 -0.125352 -0.070609 -0.060031 -0.103127 -0.030669 -0.505687 0.281399 -0.312848 0.078016 0.470877 -0.202097 0.405209 -0.240411 0.687563 0.427225 0.538079 0.033118
church 0.109449 0.103128 -0.033684 -0.259984 -0.246882 -0.143742 0.380750 0.381173 -0.003939 -0.437781 -0.010954 -0.452357 -0.118487 -0.107462 -0.308076 -0.145105 -0.161943 0.011834 -0.001333 0.251183 0.170184 0.317844 0.299186 -0.043040 0.058768 -0.308620 0.083583 0.487797 -0.347202 0.161585 -0.023406 0.096207 -0.299897 0.106911 -0.002821 -0.214837 0.096170 -0.448109 -0.261374 -0.277376 -0.011057 0.307295 0.092319 0.105212 0.347744 -0.169603 0.140149 0.063243 -0.567348 -0.164612 0.311028 -0.083190 -0.214645 0.351636 0.182958 0.154543 -0.162467 -0.166168 -0.441969 0.312159 0.229827 -0.016353 -0.088672 -0.341633 -0.294032 -0.072682 0.153767 -0.122097 -0.099447 0.392763 0.290708 0.305181 0.121045 0.153332 0.159909 0.192769 -0.365238 -0.094087 -0.366264 -0.159095 0.133796 -0.003685 0.543204 -0.175993 0.026693 -0.235164 -0.092205 -0.057966 0.555620 -0.227467 -0.343692 -0.076435 -0.203932 0.268955 0.117541 -0.161599 0.114493 0.007786 0.180459 -0.105804 -0.301838 -0.039750 0.507758 -0.302846 0.046600 -0.060739 -0.178688 0.511643 0.224569 0.013342 0.351694 0.713690 -0.263263 0.347485 -0.407565 0.019957 0.138981 -0.004404 0.191216 0.055811 0.424415 0.126752 0.099994 0.103847 -0.119809 0.222146 0.086837 -0.291235 0.102064 0.102942 0.051407 0.178185 -0.149671 0.237733 0.197417 0.247035 0.385976 -0.248508 0.181847 0.358235 0.155255 0.504689 0.330540 0.079808 0.444011 0.005506 0.231246 0.144726 -0.157319 -0.012548 -0.075489 -0.066931 0.066299 -0.239873 -0.032875 -0.070559 -0.035124 0.162008 0.028326 -0.190520 0.265613 -0.242656 0.229450 0.197663 -0.372571 0.414235 -0.229748 0.386631 -0.354401 -0.013083 -0.269122 -0.167756 -0.231085 0.491096 0.124777 0.680023 0.345052 -0.156235 -0.011447 -0.423684 -0.325104 0.019474 0.010522 0.201812 -0.812272 0.009051 0.371607 0.328341 0.453858 0.053501 0.082514 -0.008243 0.094925 -0.120947 0.292081 0.043011 -0.223653 -0.080126 -0.327047 -0.328656 -0.362564 0.122746 0.567938 0.076299 -0.007108 -0.336170 -0.012666 0.108936 0.054926 -0.206582 -0.129304 0.089091 -0.194615 0.323061 -0.053012 0.281637 0.156206 0.200466 -0.088222 0.023620 0.328280 -0.072411 0.172781 0.215511 0.149530 0.320400 0.265185 0.193274 0.293182 0.156697 -0.155577 -0.497201 -0.121186 0.088813 -0.392533 0.318238 0.202732 -0.000389 0.123713 0.296443 -0.131656 -0.220329 0.004108 -0.165020 -0.000402 -0.120679 0.194004 0.027792 -0.059601 0.116882 0.441582 0.038823 -0.016034 -0.232993 0.153569 -0.120409 0.008482 -0.182073 -0.398350 0.162031 0.107851 0.068975 -0.310433 -0.157341 -0.010009 0.102655 0.120500 -0.039958 -0.350555 -0.189924 0.194629 0.193389 -0.216545 -0.223791 0.142874 0.085106 0.087283 0.184403 0.178978 -0.211792 0.135400 -0.036556 -0.144306 0.237431 0.061504 0.235155 -0.538212 0.025141 0.176738 0.178814 0.177971 0.202631 -0.009104 -0.022544 -0.005442 -0.119111 -0.018067 0.252034 0.215227 0.018360
James -0.131574 0.135557 -0.235528 -0.199885 -0.096256 -0.111464 -0.291668 0.006446 0.228120 -0.561233 -0.058007 0.141494 -0.166856 -0.023347 -0.355373 0.002738 -0.021123 0.208786 -0.219569 0.026856 0.149909 0.135640 -0.282892 0.055111 -0.181849 -0.053485 -0.082995 0.167154 -0.033542 -0.141845 -0.033652 0.230203 -0.227678 -0.083421 0.097395 -0.246790 0.220095 0.143786 0.055939 -0.148018 -0.227818 0.041719 -0.157265 -0.113547 0.345067 -0.140655 0.128846 0.053303 0.087367 -0.126785 0.203933 -0.029959 -0.102440 -0.103562 0.087633 0.127151 0.359524 -0.009187 0.224605 -0.130702 0.142780 0.168036 -0.295522 -0.088952 -0.222856 0.173274 0.052184 -0.203118 0.049711 0.064932 0.099115 0.220332 0.052252 -0.178051 0.202909 -0.071953 0.020295 0.337528 -0.010291 0.467353 0.045160 0.277894 0.268286 -0.113302 0.223270 -0.335085 -0.047856 0.072354 -0.199122 -0.119882 -0.243575 -0.264604 0.193461 0.032058 0.195155 -0.186535 -0.031449 -0.136100 0.041856 -0.323612 -0.280631 -0.106466 -0.198640 -0.013426 -0.361967 -0.035201 -0.168953 -0.202033 0.039373 0.132484 0.274030 0.104112 -0.220316 0.314732 -0.147459 -0.051899 -0.178675 0.199909 -0.203312 -0.333294 0.257946 0.334320 0.116506 -0.207182 0.069508 -0.080805 0.095545 -0.079595 0.252056 -0.029402 -0.147252 -0.379657 -0.066247 -0.018144 0.045232 -0.272291 -0.146907 0.348922 0.025193 0.049892 0.138151 -0.174514 -0.150142 -0.061799 0.151115 -0.006804 -0.076220 -0.016288 -0.257998 0.272666 -0.107889 -0.258335 -0.061400 0.021640 -0.134971 0.033810 -0.392489 -0.259466 0.033206 -0.405566 0.222476 -0.048982 0.376213 0.101052 -0.096959 -0.067304 -0.162951 0.436883 -0.204184 -0.150417 -0.155068 0.108300 0.000179 0.432063 -0.028380 0.322066 0.148663 -0.122747 -0.343823 0.146852 -0.138161 -0.307682 -0.069236 -0.151360 -0.616280 0.126303 0.178654 0.115755 0.354984 -0.190644 0.469739 -0.332693 -0.108521 -0.165944 -0.158482 0.151336 -0.202009 0.061534 0.100715 -0.025289 -0.176319 0.029631 -0.150717 0.050266 0.172283 0.139981 0.082336 -0.053254 0.183911 0.113698 -0.137482 -0.179931 -0.479341 0.202054 0.104576 -0.105617 -0.154232 0.025956 -0.044023 -0.089816 0.238749 0.124718 0.035400 0.086950 -0.087378 0.205355 0.141006 0.139018 0.248619 0.155667 0.305987 0.200313 -0.141410 0.234995 0.037713 -0.058615 0.059030 0.067100 0.075486 0.327953 0.240083 0.128037 -0.107314 -0.423742 0.149403 -0.055739 0.279713 0.067133 0.538696 -0.146921 0.293853 -0.410952 0.214488 -0.000527 -0.044157 0.060746 0.029744 -0.079428 -0.148235 -0.099137 0.041730 -0.146119 -0.110222 -0.452638 -0.287822 0.058809 -0.006379 -0.057665 -0.366345 -0.221331 0.011418 -0.108004 0.232747 -0.074759 -0.108850 0.215986 0.111653 -0.324742 -0.036443 -0.254895 -0.070114 0.071775 -0.496123 0.191486 -0.300212 -0.017972 -0.127471 -0.103297 0.359758 0.092000 0.163639 -0.057735 0.233158 0.186030 0.236771 -0.065273 0.088898 0.200178 -0.130401 -0.074719
Thomas -0.090189 0.020033 -0.221975 -0.146761 -0.107086 -0.194864 -0.105952 -0.070615 0.034629 -0.229076 0.026068 0.079065 0.001771 0.042722 -0.163986 -0.030871 0.341059 0.080524 -0.127104 0.053910 0.067708 0.090779 -0.161902 0.264501 -0.117329 -0.014273 -0.043983 0.012303 -0.056744 0.018788 0.165397 0.036413 0.001638 0.064902 0.031991 -0.232691 0.026460 -0.108726 0.302527 0.066927 -0.016182 -0.263196 0.014621 0.104296 0.414981 0.029049 -0.083284 -0.102020 -0.106021 0.201811 0.164033 -0.067743 -0.116445 -0.174173 0.195364 -0.044984 0.053440 0.163370 0.125921 -0.019672 0.284441 0.368136 -0.189711 -0.075085 -0.040626 -0.005322 -0.162814 -0.136419 -0.211903 0.103601 0.224339 0.118635 0.048156 -0.137157 0.069835 -0.023771 0.140840 0.257952 -0.112830 0.359449 0.009583 0.291943 0.294930 -0.119260 0.436984 -0.257797 0.334827 -0.080931 -0.205889 -0.099688 -0.211786 -0.145487 0.142262 0.094519 -0.090705 -0.125528 0.087769 -0.291225 -0.013502 0.034587 -0.402796 -0.120606 -0.115580 -0.076040 -0.356563 -0.095124 -0.054604 0.006748 -0.130044 -0.018902 0.268900 0.142921 -0.246100 0.492071 -0.298307 -0.027425 -0.335124 0.251835 -0.131962 -0.047175 0.213150 0.287989 0.111391 0.233291 0.065627 0.079873 0.302593 0.125272 0.068674 -0.013366 -0.199125 -0.335012 0.016785 -0.009964 0.079205 -0.093316 -0.148612 0.248709 -0.155067 0.101241 0.063401 0.037201 0.102155 -0.030840 0.197837 -0.048714 0.181737 -0.155573 -0.215557 0.186839 -0.027265 -0.034030 -0.056116 -0.139249 -0.376341 0.023428 -0.488567 -0.342015 -0.010467 -0.409627 0.106471 -0.015565 0.396499 0.010830 0.014636 -0.005513 -0.345630 0.271417 -0.217845 0.032461 -0.088170 0.278669 -0.129714 0.544167 0.213046 0.149026 0.195249 -0.222432 -0.153740 0.023556 -0.390747 -0.058485 -0.050715 -0.266371 -0.369112 0.055866 0.169707 0.159441 0.268862 -0.064802 0.581188 -0.240982 -0.161931 -0.242965 0.018533 -0.038588 -0.238222 0.031480 -0.034786 -0.168407 -0.204082 -0.103426 -0.122552 0.080165 0.342093 -0.021821 0.085869 0.010948 0.251148 -0.117896 0.049752 -0.009385 -0.393653 0.075054 0.030985 -0.097939 -0.195488 0.081015 -0.138764 0.083272 0.371436 0.164026 -0.034482 0.127794 -0.032291 0.295339 -0.001264 0.275164 0.102444 0.299480 0.143385 0.020940 -0.114685 0.231591 0.000035 -0.150161 -0.002320 -0.070635 -0.030167 0.019179 0.412727 0.152807 -0.150252 -0.345448 -0.010159 0.199559 0.228374 0.286619 0.431372 -0.266599 0.437579 -0.357812 0.279607 -0.231651 0.007528 0.253701 0.081403 -0.321606 0.059299 -0.035112 0.300280 -0.103586 0.022675 -0.243255 -0.081836 -0.123289 -0.007685 -0.310428 -0.259653 -0.112067 0.318612 -0.250346 0.114117 -0.222452 -0.172948 0.131858 0.236329 -0.117127 0.045190 -0.183781 -0.193439 0.048093 -0.397090 0.129713 -0.217726 0.144649 -0.204892 -0.175612 0.297572 0.026184 0.080039 -0.024447 0.222909 0.252293 0.095082 -0.062897 0.096782 0.094314 0.134350 0.023786
car 0.275302 -0.240644 -0.135091 -0.057522 -0.176588 0.113091 0.274139 0.338152 0.428504 -0.179246 0.047320 -0.163264 0.174396 0.082871 -0.300981 0.167716 -0.218107 0.330763 0.583474 -0.211626 -0.038304 -0.050947 -0.564837 0.288639 0.048798 -0.033215 -0.263352 -0.373611 0.093344 0.150058 -0.123538 0.022474 0.369534 0.158588 0.246000 -0.164955 0.068483 0.122230 -0.283939 0.056593 -0.126701 0.077879 -0.060425 0.154955 -0.107092 -0.208748 -0.212234 -0.023068 -0.042767 -0.342401 0.205115 0.172953 -0.241569 0.159871 -0.193387 0.296787 -0.056007 -0.051707 0.132690 -0.178674 0.239387 0.075408 -0.336993 -0.406166 -0.270583 0.051512 0.113153 0.104518 0.069505 -0.126439 -0.137770 -0.123492 0.105636 0.140488 0.070044 -0.196431 0.107748 -0.323470 0.134797 0.086650 0.325769 0.260262 0.174380 -0.112544 -0.096404 0.115298 0.103444 -0.131140 0.070874 -0.211879 -0.214665 -0.040516 -0.304879 -0.000600 0.231026 -0.192233 0.060181 -0.165547 -0.039215 0.008615 -0.140247 -0.074891 -0.083119 -0.021743 -0.059224 -0.090007 0.097930 0.444130 0.264034 0.229206 0.039202 0.096456 -0.203783 0.098614 0.039140 -0.372056 -0.208163 -0.154281 -0.103374 -0.144471 0.375011 -0.182870 -0.089221 -0.426992 -0.441166 -0.068663 -0.061187 -0.227665 0.179742 0.346038 -0.119726 -0.079122 -0.162136 0.175240 -0.280321 0.149085 0.097723 -0.356896 0.080066 -0.149647 -0.381954 -0.024525 0.109714 -0.070158 0.122545 -0.282096 -0.133507 -0.332491 -0.207138 -0.071752 -0.538152 0.155912 -0.060875 -0.376818 -0.218308 0.553481 -0.042686 0.180064 0.025895 -0.122439 0.147345 -0.299244 0.242166 -0.378282 -0.182590 0.293756 -0.044644 -0.256483 -0.021567 -0.158592 -0.264656 0.159223 0.071656 0.119630 0.046964 0.340753 -0.049413 0.330134 -0.393018 -0.239713 -0.243212 0.071744 0.300442 -0.059895 -0.254605 0.059391 0.185778 0.178542 0.375370 -0.236233 0.034673 -0.155059 0.012308 0.063783 0.021890 0.125752 -0.211801 -0.125238 0.292244 -0.352902 -0.083776 -0.251833 0.131161 -0.149099 -0.024774 -0.155097 0.286895 -0.210838 0.004794 -0.142265 0.195226 -0.321105 0.019914 0.319618 0.019817 0.170335 0.399365 -0.189879 0.219171 0.463347 0.127527 0.549491 0.235602 0.206624 -0.317290 -0.036987 0.285213 -0.086088 -0.224639 0.036329 -0.086591 0.082135 -0.043313 0.205933 -0.271319 0.258897 0.398130 -0.028845 -0.185521 -0.047198 0.294376 0.121774 0.048366 0.025527 0.105643 0.425888 0.253873 0.093368 0.265153 -0.274024 0.068707 -0.095117 0.383808 -0.178513 -0.230344 0.009543 -0.232627 -0.129397 0.132788 0.164307 -0.096257 0.125223 -0.029306 -0.327599 0.005260 0.134740 0.596795 0.123900 -0.049182 -0.351211 -0.333010 0.218259 -0.339368 -0.221451 -0.335961 0.041414 -0.512046 0.376351 0.025090 -0.146015 -0.198384 0.423702 0.170500 0.111846 -0.453558 0.212412 -0.251233 0.062588 0.025402 0.086145 0.276954 -0.011361 -0.062066 0.049541 -0.252143 -0.075714 -0.232342 -0.367779 -0.120445 0.019149
goal 0.155363 0.142221 -0.055770 -0.313233 -0.111206 -0.486572 0.022851 -0.102937 0.157269 0.185606 -0.068235 -0.190833 0.038982 -0.088665 -0.270491 0.141232 -0.020114 0.435610 -0.013373 0.009925 0.132968 -0.322407 -0.140422 0.282701 0.220506 -0.374455 -0.039088 0.220500 -0.189374 0.063741 0.409390 -0.276638 -0.157465 0.195680 0.067855 0.705620 -0.170463 0.052906 0.633127 -0.133008 -0.246621 0.217494 -0.011677 0.075658 0.166867 0.237979 0.447526 0.071109 -0.370194 -0.136935 -0.264884 0.098455 0.329359 0.142853 0.183335 -0.066992 0.127527 -0.009446 0.027596 0.027895 -0.034271 -0.205277 0.217708 -0.256616 -0.536744 0.280671 0.142495 -0.022423 -0.300076 -0.049543 -0.130885 0.065499 0.208208 -0.325091 0.300679 -0.000475 -0.384734 0.042602 -0.245088 0.096105 -0.139650 0.616878 0.028094 0.263565 0.003455 0.068389 -0.024003 -0.036261 -0.049835 -0.117210 -0.665722 -0.334978 -0.123134 0.003309 -0.277162 -0.296651 0.193898 0.039890 -0.357301 0.055926 0.065425 0.104767 0.164008 -0.448630 0.030642 0.080947 -0.324190 0.181154 0.544418 -0.083508 -0.041468 0.053052 0.234661 0.054840 -0.470004 0.149409 -0.293576 0.244049 0.138608 0.008154 0.281548 0.243136 -0.230147 0.030563 -0.202050 0.593563 -0.067971 -0.573622 0.019985 -0.219856 0.240621 -0.246057 0.218854 -0.025482 -0.094947 0.110318 -0.140280 0.273680 -0.527615 -0.053359 0.092107 -0.083218 -0.110542 -0.043512 0.305240 0.227600 -0.097285 -0.450881 -0.137490 -0.234185 -0.311346 -0.005348 0.079879 0.298702 -0.028817 0.514923 -0.157441 -0.441707 -0.484330 -0.216056 0.062213 -0.101578 0.562425 0.258162 0.318608 -0.262659 -0.081942 0.077818 -0.304603 0.015075 0.063513 0.231940 0.109942 -0.089946 -0.373019 0.177170 0.069761 0.267423 -0.327214 0.031144 -0.219304 -0.052874 -0.137310 -0.106427 0.091382 0.026212 -0.111193 0.266499 -0.133367 -0.234236 0.088059 -0.464468 0.028856 0.345305 -0.173487 0.057881 -0.421271 -0.012235 0.085336 0.034841 -0.209968 -0.004411 -0.035821 -0.145771 0.010978 0.339005 -0.008922 -0.210695 -0.002110 0.223067 -0.067144 -0.089163 0.001448 -0.191631 -0.454812 0.066444 0.684161 0.302095 0.115756 0.459226 0.215867 -0.021735 -0.145682 0.251828 0.148817 -0.143885 -0.227711 0.010597 -0.150594 0.154747 -0.122627 -0.185970 -0.537021 -0.023354 -0.376445 0.173436 0.046602 -0.004389 -0.274737 0.166934 0.131915 0.516256 -0.349386 -0.006523 0.284093 0.284342 0.288382 0.105401 0.263441 -0.515362 0.351953 0.234159 0.107932 -0.039173 -0.070687 -0.392962 -0.378200 0.266011 0.517132 -0.299197 -0.115742 0.146973 -0.326518 0.000755 -0.096816 -0.097002 -0.080432 -0.044184 -0.114105 -0.302415 -0.122001 0.261962 -0.174713 0.212955 -0.175622 -0.340423 -0.572664 0.014008 -0.289457 -0.084408 0.289472 0.068191 0.412384 -0.373819 -0.046099 -0.006427 -0.169309 0.004509 -0.198047 0.210689 -0.451490 0.067891 0.296560 -0.035924 0.212235 -0.064896 -0.107131 0.042695 -0.231215 0.014085
Michael 0.125689 -0.367232 -0.185581 -0.081328 -0.126122 -0.195631 -0.061634 -0.072841 0.110901 -0.431866 0.020915 -0.112797 0.051857 0.229468 -0.389700 0.224129 0.018204 0.030006 -0.033238 0.162136 0.252308 0.063952 -0.216952 0.029122 0.029587 0.049663 -0.029495 0.171368 0.102024 -0.012573 0.047387 0.073924 -0.203637 0.115781 0.090609 -0.214419 0.348426 0.090853 0.313811 -0.082991 0.194153 0.055308 -0.071353 -0.182113 0.256691 -0.294261 0.127692 0.124192 -0.260930 -0.114535 0.007613 0.108762 0.064537 0.002764 0.208818 -0.082746 0.224215 0.014955 0.038975 0.056024 0.300684 0.197910 -0.363507 -0.186563 -0.242125 0.127841 0.134905 -0.308004 0.033111 -0.031675 0.064445 0.216679 0.359142 -0.139601 0.022332 -0.038169 0.014832 0.328867 -0.012149 0.019243 0.040541 0.497764 0.154693 -0.113914 -0.161637 -0.344265 0.122174 -0.162481 -0.109455 0.118642 -0.047525 -0.421789 0.091601 -0.151508 0.048941 -0.132772 0.086476 -0.199484 -0.056557 0.100116 -0.166342 0.184894 -0.261161 -0.048834 -0.144148 -0.063026 -0.043031 0.249756 0.043064 0.220962 0.336384 -0.051269 -0.314968 0.039777 0.112524 0.325847 -0.259200 0.167183 0.021949 -0.066815 0.077750 0.132772 0.329881 -0.006774 -0.122765 -0.047388 -0.006874 -0.219707 0.542655 -0.060832 -0.190038 -0.186372 -0.037131 0.174870 0.424499 -0.177087 -0.106692 0.537045 -0.212166 0.076261 0.120463 0.149744 0.270532 0.121429 0.028230 0.137553 0.052562 -0.010737 -0.123985 0.092953 0.067247 -0.371318 0.233471 -0.288202 -0.089914 0.059677 -0.368453 -0.371172 -0.108097 -0.062971 0.255391 0.081076 0.275772 0.299354 0.002376 0.105654 -0.127224 0.287557 -0.233134 -0.201731 -0.229716 0.235802 -0.148546 0.419756 0.252301 0.260141 0.038325 -0.180429 -0.076596 0.184897 -0.178636 -0.242887 0.020111 -0.223931 -0.410836 -0.041217 0.086801 0.357171 0.134807 -0.011638 0.180583 -0.333106 -0.139894 -0.133849 0.039920 -0.118330 -0.174081 -0.270292 0.339309 -0.004002 -0.140153 -0.071118 -0.065553 -0.411916 -0.253303 0.048716 -0.010916 0.153445 0.083560 -0.097251 0.115889 0.166631 -0.487382 0.244292 0.069687 0.329759 -0.368133 0.052737 -0.109601 0.108973 0.344291 0.005606 -0.105974 -0.165405 -0.176939 0.237120 0.146443 0.317971 0.047180 0.040839 0.270371 0.043232 -0.004217 -0.087502 0.105743 0.151494 -0.167140 -0.059351 -0.154265 0.276383 0.105931 0.362781 -0.363314 -0.139945 0.043264 0.245813 -0.149407 0.104061 0.296171 -0.333444 0.437053 -0.499308 0.237624 -0.066633 -0.055465 0.044272 0.157691 -0.078632 -0.025449 -0.290019 0.014208 -0.118526 0.265832 -0.399498 -0.329109 0.058892 0.048740 0.152384 -0.199178 -0.112829 0.112384 -0.250930 -0.010169 -0.221359 -0.115012 0.179654 0.151982 -0.120781 -0.113253 -0.191155 -0.121127 0.033223 -0.205805 0.321732 -0.344301 -0.025638 -0.147293 -0.240301 0.216561 -0.027956 -0.117955 0.141459 0.214538 -0.185023 0.017378 -0.183271 0.178398 0.067056 0.033534 -0.356901
date 0.365881 -0.007912 -0.132387 0.056569 -0.281839 0.174303 0.012175 0.231463 -0.047266 -0.292511 0.002961 -0.000299 -0.172737 0.053062 -0.160143 -0.051348 -0.096689 0.106976 0.310449 -0.260790 0.168306 0.423604 0.477669 -0.258149 -0.187362 -0.163822 -0.081001 0.314953 0.021867 -0.097571 -0.363964 0.057236 0.064754 -0.479994 -0.060637 0.103733 -0.224785 -0.146705 0.414562 -0.059917 0.009223 0.026715 0.092749 -0.469806 0.021394 0.160702 0.081018 0.122632 0.101459 -0.164959 0.088876 0.176633 0.147975 0.326550 0.266510 -0.104386 -0.207772 -0.376000 -0.000746 -0.413552 0.000949 0.081118 0.060858 -0.158946 -0.238297 -0.049833 0.094033 -0.068922 0.182204 0.053427 0.093018 0.061526 0.141131 -0.075817 -0.342609 0.017145 0.101669 0.312231 -0.321776 0.006014 0.211044 0.304527 0.101161 -0.059967 -0.104773 -0.012733 -0.041203 0.059548 0.111965 -0.390450 -0.260547 -0.138480 -0.071791 0.278837 -0.100968 -0.046275 0.215267 -0.057266 -0.069536 0.149947 -0.116522 0.120419 0.053306 -0.188843 -0.277537 0.194027 -0.108135 -0.039750 0.194876 0.043731 0.005594 0.273083 -0.443989 0.307511 -0.275669 -0.202690 -0.397005 0.026864 0.055227 -0.060124 0.238674 -0.212216 -0.042799 -0.036439 -0.146589 -0.121700 0.394304 -0.326541 0.059374 0.097723 0.042497 -0.149557 0.195662 -0.008947 0.306970 0.053976 -0.063846 0.161523 -0.080912 0.513757 0.064328 0.255560 0.173855 -0.385483 -0.000234 0.098825 0.168592 0.230985 -0.296201 0.236082 -0.194671 -0.048047 -0.378235 0.116920 0.102672 -0.060017 0.139028 -0.279872 -0.277955 -0.000208 -0.009498 0.156321 0.238591 0.045777 -0.189142 0.242512 -0.144813 0.308333 -0.013139 -0.314183 0.036359 0.559845 0.090081 -0.046886 0.003434 0.102145 -0.360798 -0.135715 0.029545 0.311928 -0.060778 0.148135 0.088981 -0.324298 -0.199527 0.130355 0.281694 -0.035636 -0.081414 0.107603 -0.010718 -0.498014 -0.076656 -0.189231 0.104891 0.132059 -0.175205 0.154005 0.059073 0.127597 -0.080136 -0.363481 0.026809 -0.254455 -0.116419 0.045711 0.012235 -0.092046 0.180577 -0.250613 0.038989 0.193144 -0.416144 0.116213 -0.095701 -0.163426 0.119627 -0.015366 0.193962 0.354036 0.185395 -0.004175 0.294024 0.066500 0.034373 -0.008935 0.349441 0.186146 -0.114510 0.175568 -0.003774 -0.067901 0.066303 0.408798 0.180779 0.126221 0.530524 -0.132409 0.191326 -0.081086 0.029652 0.268556 -0.097762 -0.168036 -0.144056 0.051442 0.611676 0.237872 -0.038399 0.017523 0.267788 -0.045627 0.130360 -0.024847 0.222652 0.087700 -0.266608 0.060381 0.111175 -0.078135 0.040631 -0.097162 -0.131616 0.070406 0.185751 0.028949 0.002549 0.003854 0.288854 -0.189667 0.345182 0.121366 0.074158 0.065485 -0.329677 0.241335 -0.109476 -0.096179 -0.091289 -0.286389 -0.145380 -0.126169 0.008446 -0.237868 -0.202961 0.159051 0.085019 0.053017 0.016092 0.331710 0.219629 -0.251827 0.109429 0.180260 -0.037731 -0.159800 0.333022 0.148573 0.168445 0.284691
plant -0.069000 -0.042469 -0.149253 0.148905 -0.354761 -0.135651 -0.334030 0.166667 0.250645 -0.241839 0.209308 -0.302114 -0.055635 0.139457 -0.142618 -0.352126 -0.276740 -0.232735 0.227147 -0.301070 0.134853 0.108612 0.327227 0.090772 0.137756 -0.438413 0.157325 -0.208980 0.257674 -0.383957 0.303543 0.089498 0.204818 0.208106 0.048643 -0.041981 0.146901 0.089097 -0.061921 0.195909 -0.230048 0.272839 -0.242827 0.138584 0.239031 0.059349 -0.186854 0.036542 -0.112210 0.034012 0.169287 0.330087 -0.019791 -0.343836 -0.097674 0.287923 0.085908 -0.137921 -0.010470 0.023204 0.006203 0.155331 0.282710 -0.011723 -0.103587 0.132708 -0.373989 0.073801 -0.070054 -0.004395 -0.162432 -0.221011 0.372221 0.237074 -0.086328 0.020749 0.170952 -0.809768 -0.113909 -0.026765 0.360154 0.179832 0.115538 -0.099516 0.079319 -0.046867 0.143435 0.057464 -0.007084 -0.147553 0.010175 -0.013759 -0.282255 0.229471 0.109721 0.039103 -0.223525 -0.340759 0.079587 0.018251 -0.107790 -0.270562 -0.044831 -0.100037 -0.061256 -0.096863 -0.508141 0.265261 0.320387 0.048598 -0.004706 0.175913 0.016961 0.777652 0.156490 0.347088 -0.095102 0.162105 -0.157000 -0.168764 0.007893 -0.085211 -0.614420 -0.039700 -0.129563 0.541478 -0.008738 -0.505329 0.104209 -0.149999 0.059374 0.136968 -0.258838 -0.131888 -0.651344 0.194515 0.193511 -0.363927 0.393129 0.034412 -0.156547 0.496600 0.413742 -0.357004 0.095477 0.037136 0.031882 -0.253939 0.193682 -0.371472 -0.478354 0.431822 0.253700 -0.308016 0.306002 0.032806 0.039666 -0.215352 -0.224678 0.157604 -0.217050 -0.056702 0.295499 0.066625 0.086803 -0.011165 -0.467294 0.006659 -0.105333 -0.053414 -0.336038 0.079030 -0.127893 -0.195520 0.276599 0.261725 0.549350 0.487211 -0.277040 -0.200564 -0.568147 0.065755 0.358486 -0.382705 0.211805 -0.067715 0.211891 0.347598 0.262719 -0.069682 0.250654 0.172743 -0.307437 0.376157 0.063784 0.249104 0.195946 0.165812 0.226846 -0.310110 -0.226930 -0.498992 -0.243901 0.074978 -0.030929 -0.284938 0.025366 -0.253092 0.122854 -0.668792 -0.123522 0.166824 0.307442 0.226835 -0.379260 0.095342 -0.053183 -0.105723 -0.208617 0.099517 0.235902 0.387323 0.402359 -0.008739 -0.527410 -0.053001 -0.341004 -0.434148 -0.255449 0.194846 0.522891 -0.015442 -0.069356 0.562439 -0.278496 -0.060778 0.062093 -0.267248 0.178688 0.251025 0.219636 -0.102639 0.147824 0.240967 0.205083 0.180926 0.544930 0.152728 -0.262965 0.238469 -0.020587 0.024361 0.514617 0.002610 0.038303 -0.381366 0.043158 0.227654 -0.525604 -0.019231 0.482688 -0.222113 -0.108972 -0.549663 0.185394 -0.183500 -0.078105 -0.039250 -0.163113 -0.121345 -0.013121 0.063431 0.151826 -0.255098 -0.271285 0.040713 -0.006166 0.164100 0.240447 -0.297726 -0.053130 0.105766 0.196639 0.167931 -0.174700 0.152844 -0.398977 0.115337 -0.269327 -0.193648 0.010651 -0.097897 0.597176 0.096590 0.224557 0.225877 -0.027162 0.117429 0.229508 0.355420
Peter 0.038971 -0.153639 -0.305490 -0.323349 -0.194308 0.018045 -0.319426 -0.012028 -0.123861 -0.340111 0.056843 -0.055450 -0.105166 0.019199 -0.372865 0.147931 -0.038102 0.217558 -0.165009 0.196807 0.075228 0.082004 -0.135205 -0.075786 -0.041979 0.075539 0.011580 0.101670 0.065926 -0.040613 0.023061 0.274739 -0.107937 0.126260 0.137141 -0.334993 0.417126 -0.119053 0.163787 -0.159723 -0.229745 0.105565 -0.026448 0.060360 0.086715 -0.154279 -0.109921 0.095671 -0.196837 -0.245921 0.054976 -0.160243 -0.016345 0.109936 0.012929 -0.034287 0.095425 0.129890 0.057481 -0.122096 0.374856 0.359545 -0.173352 -0.242666 -0.256788 -0.354724 0.014124 -0.180413 -0.165707 0.028452 0.258546 0.153799 0.153471 -0.045720 0.159248 0.026021 0.128326 0.328990 -0.061032 0.075101 -0.050205 0.193552 0.086408 -0.130775 -0.186601 -0.406837 -0.066844 -0.064489 0.023118 -0.058861 -0.070977 -0.345388 0.039287 -0.000513 0.064303 -0.151318 -0.248870 -0.181464 -0.113654 -0.111001 -0.142007 -0.192265 -0.315086 -0.088725 -0.089409 -0.134758 -0.073963 0.203799 0.277347 0.251994 0.466114 -0.214841 -0.316006 0.290591 -0.163764 0.217663 -0.265293 0.118271 -0.008765 -0.107305 0.139463 0.208919 0.212572 0.117306 -0.029543 0.044245 0.055710 0.064177 0.118402 -0.002500 -0.142979 -0.294140 0.087859 -0.241091 0.424696 -0.163599 -0.059882 0.564623 0.110643 0.092404 0.072697 0.006927 0.222589 0.005570 0.093286 -0.177715 0.010261 -0.197260 -0.172423 0.046175 -0.049210 -0.401943 0.139755 -0.147923 -0.075952 0.195241 -0.302850 -0.275568 0.077421 -0.001223 0.361929 0.076925 0.424291 0.277843 0.043338 0.002824 -0.081899 0.125269 -0.429230 -0.062868 -0.328386 0.178106 -0.227651 0.509995 0.183955 0.081626 0.324371 -0.196031 -0.176312 0.161396 -0.145286 -0.132611 0.089548 -0.316266 -0.468264 0.290932 0.418434 0.144081 0.250051 -0.022642 0.393718 -0.369170 -0.372464 -0.052295 -0.002398 0.135731 -0.087943 -0.209690 0.104876 -0.195427 -0.107273 0.143256 0.104945 -0.281496 -0.038059 -0.004482 -0.158846 0.297079 0.109502 0.000818 0.027388 0.013529 -0.468701 0.278892 -0.147158 0.136903 -0.270788 -0.114053 -0.198233 0.100984 0.388245 0.149898 -0.165396 0.228169 -0.082600 0.226918 0.252285 0.307850 0.122385 0.016043 -0.056021 -0.127793 -0.030989 0.091363 0.120809 0.142212 0.085464 -0.105173 -0.152323 0.355733 0.101575 0.182282 -0.397965 -0.214941 0.117064 0.092320 -0.041430 0.111481 0.328172 -0.189315 0.277351 -0.224786 0.191469 -0.112809 -0.197584 -0.127720 0.112565 0.002264 -0.102089 -0.033969 0.054228 -0.249081 0.082342 -0.397455 -0.234171 0.031625 0.012354 0.090588 -0.250560 -0.230321 0.276194 -0.155168 -0.054582 -0.223407 -0.253371 0.032909 -0.065280 -0.003986 -0.017780 -0.425094 -0.123499 -0.039495 -0.061751 0.324354 -0.358171 0.024055 -0.333376 -0.150367 0.207937 -0.260509 0.076731 -0.119078 0.182251 -0.077727 0.203754 -0.033088 0.138774 0.009278 0.010045 -0.334678
Mary 0.234440 0.182381 -0.141791 -0.276776 -0.171579 0.087472 0.110944 0.045854 0.004416 -0.155248 0.090322 -0.183713 -0.388440 -0.070047 -0.104513 -0.066777 -0.028563 -0.079398 0.012063 0.071262 0.301484 -0.015692 -0.377572 0.201730 -0.004316 -0.155539 -0.079390 0.210272 -0.036895 -0.147239 0.056000 -0.061737 -0.038310 0.004499 0.128053 -0.676452 0.151201 -0.092161 0.232495 -0.188146 0.143011 -0.161748 -0.166815 -0.138612 0.318898 0.077683 -0.043917 0.000104 -0.099985 -0.174395 0.157508 -0.100297 -0.100788 0.004805 0.079035 0.169773 -0.085113 0.127130 -0.005274 0.076721 0.142332 0.172220 -0.360502 -0.145792 -0.337362 0.139933 0.198848 -0.061202 -0.212101 0.129218 0.376543 0.121797 0.332958 -0.131565 0.164302 -0.110687 -0.036603 0.006576 -0.195378 0.296759 0.160276 0.041294 0.382215 -0.169376 -0.238429 -0.318004 0.006246 -0.036175 -0.005123 -0.100001 -0.256020 -0.241018 0.175320 0.262671 0.135433 -0.014515 -0.118404 -0.099603 -0.051596 -0.302509 -0.314977 -0.028758 -0.219715 -0.063786 -0.098269 0.063559 -0.076774 0.181136 0.024378 0.233403 0.174299 0.043322 -0.427661 0.274410 -0.464289 0.254417 0.019857 0.214859 0.045627 -0.151671 0.191746 0.310300 0.033493 0.108233 0.206254 0.267860 -0.183071 -0.093513 0.160020 -0.078633 -0.261547 -0.247805 0.045478 -0.047524 0.119797 -0.163948 -0.111285 0.063819 0.208612 0.193432 0.196570 0.021206 0.268230 -0.146802 0.144597 -0.285491 -0.107766 -0.213277 -0.250673 0.264869 -0.051114 -0.113541 0.006532 0.060765 -0.263256 -0.073532 -0.247614 0.066755 -0.020710 -0.177562 0.068186 -0.085011 0.427335 0.381148 -0.064853 0.181994 -0.212132 0.460234 -0.311435 -0.047466 -0.206517 0.117770 -0.192717 0.204635 0.200814 0.369482 -0.139486 -0.580663 -0.333909 0.051141 -0.206423 -0.173283 -0.076193 -0.579116 -0.773804 -0.179260 0.278596 0.148272 0.154146 -0.086511 0.405767 -0.341992 -0.153241 -0.341693 -0.107277 0.202968 -0.102200 -0.074112 0.146258 0.117984 0.004813 -0.026013 -0.079226 -0.090251 0.407781 0.022170 -0.045403 -0.085387 0.166042 -0.135424 -0.169284 -0.185066 -0.350501 0.294512 0.200025 0.080863 -0.093154 0.004148 -0.001544 0.001630 0.350756 -0.078628 -0.115727 0.169061 -0.250952 0.286271 0.302304 -0.028532 0.012966 0.356093 -0.028850 -0.512725 -0.189034 0.210404 -0.020009 -0.132086 -0.008623 0.225874 0.123350 0.285434 -0.051048 0.163052 -0.116875 -0.367562 -0.000675 0.256403 0.208690 0.023008 0.460161 -0.098070 0.265526 -0.344335 0.132555 0.004124 -0.240069 -0.089237 -0.187288 -0.115639 -0.056946 0.055514 0.181120 -0.113420 -0.418231 -0.400259 -0.172858 0.224740 0.077758 -0.104871 -0.443298 0.029961 0.037198 -0.164164 -0.112683 0.031967 0.023086 0.076505 0.174346 -0.402173 0.038901 -0.214006 0.086435 0.083298 -0.392718 0.063549 0.037958 -0.117446 -0.162915 -0.032123 0.273356 0.150600 0.090989 -0.169783 0.038694 0.133743 -0.014917 -0.202725 0.050200 0.428900 0.084171 -0.005688
computer 0.108148 -0.263927 0.115358 -0.123698 0.001470 0.165770 -0.066362 -0.311561 -0.186170 -0.378817 0.050806 0.014635 -0.182789 -0.432236 -0.283543 -0.217267 0.090709 0.146709 0.180914 0.140721 -0.037756 0.004266 0.073859 0.463713 -0.183387 -0.150044 0.193607 -0.242778 0.167716 -0.345833 -0.056497 0.242278 -0.136601 -0.040507 -0.141974 -0.276898 0.100978 -0.128938 0.106868 -0.119539 0.170211 0.147146 0.204655 -0.149986 0.065870 -0.085602 -0.244800 0.435045 0.318215 -0.231378 0.188498 -0.106905 0.133237 -0.151651 0.014154 -0.111607 -0.009717 0.055201 0.097121 -0.119060 -0.055287 0.301121 0.041306 -0.246771 -0.261666 0.408967 -0.191379 -0.556258 -0.240682 -0.035537 -0.003171 -0.021373 0.373460 -0.256448 0.424614 -0.036971 0.185303 -0.089732 0.166820 -0.120915 0.252080 0.067483 -0.131369 0.094191 -0.013591 -0.244858 0.017560 0.206685 0.529789 -0.117029 -0.311730 -0.211558 -0.290272 0.037128 0.125688 -0.201344 0.721791 -0.100716 -0.138739 0.076103 0.331010 -0.377977 0.138757 -0.065763 -0.238513 -0.086866 -0.103052 0.413558 0.362074 0.160911 0.411661 -0.096425 0.193980 -0.066873 -0.154734 -0.020027 -0.417376 0.007960 -0.415481 -0.073472 -0.137080 -0.089586 0.120845 -0.040762 0.264774 0.342093 0.442366 -0.465813 -0.074131 0.051761 -0.015539 -0.094540 -0.260569 0.115739 -0.296580 0.010904 0.138908 0.106883 -0.125808 0.367899 -0.056977 -0.166006 0.180986 -0.248352 0.326635 -0.158888 0.013011 -0.137628 -0.213179 -0.230061 -0.297963 0.002006 0.348303 -0.422257 0.119732 0.072284 -0.215444 -0.216330 -0.141321 -0.227600 -0.112710 -0.148896 0.207057 -0.184391 -0.138017 0.099878 0.301670 -0.219637 -0.167337 -0.202602 -0.259890 0.187771 -0.198017 0.123217 -0.213486 0.430081 -0.505464 -0.010213 0.190409 0.022236 -0.133469 -0.085058 0.094837 -0.180871 0.340873 0.154564 -0.087775 0.462433 0.163296 -0.095751 0.077732 0.036620 0.256311 0.233718 0.260995 -0.045033 0.105093 0.255796 0.004857 -0.211493 -0.160235 0.337079 0.091978 -0.204496 0.333333 -0.108997 0.057876 -0.170020 0.168294 0.346685 -0.344526 -0.081516 -0.530106 0.021743 0.045077 0.186032 0.018003 -0.224559 0.043489 0.296015 0.191160 0.058551 0.173140 -0.143649 -0.239737 -0.074310 0.219950 0.138296 0.065769 0.253244 -0.373205 -0.083105 -0.100473 -0.033936 0.187694 -0.006415 0.302453 -0.115843 0.158283 0.331750 0.391662 0.363252 -0.228531 0.197857 0.024190 0.050819 0.030110 -0.237125 0.311719 -0.525903 -0.027067 -0.224679 0.394861 -0.247384 -0.415136 -0.099673 -0.222364 0.169052 0.003362 -0.257309 0.131991 0.035759 0.117857 -0.352749 -0.063119 0.162308 0.030759 0.157206 0.180742 0.202949 0.144546 0.181354 0.095146 -0.188149 0.262754 -0.243961 -0.040097 0.233033 0.005439 -0.053562 -0.134880 0.235671 0.045436 0.044237 0.148913 0.182469 0.123601 -0.079248 -0.446439 0.378063 -0.025369 -0.128670 0.134748 0.172635 -0.141153 0.014271 -0.141090 -0.110898 -0.003405 0.171967
paper -0.112842 0.062880 -0.220444 -0.008172 0.147134 0.229358 -0.107815 0.400483 0.169615 0.014861 -0.089273 -0.080990 -0.059374 -0.048938 0.089198 -0.236982 0.116906 -0.022417 0.093501 0.036496 0.090638 0.037673 0.209785 0.171409 -0.146974 -0.293455 0.040595 0.143750 0.013191 -0.213271 0.013754 0.042523 0.100946 0.070572 0.023410 0.173225 0.134944 -0.238260 0.309324 -0.508718 0.010006 0.014684 0.043808 0.055072 -0.052458 -0.070560 -0.282456 0.400150 -0.158781 0.088487 0.632672 -0.007621 -0.289715 -0.114832 0.239920 0.020646 0.137831 -0.072497 -0.045578 -0.232160 -0.174259 0.067507 0.086291 -0.257061 -0.268715 0.516316 -0.165995 -0.070926 -0.059438 -0.173124 0.052754 -0.085469 0.009883 -0.059720 0.199512 0.149893 0.329252 -0.014840 0.241493 0.132234 0.167889 0.084592 0.150219 0.329617 0.192246 -0.201360 0.006398 0.240838 0.189829 -0.051180 -0.279399 -0.117673 -0.031721 0.231036 -0.268048 -0.113884 -0.129912 0.118126 0.208590 0.017559 0.089411 -0.296053 0.038245 0.095382 -0.182291 -0.025350 -0.230978 0.133250 0.459881 0.295822 0.625349 0.401317 -0.180402 -0.091861 0.331706 -0.097677 -0.246977 0.380851 -0.069363 0.057842 -0.162930 0.205051 -0.208909 -0.076327 -0.025941 0.097136 0.112679 -0.160799 0.029853 0.162787 -0.127974 0.029742 -0.137259 0.136394 -0.173167 -0.206250 0.005805 -0.173341 -0.301171 -0.079462 -0.095059 -0.134701 0.231248 -0.324153 -0.139685 -0.147158 -0.109965 0.196688 -0.259594 -0.273890 -0.242079 -0.008046 0.313662 -0.255423 0.032675 -0.202264 -0.041137 0.042608 0.116286 0.017411 0.399408 0.057545 0.743223 0.157682 -0.212121 0.017042 -0.129820 -0.142118 -0.345311 -0.115962 -0.062822 0.152794 0.084065 0.202436 0.058959 0.143126 0.111200 0.134853 0.250228 -0.302761 -0.362335 -0.054041 0.001561 -0.231012 -0.023495 -0.030637 0.007224 0.424433 -0.105757 -0.015141 0.280197 0.062086 -0.443289 0.308192 0.146274 0.179162 -0.014777 0.239265 0.144577 0.164069 -0.151409 0.142310 0.323583 -0.121306 -0.121027 0.026010 0.050783 -0.256584 -0.091597 0.085733 0.133592 -0.015391 -0.038087 0.092099 -0.099213 -0.202883 0.204042 -0.323786 -0.084007 0.015669 -0.005452 -0.147554 0.174172 0.098802 -0.262089 0.038103 0.144637 0.268317 -0.290828 0.587143 0.298789 -0.067238 0.136796 0.124115 -0.015809 0.021425 0.213194 -0.047544 -0.036966 0.163644 0.020188 0.609299 -0.257834 0.137674 0.408785 -0.436916 -0.179876 0.074993 -0.168655 -0.203511 0.180444 0.248932 0.409400 -0.149253 0.186100 0.107842 0.193237 -0.526022 -0.051151 -0.198266 -0.175889 -0.066262 -0.059646 -0.138498 0.065951 0.174737 0.064311 -0.098305 -0.001760 -0.208238 -0.017553 0.070166 -0.098791 0.129079 -0.135909 0.453621 0.132800 -0.055088 0.439390 0.224109 -0.302255 0.099467 0.041019 0.001597 -0.156146 0.160489 -0.156541 0.280461 0.112890 0.238527 -0.277316 -0.209701 0.567606 0.203570 0.141240 -0.020097 0.146820 0.083946 -0.037715 -0.188283
software 0.189606 -0.384876 -0.124959 0.102907 -0.236111 -0.092552 0.065098 -0.150946 -0.039028 -0.338321 0.070334 -0.081058 0.052351 -0.394223 -0.176813 -0.297591 -0.248607 0.402607 0.238944 0.128525 -0.288718 0.345958 0.526930 0.268325 -0.463733 0.052800 0.033428 -0.322343 -0.002292 -0.444274 0.051207 -0.035630 -0.384428 -0.173823 -0.331950 0.036071 0.215415 -0.066324 0.163381 0.012599 0.016345 0.119359 0.270465 -0.110027 0.110273 0.120891 -0.051608 0.463108 0.406690 -0.374325 0.024189 -0.126165 0.233729 -0.125947 0.052372 0.199011 0.043965 0.155728 -0.068434 -0.188319 0.023218 0.442890 0.027571 -0.138324 -0.309795 0.213655 -0.018765 -0.483880 -0.471324 0.023440 0.135965 0.130174 0.335459 -0.164414 0.640579 0.035101 0.101705 0.101112 -0.138986 -0.023902 -0.082381 0.138447 0.231556 -0.112117 0.053300 -0.002805 -0.064703 0.407685 0.360633 -0.419296 0.163355 -0.321388 -0.017837 -0.125782 -0.025506 -0.276015 0.757585 0.079253 0.061582 0.075457 0.016787 -0.248505 -0.025621 -0.012834 -0.286528 0.253932 -0.216220 0.354277 0.422887 0.009375 0.407482 -0.066523 0.024495 -0.416724 0.196724 0.019113 -0.400005 -0.047464 -0.241011 -0.020580 0.182798 -0.176176 0.146711 -0.157495 -0.019207 0.744145 0.208290 -0.360535 -0.118874 0.218686 0.074989 0.001824 -0.227705 0.369923 -0.529049 0.046654 0.149730 -0.068834 -0.227095 0.536039 -0.160684 -0.064021 0.232125 0.227206 0.426022 -0.080921 0.076151 0.007330 -0.052235 -0.212108 -0.271064 0.089610 0.279984 -0.223479 0.086948 0.098530 -0.195846 -0.360028 -0.358047 -0.179837 -0.142933 0.082301 0.430126 -0.033216 0.107352 0.078148 0.216101 -0.131558 0.073145 -0.263539 -0.165297 -0.017515 0.039999 0.063382 -0.108174 0.116426 -0.360985 0.209043 0.106463 -0.175544 -0.093606 0.002625 0.153108 -0.022925 0.323425 0.105568 0.248562 0.499573 0.189591 -0.393882 0.167267 0.085856 0.044394 0.286551 -0.027466 0.097129 0.040958 0.593257 0.224589 -0.165288 -0.234146 0.058734 0.027356 -0.393168 0.526992 0.101580 -0.062952 -0.330008 0.209286 0.468641 -0.276611 -0.005527 -0.551648 0.180839 -0.234388 0.241530 0.045918 0.123243 0.335426 0.038255 0.022030 0.138524 0.216214 0.005510 -0.370763 -0.014900 0.194200 0.248241 0.154129 0.267868 -0.569055 -0.008027 0.274992 0.176108 0.408119 0.085626 0.321209 0.224782 0.296226 0.277210 0.277152 0.084126 -0.406583 0.355595 -0.075674 0.141546 -0.085793 -0.365412 0.049725 -0.528923 -0.057845 -0.233782 0.332232 -0.162275 -0.193108 0.044787 -0.111816 0.281891 0.092905 -0.357501 0.133611 0.134457 0.044966 -0.106399 0.323358 0.279543 -0.046120 -0.085431 -0.014912 0.154447 0.099941 0.045527 0.129576 -0.421157 0.053611 -0.062290 -0.213840 0.217278 0.070004 0.486496 -0.235999 0.017286 0.033155 0.111990 0.059919 0.147890 -0.105693 -0.188982 -0.569992 0.134391 -0.002726 -0.254474 0.194622 0.140174 0.090496 -0.031369 -0.186061 0.125659 0.003727 0.238750
Earth 0.228041 -0.089048 -0.458610 0.244715 -0.397589 0.190862 0.255746 0.283630 -0.150991 -0.056122 -0.196376 0.291640 -0.357225 0.255330 -0.201266 -0.040147 0.028651 -0.214203 -0.254581 -0.206143 -0.253949 -0.123273 0.227103 0.366565 -0.306549 -0.162436 0.027362 0.275457 -0.299727 -0.158492 0.116319 -0.233071 -0.020172 0.008753 0.448010 0.007572 0.153253 -0.197431 0.220418 -0.205977 0.262589 0.130824 -0.124174 -0.267117 -0.199776 -0.512878 -0.155933 0.010322 -0.132553 -0.102572 0.040424 -0.148249 -0.009978 0.039703 -0.007058 -0.571826 0.009937 -0.062824 -0.071476 -0.187794 -0.344680 0.121239 0.191238 -0.420211 -0.231064 0.162510 -0.142379 -0.283529 -0.465995 -0.050792 0.362715 -0.496053 0.382552 -0.130491 0.273033 -0.157625 -0.222992 0.157718 -0.008634 -0.561654 -0.028759 0.759263 -0.168571 -0.173497 0.404872 -0.391906 0.134681 -0.260622 0.215503 -0.171004 -0.247131 0.527895 -0.278931 -0.327782 0.058617 -0.310026 0.243469 0.152841 -0.022664 -0.098160 0.024717 -0.091736 0.269845 -0.125828 0.114058 0.566530 0.095606 0.029321 0.252201 0.307255 -0.008640 -0.375966 -0.207017 0.120485 -0.157075 0.126464 -0.446967 0.036456 0.201354 -0.049200 0.004578 -0.324483 -0.280820 -0.431443 0.321311 0.213162 0.035922 -0.393887 0.197790 -0.178603 -0.434713 -0.437018 0.028278 -0.103404 -0.080813 -0.148165 0.119787 -0.204349 0.055895 -0.090384 0.092075 -0.313054 0.126626 -0.138879 0.197784 -0.123539 0.051907 0.174146 -0.190088 -0.026553 -0.088760 -0.096372 -0.053975 -0.013945 0.080617 0.101547 0.067224 0.301746 -0.158528 -0.102129 -0.144225 0.244330 0.359718 0.015638 -0.140922 -0.307893 -0.187069 -0.135504 0.259655 -0.244388 -0.082404 0.068431 -0.362442 -0.274703 -0.042734 0.404251 0.208942 -0.429077 0.095916 0.113704 -0.171834 -0.184246 -0.018171 -0.345406 0.011587 0.207356 -0.020819 0.007437 0.151096 0.106711 0.068897 -0.397608 -0.018601 0.418222 0.076496 0.010899 0.109019 0.019361 -0.156752 -0.183300 -0.154949 -0.374568 -0.034919 -0.059799 -0.108653 -0.222928 0.009002 0.021138 0.211050 0.335541 0.046855 0.161303 -0.315018 0.183318 -0.091651 0.074116 -0.166308 0.142986 0.236076 0.238217 0.396309 -0.024867 -0.065621 0.261658 -0.073169 0.063266 0.321110 -0.220583 0.223258 0.058459 0.193798 -0.302618 -0.668058 0.597134 0.159241 0.406663 -0.223515 0.192821 0.182910 0.119602 0.109922 0.100631 0.050250 0.060833 0.344679 0.299331 0.395650 -0.016399 0.182416 -0.279917 0.005920 -0.568350 0.563838 -0.114001 0.068694 -0.256615 -0.101452 -0.052705 0.141282 -0.158058 -0.279169 0.128290 -0.447422 0.141750 -0.298162 -0.210510 -0.004297 -0.109231 -0.064176 0.180804 -0.071676 -0.027654 0.119423 -0.121262 -0.054510 -0.287860 -0.240431 -0.119386 0.042694 -0.348043 -0.106548 0.019029 -0.257166 0.344734 0.003932 0.087995 0.204729 0.203271 -0.183719 0.093849 0.005914 0.107756 -0.164139 0.246905 0.200076 0.159255 0.024301 -0.021967 -0.193407 -0.213682
Brazil 0.119781 0.161621 -0.164531 -0.314058 -0.166974 -0.079335 -0.202269 -0.004070 -0.105680 -0.191521 0.093191 -0.080063 0.072038 0.367683 -0.121963 -0.262272 -0.092218 0.140347 0.039509 -0.190496 0.027156 -0.000389 0.037958 -0.115032 -0.095220 -0.023821 0.160126 0.113746 -0.292554 -0.233619 0.108129 -0.054151 0.060700 -0.217474 0.237854 0.444082 -0.044685 0.101221 -0.194878 0.230936 -0.415108 -0.270083 -0.124842 0.277700 -0.201041 0.042912 -0.032861 0.303818 0.071039 -0.173102 -0.294844 0.144179 0.260236 0.067132 -0.124864 -0.232195 -0.122113 -0.276167 -0.542351 -0.246676 -0.228818 0.227553 -0.363841 -0.320033 -0.425567 0.277204 -0.210659 -0.406276 -0.314877 0.408778 0.063157 -0.304825 0.381221 -0.050979 -0.153794 -0.162586 -0.150222 -0.016030 0.035572 -0.071676 0.285095 0.191538 0.357895 0.310536 -0.502091 -0.267892 -0.308401 -0.225421 -0.100373 -0.136502 -0.150821 -0.066599 -0.010714 -0.107041 -0.330957 -0.656847 0.137895 -0.368172 -0.450308 0.059467 -0.099285 0.352806 0.281948 0.264839 -0.293110 0.180330 0.192525 0.203370 0.133975 0.176629 -0.315060 0.361445 -0.147675 -0.150209 -0.099962 0.102703 0.091363 0.688646 0.286265 -0.509946 -0.023462 -0.339530 -0.160142 -0.281626 0.207064 -0.258347 0.047703 -0.138387 -0.285837 -0.324726 0.112175 0.263765 -0.037140 -0.047759 -0.414480 0.092611 -0.289946 0.335903 -0.189226 -0.324819 0.004967 -0.023213 0.313735 -0.286163 0.293455 0.014103 -0.113216 -0.179015 -0.204020 -0.391181 -0.511765 -0.092429 -0.133110 -0.050196 0.127332 -0.115176 -0.207082 -0.035539 -0.292811 -0.185903 0.202170 0.390265 0.442684 -0.178638 -0.006917 -0.128746 -0.460129 0.137482 -0.312454 -0.397397 -0.001395 0.195083 0.104842 -0.393729 0.192387 -0.095857 0.097083 0.352905 -0.214749 -0.167170 -0.123444 -0.338488 0.142212 -0.276938 0.128920 0.144834 0.290858 0.139397 -0.154956 0.051012 0.051203 -0.205449 -0.046344 0.056613 0.593522 0.095178 -0.159320 -0.343804 -0.358442 -0.234461 -0.056794 0.098533 -0.143938 -0.289095 -0.161387 -0.157374 -0.168935 -0.149673 -0.186979 0.178559 0.144982 -0.424732 -0.034908 0.110404 -0.143041 0.046120 0.056209 -0.128766 -0.024327 -0.284774 0.265831 -0.072189 0.015156 0.206933 0.133346 0.161360 0.188626 -0.247474 0.406669 0.282616 0.343744 0.115722 -0.236201 0.129148 0.190474 -0.215532 0.049655 0.264708 0.301854 0.123557 0.184049 -0.353304 -0.225920 -0.142060 0.042773 0.227703 0.488182 -0.042655 -0.342879 0.078197 0.123323 -0.183528 0.611267 0.119362 -0.345974 -0.047306 0.076066 0.793401 -0.105718 -0.114700 0.286412 -0.456765 0.023269 -0.288435 0.152700 0.035468 0.156395 -0.245924 -0.231062 -0.013330 -0.101256 -0.302307 0.046665 -0.021355 -0.284088 -0.243315 0.121591 0.116643 -0.067426 0.304519 0.414197 0.358065 -0.247799 0.158268 -0.310938 -0.028274 -0.375092 -0.496202 0.066914 0.018849 0.074419 0.037598 0.071571 0.275067 0.023358 -0.173186 0.442407 0.428288 -0.354972 -0.085974
ball -0.198348 0.201232 0.193473 -0.352231 0.082846 -0.267553 0.206341 -0.228550 0.191511 -0.376972 -0.153026 0.481744 -0.200909 -0.054130 -0.215839 -0.157503 -0.082955 -0.394592 -0.286623 -0.290347 0.275784 0.026212 -0.111404 0.570785 0.073891 -0.051289 -0.165358 -0.051165 -0.367135 -0.014743 0.173703 -0.223702 -0.218105 0.057150 -0.029147 0.188601 -0.271571 0.001600 0.126872 -0.197703 0.167233 0.163130 0.045200 0.035107 -0.050323 0.045646 0.223502 -0.055777 0.165864 -0.478756 0.001601 0.246852 0.137387 0.056427 0.173903 -0.160492 -0.063294 0.297934 0.039059 -0.126922 0.074513 -0.316379 -0.157790 -0.454990 -0.348870 0.334268 -0.125127 0.081901 -0.242083 -0.048541 0.026283 0.002289 0.509153 -0.185949 -0.089993 -0.142325 -0.371805 0.087302 0.219059 0.253011 0.379175 0.185917 0.296818 0.291074 -0.093047 -0.258444 0.098171 -0.055033 0.182067 0.154851 -0.453355 0.014459 -0.006090 -0.092619 -0.070400 -0.230504 -0.133856 0.236006 -0.218049 -0.200584 -0.097295 -0.145257 -0.106296 -0.557212 0.096821 0.055397 -0.559860 0.620965 0.486900 0.303966 0.163217 -0.052092 -0.072223 -0.062806 0.297444 -0.074317 -0.291944 0.217729 0.178824 -0.231024 0.521539 0.123907 -0.063801 -0.176698 0.199707 0.363543 -0.165188 -0.145567 -0.055138 0.337343 -0.079297 -0.273439 0.097599 -0.487608 -0.359160 -0.017106 0.107785 -0.024593 -0.327395 -0.321569 -0.240426 -0.115029 0.329438 0.013099 0.349239 -0.191356 0.209878 -0.577172 -0.403160 0.172033 -0.297382 -0.065105 -0.125842 -0.068320 0.095087 0.239356 0.127909 -0.324936 0.021991 -0.420586 -0.209070 0.185217 0.422818 0.008165 -0.158010 -0.013182 -0.157051 0.261396 -0.171161 -0.256937 -0.229640 0.269567 -0.554266 0.311002 -0.135898 -0.535944 -0.344367 -0.139736 -0.213786 -0.209308 -0.205331 -0.037379 -0.183606 0.289449 -0.145412 0.001949 -0.153080 0.054362 -0.028059 -0.242310 -0.027826 -0.206976 -0.056155 0.524389 -0.270973 0.212396 -0.115197 -0.173749 -0.006861 -0.121430 -0.294695 -0.363411 0.013494 0.242011 -0.203237 -0.226099 0.449078 -0.052076 0.088493 0.011498 0.120289 -0.073907 -0.108311 -0.100168 -0.020490 0.070512 0.254446 0.170453 0.307398 0.289297 -0.006198 0.283393 0.013476 0.060391 0.166130 -0.277070 0.537998 -0.033593 -0.243398 0.384811 -0.084400 -0.063411 0.099717 0.005064 -0.412703 0.128658 0.046978 -0.263921 -0.033753 -0.050116 -0.060333 0.154591 -0.265316 0.085701 0.250392 0.161051 0.123692 0.317631 0.425584 -0.439025 0.287995 0.139462 0.156819 -0.430530 0.107687 -0.434413 0.089535 0.322851 0.498825 -0.264115 -0.113934 -0.136743 0.085524 -0.148015 -0.073113 -0.280251 0.130107 0.221959 0.057959 -0.128043 -0.025382 0.252684 -0.124148 0.423348 -0.112590 -0.151615 -0.549101 -0.051906 0.397264 -0.128252 -0.184892 0.089351 -0.283838 0.197355 -0.104989 0.515897 0.181616 0.228872 0.106074 -0.008012 0.285045 -0.327560 0.243950 -0.393656 0.307983 -0.476034 0.101185 -0.064749 0.422589 -0.255956
winter -0.108056 0.215991 0.066484 0.113260 -0.119449 0.036168 -0.142546 -0.000456 -0.008158 -0.364677 0.168961 0.001471 -0.276007 0.121077 -0.051501 -0.052915 0.386006 -0.043161 -0.073206 -0.265946 0.123274 -0.069389 -0.040378 0.048225 -0.040728 -0.165083 0.070227 0.209223 0.046539 -0.080835 0.340480 0.204138 -0.077067 0.162270 0.254533 0.209216 -0.162672 -0.188834 -0.039231 0.047964 0.044266 -0.050144 -0.008021 0.174364 -0.010499 0.087814 0.022021 -0.435070 -0.158128 -0.094211 -0.164181 0.212802 -0.022834 -0.115452 -0.043418 0.262429 -0.237814 0.163982 0.130600 -0.159872 -0.378833 0.139433 0.271196 -0.085872 -0.705083 -0.284675 0.014869 0.115559 0.409135 0.078819 0.484014 -0.194782 0.362083 -0.059842 0.045674 0.477453 0.246364 0.274523 -0.086491 -0.065501 -0.064459 0.058523 0.426226 0.107200 0.030802 -0.274643 -0.394818 -0.298557 0.305499 -0.169985 0.079794 0.021087 -0.157707 0.114498 -0.019772 -0.476749 0.020005 0.067138 0.360677 0.132055 0.087297 -0.428867 -0.143644 0.439761 -0.048830 0.274622 0.015275 0.111048 0.205706 -0.108792 -0.082987 -0.352554 -0.180349 0.204257 0.185559 -0.120126 0.163896 0.381741 0.209506 -0.097993 0.328560 -0.238147 -0.313404 -0.259294 0.087038 -0.268665 -0.200996 -0.330611 -0.035158 0.490557 0.057790 0.273932 -0.020760 0.020522 -0.148809 -0.036566 -0.420613 0.094614 -0.256965 0.209587 -0.209518 0.180715 0.064656 -0.080043 0.189204 -0.048527 0.053819 -0.223814 -0.116168 -0.277954 0.095690 -0.232773 0.567443 0.031249 -0.104987 -0.142228 -0.130259 -0.365187 0.213785 0.176321 -0.030861 0.254637 0.361931 -0.367441 -0.013026 0.078932 -0.032041 -0.012103 -0.050563 -0.055694 -0.536838 0.022121 -0.050144 -0.007476 0.229174 -0.016614 -0.182607 0.192567 -0.246099 0.160015 -0.660741 -0.203194 0.014197 0.126306 -0.409750 -0.370484 0.270347 0.304498 0.242201 0.099317 0.223487 -0.057908 -0.085719 -0.044906 -0.231315 -0.060596 0.017005 -0.216891 -0.364522 -0.133617 -0.056459 -0.174103 0.185209 0.382030 -0.366668 -0.064895 -0.047292 -0.350274 0.324654 -0.438158 0.120152 0.037084 -0.318385 -0.066508 -0.477984 -0.023467 0.002658 0.403659 -0.091048 0.361464 0.051416 0.212010 -0.398637 0.139017 -0.433815 0.185738 0.179191 0.209276 0.038695 0.036154 0.123769 -0.265027 -0.240831 0.049526 -0.228285 0.285295 0.229870 0.160080 -0.064989 -0.304494 0.349957 0.083485 0.385718 -0.083028 0.103103 0.092805 0.584006 -0.070642 0.286775 -0.129309 -0.176310 -0.307277 0.410354 0.179424 -0.126118 -0.251098 0.240942 -0.025613 0.108177 0.045999 0.250584 -0.272085 0.343060 -0.318605 0.152048 0.267462 0.185485 0.493564 0.019167 0.178231 0.278275 0.298699 0.075723 0.033698 0.125314 -0.287347 -0.220030 -0.165533 0.060142 -0.441355 -0.104956 0.544034 0.021772 -0.072229 0.221684 0.111995 -0.192818 0.093678 0.030371 -0.230839 -0.059959 -0.027722 0.150369 0.357371 -0.290742 -0.186191 0.033324 -0.020901 0.085367 -0.174449
Sun 0.248522 0.117860 -0.719128 0.444229 -0.034272 -0.028727 0.117182 0.162481 0.278480 -0.210756 -0.206081 0.127169 -0.406759 0.288087 -0.062617 -0.275694 0.256007 -0.183342 0.061332 -0.119954 -0.303158 0.097050 0.179052 -0.087437 -0.493949 -0.154604 -0.050901 0.263197 -0.145537 0.057753 0.184770 0.041507 0.026955 -0.058030 0.380486 -0.568629 -0.059214 0.382018 0.005708 -0.218433 0.101205 -0.024073 0.042688 0.399982 0.040741 -0.237901 -0.070947 0.216212 -0.179805 -0.105623 0.262489 0.150929 0.172288 -0.175463 0.249427 -0.279489 0.132371 0.098838 -0.491265 -0.173390 -0.423850 0.037414 -0.141100 -0.016330 -0.315236 0.184918 -0.676944 -0.266877 -0.025698 0.070080 0.247755 0.104119 0.121103 0.149373 0.069621 0.170761 0.105322 0.423040 0.010537 0.001706 -0.284299 0.787096 0.074314 -0.225650 0.338526 0.017671 -0.182824 -0.637172 0.260215 -0.126727 -0.099444 -0.036675 -0.147156 -0.132962 0.001171 -0.485620 0.304599 0.088801 0.167416 -0.049013 -0.244080 -0.071817 0.079380 0.092245 -0.119659 0.364856 0.071409 -0.054489 0.428555 0.117549 -0.008685 -0.113330 -0.230800 0.517305 0.186548 -0.027470 -0.159539 -0.070196 0.038775 -0.022204 -0.217345 -0.390576 0.096760 -0.263013 0.039962 0.157818 0.082165 -0.780611 0.283009 -0.050997 -0.094583 -0.258794 0.384676 -0.028857 0.236913 -0.183367 -0.064449 -0.098575 -0.156679 0.017151 -0.050075 -0.227910 -0.358692 -0.396762 -0.043259 0.169507 0.250032 0.043618 -0.139149 0.301534 -0.134654 0.059973 -0.030177 0.297120 0.387179 0.097360 0.388682 0.081762 0.171088 0.087628 -0.076731 0.096606 0.222229 0.161987 -0.179965 -0.100878 -0.194976 -0.185113 0.170405 -0.070775 0.054703 -0.337408 -0.047673 0.059304 -0.307440 0.589015 0.164344 -0.187231 0.192840 -0.087492 -0.210014 -0.238267 0.074788 -0.170822 -0.168905 0.023081 -0.088267 -0.070200 -0.105109 0.343187 0.409018 -0.288794 0.133888 0.337434 0.135465 0.286237 0.397597 0.096317 -0.058140 -0.102228 -0.226783 -0.360100 0.111020 -0.339124 -0.169475 0.010250 0.573917 -0.036453 0.105050 0.304700 0.422968 0.139583 -0.294314 0.148193 0.115019 0.074981 -0.230090 0.154648 0.437694 0.183676 0.214492 0.203077 -0.187242 -0.034457 -0.267828 -0.092711 0.531536 -0.132089 -0.076930 -0.115730 0.058110 -0.413446 -0.212437 0.265906 -0.181039 0.204237 0.373917 0.231673 -0.282357 0.176489 -0.110321 0.292229 0.144261 0.561350 0.352773 -0.037055 0.209305 -0.138141 -0.042010 -0.406906 0.063432 -0.391913 0.220007 0.160330 -0.338508 0.161216 0.175811 0.144588 0.003824 -0.166614 -0.156509 -0.217181 -0.058893 -0.192504 0.042787 -0.017244 -0.168911 0.135580 -0.072416 0.206645 -0.174920 0.086965 -0.070135 0.081666 0.029458 -0.019603 -0.307674 -0.114826 0.130560 0.098420 -0.162472 0.301171 -0.207788 0.064709 0.032138 0.251670 0.236969 0.013577 0.073019 -0.039800 -0.158974 -0.107416 0.095553 -0.226572 0.496064 0.081336 -0.110044 0.280733 0.052655 0.188132
