Mercury 0.139469 -0.013876 0.050838 0.308995 -0.010303 0.151361 0.055773 -0.208033 -0.482068 -0.227988 0.223640 0.046600 0.420670 0.106116 -0.132384 0.064857 -0.056942 -0.055627 -0.336512 -0.234841 -0.376520 0.368175 0.341013 0.012891 0.282405 -0.243299 0.073649 0.132732 0.097283 0.249875 -0.342090 -0.136715 0.042693 -0.003217 -0.286131 -0.084027 -0.216407 -0.555860 0.216712 0.265430 -0.294427 -0.093164 0.139271 0.234956 0.015062 0.070199 -0.146096 0.050549 -0.481435 -0.009198 0.035310 0.144683 0.518697 -0.114403 -0.140348 -0.154998 0.053835 0.167901 -0.171878 -0.340448 -0.399826 0.193684 0.019061 -0.320036 0.100991 0.317515 0.103702 -0.123019 -0.156644 -0.251461 -0.250802 0.049884 0.225926 -0.179268 0.004859 0.217654 0.251141 0.142479 -0.068577 -0.050190 -0.069688 -0.101245 -0.027509 -0.322706 -0.099433 -0.566921 -0.112705 0.142907 0.124478 0.554047 0.161876 0.204262 0.458555 0.129169 0.186027 -0.041845 0.417271 -0.211774 -0.000309 0.402747 0.454240 0.293738 0.133769 -0.288012 -0.139789 -0.222015 -0.029278 -0.155578 0.178412 0.205702 0.207181 -0.507161 -0.139981 -0.291563 -0.142198 -0.067845 0.042722 -0.083202 -0.121238 -0.287943 -0.055381 0.098894 -0.316715 -0.193993 0.161561 -0.182255 -0.060047 -0.216772 0.049402 0.147291 -0.001171 0.012842 -0.333410 0.297034 0.088119 0.099804 0.234886 0.063291 -0.182581 0.116084 0.310088 -0.186710 0.280711 0.074721 -0.053346 0.014624 -0.637907 0.055445 0.205051 -0.392390 -0.081603 0.008480 0.288707 0.224106 -0.228715 0.172819 -0.186623 -0.274294 -0.181978 -0.386180 0.021077 0.264456 0.198170 0.100715 -0.209566 0.166397 0.065932 -0.331383 -0.360451 0.324085 -0.213693 0.033360 -0.127550 0.137753 -0.490351 0.133849 0.061813 -0.343912 -0.234397 -0.078421 -0.549257 -0.252397 0.323278 0.057790 -0.310039 -0.162434 0.452316 -0.082541 -0.197203 -0.363815 -0.005114 0.216842 0.308510 -0.279234 -0.286366 -0.465374 0.402251 0.292477 0.071549 0.039485 -0.135539 0.204861 -0.393998 -0.122709 -0.002500 0.133616 0.073507 -0.211654 0.089156 0.077600 -0.056787 -0.207985 -0.447767 0.297524 -0.202717 0.421023 0.282200 0.403671 0.521529 0.132735 -0.160424 0.296078 0.261686 0.101938 0.030695 0.223429 -0.395081 0.143589 -0.132882 0.426624 -0.418031 -0.001863 0.133844 0.135910 -0.030633 -0.016742 -0.149419 -0.456977 0.197102 -0.003330 -0.194075 0.145258 -0.179635 0.032526 0.080356 -0.366510 -0.044078 -0.112332 0.125964 -0.039551 0.110807 -0.287271 0.381116 0.175039 -0.024695 0.394666 0.169215 0.056112 0.032809 0.000364 0.165682 -0.045413 0.012213 -0.392290 0.124839 0.084823 -0.125371 -0.025581 0.198901 0.106649 -0.022626 -0.460395 0.352768 -0.180702 -0.062897 -0.592600 -0.009720 -0.195575 -0.015175 0.113444 -0.500464 -0.321735 -0.013816 -0.269582 0.246426 0.153799 -0.136139 -0.090969 0.113449 0.453045 -0.102224 -0.315727 0.207984 0.237641 0.002687 0.269127 -0.074161 0.137538 -0.348019 0.135659
Bundesliga -0.094640 0.194830 0.035034 0.210239 0.075879 0.471844 0.042374 -0.198821 -0.016619 0.178403 -0.082968 0.036031 0.398318 -0.100594 0.067005 -0.170043 -0.406417 0.150970 -0.129984 -0.007975 0.130766 -0.217547 -0.341244 0.278868 0.459957 0.262633 -0.348376 -0.271282 -0.293310 0.390352 0.393590 -0.134651 -0.209228 -0.224046 -0.299875 -0.139735 0.093353 0.276639 0.102048 0.128302 0.449630 0.035864 -0.118174 -0.325201 -0.143734 -0.190342 -0.030133 0.419128 0.076116 0.039477 0.206338 -0.376823 0.064888 0.162787 -0.009279 0.119532 0.025784 -0.118720 -0.177937 -0.125853 -0.183172 0.058205 -0.104547 -0.188557 -0.000429 0.190092 -0.225376 0.037006 0.169251 -0.297718 -0.423871 -0.306104 -0.090909 0.005520 0.102860 -0.065156 0.025040 -0.022123 -0.016149 0.055611 -0.303861 0.111048 0.560246 -0.068883 -0.022167 -0.237043 0.283071 0.133615 0.195874 0.262258 -0.534682 -0.034943 0.240219 -0.022777 0.110601 0.058345 -0.160211 0.536607 -0.390391 0.162203 -0.150997 -0.120482 0.264423 -0.385180 -0.081830 0.149986 -0.157819 -0.010685 0.029362 0.070786 -0.237602 -0.313334 0.131898 0.052697 0.007455 0.303471 -0.089220 -0.255455 0.402682 -0.134173 -0.244689 0.203599 0.040467 0.290373 0.209457 -0.283206 0.400441 0.050290 0.431027 0.826276 -0.017755 0.018359 0.223257 0.361137 -0.003552 0.228859 0.136526 -0.167004 -0.139309 -0.074261 -0.101580 -0.169105 0.247335 0.082986 0.139323 0.318561 -0.080331 -0.263929 0.448776 -0.437127 -0.215097 -0.121055 0.183089 0.349895 -0.618829 -0.030605 -0.121057 -0.101823 -0.188597 -0.494316 0.486921 -0.201248 0.172982 0.148514 0.012370 -0.053887 0.143470 -0.384456 0.071223 0.000588 0.398211 0.180963 -0.254013 0.117008 -0.557117 0.144607 -0.454700 -0.120331 -0.128190 0.113276 0.216203 -0.509569 0.282842 -0.027145 0.171404 0.380964 0.035279 0.209048 -0.104013 0.252055 -0.142533 0.509167 0.098288 -0.370829 -0.268928 0.213342 0.032312 -0.089695 -0.169949 0.130640 -0.169840 0.160717 -0.010675 -0.340609 0.148109 -0.072729 0.068636 -0.085868 0.312050 0.396503 -0.374241 -0.105549 -0.569765 0.018252 -0.198428 0.149726 0.441789 0.217702 -0.026804 0.699659 -0.305228 -0.412527 -0.074560 0.321103 0.223447 0.514632 -0.181885 -0.031646 -0.246761 0.690812 0.092747 -0.079921 -0.112075 0.131798 0.316817 0.472881 0.705033 0.411267 0.086979 -0.158188 -0.094250 -0.019607 -0.437645 0.169610 0.184042 0.098923 -0.327621 -0.077729 -0.048718 -0.160917 -0.217987 0.103369 0.119772 -0.200389 0.470212 0.166808 0.128156 0.322767 -0.255410 0.001908 -0.070792 0.114686 -0.698139 0.230644 0.121570 -0.049195 0.102563 0.035728 0.490289 0.440147 -0.385303 0.145726 -0.134653 0.205665 0.100924 0.170319 0.328905 -0.056035 -0.133324 0.370407 0.236286 -0.098225 0.132289 -0.244887 -0.153237 0.162838 0.801072 -0.075887 0.190487 -0.047361 0.363815 0.206983 -0.340197 0.138655 0.720083 0.202486 0.085681 0.260539 -0.021384 -0.024712
Porsche 0.377733 0.001399 0.047153 0.255006 -0.094207 0.331607 -0.178113 0.104324 -0.280201 0.110098 0.156996 0.004553 0.178935 0.026253 -0.081012 0.161015 -0.187456 0.203966 0.310328 -0.323478 0.346524 0.104184 0.049228 0.106082 0.310654 0.394325 -0.299283 0.038833 0.204067 -0.209271 -0.144777 0.090012 0.104766 -0.072684 -0.196294 -0.263753 -0.007684 -0.036372 0.126357 0.144779 -0.071663 0.060552 -0.310434 0.061272 -0.102994 -0.093677 0.339267 -0.099307 0.059327 -0.275398 -0.135336 -0.177351 -0.175162 -0.381054 0.170837 0.085970 -0.395629 -0.079318 -0.007272 -0.152692 -0.417940 0.206700 0.315624 0.026426 -0.162605 -0.067924 -0.607789 0.041775 0.244675 0.133103 -0.370183 -0.189489 0.094234 0.009247 0.231494 -0.201912 0.245733 -0.019826 -0.455188 0.288991 -0.216035 0.401441 0.059330 0.025787 -0.413344 -0.545722 0.082485 -0.617030 0.310451 -0.117056 -0.167235 -0.274571 0.166050 -0.021924 0.231840 0.427060 0.088008 0.013146 -0.271223 0.316307 0.473547 0.010119 -0.050265 -0.201122 -0.002067 0.208421 -0.399789 0.020309 0.417332 -0.138798 0.042147 -0.411702 0.117417 -0.253930 0.037742 0.419825 0.160574 0.192734 0.529908 -0.089459 -0.116872 0.080001 0.309931 -0.113736 -0.033893 -0.594015 -0.094422 -0.172749 0.046834 0.194723 0.148502 0.194962 0.314032 0.105852 -0.093470 -0.180496 -0.052570 0.175933 0.109374 0.101500 -0.102811 -0.553880 0.104923 0.201959 0.390255 0.103887 -0.090050 -0.387266 0.165282 -0.073522 -0.154370 0.049619 0.017495 0.304739 -0.289501 -0.121836 0.341990 0.339306 -0.139789 -0.288797 0.034776 -0.400307 -0.020177 0.122835 0.077925 -0.056072 0.392775 0.095140 0.169548 -0.280326 0.308032 0.259805 -0.118631 -0.057808 -0.425534 0.499717 -0.188501 0.073598 0.077173 -0.378574 -0.216211 -0.095580 -0.130582 -0.207229 0.152218 -0.137172 0.023339 0.235720 0.004209 -0.114060 -0.157684 0.299546 -0.139761 -0.240579 0.080153 -0.084203 -0.140984 -0.254786 -0.297337 0.094995 0.001583 0.335829 -0.130185 -0.140754 -0.024903 0.107931 -0.249914 -0.157281 0.031659 0.035934 -0.006748 -0.173911 -0.582023 0.516627 0.064394 -0.018768 0.099138 0.462998 -0.132480 0.009042 -0.536385 0.524666 -0.038004 0.327112 0.289563 0.211016 0.186073 -0.087528 -0.190803 0.291853 -0.275500 0.103191 -0.010729 -0.354542 0.445911 0.187723 0.149587 0.203741 0.225323 -0.064575 0.137751 0.130053 0.010857 0.711410 0.193968 -0.034338 0.038045 -0.366942 -0.243481 0.328788 -0.123114 0.000496 -0.050957 -0.216258 -0.127055 0.461835 -0.053605 0.209571 -0.212949 -0.190890 0.091812 0.296513 -0.030912 -0.271751 -0.678595 -0.157542 0.023912 -0.345494 0.170374 0.210721 -0.206080 -0.536697 0.096382 0.108318 -0.093327 0.207421 0.187657 -0.234229 0.274827 0.484713 -0.148930 -0.102186 -0.018968 0.104601 0.153243 0.110860 0.514651 -0.237530 0.141883 0.313996 0.123314 0.173927 -0.133565 0.123348 0.309906 0.097611 -0.011250 -0.114936 -0.229939 0.005759
Moon 0.097248 -0.112282 0.071757 0.072015 0.393780 0.281694 -0.039180 0.088074 -0.138109 -0.056123 0.343260 0.224600 0.058769 0.160033 -0.443634 0.032955 -0.128643 0.025177 -0.377997 -0.169957 -0.089366 0.391706 -0.016055 -0.088395 0.003604 -0.388161 0.392451 0.388356 0.113883 0.038062 -0.091367 -0.108332 0.194349 -0.110699 -0.182352 -0.138533 -0.101603 -0.319982 0.210433 -0.088859 -0.047242 -0.189560 -0.137750 0.016310 -0.131565 -0.287917 -0.064298 -0.052159 0.148030 0.249246 -0.279135 -0.113197 0.361135 0.170351 -0.153307 -0.283474 -0.150480 0.119668 -0.393295 -0.295397 -0.383357 0.185540 0.135397 -0.111245 0.370463 0.196987 0.029396 0.089874 -0.176786 0.025192 -0.230232 -0.163704 0.131832 0.348282 -0.037825 0.512917 0.227429 0.273290 -0.388697 0.136606 0.071823 -0.337939 0.079231 0.085236 -0.230061 -0.196564 0.009479 0.268627 0.171002 0.225440 -0.052324 0.157637 0.182713 -0.142614 0.196175 0.027647 -0.063596 0.280847 -0.298920 0.148594 0.312317 0.067255 0.113122 -0.040292 -0.285200 0.032150 -0.278669 -0.119049 0.047608 -0.023376 0.221274 -0.428364 -0.263286 -0.061337 0.107343 -0.175548 0.011639 -0.132628 0.227326 0.302376 0.306598 0.110036 0.282663 -0.007777 0.163176 -0.071240 -0.203757 -0.044697 0.093900 0.177523 0.035346 -0.244817 -0.010534 0.352702 0.165860 -0.033653 0.179125 -0.108384 -0.081326 -0.181695 0.327752 -0.033032 0.138542 -0.249902 0.392334 0.146076 -0.417401 0.072414 0.054712 -0.261510 0.115966 0.192143 0.099927 0.035390 -0.316403 0.131692 -0.215359 -0.298700 -0.443300 -0.029252 0.298786 0.168985 -0.019309 -0.071314 0.277835 0.249514 0.295705 -0.344279 -0.417343 0.172176 -0.232650 0.471796 -0.211569 0.158655 -0.312772 0.124726 0.305697 0.056457 -0.067248 -0.095267 -0.307310 0.044528 0.121083 -0.315106 0.085127 -0.272858 0.345467 0.037681 -0.310347 -0.137589 -0.029216 0.313383 0.116659 -0.084209 -0.137281 -0.091092 0.188279 -0.135074 -0.108650 -0.025190 -0.023005 0.314783 -0.386200 -0.228663 -0.067782 0.638810 0.004429 -0.330991 0.318729 -0.012874 -0.133038 -0.216942 -0.218016 0.165185 -0.031955 0.271195 0.031827 0.521942 0.449830 0.068186 -0.140926 0.403457 0.112553 0.019946 0.036851 0.062506 -0.724022 0.253128 -0.231150 0.462030 -0.473176 -0.176170 0.463844 0.261681 0.143306 -0.345855 0.171228 -0.215051 0.099443 0.198924 0.043373 0.160219 -0.122971 0.039342 0.165575 -0.378808 -0.111200 0.030521 0.213332 0.107273 -0.042852 -0.153523 0.160648 0.265718 -0.042411 0.288527 0.546472 -0.027770 0.380701 0.204062 -0.078235 -0.062011 -0.013006 -0.013284 -0.190457 -0.037404 -0.318330 0.361369 0.406758 0.021982 -0.237899 -0.134335 0.090795 -0.158463 -0.082188 -0.775394 -0.052346 -0.011469 0.117836 0.058231 -0.328855 0.147175 -0.352553 -0.204670 0.051437 0.302035 -0.223147 -0.303912 0.402599 0.147517 0.006807 -0.306685 0.298629 0.057949 0.116270 0.188666 -0.079289 0.475153 -0.191400 -0.180208
Capri 0.122260 0.158333 0.236799 -0.059439 0.157893 0.238073 0.012753 -0.282872 -0.488160 0.035869 -0.050860 0.089063 0.293616 0.650453 -0.214595 0.042876 0.045341 0.257770 -0.110317 0.250397 -0.348524 0.312318 0.315005 0.332363 0.241607 -0.111700 -0.007804 -0.049570 -0.014993 -0.032581 0.094345 0.136574 -0.070800 -0.128882 -0.211755 -0.140072 -0.032490 0.361624 -0.163988 -0.036632 0.133157 0.232816 -0.275324 0.022499 0.117515 -0.120481 -0.192415 0.539821 0.030724 0.166534 0.001677 0.001203 0.063109 -0.217904 -0.235530 0.167293 -0.134783 -0.170734 0.146495 -0.138024 -0.135527 -0.026567 -0.122355 -0.132549 -0.196383 -0.051601 -0.343935 -0.027986 -0.155173 -0.534491 -0.683737 -0.176663 -0.165942 0.016359 -0.226217 0.293352 0.416237 0.088304 -0.399221 0.508607 0.108939 0.034466 -0.117104 0.422356 -0.138303 -0.112596 0.069659 0.015329 0.399851 0.160080 0.473908 0.334786 0.095014 -0.061222 0.120820 -0.114552 0.152405 0.129732 -0.418395 0.063293 0.524610 0.162275 -0.167465 -0.396500 -0.356777 -0.555333 -0.094087 -0.088010 0.085824 0.537120 -0.042546 -0.279982 0.137822 -0.025563 0.060918 0.520864 -0.036065 0.198797 0.198918 -0.018236 -0.390196 -0.056983 0.103924 0.004090 -0.088597 -0.033273 0.073396 -0.197570 -0.033197 0.413267 0.131752 -0.409001 -0.027927 -0.108622 -0.049391 -0.122511 -0.100455 0.011853 0.119144 -0.000277 0.081784 -0.485280 0.332798 -0.061322 0.044631 0.214635 -0.087935 -0.317744 0.235818 -0.166726 0.097843 -0.009535 0.151755 0.030720 0.126629 -0.289536 0.125324 -0.151893 -0.167911 -0.398896 0.448868 0.122342 0.051493 0.029595 0.249675 -0.120819 0.241914 -0.107247 -0.060097 -0.041271 0.107689 0.227966 -0.355109 0.233395 -0.400400 0.682279 0.142977 0.312097 -0.221910 0.013202 -0.081936 -0.012077 -0.350001 0.123478 0.337733 0.140273 0.135342 -0.038641 0.130503 0.004232 -0.137227 0.214275 -0.372350 -0.292677 -0.353869 0.347554 0.485608 -0.109691 -0.911560 -0.203111 -0.425923 0.338335 0.203841 -0.265213 0.075277 -0.106119 0.002300 -0.323897 0.287988 0.233028 -0.079854 -0.065050 -0.424450 0.009945 -0.011727 0.337342 0.156835 0.100125 0.121908 0.505209 -0.302882 0.581525 -0.078747 0.296361 -0.090498 -0.235527 -0.508831 -0.187284 -0.082854 0.462205 -0.207158 0.331370 0.098017 -0.496330 0.196736 0.102869 0.494589 -0.091562 -0.060465 0.046077 -0.035833 -0.014908 -0.033371 0.115139 0.346492 -0.273460 0.161614 -0.189322 0.096578 -0.071263 -0.209742 -0.316328 0.059998 -0.371833 0.077972 0.170444 -0.110640 0.025326 -0.109112 -0.163962 0.204217 0.154119 0.191848 -0.230850 0.221168 -0.422175 -0.072786 0.060577 0.273791 0.376671 -0.190282 -0.226779 0.042909 0.111098 -0.102731 -0.161282 -0.122592 -0.209222 -0.224088 0.312817 -0.332667 0.125577 0.310461 -0.084134 -0.082510 -0.103128 0.075317 0.095789 -0.389829 0.414184 0.061050 0.113927 0.008664 0.269564 0.222529 0.262608 -0.185487 -0.072117 -0.429240 -0.046260
paper 0.078947 0.157326 0.164880 -0.047325 -0.068132 -0.040621 0.046254 0.143051 -0.338539 -0.045597 0.235184 -0.136614 -0.189472 0.257086 -0.092360 -0.332763 -0.100848 0.123039 -0.455831 0.399717 0.323441 0.140373 0.020034 0.141948 -0.025426 0.054038 -0.249452 0.180154 -0.034116 -0.006311 0.015429 0.078921 0.144544 0.037350 -0.278042 -0.254615 -0.027164 -0.019296 0.308358 -0.146019 0.016927 -0.095308 -0.294274 -0.221080 0.050370 0.105391 0.067839 0.074790 -0.120841 -0.183763 -0.013073 0.173597 -0.348157 -0.193559 -0.036395 0.331918 -0.075567 0.151871 -0.302781 0.056137 -0.136305 -0.066624 -0.112290 -0.309465 0.150878 0.163898 -0.274076 0.098865 -0.056102 0.225477 -0.101243 -0.122820 0.397903 0.043594 -0.348275 0.244749 0.033650 0.103638 0.305015 0.004970 0.143798 0.079925 -0.085211 -0.153126 0.070447 -0.077014 -0.104194 -0.030978 0.139052 -0.096040 0.006484 -0.230508 0.125964 0.053605 0.172623 -0.051183 0.008175 0.139111 0.184608 -0.159493 0.126511 0.098257 0.034776 0.424773 -0.341189 -0.166314 0.040072 -0.196799 -0.041015 0.115209 0.078507 0.200061 0.318128 -0.283129 -0.158030 -0.210897 -0.290296 0.234834 0.010108 -0.321295 -0.207502 0.066241 -0.173713 -0.427538 -0.184946 -0.089408 -0.015919 -0.116872 0.722013 0.076751 0.276021 -0.149788 -0.031132 -0.075894 0.037905 0.158007 -0.164018 -0.195173 0.031236 -0.140743 -0.108766 -0.040049 -0.002582 -0.024563 0.358963 -0.036936 0.013026 -0.196659 -0.236268 0.103049 0.246114 -0.059520 -0.104517 0.020455 0.010064 -0.382181 0.088968 -0.301390 -0.274821 -0.011493 -0.052612 -0.050077 -0.085429 0.247490 -0.014080 -0.124157 0.035241 -0.419272 -0.047304 -0.164278 0.097794 -0.140585 0.472318 -0.259777 0.025052 0.263940 -0.156789 0.196468 -0.058006 0.063149 -0.116347 -0.109874 0.237112 -0.060560 0.103932 -0.086629 -0.044869 0.184644 -0.166847 0.344075 -0.115445 0.091207 -0.326240 0.032880 -0.078542 -0.268423 0.035091 -0.212004 -0.200425 -0.258551 0.469028 0.185731 -0.026612 -0.295275 -0.281215 -0.008251 0.001879 -0.211508 0.134583 0.185928 -0.264455 0.070896 -0.074251 0.157270 -0.438365 0.276058 -0.301221 0.191396 -0.136289 0.128055 -0.008078 0.113802 -0.131005 -0.302550 -0.109047 -0.415651 -0.149294 0.170825 -0.030083 0.172928 -0.118499 0.159531 -0.279966 -0.185993 -0.211988 0.134049 -0.266176 0.041971 -0.030651 -0.036526 0.373729 0.141595 -0.153799 0.337876 0.048930 -0.158380 0.046189 0.141413 -0.121189 -0.339064 0.182944 0.249705 0.085266 0.137226 -0.427025 -0.096668 0.248485 0.155423 -0.131384 -0.262605 0.124072 -0.176461 0.394480 -0.351659 -0.080237 0.026683 -0.058249 0.093146 -0.012089 -0.034407 0.083401 -0.221513 -0.007514 0.049010 0.145025 -0.200074 0.034488 -0.039636 -0.093257 -0.065312 -0.148040 -0.122486 0.192477 -0.209782 -0.301950 0.092317 0.201603 0.119231 0.257831 -0.111496 -0.154145 0.036083 0.029299 -0.076695 -0.063697 0.018907 -0.037251 -0.057295 -0.131549 -0.132354
chair 0.194183 0.136765 0.309200 -0.007922 -0.314822 0.214227 -0.186862 -0.256901 -0.223493 0.336142 0.241818 -0.092656 0.054339 -0.034280 0.160887 -0.421348 -0.147836 0.207662 0.067040 -0.164199 0.225390 -0.393796 0.144212 -0.348342 0.399781 0.310680 -0.002289 0.210127 0.192311 0.081091 -0.168738 0.499275 0.354586 -0.030071 -0.333172 -0.376463 -0.052176 0.032070 -0.036455 -0.048008 0.087444 -0.282336 -0.323451 -0.348478 -0.179263 0.096328 0.152262 0.055239 0.329664 0.181650 0.165656 0.132239 -0.398478 -0.032429 0.054080 0.009064 0.193403 0.041229 -0.181077 -0.302954 -0.195865 0.101902 -0.253116 -0.343876 0.176628 -0.043407 -0.260291 0.052562 0.045129 0.082323 0.134270 -0.078160 0.595414 -0.232519 0.182287 0.285699 0.106154 0.177040 -0.069259 0.033105 -0.273230 0.616553 -0.032104 0.300830 -0.329665 -0.184885 0.019098 0.098626 0.168409 -0.038159 -0.047425 -0.360583 0.115476 -0.084717 0.486798 -0.134232 -0.279236 0.285324 -0.207824 -0.237060 0.221867 -0.155199 -0.118295 -0.109893 0.116948 0.112610 0.138526 0.171568 0.054154 0.245406 0.310888 0.174699 0.279065 -0.006808 -0.039794 -0.101755 -0.323623 0.235604 -0.175896 0.317421 0.572557 0.085533 -0.194375 0.120354 0.441410 -0.111986 0.017497 0.079764 0.375230 -0.079089 -0.007008 -0.258392 -0.219548 0.205014 0.201169 0.254526 0.058563 0.050673 -0.134179 -0.435780 -0.344224 -0.311247 0.037570 0.163078 0.334612 -0.370503 0.187174 -0.109374 -0.130271 -0.242282 0.246912 -0.124650 0.145014 -0.098384 0.161115 -0.424812 -0.289969 -0.183040 -0.074124 -0.027669 0.058662 -0.080435 -0.016216 0.403999 -0.009178 0.160075 0.037039 0.000969 -0.126749 -0.412974 -0.273398 0.012911 -0.196216 0.224502 -0.107194 0.271080 0.042995 -0.228539 -0.235254 0.007192 -0.311703 0.076973 0.309151 -0.031148 -0.423957 0.359248 0.117212 -0.389571 -0.041717 -0.139727 0.093154 0.308565 -0.225683 -0.350741 -0.145757 0.375006 0.078915 -0.036166 -0.271619 -0.147429 0.135549 0.208801 -0.240430 -0.056148 -0.421755 -0.158015 0.352012 0.021792 0.125866 -0.190680 0.062288 0.107610 -0.143137 -0.190531 0.224004 0.008185 -0.252046 0.130774 -0.101699 0.522701 -0.148457 0.412592 0.011528 0.065544 0.523046 -0.369848 -0.131048 0.341154 0.032189 -0.158829 0.086989 0.207129 -0.194927 -0.335670 -0.052219 -0.259088 -0.220756 -0.121285 -0.455751 0.225388 0.284788 0.233126 -0.172324 -0.105887 0.393496 -0.190768 -0.133309 0.266574 -0.167057 -0.234689 0.130142 0.074567 -0.211557 -0.182824 -0.213056 -0.213120 0.114627 -0.008994 -0.086870 0.009963 0.599753 0.159777 -0.100765 0.001542 -0.113296 -0.415102 -0.113948 0.233122 0.084746 0.297386 -0.186240 -0.144093 0.211730 -0.097339 0.066506 -0.074702 -0.307683 -0.219555 -0.532727 0.137660 -0.195483 -0.051700 -0.195023 -0.120503 0.303444 0.216230 0.190995 -0.021215 -0.338884 0.234975 -0.059900 0.460522 0.060952 0.334242 0.009108 -0.082620 0.110835 -0.235209 0.064352 0.026380
Bolivia -0.370226 -0.085484 -0.053660 0.199868 -0.069340 -0.256977 0.050303 0.141247 -0.195353 0.274288 -0.032942 0.082033 0.294896 -0.260029 -0.018452 0.177272 0.068965 0.399435 0.005621 0.081744 -0.068679 -0.501581 -0.008751 0.176220 0.177719 0.461589 -0.142090 0.064311 0.331252 0.034259 0.092766 0.299585 -0.111058 0.101321 -0.270192 0.213068 -0.039913 -0.027754 -0.018693 -0.211633 0.071805 0.024778 0.104155 -0.584384 -0.374980 0.199310 0.172290 0.069341 -0.158846 -0.175397 0.091443 0.258341 0.218792 -0.058917 0.278368 0.101029 -0.452691 -0.073441 0.124981 -0.049312 0.069142 -0.224429 0.058178 -0.154545 0.430043 -0.364281 -0.213827 0.433597 0.073656 0.106996 -0.369794 0.085548 -0.004554 -0.005659 -0.132076 0.298600 -0.251532 0.331890 -0.261214 0.443302 0.226522 0.110718 0.148569 -0.187871 -0.136659 0.156009 -0.101030 0.323668 0.391521 0.271216 -0.003579 0.046387 0.131252 0.347096 -0.212897 -0.086443 -0.167037 0.258671 -0.051028 0.295277 0.158063 0.135126 0.068235 0.278000 -0.451414 0.091107 -0.046898 0.073053 -0.111428 0.298335 0.028579 -0.546650 0.306557 0.141061 -0.445975 0.020895 0.037346 -0.133695 -0.161784 0.140174 0.046896 0.306954 -0.203931 -0.212899 0.098240 0.272301 0.432597 -0.273274 0.498177 -0.218673 -0.353265 0.161414 -0.099346 -0.042379 -0.152533 -0.002181 0.029150 -0.255708 0.422775 -0.061182 0.163934 -0.353915 -0.063148 0.170203 0.198426 0.271352 0.038444 -0.096267 0.211896 -0.153106 -0.339046 0.038375 0.207954 -0.466577 -0.283923 0.462243 0.161244 -0.173351 -0.044869 0.205681 0.225183 0.131630 0.400474 0.393592 -0.043428 0.162497 -0.176358 -0.492030 0.296508 -0.103661 -0.312044 0.200097 -0.106702 0.167421 -0.075937 0.461567 0.111754 0.100803 -0.000166 -0.076180 -0.131487 0.120842 0.087327 -0.132368 -0.118805 -0.181957 0.091684 -0.036729 -0.066647 0.100828 -0.131162 -0.119512 0.663303 -0.055219 -0.187746 -0.013753 -0.540151 -0.140154 -0.147671 -0.285852 -0.334188 0.272263 -0.272889 -0.121092 0.001774 -0.285853 -0.275196 0.023710 -0.113732 0.324176 -0.187585 -0.674505 -0.111717 0.203904 0.154326 -0.045540 -0.091225 0.455749 0.029538 0.343244 -0.139697 0.440643 0.038970 -0.076235 -0.119370 -0.184321 -0.755301 0.375875 0.061312 0.156942 -0.197948 0.206402 0.155345 0.221389 0.228555 -0.158190 0.128185 0.524892 0.354264 0.288114 0.062605 0.029798 -0.257295 -0.073957 -0.308560 0.112614 -0.051078 -0.159066 0.203518 -0.170964 0.273890 0.045029 -0.037506 -0.142346 -0.166105 0.027900 0.222740 0.246298 0.163147 -0.186804 -0.315587 0.001141 0.331135 0.118144 -0.223290 0.072492 -0.061372 0.165381 0.028538 0.070749 -0.321578 0.102295 0.116460 0.347345 -0.579572 -0.001642 -0.040759 0.081527 -0.470358 0.154328 0.243482 0.077511 0.019078 -0.262275 0.051489 -0.258609 -0.112984 -0.019865 -0.196065 0.163899 0.241032 -0.187983 -0.139945 0.355721 0.126512 0.478214 -0.001840 0.025747 -0.632403 0.018284
astrology 0.161653 -0.196365 0.016367 -0.299556 0.419949 0.381829 0.019297 -0.062246 -0.882394 -0.083129 0.168343 0.292739 -0.162836 -0.000061 -0.444764 0.016829 0.251916 0.235570 0.089282 -0.033694 0.143149 0.335003 -0.006304 0.112758 -0.015710 -0.002454 0.391806 -0.133894 -0.058044 0.047050 0.015411 -0.147172 0.038901 -0.188925 0.055607 0.065643 -0.341436 -0.486980 0.375053 -0.048701 0.023763 -0.087172 0.083218 -0.288156 0.235899 -0.149333 0.052498 -0.357060 0.237811 0.436202 0.160455 -0.338126 0.316002 -0.059513 -0.217831 0.075532 -0.092743 0.261752 0.092146 0.048929 -0.025249 0.286090 0.001319 -0.275677 0.079653 0.181409 -0.310650 -0.299898 0.064844 0.114205 -0.412634 -0.300110 0.201712 -0.149020 -0.200806 0.078195 0.569603 0.156637 -0.310394 0.003263 0.070408 -0.087736 0.362098 -0.074666 -0.200414 -0.047939 0.128461 0.064407 0.379780 0.691828 -0.259109 0.132771 0.295862 -0.204326 -0.431698 -0.064768 0.086461 0.191591 0.226757 0.103163 0.062102 -0.092518 0.076567 -0.321304 0.104942 -0.260198 -0.415810 -0.265675 0.116845 -0.082932 -0.009546 -0.305879 0.256614 -0.020063 -0.239239 -0.104809 0.171614 -0.328599 -0.119340 -0.093364 -0.077533 -0.003549 0.272271 0.121449 -0.221511 -0.239800 0.109431 -0.054264 0.112386 -0.074532 -0.051574 -0.016470 0.239086 0.128775 0.062971 -0.033571 -0.201696 -0.235231 0.259779 -0.423031 0.107790 -0.185446 0.249688 -0.062447 0.272271 0.025534 0.273531 0.566942 -0.189346 -0.707315 -0.118091 0.379366 0.004361 0.299105 0.074533 -0.009877 -0.495654 0.272904 -0.500803 0.116395 0.192741 0.193120 0.275018 0.221410 0.159738 0.040896 0.100180 -0.383551 -0.026178 -0.046507 -0.070604 0.116111 0.156758 0.377383 -0.158362 0.041830 0.075642 -0.477056 -0.122059 0.141464 -0.205512 -0.155691 -0.202508 -0.242623 0.000754 0.132081 0.228661 -0.017221 -0.328047 -0.452030 0.044485 0.438120 -0.133131 -0.289364 -0.132896 -0.163658 -0.114417 -0.250297 -0.268810 -0.468512 0.025867 -0.133888 0.123215 -0.245970 0.148090 0.223697 -0.165215 -0.128234 -0.091374 -0.198764 -0.416344 0.164781 -0.358817 -0.281282 -0.380643 -0.261257 -0.029392 0.200459 -0.182150 0.142252 -0.154385 0.336006 -0.018829 0.058576 0.383457 -0.509260 -0.033297 0.176868 -0.195107 -0.033462 -0.200288 -0.267534 0.376223 -0.052202 -0.060618 -0.112356 0.311863 0.038540 0.089133 0.161753 0.141364 0.187406 -0.063564 -0.124866 -0.055623 0.333845 0.351229 0.447552 0.030862 0.381421 -0.133183 0.000637 -0.086482 0.024939 0.294227 0.069499 0.202973 0.510836 0.083793 0.336032 0.075622 -0.143347 -0.058691 -0.291785 -0.205688 0.266747 -0.034010 0.364936 0.293286 -0.023045 -0.172530 -0.169970 0.687079 -0.387209 -0.398678 -0.707355 -0.277768 -0.017993 0.060478 0.438037 -0.780148 0.097995 -0.044074 -0.038333 -0.118885 -0.051831 -0.026163 -0.024141 0.347256 0.190367 -0.046760 -0.222325 0.089646 0.172926 0.159694 0.045748 0.210377 0.089963 -0.443074 0.130620
March -0.198567 -0.211746 0.413840 -0.334586 0.019091 -0.176455 -0.360006 -0.237651 -0.092310 0.136498 0.131598 0.057784 -0.018255 0.445173 -0.609614 -0.198217 -0.128909 0.017196 -0.060789 -0.028692 0.026804 0.031661 -0.000452 0.111437 0.207552 -0.030444 -0.019180 0.527448 0.003016 0.123179 -0.282333 0.126609 -0.151517 0.072743 -0.262417 -0.273862 -0.041439 -0.002304 0.166627 0.206041 0.007039 -0.188429 -0.143686 -0.173529 0.008248 0.163689 -0.049742 0.263725 -0.225655 -0.090443 0.121809 -0.140654 -0.040061 -0.060627 0.128247 -0.098049 0.249413 -0.199263 0.005991 0.166566 -0.060052 -0.228279 -0.448605 -0.225339 0.146202 0.418295 0.115953 0.064887 0.372787 -0.389519 0.102455 -0.135115 0.247855 -0.127520 -0.048562 0.400131 0.158792 0.073945 0.331766 -0.065176 -0.150539 0.043676 -0.071532 -0.289040 -0.118050 -0.194373 -0.014626 -0.357525 0.027875 -0.131315 -0.016383 -0.124657 0.239869 0.183923 0.213180 -0.034967 -0.063440 0.166912 -0.009150 0.171405 -0.121463 -0.071927 0.070518 -0.112574 -0.085163 0.050291 0.165864 -0.022289 0.061297 0.158508 -0.096840 -0.271640 0.092267 0.063337 -0.054590 -0.147414 -0.358305 -0.215652 -0.291934 0.247860 0.123269 -0.004949 -0.243082 -0.001488 0.155983 -0.122430 0.296808 0.171749 0.301853 0.305495 0.116527 -0.165770 0.121544 0.035957 0.108880 0.199637 0.048883 0.013320 -0.435252 -0.077695 -0.020284 -0.199374 0.169233 0.146028 0.297370 -0.338291 -0.363049 -0.244198 -0.306657 0.128464 -0.155713 -0.104983 -0.074851 -0.278300 0.086204 -0.096297 -0.125826 -0.066116 -0.089210 -0.065830 0.177829 -0.153821 0.263637 0.313784 0.119671 0.020974 -0.269858 -0.240433 0.331827 -0.082867 0.223803 -0.064432 0.142170 0.199316 -0.094911 0.339148 -0.046714 0.243044 0.071531 -0.169840 -0.134599 0.179569 0.057048 0.120396 -0.041934 0.077660 0.392037 0.088386 -0.108145 0.278555 0.117314 -0.112559 -0.027815 -0.260221 -0.200009 0.078686 0.114232 -0.433668 -0.162415 -0.107164 0.013283 0.578196 -0.041453 -0.276008 -0.015543 0.111683 0.069726 -0.117270 0.000086 -0.065689 -0.235738 -0.437927 0.074004 0.063858 0.263219 -0.064174 0.156599 0.322833 -0.082178 0.020761 -0.050223 -0.244400 -0.324070 -0.106737 0.264301 -0.031974 -0.441600 -0.155452 -0.074996 0.016025 -0.190587 0.042224 0.055421 -0.231171 0.305637 0.097023 -0.141030 0.051818 0.095582 -0.070176 -0.000188 0.092655 -0.411538 -0.140932 -0.140137 -0.276460 -0.430630 -0.085387 0.194353 -0.049439 -0.171128 0.243585 -0.245281 0.019799 -0.168449 -0.108547 -0.030298 -0.181994 -0.437380 0.088062 0.227201 0.111034 -0.108741 -0.179457 0.343965 0.158226 -0.187372 -0.078942 0.237204 -0.222675 -0.373548 -0.011234 0.220386 0.023585 -0.359023 -0.246863 -0.066357 0.121910 -0.311450 -0.008214 0.326616 -0.313018 0.105113 -0.218779 -0.085409 0.255752 0.324733 0.193950 -0.021319 0.364653 0.176883 -0.066765 -0.066886 0.051007 -0.008426 0.382335 0.024138 0.126482 -0.003030 -0.173997
Nestlé 0.010348 0.079057 0.071182 0.100535 -0.070894 -0.344295 0.082244 0.094711 -0.064340 0.247260 -0.098893 -0.134930 0.273944 -0.055208 0.306636 0.055730 -0.199089 0.313750 0.022515 -0.126959 0.002451 0.177555 -0.314429 0.096693 0.342939 0.061069 -0.167595 0.052503 0.181060 0.019697 -0.333190 0.127984 -0.024489 -0.220837 -0.311364 -0.045631 -0.053451 0.059357 -0.276914 -0.120666 -0.076832 -0.023335 -0.045443 -0.065784 -0.167952 -0.149264 -0.039359 0.138516 -0.194940 -0.239774 0.004314 0.045523 -0.195684 -0.131597 0.047292 -0.317843 -0.353134 -0.050118 -0.362991 -0.185923 0.189539 -0.015063 -0.063010 -0.298942 0.058524 0.276510 -0.129884 -0.006681 0.159004 -0.135046 -0.040075 -0.248951 0.083750 -0.096615 0.318215 -0.146129 0.061602 0.067756 -0.013876 0.182022 -0.048143 -0.042802 -0.079015 -0.291926 0.004065 -0.155765 -0.020343 -0.008702 0.082385 0.113512 -0.118308 -0.053577 0.173629 0.342671 0.208044 0.121454 0.201737 -0.423664 -0.415958 0.037212 0.130759 0.148305 -0.112586 -0.014327 -0.338702 -0.182716 0.158014 -0.005094 0.170587 -0.190814 0.084114 -0.049080 0.140984 0.001717 -0.085044 0.092889 -0.243909 0.062724 -0.228370 -0.065010 -0.128608 -0.059349 -0.501559 -0.077302 0.220778 -0.011906 0.181146 -0.325055 0.402007 0.052507 -0.242017 0.159960 0.098430 0.084879 0.001024 0.248019 -0.047766 0.173818 0.029084 -0.146182 0.049258 -0.230002 0.088400 0.193091 0.109656 0.075421 -0.206995 -0.288730 0.093685 0.070372 -0.035814 -0.014353 0.031393 -0.316801 -0.216805 0.082972 0.279983 -0.072553 -0.097399 -0.317984 0.115812 -0.288515 0.270244 -0.175245 0.323763 -0.179820 -0.049148 -0.173475 0.131158 -0.263180 0.100431 0.236692 0.019613 -0.004244 -0.505451 0.043579 0.100966 -0.043114 -0.231999 0.055719 0.305945 0.024348 -0.111939 0.113530 0.083675 -0.098975 -0.006617 0.022822 -0.177384 0.211075 0.035709 0.196091 -0.246428 -0.089326 0.220786 -0.026563 -0.289187 -0.186413 -0.387051 -0.059834 -0.354744 0.018123 -0.029639 -0.102600 0.176518 -0.018940 -0.444977 0.025602 -0.079419 0.274505 -0.325663 -0.118876 -0.652255 0.051758 0.106577 0.069913 -0.021494 0.420400 0.439035 0.221673 -0.305409 0.063263 0.273276 0.170686 0.180705 -0.264921 -0.098407 0.072030 -0.150795 0.312813 0.055250 0.090355 -0.124949 0.005630 0.078982 -0.181452 0.044082 0.287397 -0.184912 -0.102068 -0.014026 0.252660 -0.052181 0.368752 0.047161 0.114643 -0.097518 0.028856 0.138775 -0.273520 0.106939 0.056341 -0.052548 -0.070584 0.079766 -0.003698 -0.155330 0.340482 0.055034 -0.324349 0.055693 -0.079734 -0.024684 0.265227 -0.022152 0.278307 -0.161831 -0.087561 0.143121 0.390944 -0.157106 -0.129093 -0.152302 0.163113 -0.235641 -0.090086 -0.154513 0.216139 -0.089440 0.268928 -0.123199 -0.165232 -0.021590 -0.266766 -0.026071 -0.237170 0.080354 0.099776 -0.203679 0.109420 -0.019139 -0.192475 -0.135863 0.151504 -0.129385 0.488540 0.193189 0.182497 0.318038 0.198510
cougar 0.002674 -0.075509 -0.150951 -0.132336 -0.188939 0.176363 -0.015622 0.244167 0.447821 0.451700 0.552254 0.264893 -0.367841 0.270716 -0.314206 0.570150 -0.318809 0.252547 -0.284835 0.149832 -0.125157 -0.047106 0.230431 0.354262 0.636420 -0.024562 -0.409904 -0.139604 0.124802 -0.172959 -0.259297 -0.090061 -0.185981 0.292991 -0.390138 0.170133 -0.061287 -0.340551 0.153895 -0.110905 -0.155527 -0.098085 -0.404655 -0.523871 0.348647 -0.146535 0.315824 -0.198637 -0.216423 -0.470593 -0.169055 -0.110149 0.219608 -0.101314 0.259796 -0.424367 0.305966 0.032349 -0.103137 0.154043 -0.263647 -0.130064 -0.032506 0.262170 0.062088 0.074447 0.004895 -0.081098 -0.152165 0.127076 -0.064512 -0.355098 0.611667 0.177262 0.394912 0.389867 -0.213292 0.279078 -0.210416 0.334655 -0.186225 0.792721 0.193953 0.186170 -0.407067 0.405241 -0.261893 0.182557 -0.051481 0.371163 -0.357700 -0.107314 0.310209 0.403743 0.155526 -0.021939 0.131830 0.271158 -0.227916 0.042593 -0.081947 0.029016 0.057083 0.128974 0.180748 0.167724 -0.341260 -0.604861 0.251942 0.020659 -0.426434 -0.069410 0.124170 -0.255586 -0.329394 -0.060424 0.162503 -0.241513 0.428493 0.060410 -0.052476 0.045249 0.093165 -0.581286 -0.124020 0.272875 -0.098088 -0.423059 0.049211 0.390425 -0.067612 0.062043 -0.006673 -0.133931 -0.070234 -0.456683 -0.257626 0.240589 0.148398 -0.263495 0.156120 -0.474573 0.028530 0.129629 0.079093 -0.512099 -0.179152 -0.447361 0.045062 -0.208749 0.272519 -0.068221 -0.055590 0.082293 -0.301940 0.241482 0.201274 -0.162950 -0.485028 0.403946 -0.122816 0.293709 -0.268434 0.300046 -0.216119 -0.433454 0.380005 -0.074422 -0.338485 0.088538 0.297590 0.005862 -0.104148 0.131798 -0.197807 0.703882 -0.479124 0.192022 -0.006783 -0.319090 -0.473318 0.045783 -0.271831 0.218097 -0.068366 -0.220019 -0.242588 0.203995 -0.530949 -0.289321 0.271763 0.352135 -0.211311 -0.223393 0.378070 0.574127 0.023348 -0.053807 -0.128474 -0.073670 0.315609 0.178632 0.223219 0.133262 0.015822 0.041062 0.544084 -0.114638 0.370110 -0.023924 0.213997 -0.147751 -0.292450 0.139354 0.028969 -0.172193 0.290921 0.434967 0.221032 0.295467 0.544647 0.360723 0.105327 -0.139649 0.233385 -0.456345 0.264909 0.311531 -0.085970 0.439658 0.177077 -0.121370 0.244757 -0.294615 -0.166502 -0.270666 -0.104090 -0.002324 -0.072981 0.603379 -0.352358 -0.265024 -0.596774 0.187733 -0.003961 -0.214112 0.188516 -0.254320 0.155849 -0.032956 -0.159129 0.281317 -0.009532 -0.110036 -0.160294 0.517850 0.047524 -0.040309 -0.037890 0.126637 -0.197849 -0.021602 -0.069515 0.135792 -0.412400 0.157204 0.042029 -0.853498 0.126407 0.159549 -0.183316 -0.215722 0.014668 0.088451 0.260901 -0.315731 -0.087598 0.383247 -0.179881 0.339525 0.339413 0.074370 0.159502 -0.158815 0.186710 -0.236731 -0.075268 -0.432904 0.405007 -0.211475 0.143090 -0.301893 -0.221354 0.213862 0.326442 0.574857 -0.149867 0.041027 0.272467 -0.120223
window 0.333121 -0.177281 -0.126616 0.090103 -0.099401 0.111293 0.040708 0.071401 0.072086 -0.120684 0.319499 0.381095 0.057508 0.117479 0.002543 -0.114624 0.120665 -0.069711 0.021494 -0.250837 -0.229488 0.029201 -0.037448 -0.044183 0.118865 -0.060561 0.208244 -0.285305 0.119403 -0.075070 -0.102449 0.155156 0.255198 0.141158 0.118798 -0.024164 -0.012220 0.047535 0.392081 -0.189722 -0.305029 -0.037179 -0.001436 -0.021490 0.096598 -0.127472 0.313989 -0.123408 0.357507 0.134070 0.042233 -0.001539 0.250365 -0.149886 0.179324 0.331372 -0.084465 -0.022543 0.221074 -0.132698 -0.221789 -0.131552 0.058495 -0.189783 0.105675 -0.019828 -0.257907 -0.095711 -0.085367 -0.079388 -0.150604 -0.150461 0.194434 -0.310794 -0.248419 0.051574 -0.274307 -0.067104 -0.351334 -0.427876 -0.344297 0.155258 -0.003773 0.093269 -0.018517 0.041755 -0.283751 0.085400 0.418337 0.151386 -0.264154 -0.051599 -0.495854 0.262503 0.059054 -0.197791 -0.186118 0.288243 -0.106681 -0.389196 0.018512 -0.089913 0.056113 0.120411 -0.096874 0.175703 -0.283534 0.057167 0.001481 0.194064 0.107331 -0.105604 -0.140076 -0.237266 -0.033279 0.128228 -0.301056 0.253858 -0.133202 -0.014336 0.165462 0.139464 -0.282657 0.359684 -0.194740 -0.103419 0.182356 0.215816 0.217042 0.305769 0.273108 -0.539980 -0.025647 0.352593 -0.255093 -0.273007 0.053024 -0.295905 -0.003061 -0.130379 -0.178659 0.331753 0.049607 -0.419131 -0.108937 -0.180376 -0.078735 0.077689 0.108020 -0.156596 0.191113 0.149930 -0.132504 -0.196779 0.318576 -0.374817 0.049569 0.129136 -0.342439 0.175126 0.282754 0.019096 -0.072863 0.162744 -0.018964 -0.196936 -0.157648 -0.150274 0.220069 -0.494628 -0.239771 -0.163201 -0.116410 -0.217308 0.185521 0.220261 -0.055782 -0.025068 -0.332682 0.062640 -0.056903 0.178114 -0.122255 0.195505 0.144081 0.063803 -0.124065 -0.136713 0.044404 0.332743 0.102322 0.520924 -0.397783 -0.531512 0.308208 0.091678 0.115066 -0.162601 -0.008410 0.158667 0.104568 0.079706 0.184486 -0.363040 -0.278454 0.031833 -0.007894 0.254003 0.202222 -0.074433 -0.331997 0.227064 -0.491522 -0.028628 0.345380 0.086315 0.082097 0.472578 0.007386 0.513943 -0.022761 0.215942 0.325095 0.101619 0.171905 -0.215573 -0.203973 0.026832 -0.334387 -0.185911 -0.174855 0.723711 -0.207571 -0.011846 0.177592 -0.114336 0.211443 -0.192550 0.012920 -0.059308 0.084352 0.657949 -0.555532 0.309170 0.159840 -0.487677 -0.372740 0.140799 0.210865 -0.102174 0.049741 0.373189 0.144124 0.024757 -0.424082 -0.144835 0.112583 -0.138856 -0.050175 -0.330356 -0.175305 0.007486 0.095500 0.105084 0.144733 0.102767 -0.450972 -0.425384 0.113971 -0.104841 -0.077847 -0.040605 -0.094499 0.197025 -0.112914 -0.190841 0.200852 -0.011550 -0.190516 0.036505 -0.208640 0.148234 -0.099873 -0.088288 0.193255 0.264709 0.011037 0.000349 0.040102 -0.068042 0.198116 0.024537 0.139238 0.276571 0.087099 0.112254 -0.246336 0.569104 0.347079 -0.236850
government -0.011031 0.147401 -0.156823 -0.082441 0.122610 -0.245579 0.049286 -0.109916 -0.088667 0.177116 -0.028097 -0.078202 -0.118868 -0.136024 -0.191832 0.077573 -0.096820 0.184635 -0.046798 0.122063 -0.173243 -0.299561 0.098205 0.041111 0.231428 -0.018785 -0.124738 0.262918 -0.093831 0.192935 0.070710 0.262231 0.027003 -0.032593 -0.040907 -0.071381 -0.167500 -0.201246 0.044417 -0.110745 -0.106077 -0.162740 -0.054530 -0.335677 -0.018898 0.197323 0.043212 -0.115149 -0.253825 -0.029843 0.167468 -0.128996 -0.229694 -0.089791 -0.099410 0.068295 -0.164836 -0.041859 -0.157655 0.073293 -0.128370 -0.173775 -0.149849 -0.138835 -0.037202 0.102391 -0.324690 0.471455 0.049728 0.136679 -0.247426 0.040609 0.361881 0.069556 0.009822 -0.205771 0.030053 0.409420 -0.104187 0.150738 -0.069641 0.205281 -0.168751 -0.064269 -0.063568 0.066038 0.013664 -0.071993 0.282353 -0.025228 -0.148221 0.275226 0.099444 -0.093604 -0.246675 -0.029660 0.010272 -0.186379 -0.385375 -0.024235 -0.361818 0.041263 0.214919 -0.020424 0.029080 0.108287 -0.102411 -0.150553 0.075764 -0.088535 -0.127620 -0.523838 0.097778 -0.211556 0.226048 0.064904 -0.064508 0.010184 -0.319018 -0.159803 0.159957 0.001309 -0.026493 0.008614 0.134143 0.020136 0.053390 0.069690 0.479318 0.143123 -0.174597 0.074690 -0.257966 -0.102163 0.158515 -0.008786 0.321009 -0.239386 0.046983 -0.163355 0.041785 -0.187024 0.148601 0.198349 -0.034936 0.032348 0.093527 -0.268365 -0.392899 0.144487 -0.171831 0.171758 0.137456 0.262002 -0.106600 -0.062284 0.172415 0.026456 -0.162603 -0.191066 0.133457 -0.019409 0.374662 -0.068837 0.208398 0.163467 -0.366539 -0.290450 -0.140064 -0.138980 -0.030529 0.071808 -0.037418 0.117768 -0.149390 -0.024441 -0.041361 -0.176621 0.033456 -0.241661 -0.021285 0.105669 0.008738 -0.048306 0.058002 -0.069494 -0.072576 0.001806 -0.155076 0.173650 -0.138296 -0.009207 -0.010017 -0.009687 -0.248473 0.008263 -0.089021 -0.425515 -0.498782 -0.123134 -0.076408 -0.119718 0.069901 0.009252 0.012884 0.066888 0.164538 -0.199270 -0.216773 0.277953 -0.093688 -0.239500 -0.213597 0.083125 -0.151390 0.038818 0.003912 -0.120354 0.148274 -0.202594 -0.167093 0.128717 -0.152076 -0.428321 0.168370 -0.254072 -0.516265 0.053806 0.117926 -0.001112 -0.014765 0.057817 -0.319762 0.117875 0.118268 0.012126 -0.048623 0.213643 -0.244530 0.033664 -0.053211 -0.089187 -0.071379 0.012049 -0.129925 -0.343690 0.063078 0.159391 -0.334812 0.035484 0.074692 0.094347 -0.155998 0.101495 -0.446213 0.183691 0.071837 0.510927 -0.302245 -0.164420 0.157023 0.219831 -0.108970 -0.018620 -0.004035 0.104381 -0.045909 0.065059 -0.111180 0.191145 -0.158217 0.036023 0.007676 0.366274 -0.108628 -0.131136 -0.168921 -0.060127 -0.003822 -0.069380 -0.051570 -0.014398 0.208284 0.002668 -0.132681 0.098587 0.044941 -0.206184 -0.051908 0.153041 0.177456 0.148179 -0.512478 0.124368 -0.069289 0.238645 -0.390995 0.057677 -0.127549 0.056133
James -0.039878 0.032827 0.057535 -0.243177 -0.230139 -0.230610 -0.066623 -0.083649 -0.250955 0.077421 -0.043823 -0.138527 0.082022 -0.256374 -0.355065 -0.135867 -0.233501 0.135091 0.105207 0.102145 -0.025758 0.101185 0.052762 -0.199322 0.205232 -0.090969 0.044415 0.014662 -0.131917 -0.034295 -0.282888 0.037276 0.111662 -0.004662 -0.328923 -0.008948 -0.223355 -0.371792 -0.253961 -0.156235 0.318897 -0.238404 -0.227768 0.137412 0.032775 0.163200 0.057154 0.299279 0.233789 0.069216 -0.066926 0.261650 -0.021169 0.051750 0.088771 -0.012872 0.016096 -0.358059 -0.217443 -0.469474 -0.226611 -0.290945 -0.060721 -0.067226 0.065443 0.062684 -0.108775 -0.152829 -0.034320 -0.025985 -0.196613 -0.068581 0.220059 0.021571 0.239344 -0.007036 0.137044 0.151231 -0.098174 0.301513 0.137132 0.047365 -0.045374 -0.210777 0.035422 -0.184481 -0.323106 0.049650 -0.029011 -0.122207 0.108380 -0.309955 -0.083247 0.427225 0.298703 0.175020 0.060722 0.291426 -0.135627 -0.108844 0.192629 -0.168518 -0.008828 -0.140293 0.042078 -0.202797 0.126227 -0.277678 -0.184660 -0.006532 0.068436 -0.340100 0.105047 -0.024567 0.077866 -0.080044 -0.135311 -0.116959 -0.038337 -0.017684 0.546220 -0.165868 -0.082164 -0.020146 0.286057 -0.210217 0.336933 0.020596 0.088970 0.319652 0.281794 -0.044620 -0.295410 0.002907 0.005991 0.286264 0.202994 0.000469 0.066909 -0.156838 -0.024643 0.142360 0.112950 -0.140946 0.172063 -0.140603 0.053160 -0.246967 -0.252602 -0.355482 -0.119290 -0.193569 0.189177 -0.278962 0.330416 -0.162516 -0.346193 -0.133771 -0.392144 -0.049483 -0.014664 0.205003 -0.037372 0.191423 -0.025812 0.268167 -0.278589 -0.043203 -0.052234 -0.237154 -0.124746 0.190010 -0.057482 0.020155 -0.047931 0.137910 -0.030723 0.293772 -0.191381 0.142025 -0.390324 0.068479 0.070116 -0.049803 0.010568 0.126226 0.087920 -0.275253 0.050566 -0.156406 -0.123962 0.365397 0.010354 -0.022041 -0.325224 0.198474 -0.044675 -0.124610 -0.129829 -0.580537 0.139079 0.272969 -0.022091 0.058166 -0.094563 0.415612 0.040573 -0.459118 0.111741 -0.086837 -0.097837 -0.090564 -0.498855 -0.093046 0.046110 0.063682 0.129762 0.387156 0.354228 -0.008866 0.103009 0.129801 0.289927 -0.140886 0.258586 -0.118390 -0.101546 -0.173068 0.132059 0.034310 -0.054388 -0.001958 0.080322 -0.065193 0.165485 -0.110051 -0.110000 0.039115 -0.246945 -0.122666 0.065058 -0.089375 0.162879 0.253975 -0.092788 -0.263893 0.013791 0.243729 -0.165419 0.058542 0.055524 -0.022881 0.078841 0.069750 0.106293 -0.022207 -0.218828 -0.144852 0.109644 -0.134356 0.029420 0.027065 -0.167664 -0.144390 -0.142493 -0.066546 0.114952 0.165192 0.269313 -0.062612 -0.212589 0.179758 0.153840 -0.180870 -0.251848 -0.326688 0.121205 0.168003 -0.095678 0.123953 -0.051551 -0.242209 -0.079301 -0.014170 0.116611 0.218641 0.280569 0.049729 -0.144025 0.047014 0.107579 0.205215 -0.102641 0.191157 -0.027786 0.141001 -0.019200 -0.014034 -0.012187 -0.023085
fridge 0.085239 -0.019913 -0.009121 0.084904 -0.317077 -0.106748 -0.161964 0.230847 -0.086589 0.324222 -0.082050 0.097848 0.179327 -0.017374 0.105923 -0.029655 -0.084482 0.263301 0.150203 -0.253854 0.262415 -0.141393 -0.068457 0.092188 0.123666 0.146226 0.254331 -0.019870 -0.212562 -0.080062 0.316290 0.133400 0.016858 -0.200949 -0.270764 0.484979 0.192801 -0.050434 0.250106 0.204637 -0.176220 0.409359 -0.237587 -0.300738 -0.063660 0.264485 0.337660 0.222157 0.144142 -0.039868 0.228906 0.089616 -0.227169 -0.393244 0.281638 0.126534 -0.107663 -0.040804 -0.282728 -0.058853 -0.168230 0.083722 0.319952 -0.176028 -0.271761 0.142496 0.005937 -0.142060 0.167119 -0.130785 -0.631592 -0.802500 0.092071 -0.219155 0.051662 0.226822 -0.159304 -0.169740 -0.056375 0.250997 -0.390397 0.416036 -0.214130 -0.131973 -0.046916 0.049526 0.187689 -0.024375 0.519446 -0.045414 -0.471951 -0.045901 -0.049916 -0.113896 0.291312 -0.188018 -0.291305 0.294660 -0.431063 -0.129295 0.148027 0.296876 0.074014 -0.233791 0.276104 -0.178107 -0.208427 -0.172691 0.098536 -0.076084 -0.001599 -0.331027 0.260391 0.042828 0.249534 0.265772 -0.688224 0.338880 -0.064397 -0.301588 0.226405 0.308044 0.165964 -0.002355 0.275758 -0.284549 0.248544 -0.184655 0.197361 0.003619 0.028346 -0.279363 -0.116032 -0.077885 -0.408213 -0.019258 0.282586 0.313743 -0.421447 -0.262744 0.138018 0.002596 0.005036 -0.048060 0.116582 0.557553 -0.226166 -0.433788 0.067086 -0.073031 0.132589 0.046577 -0.005775 -0.178101 -0.236613 -0.270011 0.094708 0.118717 -0.481592 -0.096768 0.019066 -0.398498 0.173154 0.251235 0.141816 -0.267027 0.296730 -0.641921 -0.238500 -0.756935 0.392513 0.340477 -0.210537 0.047492 -0.314381 -0.213204 0.075396 -0.045062 -0.162171 -0.265725 -0.044536 -0.173897 0.353679 0.147066 -0.090886 0.157962 0.074779 0.213863 0.053503 0.124969 0.398587 0.763801 -0.535887 -0.404594 0.087409 -0.266946 0.064794 -0.002243 -0.104484 -0.034988 -0.168057 -0.245127 0.013358 -0.216866 0.215800 0.019745 0.070403 -0.065333 0.363673 0.205306 -0.260916 0.221100 -0.679469 0.219289 0.499294 0.329977 -0.327058 0.098367 0.310850 0.808095 -0.285851 -0.069462 -0.059002 -0.110728 -0.105694 -0.291389 0.076278 0.049941 0.298535 -0.043227 -0.012233 0.245165 -0.217843 -0.324309 -0.047250 -0.428946 0.439385 -0.040396 0.058589 0.067526 -0.009230 0.237387 0.077253 0.050215 0.012914 0.024569 0.085471 0.046213 0.220790 0.128826 0.184766 -0.068216 0.271900 -0.020884 -0.166210 -0.011842 -0.043894 0.002908 -0.281907 0.145518 0.439140 -0.176249 0.042934 0.264197 -0.096680 0.382922 -0.175662 0.030944 0.146041 0.127784 0.172621 -0.218386 0.080367 0.283465 -0.167031 -0.235713 -0.305983 0.350656 -0.097558 0.196273 -0.350028 0.365006 -0.351142 -0.510019 0.288961 -0.151200 0.154917 -0.073892 0.334883 0.371543 -0.008117 -0.002482 0.090785 0.487409 0.183178 -0.303586 -0.184577 0.532099 0.319426 -0.019251
lunch -0.038289 -0.065768 -0.040928 -0.027856 -0.137950 0.029547 -0.219024 -0.056708 0.058789 0.248080 0.040185 0.035452 -0.250574 0.309296 -0.050361 -0.098559 -0.321981 0.509023 -0.215074 -0.043216 0.039161 0.056998 -0.167883 0.131177 -0.045824 0.100291 0.110163 0.305274 -0.054130 -0.000870 0.301097 0.155806 0.099038 -0.144972 -0.159750 0.302980 0.046831 -0.038917 -0.180508 -0.086181 -0.098724 -0.116405 -0.170921 -0.005568 0.150002 0.053860 0.018933 0.092735 0.327233 -0.269482 0.079478 0.029621 -0.408930 -0.107353 0.000822 -0.103173 0.260780 -0.060449 -0.132703 0.069392 -0.395559 0.129840 0.079936 -0.075627 0.011428 -0.060877 -0.430565 -0.139387 0.046508 -0.160204 -0.170756 -0.333642 0.082765 -0.173535 -0.083833 -0.305022 -0.183248 0.197462 -0.121300 0.322318 -0.385586 -0.004892 0.068210 -0.108245 0.005090 -0.356358 -0.210786 0.053319 0.374652 -0.111871 -0.241307 0.074002 0.119065 0.034296 0.180160 -0.461025 -0.177370 0.098770 -0.201315 0.183486 0.102410 0.197966 0.210099 -0.043175 -0.012540 -0.034486 -0.296429 -0.244263 0.207879 0.434519 -0.341719 0.100375 0.160827 0.113683 -0.057708 -0.117890 -0.461531 0.036678 -0.629524 0.132097 0.302146 0.313816 0.062225 -0.148274 0.242796 -0.347761 0.428349 -0.097698 -0.269542 -0.038509 0.290332 0.031656 -0.346533 0.051481 -0.022740 -0.074268 -0.166727 0.164743 -0.478953 -0.168802 0.045814 0.028930 0.179690 -0.218052 -0.031009 0.333679 -0.174259 -0.128847 0.019748 0.261066 0.135292 -0.237675 -0.340959 -0.374517 -0.107266 -0.349195 -0.217051 -0.038850 -0.547821 -0.128974 0.393034 0.038726 0.701542 0.323376 0.254857 -0.031032 0.337021 -0.225907 0.098677 -0.062813 0.041201 0.390478 -0.155322 0.054915 0.048728 0.712136 -0.190602 -0.287577 -0.153685 -0.069349 0.179084 0.309508 0.088080 0.322713 0.110908 -0.010852 0.026265 -0.136921 0.003718 0.218828 -0.038932 0.145485 -0.083284 -0.495694 0.113460 0.149427 -0.099530 -0.185317 -0.325373 0.001174 -0.430921 0.259226 0.104265 -0.080542 -0.087756 -0.054661 -0.049949 -0.206981 0.414960 0.102539 0.192069 0.210707 -0.677415 0.198501 -0.055357 0.271237 0.049253 -0.292739 0.090254 -0.055301 -0.156887 0.022642 -0.005207 -0.412630 0.015072 -0.258086 -0.116921 0.003202 0.097834 0.164856 0.194055 0.269309 -0.474823 -0.518216 -0.045377 -0.428304 0.048802 -0.134684 -0.218685 0.107279 0.193518 0.125580 -0.128622 -0.173527 -0.260398 -0.251650 -0.342583 -0.046401 0.197725 -0.194739 -0.033464 0.037962 -0.262535 -0.226974 0.034709 -0.273772 -0.163760 -0.285411 -0.268647 -0.113434 0.506012 -0.407156 0.087952 -0.229265 0.038819 0.071184 -0.083835 0.516802 0.142882 0.184245 0.130607 -0.160927 0.020287 -0.035636 0.072114 -0.021535 -0.262473 0.245413 -0.464950 0.225999 -0.060264 -0.117142 -0.012403 -0.528780 -0.194773 -0.301943 -0.060485 -0.323659 -0.115329 0.084226 0.171535 -0.318359 -0.034817 0.529179 0.326465 -0.104768 -0.121336 -0.152620 -0.059541 -0.443352
Juventus -0.103626 0.104905 0.097279 0.397062 0.257323 0.427475 0.125132 0.035960 -0.224672 0.094338 -0.163880 -0.136943 0.277154 -0.392123 0.168057 -0.165644 -0.177661 0.098556 0.399806 -0.117137 0.231903 0.090020 -0.205985 0.135064 0.558228 0.304356 -0.421125 -0.322397 -0.084732 0.453686 0.173374 -0.043455 -0.441415 -0.075629 -0.075970 -0.172453 0.060545 0.283410 0.014439 0.379628 0.656246 0.183125 -0.331786 -0.389029 0.137294 -0.033672 -0.023899 0.212949 0.157448 0.107482 0.324268 -0.342796 0.544560 0.045974 0.130485 0.409003 -0.295853 -0.055650 0.049032 -0.005932 -0.107014 -0.440905 0.067403 -0.564113 -0.060649 -0.027533 -0.402889 0.057046 -0.216469 -0.014434 -0.434596 -0.171498 0.222095 0.286193 -0.090682 -0.026285 0.308214 0.428253 0.342512 -0.046707 -0.388002 -0.031340 0.462875 0.108846 -0.011736 -0.241259 0.392439 -0.089419 0.137117 0.639179 0.068722 0.123376 0.154815 -0.168303 -0.010406 0.275494 0.162086 0.561088 -0.504562 0.031410 0.286022 -0.067291 0.285132 -0.399285 0.101860 -0.039181 0.058237 -0.235708 0.156276 0.340240 -0.529627 -0.370824 0.620300 0.267053 0.200022 0.560504 -0.004344 0.033539 0.042234 -0.026341 0.069724 0.024108 -0.163198 -0.173814 0.005429 -0.286520 0.503190 0.132420 0.089030 0.503760 0.090243 0.330972 -0.290333 0.074092 0.134110 0.094003 -0.110928 -0.042738 -0.083151 0.065730 -0.298039 -0.286784 0.569429 0.139975 0.343811 0.392764 0.016935 0.006581 0.151622 -0.563817 -0.289887 -0.225447 -0.116303 0.527939 -0.377210 -0.031197 0.128015 -0.411804 -0.144795 -0.354013 0.515474 -0.073947 0.515128 0.037000 -0.077365 -0.081925 0.057044 -0.236618 0.097933 -0.177314 0.392956 -0.140054 -0.382274 0.446514 -0.553998 0.105050 -0.150325 -0.088993 -0.058718 0.079855 -0.042094 -0.733222 0.178933 0.106287 0.108345 0.365094 0.057932 0.104633 0.206499 0.294648 -0.414268 0.364372 0.118143 -0.344069 -0.319753 -0.017330 0.204616 0.109921 0.021155 0.064215 -0.115808 -0.041335 0.006199 -0.620154 -0.156166 -0.037068 0.133472 -0.261223 0.107504 0.210513 -0.058788 -0.402057 -0.521420 0.231539 -0.246792 0.131897 0.446056 -0.106989 -0.286809 0.705055 -0.231376 0.144911 -0.361813 0.441846 0.330132 0.027766 -0.028902 0.139693 0.158850 0.908727 -0.077232 0.084351 -0.268532 -0.139938 -0.104162 0.195853 0.701102 0.183028 0.049061 -0.049945 0.309591 0.045602 -0.603224 -0.027689 0.171377 0.507597 -0.119327 0.089455 0.242082 -0.294191 -0.281702 0.205973 0.176054 -0.184675 0.578364 0.116251 0.270979 0.365918 0.007844 -0.579022 -0.103836 0.244693 -0.607496 -0.246696 -0.257891 -0.247335 -0.146734 -0.657189 0.385079 0.631260 -0.821958 -0.046072 -0.121137 0.174984 -0.501452 0.093889 0.009873 0.089306 -0.027449 0.375279 -0.138121 0.139106 0.439039 -0.051425 0.090175 0.403016 0.549757 0.204170 0.132409 -0.125255 0.259574 0.258069 -0.461604 0.172130 0.452165 0.028650 -0.096048 -0.147437 0.267529 -0.181391
Venus 0.303086 -0.318433 -0.042139 0.124412 0.383654 0.482323 0.018047 0.073230 -0.424109 -0.385354 0.438091 0.198764 0.318470 0.009291 -0.381925 0.258788 0.101773 0.049326 -0.297555 -0.311562 -0.164986 0.102387 0.226982 0.026469 -0.063984 -0.346152 0.118812 0.319123 0.018415 -0.029786 -0.333853 -0.071762 0.067381 0.210421 -0.286128 -0.283312 -0.238340 -0.290442 0.374735 0.085060 -0.070043 -0.226419 -0.029678 0.044005 -0.181534 -0.370678 -0.326270 0.188485 -0.099294 -0.101748 -0.056806 0.205896 0.390000 0.242877 -0.203958 -0.349484 -0.122180 0.065423 -0.017844 -0.356169 -0.286501 -0.034498 0.271201 -0.027477 0.566552 -0.057666 -0.013552 -0.141199 -0.021126 -0.202957 -0.573756 0.046829 0.005991 -0.053158 -0.254365 0.647318 0.194814 0.121184 -0.457271 -0.124043 0.404269 -0.271993 0.111441 -0.038918 -0.166328 -0.245823 -0.015808 0.220080 0.500486 0.289141 0.076000 0.370563 0.232315 -0.091672 0.370450 -0.219128 -0.038187 0.337752 -0.080314 0.382122 0.741096 -0.056356 0.259743 -0.322642 -0.160370 -0.039553 0.033141 -0.068951 -0.072110 0.132156 0.188954 -0.361187 -0.126034 -0.177773 0.016227 0.134644 0.180707 -0.226612 0.212018 0.281164 0.023244 0.094339 0.188840 -0.037843 -0.000793 -0.016440 -0.192711 -0.013434 0.113382 0.236694 0.188182 -0.040369 -0.078307 0.249878 0.228424 -0.182892 0.281855 -0.019396 -0.060288 -0.135301 0.201375 -0.167599 -0.084180 -0.035490 0.232580 0.497065 -0.277271 0.231104 -0.002594 -0.425417 0.082263 0.263057 -0.174660 0.265303 -0.379306 0.108256 -0.079429 -0.214343 -0.372793 -0.086297 0.254618 0.214756 -0.101666 -0.111606 0.105210 0.171183 0.157722 -0.206849 -0.174286 0.010544 -0.300708 0.334477 -0.187410 -0.070129 -0.339091 0.123391 0.019197 -0.082510 -0.538829 -0.057557 -0.412330 -0.370964 0.199349 0.108362 -0.116270 -0.152655 0.427787 0.464674 -0.198069 -0.307319 -0.149430 0.279556 0.083407 -0.542044 -0.302369 -0.031658 0.118231 -0.444420 -0.062222 -0.043897 -0.168682 0.307357 -0.202156 -0.458155 0.236869 -0.026266 0.013199 -0.145776 0.338242 0.137851 -0.017821 -0.364639 -0.395950 -0.025443 -0.264031 0.402727 0.192841 0.204547 0.462354 0.487267 -0.148333 0.443354 0.120733 0.577015 -0.133666 -0.114941 -0.610198 0.373444 -0.169191 0.480502 -0.519871 0.015831 0.165804 0.252961 0.136526 -0.207991 0.425770 -0.413148 0.366110 0.025340 -0.037855 0.245456 -0.295974 -0.197641 0.142045 -0.309008 0.184276 -0.011982 0.324460 0.228458 0.505093 -0.345767 0.237196 -0.075558 0.116696 0.308364 0.281842 -0.024421 0.170025 0.171929 0.009913 -0.143424 -0.012605 -0.392507 0.015247 -0.092749 -0.250065 0.230022 0.042620 -0.001658 -0.343220 -0.129758 0.287178 0.091516 -0.071410 -0.756262 0.097773 -0.005080 0.222085 0.029220 -0.623896 0.147503 -0.156293 -0.244885 -0.133816 0.050144 -0.094322 0.097729 0.073750 0.145326 0.154858 -0.204368 0.345125 0.269926 -0.073994 0.282708 0.227138 0.205961 -0.182180 -0.177482
day 0.118914 0.010765 0.146988 -0.058293 -0.013734 -0.293467 0.102539 -0.158271 -0.141912 0.054722 -0.035576 0.094908 -0.268640 0.094828 -0.178045 -0.169993 -0.015025 -0.029952 -0.293627 -0.367073 0.043659 0.126094 0.161791 0.298519 0.236345 -0.218446 0.284339 0.126836 0.122318 0.023437 0.055382 -0.046564 -0.026584 -0.135951 -0.118208 -0.122512 -0.162306 0.026162 0.376928 0.007511 -0.232653 0.188039 -0.332735 -0.068826 -0.101453 -0.017387 -0.192446 0.036883 0.003094 -0.118194 0.201559 -0.193656 0.072507 0.069805 -0.011262 0.208279 0.140679 -0.007834 -0.186082 0.244544 -0.391797 -0.214933 -0.124154 -0.139037 0.087141 0.243298 -0.140943 -0.056883 0.134839 -0.004280 0.079207 -0.366116 0.114801 -0.251414 -0.008209 -0.024048 -0.102130 0.033904 0.112809 -0.020746 -0.218895 0.169980 -0.001674 -0.150786 -0.187053 -0.054540 -0.083963 -0.356995 0.165485 0.138173 -0.097967 -0.149334 0.155317 -0.106464 0.272779 -0.126168 -0.043308 0.194546 0.045312 0.079700 0.219671 -0.009188 0.081208 0.177513 0.068345 -0.032816 -0.138002 -0.262492 0.131675 0.033943 -0.139307 -0.049153 -0.041251 0.056310 0.027279 -0.152867 -0.227409 0.002908 -0.324960 -0.183964 0.024142 0.027435 0.032022 0.061457 0.226879 -0.197025 -0.004080 0.138675 0.156400 0.062131 0.469028 -0.107302 0.042640 -0.190154 0.269333 0.022157 -0.163977 -0.157356 -0.118030 -0.393697 -0.185672 0.169522 0.076968 -0.016815 0.336578 0.172803 -0.311398 -0.087277 -0.258712 0.234675 -0.223228 -0.125160 -0.134552 -0.144220 -0.083845 -0.085211 -0.085927 0.034282 -0.466822 0.007276 0.164312 -0.179221 0.051583 0.153328 0.294762 0.021248 -0.368492 -0.222151 -0.059699 -0.023961 -0.002190 -0.020924 -0.102952 -0.020452 0.164066 0.452260 -0.319319 -0.084913 0.010312 -0.048485 -0.176281 0.166147 0.012142 0.223552 0.170777 -0.037418 0.128580 0.198216 0.118999 0.205914 0.090420 0.127602 0.079294 -0.268830 0.009155 0.000850 -0.132565 -0.168734 -0.520585 -0.184224 -0.111308 0.282234 0.117007 -0.159659 0.183862 0.138381 0.045453 -0.145288 0.056851 -0.193382 -0.050446 -0.064868 -0.234204 0.144015 0.089562 0.158431 0.200176 -0.051280 0.098032 -0.067475 -0.267440 0.261257 0.046407 0.133479 -0.219419 -0.310029 -0.371714 -0.057270 0.352697 0.138855 -0.074705 0.163356 -0.033715 -0.075433 -0.062699 0.011633 0.138504 0.013032 -0.109705 -0.019386 0.168480 0.239793 -0.231207 -0.166416 -0.180359 -0.166898 -0.286483 0.041631 0.285923 0.013037 -0.042761 -0.050816 0.046372 -0.179228 -0.123700 0.082763 0.108363 0.060830 -0.023028 -0.153498 -0.006082 -0.018311 -0.398025 0.016548 0.147196 0.237644 0.058597 0.233098 -0.017498 0.106637 -0.205192 -0.223624 -0.237445 -0.044079 0.225738 -0.104830 -0.080669 0.167096 -0.305956 -0.009089 0.159496 -0.103707 0.071863 -0.147055 0.021823 0.023880 0.056475 -0.296208 0.013817 0.102572 0.405621 0.001595 -0.015461 0.546458 0.068895 0.141736 -0.075775 -0.023708 -0.214889 -0.122922
Triton 0.459025 0.045879 -0.053691 -0.085018 0.038095 0.254197 -0.291233 0.064582 -0.326890 -0.144940 0.262264 0.167497 0.271140 0.394563 0.192949 0.366446 -0.210110 0.133957 -0.117675 -0.067724 0.126308 0.407657 0.016771 -0.233624 0.148290 -0.082521 -0.138010 0.455827 0.018300 0.385253 -0.451526 0.007526 0.076687 -0.145122 -0.254374 0.095909 -0.017636 -0.342443 0.487029 0.065820 0.318544 -0.045727 0.257626 0.321532 0.078745 -0.280488 -0.042285 0.544822 0.146049 0.012045 -0.089624 0.023531 0.470141 0.139425 -0.014444 0.101680 -0.062493 -0.083645 -0.012352 -0.508799 -0.280549 -0.175784 0.107760 0.084007 0.135065 0.487678 0.292191 0.203590 -0.119114 -0.134336 -0.199714 -0.045036 -0.083425 -0.264979 -0.152398 0.175388 0.248929 0.133863 -0.143945 0.136155 0.159592 -0.062664 -0.423535 -0.121547 -0.374207 -0.348565 0.289497 -0.007378 0.278399 0.275844 0.042603 0.260033 0.113020 0.007347 -0.009514 0.107803 0.229362 -0.238290 -0.060754 0.394395 0.601116 0.059681 -0.225183 -0.428487 -0.063964 -0.237738 0.242932 0.270775 0.386073 -0.044174 -0.340552 -0.095896 -0.277757 -0.216784 0.176880 -0.012760 -0.071531 0.324877 0.036339 0.073464 -0.154472 0.273916 -0.039164 -0.326833 -0.115950 0.251681 -0.171019 -0.046759 0.137188 0.081797 0.064676 -0.035002 -0.068450 0.226548 0.021732 -0.024424 0.466653 0.126072 0.001410 0.024490 0.163760 -0.215078 -0.353062 -0.153374 -0.048275 0.085718 -0.238470 0.012871 0.209672 -0.595522 0.255298 0.002288 0.143028 0.160089 -0.617305 0.521354 0.047540 -0.692111 -0.303881 -0.630367 0.031290 -0.089169 -0.103010 0.013001 0.077807 0.177962 0.077855 0.066782 0.070693 -0.296450 0.054170 0.211748 0.122481 0.020269 -0.297502 -0.007065 -0.174765 0.284195 -0.502539 -0.656959 -0.062415 0.289558 0.058547 0.175318 -0.197377 0.020122 0.149103 0.226796 -0.450808 -0.715977 -0.007545 0.076881 -0.068369 -0.189517 -0.160659 0.108412 0.011451 -0.145802 0.050484 0.229149 -0.144310 0.423965 0.291458 -0.406121 -0.002428 0.312680 -0.245423 -0.344426 0.024866 0.052659 0.060107 -0.264727 -0.533152 0.144699 -0.104401 0.026971 0.386890 0.488857 0.409776 0.064122 -0.385586 -0.047236 0.184964 0.580404 0.077440 -0.239427 -0.526463 0.141550 -0.002911 0.437714 -0.294414 0.061533 0.148255 0.055965 0.637644 -0.233565 0.366419 0.118619 0.302644 -0.377474 -0.289008 0.215613 -0.051262 -0.323186 0.248855 -0.139635 0.189441 -0.007545 -0.003365 0.180411 0.132333 -0.221032 0.161894 -0.090280 0.367329 -0.202271 0.324833 0.064538 -0.058945 -0.307048 0.112221 -0.343851 -0.222044 -0.086697 -0.125142 -0.100954 0.132899 -0.123230 -0.088870 -0.167554 -0.195791 0.025667 0.114186 0.255033 -0.125483 -0.477278 0.196751 0.398863 0.218565 0.084039 -0.157112 -0.194785 0.057664 -0.259657 -0.022754 0.191364 -0.013238 -0.229232 0.345549 0.185101 0.217564 -0.080864 0.128336 0.111655 -0.083391 0.061657 -0.103210 0.486520 -0.210652 -0.220351
Thomas -0.069079 -0.239176 0.051715 -0.289902 -0.106466 -0.370496 -0.180258 -0.053760 -0.254821 0.192392 -0.148013 -0.098879 0.182870 -0.313815 -0.391265 -0.174703 -0.251033 0.141364 -0.059504 0.047416 -0.102033 0.188530 0.166090 -0.016682 0.145686 0.035973 0.113459 0.132011 0.023962 0.085721 -0.103004 0.116354 0.189358 -0.069519 -0.302788 0.087288 -0.246622 -0.308628 -0.374022 0.019031 0.247341 -0.162995 -0.117261 0.016194 -0.026083 0.030963 -0.083380 0.210767 0.202723 -0.018029 -0.016881 0.280157 0.134642 0.112874 0.050149 0.085381 -0.046644 -0.326089 -0.176300 -0.314196 -0.098341 -0.148747 -0.037503 -0.106534 -0.130265 -0.066033 -0.095934 -0.186982 -0.115339 0.027112 -0.066276 -0.200986 0.223446 0.077086 0.167102 0.216421 0.141492 -0.067120 -0.059271 0.139824 0.070911 0.077060 0.062589 -0.007535 0.148789 -0.298069 -0.089675 0.132449 0.110831 -0.153123 0.278111 -0.238829 -0.102013 0.376587 0.168078 0.133177 0.143534 0.248073 -0.004731 -0.037044 0.035803 -0.298886 -0.002900 -0.089143 0.058088 -0.237491 0.135047 -0.133207 -0.276221 0.046307 0.124909 -0.322918 0.280849 0.122538 -0.003613 -0.081175 -0.033896 -0.034504 0.047045 0.017907 0.512799 0.128533 -0.112313 -0.035759 0.206868 -0.204581 0.212827 -0.127317 0.057895 0.207021 0.237278 -0.218474 -0.156587 0.058102 -0.053908 0.196132 0.123544 -0.112728 0.114167 -0.158220 -0.090227 0.122295 0.158470 -0.162623 0.079223 -0.130792 -0.076720 -0.323327 -0.392080 -0.347959 -0.049360 -0.273132 0.123139 -0.197349 0.156287 -0.099845 -0.396307 -0.220014 -0.444156 -0.042174 -0.062232 0.173982 0.033625 0.200464 -0.020974 0.230690 -0.344232 0.125349 0.081396 -0.334504 -0.124817 -0.041110 -0.005942 -0.009506 -0.073705 0.263619 0.131674 -0.018053 -0.265723 0.177861 -0.152899 0.095643 0.090142 0.070807 0.072787 0.087428 -0.075448 -0.222116 -0.006043 -0.217641 -0.051688 0.131282 -0.028914 -0.039550 -0.310242 0.115660 -0.166233 -0.154097 -0.184739 -0.525062 0.170812 0.189724 -0.114040 -0.059754 -0.181403 0.155762 0.075935 -0.476166 -0.058378 -0.220851 -0.132117 0.066867 -0.591447 -0.157070 0.032856 0.154973 0.189664 0.408334 0.190663 -0.079335 -0.001936 0.068510 0.207095 0.039245 0.177953 -0.069645 -0.124911 -0.035860 0.024770 -0.025572 -0.161583 -0.023758 -0.040822 0.047086 0.123030 -0.115134 -0.041415 -0.037005 -0.235510 -0.035101 0.087414 -0.216131 0.065006 0.097897 -0.081662 -0.271849 -0.083428 0.196603 -0.165381 -0.132437 -0.047869 0.020911 0.245621 0.000940 0.014539 -0.092539 -0.116090 -0.222373 0.079658 0.003900 0.255463 0.024061 -0.028113 -0.098039 -0.176533 -0.010725 -0.039523 0.221630 0.288304 -0.124509 -0.153564 0.123788 0.008743 -0.162283 -0.279303 -0.299175 0.057439 0.188791 0.025938 0.240675 -0.061950 -0.099843 -0.168134 -0.066319 0.172953 0.221440 0.379463 0.002266 -0.120147 0.334764 0.206303 0.189875 -0.069901 0.223589 0.075881 0.002089 -0.151795 0.063882 0.041512 0.025258
Saturn 0.400601 -0.181171 -0.137909 0.246809 0.355507 0.275484 -0.431356 -0.110668 -0.282738 -0.278732 -0.012176 0.194104 0.269707 -0.133223 -0.066454 0.219326 -0.068868 0.214520 -0.037161 -0.252225 -0.289548 0.498746 0.279630 -0.222681 0.225033 -0.315038 0.092494 0.156254 -0.032404 0.043433 -0.248866 0.002062 0.181018 -0.125588 -0.300036 -0.224528 -0.210148 -0.376497 0.380626 -0.129015 0.018153 -0.186461 -0.086550 0.191454 -0.102542 -0.455756 -0.200330 -0.053279 0.125542 0.012280 -0.051396 -0.147222 0.593267 0.115440 -0.119171 -0.353075 -0.198059 0.081097 -0.328402 -0.137978 -0.608099 0.131467 0.318456 -0.059206 0.295264 0.121666 0.031753 0.062332 0.016315 -0.126112 -0.509973 -0.301891 0.130687 0.016121 -0.004949 -0.013529 0.415301 0.080380 -0.291732 -0.186042 0.042313 -0.033762 -0.056108 -0.051400 -0.455793 -0.278564 0.059495 0.001146 0.435611 0.410273 -0.060868 -0.038090 0.217218 -0.022787 0.229339 0.202521 0.092700 0.071665 -0.169658 0.763917 0.557195 -0.129380 0.221912 -0.241531 0.095099 -0.025674 0.083826 -0.224466 0.164598 0.248975 0.097493 -0.212133 -0.254507 -0.318580 -0.107401 0.024557 0.150180 -0.144692 0.302564 0.289855 -0.121124 0.005857 0.117132 -0.114002 0.168276 -0.141618 -0.352613 0.087459 0.364898 -0.004599 -0.219544 -0.135340 0.067041 0.291607 0.124812 -0.133229 0.146714 -0.234747 -0.094543 0.125620 0.290474 -0.245092 -0.217723 -0.049342 0.196773 0.435844 -0.546466 -0.037401 0.290636 -0.141111 0.284002 0.192048 0.069311 -0.042884 -0.430657 0.250369 0.052661 -0.071091 -0.325502 -0.344867 0.374095 -0.198759 -0.118664 -0.214503 0.142726 0.166175 0.375606 -0.367535 -0.217793 -0.171521 -0.331124 0.254476 -0.149047 -0.265253 -0.040546 0.172456 0.296764 -0.189369 -0.352272 -0.247883 -0.409085 -0.315122 0.284644 0.120590 -0.450380 -0.140343 0.427448 0.254831 -0.081258 -0.481198 0.033010 0.273399 0.193048 -0.268840 -0.371419 -0.368288 0.155503 -0.009270 0.257281 -0.163743 -0.156804 0.433831 -0.164619 -0.250845 0.116701 0.008433 -0.178592 0.013211 0.475672 0.181970 0.008404 -0.541921 -0.497938 0.075229 -0.325685 0.345045 0.246231 0.560739 0.578002 0.339948 -0.195889 0.562613 0.047333 0.435074 0.145376 0.024743 -0.614551 0.173948 -0.443986 0.595438 -0.706671 -0.200436 0.203478 0.284570 0.274365 -0.245923 0.210525 -0.423938 0.486924 -0.153639 0.058200 0.275128 -0.380701 -0.127805 0.221874 -0.257748 0.066891 0.115075 0.366721 0.261259 0.045191 -0.304921 0.196257 0.195697 0.098765 0.297843 0.293391 0.248527 -0.315441 0.204030 -0.043432 -0.239182 -0.071357 -0.494259 -0.249773 0.127786 -0.123634 -0.014941 0.143081 -0.072122 -0.217447 -0.165078 0.181108 0.115235 -0.075407 -0.707909 0.327944 -0.409650 0.326074 0.111220 -0.226694 0.003861 -0.035416 -0.228256 -0.020108 0.138380 -0.276194 0.024336 0.172444 0.231563 0.466246 0.030658 0.114216 0.414807 0.177581 0.498253 0.131419 0.274474 -0.197307 -0.175072
jaguar 0.481248 0.040935 -0.204742 0.359059 -0.282732 -0.019685 0.057229 0.259603 -0.258850 0.181935 0.154861 -0.025750 -0.106870 -0.089645 -0.199434 0.153173 0.048553 0.602757 -0.179746 0.058309 -0.264876 0.023411 0.038443 0.417538 0.583404 -0.009522 -0.364070 -0.127352 0.450900 0.095662 -0.546164 0.141917 -0.219933 0.122734 -0.415420 0.113351 0.039430 -0.084264 0.404683 -0.067011 -0.232322 0.051808 -0.196734 -0.409627 -0.059683 -0.149088 0.100207 -0.377908 -0.316519 -0.143255 0.107134 0.102894 0.165993 -0.316123 0.311762 -0.022325 -0.227449 -0.033536 -0.123765 0.052495 -0.134011 0.041100 0.401884 0.385957 0.012067 -0.209859 -0.422745 0.116752 -0.206263 0.057859 -0.312880 -0.026241 0.526347 0.169784 -0.157496 0.433935 0.005545 0.302506 -0.242175 0.215269 -0.063479 0.696617 0.046212 0.532117 -0.330904 -0.049453 -0.490963 0.693559 -0.144241 0.489918 -0.389331 0.092040 0.178079 0.258559 -0.146918 -0.067251 -0.157125 0.361894 -0.240214 -0.203155 0.237548 -0.014204 0.012409 0.066246 -0.248213 0.062215 -0.431038 -0.294800 0.096287 0.162853 -0.029223 -0.329120 0.073277 0.113129 -0.476838 0.017646 0.276769 -0.218091 0.210546 0.358170 0.047896 0.078824 -0.135106 -0.063644 -0.067252 -0.122038 -0.146538 -0.294030 0.317739 0.029590 -0.126607 0.399318 0.175102 -0.027062 -0.433047 -0.316984 -0.176138 0.309886 0.499810 -0.159621 0.129518 -0.394826 0.005796 0.011474 0.015477 -0.231731 -0.202992 0.089652 0.122749 -0.117517 0.065177 -0.240746 0.055630 -0.061948 -0.465230 0.388446 -0.019903 -0.132606 -0.472513 0.350745 0.127069 0.141076 -0.322253 0.232250 -0.147372 0.064187 -0.294057 -0.294502 -0.181305 0.012387 0.376906 -0.023990 0.051453 -0.260546 -0.224919 0.415334 -0.348323 0.028800 -0.088406 -0.118738 -0.740417 -0.298825 -0.321571 0.308808 -0.143881 0.363173 0.176993 -0.073584 -0.088167 -0.123655 0.227362 0.034979 0.083516 -0.491136 0.265546 0.447601 -0.198148 0.171489 -0.000434 0.143661 0.174138 -0.022200 0.432173 0.241126 -0.347175 -0.030915 -0.008890 0.012027 0.299225 0.298775 -0.064115 -0.496017 -0.484042 0.265684 0.128259 0.077287 -0.000600 0.459970 0.096445 0.084849 0.247269 0.616834 0.325120 -0.097202 0.155197 -0.180533 0.058384 0.135627 0.216343 0.274818 -0.009492 0.152519 0.249166 -0.223101 0.156083 -0.388616 0.203706 0.095811 -0.121011 0.276388 -0.090635 0.292267 -0.630640 0.165780 0.238409 -0.205736 0.212709 -0.491842 0.403077 -0.107948 0.087486 -0.013309 -0.360612 -0.173620 -0.095256 0.297828 -0.037711 0.012444 0.288678 0.106705 -0.142865 -0.312129 0.211835 0.175262 -0.655053 -0.058375 0.276767 -0.590529 0.109565 0.295450 -0.164565 -0.084915 0.128151 -0.085430 -0.236999 -0.530981 -0.264974 0.081164 -0.028735 0.437245 -0.200952 0.119333 0.111934 -0.456284 0.317282 -0.728972 0.103416 -0.019689 -0.014067 -0.106308 0.148863 -0.185944 -0.055507 -0.037496 0.096433 0.820257 -0.066727 0.075570 -0.403323 -0.139765
Noah 0.098150 -0.220988 0.025153 0.017255 0.005520 -0.334594 -0.257473 -0.181449 -0.237825 0.107399 -0.275324 0.244543 0.008493 -0.291120 -0.177605 -0.072938 -0.022865 0.312429 0.154475 -0.382394 0.081712 0.277880 -0.015240 0.181906 0.272450 -0.282016 0.232135 0.114451 0.164507 0.096533 -0.561303 0.201162 0.557694 0.178637 -0.434877 0.133898 -0.041224 -0.095936 0.060048 0.165343 0.042233 0.183858 -0.121943 -0.079899 0.012451 -0.477327 0.320484 -0.095000 0.079854 -0.007479 -0.022408 -0.187357 0.393178 0.016414 0.276271 0.092695 -0.196330 -0.043695 -0.371513 -0.661429 -0.205663 -0.140783 0.066165 0.031956 0.082087 0.071179 -0.019360 -0.251756 0.050885 -0.314890 0.035609 -0.422155 0.103834 0.191916 0.193108 -0.210044 0.068070 0.082719 -0.122875 -0.049281 -0.029405 -0.097518 0.220559 -0.114159 -0.242577 -0.257474 -0.010584 -0.014543 0.406398 0.206073 -0.067569 0.115756 0.047014 -0.237097 0.236396 0.264287 -0.186102 0.424288 -0.355783 0.016982 0.267526 0.018712 -0.011457 -0.145327 -0.204221 0.145923 -0.251821 -0.440563 -0.094799 -0.224200 -0.396856 -0.476150 0.405465 0.332675 -0.362868 0.073075 0.085052 0.003604 0.064142 0.299788 0.349446 -0.024265 -0.130389 0.090622 -0.026052 0.125816 0.163839 0.113763 0.104073 0.309771 0.486225 -0.075181 0.078032 -0.441494 -0.168675 0.008487 -0.058406 0.056765 0.032797 -0.279605 -0.062127 0.158581 0.179687 -0.546145 -0.009518 0.126079 -0.201034 -0.181102 -0.311441 -0.616561 -0.292241 -0.084181 0.202348 -0.060565 -0.078204 0.073856 -0.380023 0.012791 -0.627142 0.135963 -0.043190 0.099640 -0.099892 0.006503 0.060089 0.126922 0.141778 0.156810 0.002712 -0.277131 -0.019563 -0.049976 0.217199 0.284563 0.246675 0.320194 0.067826 -0.106012 -0.330938 0.498659 -0.456621 0.209607 -0.052233 -0.407603 -0.219705 0.019139 0.187754 0.005691 0.140108 -0.333761 0.109023 -0.240243 -0.704668 -0.215190 -0.456967 0.112021 -0.026685 0.108409 -0.158027 -0.432681 -0.160813 0.107401 0.152224 -0.495422 -0.078101 0.132892 -0.021702 -0.652772 0.026233 -0.083344 0.089495 0.283123 -0.368126 0.200928 0.046238 -0.005651 0.008361 0.276769 0.186694 0.281590 -0.059652 0.062132 0.324364 0.214632 0.245406 -0.366628 -0.043848 -0.067589 0.122405 -0.033764 -0.148527 -0.054654 0.137721 -0.035201 -0.026743 -0.099792 0.222451 -0.140529 -0.016412 -0.300419 0.401578 -0.184470 0.282156 0.148446 -0.050004 -0.393625 -0.315261 0.113394 0.084099 0.346585 0.063423 0.105909 -0.105001 0.090006 0.122542 0.280596 0.112330 0.019725 0.026948 0.253551 -0.029289 -0.159539 -0.143823 0.214116 -0.238474 0.204492 0.127232 -0.159337 0.267955 0.314843 -0.066102 0.022736 -0.008631 -0.046255 0.070652 -0.078006 0.275491 0.108421 -0.382719 0.273191 -0.258702 -0.142669 0.126347 -0.374038 0.029333 -0.342976 -0.060652 0.069615 -0.085084 0.008988 -0.136502 -0.225070 0.212106 0.086524 -0.072334 0.438668 -0.419098 -0.020754 -0.274650 -0.143545
Jupiter 0.654590 -0.213015 -0.195495 0.434551 0.260665 0.271664 -0.349230 0.137822 -0.223481 -0.076694 0.191825 0.080620 0.469369 0.144190 -0.006237 0.212903 0.047706 0.154361 -0.049523 -0.245231 -0.407377 0.272953 0.300699 -0.139397 0.130024 -0.445332 0.266517 0.411885 -0.182980 -0.043162 -0.048651 -0.187651 0.166698 -0.285612 -0.022690 -0.220231 0.119408 -0.601988 0.355477 0.162049 -0.027942 -0.227576 -0.018648 0.072834 -0.147353 -0.582765 -0.190243 0.038604 0.142738 0.068057 -0.144654 0.030043 0.318482 0.087790 -0.286713 -0.296649 0.212867 0.134282 -0.191363 -0.113652 -0.427217 0.092188 0.330485 -0.253318 0.410051 0.142288 0.131655 0.010689 0.036716 -0.123944 -0.252563 -0.135115 -0.094886 -0.015020 -0.024164 0.141986 0.151276 0.039202 -0.396957 -0.033095 0.373054 -0.114734 -0.143333 -0.112343 -0.287407 -0.354909 0.015600 0.212897 0.593500 0.602429 0.038188 0.055406 0.094450 -0.361521 0.164850 0.130060 0.237985 0.230956 -0.230824 0.917143 0.620781 -0.102080 0.180513 -0.331606 -0.004114 -0.277310 0.121926 -0.319328 -0.162869 0.357983 0.022214 -0.017964 -0.066249 -0.152269 -0.020561 -0.173310 0.238045 -0.004397 0.196414 0.285659 -0.329044 -0.092285 0.149232 -0.172122 0.202554 -0.231734 -0.160545 -0.039861 0.471327 0.071142 -0.304619 -0.119721 -0.140034 0.241478 0.250049 -0.024269 0.362206 -0.182224 -0.093651 0.216172 0.222040 -0.287686 0.164640 -0.247752 0.150999 0.210430 -0.509360 0.034263 0.124404 -0.364493 0.127622 0.172051 0.082337 0.014985 -0.380718 0.308019 -0.225862 -0.186489 -0.208371 -0.355842 0.275624 -0.130433 -0.160097 -0.084403 -0.084328 -0.096966 -0.008595 -0.321670 -0.332603 -0.140155 -0.230001 0.199361 -0.021646 -0.111387 -0.172624 0.051709 0.438534 -0.209829 -0.414709 -0.292950 -0.481976 -0.122126 0.177540 0.137713 -0.265712 -0.145544 0.273493 0.058595 -0.298122 -0.276530 0.143181 0.271271 0.136484 -0.240457 -0.687843 -0.334717 -0.113156 0.131195 -0.084422 -0.031864 -0.210646 0.352844 0.118148 -0.447558 0.061309 -0.043294 -0.273032 -0.209016 0.449289 0.145481 -0.032139 -0.516914 -0.257872 -0.069769 -0.280208 0.111579 0.318046 0.608150 0.715850 0.309032 -0.173961 0.530479 0.007075 0.270932 0.262137 -0.119339 -0.605677 0.370069 -0.362971 0.600169 -0.294116 0.126717 0.090875 0.378674 0.356988 -0.312148 0.190160 -0.415053 0.267659 -0.083691 -0.125834 -0.013249 -0.331824 -0.242303 0.211334 -0.324084 0.325774 0.060352 0.296588 0.113737 -0.032116 -0.292492 0.008302 0.113197 0.203801 0.350167 0.387773 -0.022873 -0.154529 0.068455 -0.150651 -0.545037 -0.175056 -0.477336 -0.278450 0.168060 -0.213978 -0.129735 0.361042 -0.334379 -0.238293 -0.072496 0.262412 -0.085952 -0.239235 -0.879346 0.354436 -0.268220 0.329854 0.266421 -0.512141 0.184634 -0.206270 -0.452424 -0.005194 0.170462 -0.164219 -0.082550 0.014762 0.266641 0.247883 -0.093467 0.082818 0.206386 -0.015350 0.461723 0.137126 0.352682 -0.286166 -0.205930
Uranus 0.622326 0.184176 -0.229330 -0.235696 0.339906 0.032410 -0.518232 0.047826 -0.314340 -0.191002 0.225031 0.045301 0.288429 -0.051432 -0.196007 0.078089 0.114655 0.148206 -0.203740 -0.210298 0.037217 0.355822 0.379546 -0.281192 -0.022613 -0.491544 0.006704 0.097659 -0.346599 -0.190969 0.018786 0.050227 0.277054 0.196934 -0.553812 0.064562 -0.146270 -0.561979 0.449264 -0.102103 -0.060009 -0.082849 -0.179488 0.246996 -0.066308 -0.663773 -0.154453 -0.024173 0.231768 -0.120491 -0.098125 -0.136990 0.956845 0.318043 -0.151093 -0.337944 -0.028767 0.253040 -0.187646 -0.227281 -0.522423 0.007905 0.510562 -0.211987 0.175895 0.010337 0.125532 -0.037897 -0.035472 -0.068452 -0.591980 -0.171525 0.124822 0.102516 -0.275785 0.743189 0.447699 -0.085050 -0.333185 0.108061 0.329276 -0.332025 -0.033175 -0.127166 -0.251357 -0.456168 0.208514 0.148580 0.393866 0.594791 0.038361 0.165711 0.030659 -0.036283 0.305539 0.229850 0.324843 0.447810 -0.126195 0.610940 0.395924 0.014933 0.331786 -0.353929 0.055549 0.008326 0.164788 0.049821 0.008130 0.135243 0.134064 -0.328637 -0.112372 -0.577746 0.040660 -0.005941 0.121517 -0.237734 0.495212 0.246950 -0.031168 0.148158 0.289184 -0.211106 0.000283 0.014911 -0.279646 0.136194 0.460291 0.097405 -0.218909 -0.094908 -0.075891 0.351256 0.247859 -0.248936 0.432506 -0.086198 -0.206243 0.015002 0.079244 -0.410516 -0.003113 -0.274065 0.442611 0.502377 -0.557409 0.120401 0.206320 -0.476714 0.490384 0.192505 0.224678 0.363401 -0.381818 0.225984 0.093798 -0.362373 -0.221642 -0.152508 0.227968 0.050100 -0.131412 0.084883 -0.087224 0.290661 0.274855 -0.290702 0.076346 -0.177762 -0.258798 0.341785 -0.200938 -0.239353 -0.208608 0.097420 0.276112 -0.125722 -0.525866 -0.230689 -0.347175 -0.176980 0.143327 0.177879 -0.622014 0.005496 0.289852 0.529837 -0.422299 -0.453818 0.015878 0.266809 0.375129 -0.293273 -0.697779 -0.304343 -0.255189 -0.139733 -0.112666 -0.005399 -0.254380 0.469143 -0.088731 -0.134970 0.127197 -0.173680 -0.221281 0.193705 0.534025 0.223499 0.130480 -0.351519 -0.421215 -0.100056 -0.233865 0.243010 0.189722 0.617853 0.635859 0.527071 -0.233374 0.280138 0.113568 0.435903 0.195603 0.147102 -0.669721 0.263502 -0.420436 0.442483 -0.592665 -0.337418 0.322734 0.358428 0.340842 -0.235704 0.298342 -0.246087 0.497405 0.027669 0.104265 -0.036863 -0.329164 -0.132874 0.196309 -0.026142 -0.060605 0.259644 0.437264 0.116863 0.252117 -0.268944 0.090508 -0.067852 0.152985 0.289225 0.371497 0.408610 -0.051526 0.460868 -0.293834 -0.391960 -0.058749 -0.181708 -0.150160 0.256252 -0.188308 -0.028049 0.208233 -0.216580 -0.328348 0.191980 0.233318 -0.133073 0.101339 -0.897060 0.241856 -0.355762 0.373839 0.244765 -0.556162 0.090815 -0.098330 -0.328565 -0.154751 0.189599 -0.398593 -0.231685 0.402601 0.522448 0.363789 0.074958 0.318081 0.670500 0.313682 0.481980 0.130448 0.555144 -0.182985 -0.228204
crucifixion -0.058999 -0.099805 -0.356749 0.006392 0.329311 0.287558 -0.388680 0.171136 -0.067809 -0.125743 -0.134524 0.011484 -0.005574 -0.346669 -0.262514 0.353263 -0.285926 0.183890 0.188143 0.076277 -0.219077 0.325868 -0.193640 0.589654 -0.080148 -0.273202 0.203925 0.103706 0.013505 0.256974 -0.070606 -0.078296 0.325006 0.072532 0.110590 -0.129584 -0.283878 0.035123 -0.161224 0.029747 -0.030697 -0.105636 -0.508535 -0.331520 0.385640 -0.299760 0.080174 0.034247 -0.167231 0.300395 0.321603 -0.391945 0.355620 -0.060826 0.135637 -0.061773 -0.632793 0.017130 -0.141883 -0.141052 0.117564 -0.436553 0.085162 0.138714 0.611681 0.131302 -0.085616 -0.238585 0.093990 0.011263 0.111098 -0.008917 0.361062 0.039858 -0.197572 0.003295 0.006761 0.238792 -0.169764 -0.489358 0.559371 0.255055 0.334385 0.372931 -0.198183 -0.073222 -0.031343 0.115288 0.393315 0.542471 0.318241 0.002084 0.118464 -0.151092 0.067405 0.500286 0.173456 0.554472 -0.182235 -0.158641 0.123484 0.032884 0.112551 -0.095739 0.222300 0.001464 -0.300785 -0.428087 0.042164 -0.228658 0.006231 -0.605633 0.075970 -0.187365 -0.307110 0.230239 0.288206 -0.353739 -0.220166 0.311408 -0.129336 -0.110519 -0.127072 -0.115669 0.060840 -0.298551 -0.197239 0.266052 0.207763 0.591364 0.133524 -0.082332 -0.006093 -0.193887 -0.050091 -0.177158 0.047141 0.334165 -0.381554 -0.244241 -0.249076 0.255830 0.648586 -0.181673 0.221664 -0.141828 0.523413 0.487696 -0.426187 -0.043923 -0.144348 0.027657 -0.208862 -0.002331 -0.096615 0.063006 -0.309457 -0.031579 -0.610080 0.102574 -0.045676 0.292692 -0.219413 0.042555 -0.085143 0.102687 0.043247 0.235130 -0.149334 -0.407365 0.004204 -0.181285 -0.160343 -0.122488 0.110135 0.172410 -0.155462 0.076454 0.238937 0.142629 -0.235107 0.002711 0.316082 -0.106924 -0.063281 0.142030 0.173430 -0.133465 0.087821 -0.433412 -0.184190 0.204820 -0.461451 -0.471406 -0.176940 0.058326 0.027007 -0.246057 -0.135461 -0.374652 -0.013784 0.039426 0.018457 -0.287806 -0.039703 -0.467695 0.338509 -0.762085 0.241611 -0.077586 -0.129888 0.092318 -0.337849 -0.170461 -0.055095 0.270655 0.046238 0.204587 0.027446 0.446787 -0.351681 -0.027240 0.347817 0.015684 -0.586332 -0.109408 -0.461248 0.171282 0.177077 0.209887 -0.218243 -0.160409 0.238003 -0.045468 0.171343 -0.006227 0.460253 -0.143467 -0.147241 -0.125780 0.561617 -0.075903 -0.223400 -0.066258 0.182845 0.545218 -0.205867 -0.239439 -0.034956 0.174287 0.431053 0.186864 -0.144520 -0.360522 0.339583 -0.012407 0.135681 0.220112 0.167702 0.374152 0.002924 0.110261 -0.050222 -0.273679 -0.260240 0.201897 0.304187 0.220842 0.338807 0.084324 -0.662816 -0.037931 -0.320548 -0.081196 -0.260410 -0.464805 -0.083670 0.111484 -0.320574 0.236066 -0.173643 0.010353 0.159531 -0.307569 0.210595 -0.087381 0.076040 -0.342785 0.143897 -0.140222 -0.161348 -0.072623 0.301621 0.265466 0.222486 0.558507 0.225290 0.236985 -0.391388 0.186067
Bridgestone -0.197308 -0.048079 -0.058245 0.208813 -0.309849 0.374842 -0.120123 -0.191669 -0.234236 0.087244 0.228627 0.029888 0.443401 -0.098846 0.114570 -0.043822 -0.381440 0.028809 -0.199909 -0.090766 -0.063417 0.258353 -0.149765 0.332822 0.122032 0.230565 -0.201347 0.138315 -0.098803 0.196143 0.028160 0.286881 0.069207 -0.544481 -0.170527 -0.221307 -0.285381 0.212209 0.128932 0.140968 -0.035816 -0.232958 0.049067 0.444072 -0.023569 -0.065828 -0.186736 0.109597 0.259207 -0.038797 -0.053369 -0.156339 -0.095650 -0.356989 0.070546 0.056085 -0.135002 0.248900 -0.000104 -0.285768 -0.127626 0.242793 0.349450 -0.220062 -0.242002 0.397907 -0.345716 -0.030216 0.042919 -0.059769 -0.056464 -0.354472 -0.050233 0.263192 0.294581 0.076416 0.342805 0.483743 -0.371763 0.430849 -0.269602 0.249072 0.082749 -0.194483 -0.469210 -0.697527 0.041741 -0.339704 0.144063 -0.007164 0.099068 -0.230440 0.354351 0.090424 0.154049 0.464104 0.232676 0.099503 0.101063 0.614019 0.493825 0.098159 0.060669 -0.189308 0.013482 -0.228604 -0.051004 -0.223898 -0.016662 0.095316 -0.123118 -0.057074 -0.019149 0.099490 -0.114693 0.179976 -0.020238 0.105379 0.538553 -0.003743 -0.112939 0.216857 -0.063437 0.039218 0.438766 -0.397263 0.347262 -0.213652 0.485136 0.018331 -0.129602 -0.052368 0.399763 -0.048144 0.053509 -0.146791 0.306768 -0.201722 0.160372 0.195595 -0.298799 -0.524954 0.039655 0.350969 0.515843 0.258192 0.019427 -0.349940 0.350383 0.029630 -0.076903 0.319213 0.374053 0.130182 -0.284015 0.279523 0.436946 0.280711 0.228260 -0.172319 0.481128 -0.239455 0.417032 0.365361 0.122745 0.132242 0.147242 -0.104334 0.417214 0.054256 0.754330 0.162936 -0.019535 -0.298337 -0.558313 0.157924 -0.432341 -0.080342 0.151486 -0.145949 0.365786 -0.038331 -0.099427 -0.169246 0.000086 -0.271226 0.140575 -0.080193 -0.105805 0.437386 -0.293113 0.291177 0.045544 0.014384 0.449119 0.582429 -0.263312 -0.106794 -0.514846 0.157967 0.039138 0.073765 0.009580 -0.280660 0.375676 -0.090691 0.042699 -0.348522 -0.082992 0.407426 0.084464 0.358290 -0.883936 0.153146 0.210835 0.039019 -0.159200 0.939394 0.118663 -0.142953 -0.142571 0.015849 0.162836 0.255424 0.095210 0.080300 -0.248776 0.052613 -0.516167 0.541879 -0.295939 0.041516 -0.204048 0.040216 -0.052709 0.344394 -0.330381 0.307386 0.507407 -0.238976 0.237011 0.182610 -0.147034 0.421489 -0.035305 0.090212 0.098790 -0.037347 -0.068801 -0.072000 0.057656 -0.047411 -0.319719 -0.404459 -0.178730 0.142993 -0.043756 0.062069 -0.019410 -0.019784 0.298593 0.337821 -0.180586 -0.059096 -0.186210 -0.349639 0.058821 -0.213819 0.208458 -0.040628 -0.032298 -0.464477 -0.074077 0.228391 -0.153774 0.155822 -0.221807 -0.271072 0.137115 0.287976 -0.077410 -0.285487 -0.057732 -0.189865 -0.254162 -0.082383 -0.011565 0.083268 0.149734 0.134939 0.207661 0.043614 -0.247344 0.395906 0.131500 0.320458 0.131631 -0.012466 -0.234943 -0.350203
Sun 0.355757 -0.216671 -0.104699 0.066973 0.250826 -0.088442 0.051442 -0.092926 -0.139931 -0.154325 -0.106475 0.350536 0.459389 0.324438 -0.169692 0.036742 -0.181656 -0.234171 -0.367449 0.248490 -0.135153 0.400752 0.035980 0.242043 0.188272 -0.289165 0.318073 0.109103 0.184583 -0.015217 0.012659 0.034034 0.142064 -0.099142 0.097356 -0.112162 -0.133492 -0.412783 0.333522 0.070464 -0.048639 -0.396650 -0.248937 0.189719 -0.047579 -0.118880 0.071434 0.211075 0.087456 0.098088 0.121319 -0.169726 0.101174 0.348980 -0.319181 0.011247 -0.087251 -0.020725 -0.451255 -0.083900 -0.114792 0.369666 -0.112101 0.054680 -0.006715 0.298962 -0.003626 0.045523 -0.064474 0.074699 0.022537 0.031689 -0.128896 -0.068737 -0.003634 0.436051 -0.188880 0.069657 -0.195984 0.078680 -0.118344 -0.279870 0.024447 -0.233168 -0.410068 -0.169233 -0.076672 -0.232079 0.176854 0.410483 0.172905 -0.177333 0.382988 0.007674 0.186933 0.155167 0.401081 -0.193978 -0.106274 0.156188 0.229681 0.329683 -0.117349 -0.142402 -0.143612 -0.133230 -0.189705 -0.042515 -0.017142 0.119457 0.066718 -0.408211 0.001792 0.209091 -0.029612 0.123085 -0.057988 -0.039613 0.013903 -0.273120 0.114719 0.247238 0.114577 0.173506 0.021003 0.132034 -0.239026 -0.081870 0.099250 0.221229 0.024841 -0.153801 0.179220 0.203343 0.012692 -0.116769 -0.093662 -0.187355 -0.007754 -0.057859 0.128536 0.135612 0.092461 -0.068042 -0.055377 -0.132737 -0.118048 -0.043416 -0.110639 -0.355954 -0.001270 0.157468 0.070670 0.393374 -0.256448 0.183512 -0.183603 -0.410228 -0.147174 -0.430348 0.354157 0.054764 0.272636 0.027614 0.078622 0.020170 0.073468 -0.466076 -0.072474 0.402994 0.080694 0.229257 -0.232114 0.083345 -0.335431 0.030916 0.123392 -0.155094 -0.115403 -0.040421 -0.120668 -0.022821 0.342051 -0.109642 0.142681 -0.156590 -0.000137 -0.054707 -0.423965 -0.063967 0.106376 0.468772 -0.142515 0.105395 -0.240578 -0.285840 0.200224 -0.063615 -0.232159 0.192381 0.105898 0.496188 -0.145312 -0.225584 -0.092934 0.279312 -0.066571 -0.172069 0.065055 0.030908 0.163206 -0.118273 -0.355461 0.167732 0.078636 0.223687 0.033587 0.186096 0.462094 0.255154 -0.096437 0.334455 0.064084 -0.161237 0.563287 -0.145246 -0.668502 0.379486 -0.317436 0.410097 -0.160144 -0.264301 0.053404 0.119713 0.545262 -0.138129 0.031532 -0.149567 0.274308 0.063104 -0.078771 0.369134 -0.224634 0.210156 0.063315 -0.221035 0.156720 -0.240816 0.141201 -0.055788 0.213246 -0.258060 0.236473 0.062597 0.126451 -0.076586 0.139566 -0.198666 0.296660 0.255298 -0.065067 0.091621 0.237161 -0.630807 0.007469 0.089102 -0.206565 -0.203630 0.587158 -0.120665 -0.309386 -0.233730 0.101705 -0.178839 -0.293821 -0.598160 0.048400 -0.291259 -0.119047 0.397698 -0.320930 -0.192147 -0.195829 -0.368448 0.025385 0.253295 0.051946 -0.030719 -0.331460 0.073197 0.088144 -0.002061 0.199588 0.249650 -0.010397 0.280965 0.016398 0.251502 -0.123872 -0.219585
HP 0.363227 -0.103299 0.127919 0.104051 -0.008266 -0.189784 -0.092506 -0.056414 -0.147509 -0.129421 -0.328914 -0.157005 0.592731 -0.099435 -0.048563 -0.078084 -0.042205 -0.379152 0.049245 0.478712 -0.002754 0.073212 0.155790 0.170492 0.423671 0.249571 -0.180050 -0.409081 -0.170377 0.069746 -0.029790 0.015936 0.049936 -0.233159 0.170865 0.208112 -0.133136 -0.451515 0.137312 0.083296 0.172976 -0.075507 -0.007641 0.026913 0.311225 0.223869 -0.192512 -0.182541 0.194808 -0.040800 0.074269 -0.020352 -0.091511 0.054128 0.144274 0.123533 0.211311 -0.167687 -0.461490 -0.158951 -0.155426 0.262668 -0.018169 0.132342 -0.360598 0.073000 0.012272 -0.104347 0.006204 0.100758 0.253183 0.132758 0.401639 0.293423 0.070269 0.140866 -0.210735 -0.007809 -0.358235 0.152314 -0.181593 0.054544 0.348347 0.169124 -0.265707 -0.334402 -0.119386 -0.246903 0.405583 0.147184 0.003160 -0.502306 0.057805 0.132151 0.052677 0.216976 0.626762 -0.388750 -0.355302 0.179033 0.464015 0.213778 -0.131668 -0.038236 0.078261 -0.353643 0.126247 -0.214484 -0.071826 0.030869 0.031986 -0.310285 0.330326 0.017886 -0.092036 0.224820 -0.298392 -0.129243 0.041682 -0.154999 0.149895 0.217918 -0.180917 -0.211261 0.036784 -0.257703 0.060744 -0.294322 0.160788 0.182159 -0.066165 -0.328280 0.183895 0.015013 -0.217444 -0.277719 -0.025327 0.409565 0.044805 0.075168 0.032535 0.054912 0.056708 0.325379 -0.187283 0.136918 -0.147651 -0.082354 -0.144997 -0.144301 -0.001802 -0.024996 0.230603 0.387451 -0.380598 0.197528 0.487895 -0.319170 0.122922 -0.051205 0.119924 -0.286196 0.461592 0.402428 0.470337 0.028007 0.055241 -0.039012 -0.067825 0.112851 0.249066 0.131592 0.335675 -0.125023 -0.081002 0.147400 -0.076957 -0.530495 -0.184702 0.073312 -0.053725 -0.149372 0.232971 0.212606 -0.018887 0.090711 -0.157946 -0.094745 -0.190565 0.369015 0.166701 0.397469 -0.166320 -0.100522 -0.093424 -0.264456 -0.002544 -0.164508 -0.143609 -0.022437 0.188524 0.197192 0.243672 -0.001497 -0.254023 -0.130600 -0.146621 -0.259281 0.004658 -0.028558 0.041007 -0.091526 -0.622430 0.352670 0.049965 0.208922 -0.010388 0.079303 0.285327 0.513863 -0.288282 0.348584 -0.017635 -0.006818 0.182735 -0.172217 -0.497339 0.194716 0.006738 0.465952 -0.062330 0.064123 -0.136205 0.153101 0.153556 -0.056471 0.132399 0.008846 0.099738 0.147988 -0.077582 0.465532 0.339193 -0.091433 0.044550 0.103827 0.385997 -0.362550 -0.072950 -0.126648 -0.114572 0.302054 0.034395 -0.046891 -0.071231 -0.124146 0.024878 -0.080542 -0.018957 0.007693 0.314470 0.145435 -0.077606 -0.435644 0.130275 0.254586 -0.048412 -0.431570 0.504582 0.080986 0.054649 -0.381929 0.168083 0.037551 0.084099 0.039431 0.425925 -0.276137 0.134979 0.397036 -0.125445 -0.339525 0.214185 -0.356159 -0.299937 -0.105225 0.104803 0.030381 -0.165957 0.119428 0.022016 0.152130 -0.135448 0.302422 -0.093314 0.249180 -0.175630 0.205344 0.069857 -0.305726
February -0.158529 -0.232611 0.443451 -0.341657 -0.011018 -0.184216 -0.377696 -0.190455 -0.135863 0.131368 0.097868 0.049478 -0.092724 0.483649 -0.619761 -0.226219 -0.110233 0.091962 -0.045953 -0.024830 0.067535 0.088627 -0.046794 0.104448 0.205081 -0.009418 0.008836 0.510246 -0.052298 0.172685 -0.292532 0.040457 -0.176871 0.021639 -0.278223 -0.288343 -0.017432 -0.057914 0.150446 0.228755 0.117665 -0.201050 -0.125207 -0.163739 -0.044617 0.289852 -0.023881 0.191402 -0.181496 0.000893 0.189910 -0.178100 -0.010489 -0.071363 0.225913 -0.103407 0.276329 -0.114178 0.004021 0.123912 0.003774 -0.189261 -0.397893 -0.167844 0.120894 0.391058 0.123390 0.062999 0.298348 -0.410451 0.087683 -0.183132 0.155858 -0.023332 -0.090029 0.406207 0.239993 -0.003880 0.263131 -0.023990 -0.202832 0.060471 -0.019540 -0.284674 -0.092976 -0.132914 -0.009516 -0.341590 0.095707 -0.148037 -0.037546 -0.114935 0.220841 0.195679 0.160014 -0.065374 -0.010809 0.180541 0.005160 0.144335 -0.115269 -0.045753 0.043529 -0.118573 -0.104057 0.059300 0.117358 0.053809 0.006819 0.228308 -0.058203 -0.323471 0.122939 0.080315 -0.067243 -0.155203 -0.391521 -0.204837 -0.338021 0.237467 0.167106 -0.053964 -0.261191 -0.009556 0.148858 -0.123947 0.286592 0.186878 0.193855 0.360788 0.107940 -0.182352 0.103940 0.003406 0.094476 0.194492 0.086909 -0.010561 -0.478327 -0.092228 -0.023581 -0.247862 0.189239 0.160828 0.356020 -0.398147 -0.396382 -0.233251 -0.253349 0.171178 -0.151159 -0.104765 -0.063293 -0.281215 0.122696 -0.084679 -0.095387 -0.165636 -0.084581 -0.001853 0.189488 -0.110716 0.340293 0.345872 0.076373 0.015862 -0.306008 -0.292275 0.405942 -0.072165 0.173847 -0.133320 0.096489 0.239989 -0.121748 0.290438 -0.034982 0.201323 0.038128 -0.201984 -0.117014 0.226035 0.083120 0.120366 -0.010999 -0.037170 0.358884 0.106202 -0.145207 0.162210 0.186982 -0.088198 -0.016425 -0.261649 -0.286435 0.101833 0.084841 -0.497934 -0.118605 -0.114217 -0.048521 0.537657 -0.058399 -0.280741 0.019323 0.087291 0.127670 -0.086319 0.041018 -0.029925 -0.194788 -0.399106 0.054906 0.000878 0.244299 -0.118104 0.121641 0.391481 -0.060328 -0.020288 -0.070584 -0.269819 -0.348739 -0.067315 0.331532 -0.064088 -0.442957 -0.163724 -0.135616 -0.071268 -0.212012 0.171582 0.080814 -0.266262 0.349017 0.043358 -0.125124 0.080109 0.071019 -0.129019 -0.000488 0.033333 -0.495570 -0.156174 -0.072323 -0.291146 -0.407559 -0.089358 0.207506 -0.013527 -0.151379 0.292488 -0.298459 0.046892 -0.153823 -0.115747 -0.067797 -0.169490 -0.443127 0.130000 0.170866 0.151087 -0.158790 -0.233981 0.234597 0.102209 -0.139327 -0.210649 0.272693 -0.248157 -0.289838 0.068248 0.243442 -0.037699 -0.409482 -0.173408 -0.178336 0.106755 -0.339979 -0.057774 0.349226 -0.331902 0.155397 -0.209885 -0.081139 0.302876 0.301414 0.231073 0.030695 0.425830 0.170458 -0.012942 -0.019034 0.006129 -0.089842 0.355363 0.094673 0.145377 -0.078547 -0.141916
Rio_de_Janeiro -0.175780 0.011738 0.133811 -0.114530 -0.191977 -0.230057 -0.247108 0.052373 -0.250717 -0.026632 0.230935 0.069652 0.247730 0.149558 -0.291636 -0.245155 -0.062634 0.297662 0.207084 0.039132 0.110425 -0.118145 -0.266781 0.108629 0.189132 0.257026 -0.217687 -0.067198 0.468289 0.438078 0.220483 0.309478 -0.290861 0.242809 0.000672 -0.132939 -0.054313 0.256433 0.096169 0.096978 0.440719 -0.165027 0.162410 -0.011013 -0.697233 0.164799 -0.143549 0.196904 -0.191041 -0.243724 0.032987 0.535692 0.481689 -0.066386 0.610048 0.137494 -0.377357 -0.345866 0.125464 0.346874 -0.103988 0.078275 0.119891 -0.162793 0.207827 -0.038953 -0.010968 0.100457 0.157443 -0.102906 -0.416725 -0.084529 0.107370 0.006883 -0.161564 0.266881 -0.082568 0.212036 -0.173926 0.206272 0.308479 -0.113892 0.155613 -0.107589 -0.539081 -0.022327 -0.336815 0.491006 0.639727 0.330721 0.111093 0.621658 -0.055814 0.109656 -0.080313 0.063790 0.533681 0.292438 -0.211600 0.118644 0.003160 -0.309208 0.033089 -0.487972 -0.238406 0.087191 -0.226392 -0.333982 0.069021 0.642836 -0.168503 -0.166762 0.462799 -0.050886 0.094773 0.222917 -0.380564 0.051530 0.116289 0.028960 -0.312336 -0.179106 -0.433706 0.112962 0.223552 -0.028544 0.230079 0.071037 0.417035 0.255272 -0.001106 -0.206247 -0.053775 -0.361858 -0.062411 -0.096763 0.096297 -0.522305 0.503091 0.026502 0.118944 0.066718 -0.049388 0.011951 0.257230 0.182997 0.044074 -0.237107 0.007048 -0.094768 -0.082320 -0.233743 0.081476 -0.230102 -0.253185 0.408623 0.279463 -0.130569 -0.021084 -0.040261 0.190079 0.225645 0.266681 0.050227 -0.091012 0.256472 -0.148043 -0.440450 0.294628 0.338980 -0.242263 0.229061 -0.302880 0.042869 0.152336 0.658080 0.298212 0.130963 -0.096248 -0.093902 -0.030979 0.134572 -0.049174 -0.481970 -0.184141 0.154284 0.017707 0.245126 0.086449 0.021249 0.014198 0.017794 0.492142 -0.347566 -0.316430 0.036034 0.094785 -0.540724 -0.502722 -0.247879 -0.312324 0.404242 -0.406020 -0.221809 -0.527149 -0.143497 -0.023595 -0.395921 -0.106398 0.029901 0.485165 -0.251507 -0.313872 0.377689 -0.095191 -0.196171 0.137151 0.509661 -0.152854 0.046507 -0.231890 -0.068329 -0.260156 -0.112641 0.385966 -0.187465 -0.477541 0.336843 0.174287 0.137556 -0.300079 0.241996 0.187549 0.066814 0.018383 0.110551 -0.064382 -0.092329 0.374198 0.050705 0.076548 0.078852 -0.405687 -0.125363 0.263314 -0.002518 0.280172 -0.367784 0.264816 0.015425 -0.128127 -0.300366 0.266035 -0.228466 -0.240528 0.438144 0.529127 -0.201134 0.111229 -0.371131 -0.155705 0.060089 0.079767 -0.008035 -0.201230 -0.061970 -0.187905 0.367426 -0.244112 0.432646 -0.651344 0.171059 0.225797 0.134533 -0.399798 0.053198 0.058780 0.133868 -0.227793 0.170844 -0.028400 -0.252099 0.307186 -0.564716 0.330048 0.052756 -0.041166 0.057299 0.277294 0.342887 -0.202977 -0.059717 -0.021997 0.249086 -0.178245 0.412401 0.336875 0.028368 -0.669604 0.162479
Matthew -0.227203 -0.088007 -0.090844 -0.214233 -0.101124 -0.079013 -0.341712 -0.275129 -0.153977 0.138834 -0.186526 0.010705 0.496408 -0.176928 -0.006396 0.236950 -0.054028 0.094533 0.159060 -0.158258 -0.017162 0.284675 0.000563 0.066719 0.250110 -0.222970 0.128718 0.144374 -0.091585 0.059288 -0.300249 -0.179069 0.258453 -0.055022 -0.045309 0.144012 0.020123 -0.214848 -0.159780 0.010692 0.227199 -0.088604 -0.173256 0.198350 0.025588 -0.020788 0.061873 0.462552 0.198311 0.181132 -0.009601 0.190689 0.090781 0.317633 0.203371 -0.020439 -0.163740 -0.282081 -0.402203 -0.499990 0.119608 -0.298373 0.123669 -0.144142 0.073132 0.044114 -0.333592 -0.297412 0.022282 -0.123707 0.108430 -0.404718 0.139054 0.189380 -0.017726 0.101315 -0.061726 0.333642 -0.001805 -0.005792 0.046340 -0.056381 0.251016 0.017545 0.026259 -0.205452 -0.218466 -0.016326 0.183793 0.108018 0.139586 -0.235387 0.159192 0.076438 0.216614 0.251717 0.325166 0.254806 -0.018098 -0.125349 0.255616 0.050088 0.010429 -0.177347 -0.126220 -0.090180 0.174386 -0.512503 -0.037140 -0.088879 -0.056470 -0.361551 0.454824 0.140489 -0.393319 -0.113264 0.224811 -0.409543 0.273093 0.196165 0.411103 -0.224604 -0.000286 -0.126864 0.239173 -0.286741 0.063252 0.203822 0.080707 0.281806 0.181429 0.146684 -0.232838 -0.219192 -0.125468 0.170434 0.074362 0.208319 -0.079866 -0.173286 0.105861 0.130452 0.306021 -0.366110 -0.110758 -0.147021 0.296546 0.022637 -0.239999 -0.557511 -0.222758 -0.161579 0.438376 -0.111593 0.224968 -0.009871 -0.471278 0.088279 -0.265149 0.137659 -0.206562 0.167990 -0.292692 0.209461 -0.065193 0.302943 -0.313531 -0.230327 0.194491 -0.479346 -0.126419 -0.155161 0.155114 -0.096539 0.272118 0.104865 0.129848 0.202261 -0.080868 0.198672 -0.350411 0.259422 0.100714 -0.228284 -0.132375 0.121721 0.379427 -0.133677 -0.222353 -0.158471 -0.004663 -0.030152 -0.318341 -0.290141 -0.057651 0.116410 -0.199741 -0.182558 -0.050149 -0.557195 0.152419 0.094973 -0.112520 -0.327322 -0.335252 0.121561 -0.132978 -0.391701 0.209984 -0.240084 -0.040282 0.135913 -0.495882 -0.056492 -0.141606 0.238594 0.084449 0.318788 0.334603 0.059773 -0.125335 0.089859 0.449450 -0.205570 0.090258 0.044349 -0.390395 0.001583 0.291033 0.059085 0.038762 -0.057881 -0.125580 0.126885 0.182310 0.034074 -0.029917 -0.301354 -0.108158 -0.150358 0.474438 -0.217795 0.124719 0.273086 -0.068278 -0.070786 -0.260701 0.050504 -0.000668 0.170830 0.063456 0.092507 0.114696 -0.022169 0.149367 0.232225 0.203713 -0.046433 -0.005006 -0.272907 0.190900 -0.000739 -0.028719 -0.456803 -0.043953 0.079168 0.134076 0.217994 0.191155 0.215931 -0.152981 0.159796 0.016525 -0.292791 -0.080870 -0.228853 -0.135105 0.002041 -0.234540 0.215533 -0.164476 -0.055522 -0.020520 -0.106765 0.186472 -0.089379 0.218555 0.160266 0.151904 0.097297 -0.120579 0.063988 0.118953 0.117281 0.064268 0.306257 0.139878 -0.264708 -0.071050 -0.105044
